MTP
version = 1.1.0
potential_name = MTP1m
scaling = 3.112979885918740e-03
species_count = 1
potential_tag = 
radial_basis_type = RBChebyshev
	min_dist = 2.711356293393515e+00
	max_dist = 7.000000000000000e+00
	radial_basis_size = 8
	radial_funcs_count = 4
	radial_coeffs
		0-0
			{9.131696569649066e-01, 3.389049951339957e-01, 1.125924951211062e-01, 1.261690509274384e-01, 1.405603557483609e-01, 4.106393164425401e-02, 3.392845774775671e-02, 8.618663873433671e-03}
			{-3.208054153210704e-01, 9.372475657158575e-01, -1.165910146593438e-01, -3.640461564477523e-02, -5.600183838108050e-02, 2.408781858286008e-02, -3.128669792875570e-03, 2.430440293729747e-03}
			{-1.829734278716474e-01, 6.735668547054603e-02, 9.364792487227881e-01, 2.879202608825311e-01, 3.043924051500909e-02, -2.099471090819767e-02, -2.435686154083924e-02, -1.147863000926641e-02}
			{-1.119584069024656e-01, -2.259759172317754e-02, -3.053748140919523e-01, 8.962980106228565e-01, 2.469847577204453e-01, -1.474600537646626e-01, 8.210334658768911e-02, -2.939157567377991e-02}
alpha_moments_count = 350
alpha_index_basic_count = 130
alpha_index_basic = {{0, 0, 0, 0}, {0, 1, 0, 0}, {0, 0, 1, 0}, {0, 0, 0, 1}, {0, 2, 0, 0}, {0, 1, 1, 0}, {0, 1, 0, 1}, {0, 0, 2, 0}, {0, 0, 1, 1}, {0, 0, 0, 2}, {0, 3, 0, 0}, {0, 2, 1, 0}, {0, 2, 0, 1}, {0, 1, 2, 0}, {0, 1, 1, 1}, {0, 1, 0, 2}, {0, 0, 3, 0}, {0, 0, 2, 1}, {0, 0, 1, 2}, {0, 0, 0, 3}, {0, 4, 0, 0}, {0, 3, 1, 0}, {0, 3, 0, 1}, {0, 2, 2, 0}, {0, 2, 1, 1}, {0, 2, 0, 2}, {0, 1, 3, 0}, {0, 1, 2, 1}, {0, 1, 1, 2}, {0, 1, 0, 3}, {0, 0, 4, 0}, {0, 0, 3, 1}, {0, 0, 2, 2}, {0, 0, 1, 3}, {0, 0, 0, 4}, {0, 5, 0, 0}, {0, 4, 1, 0}, {0, 4, 0, 1}, {0, 3, 2, 0}, {0, 3, 1, 1}, {0, 3, 0, 2}, {0, 2, 3, 0}, {0, 2, 2, 1}, {0, 2, 1, 2}, {0, 2, 0, 3}, {0, 1, 4, 0}, {0, 1, 3, 1}, {0, 1, 2, 2}, {0, 1, 1, 3}, {0, 1, 0, 4}, {0, 0, 5, 0}, {0, 0, 4, 1}, {0, 0, 3, 2}, {0, 0, 2, 3}, {0, 0, 1, 4}, {0, 0, 0, 5}, {0, 6, 0, 0}, {0, 5, 1, 0}, {0, 5, 0, 1}, {0, 4, 2, 0}, {0, 4, 1, 1}, {0, 4, 0, 2}, {0, 3, 3, 0}, {0, 3, 2, 1}, {0, 3, 1, 2}, {0, 3, 0, 3}, {0, 2, 4, 0}, {0, 2, 3, 1}, {0, 2, 2, 2}, {0, 2, 1, 3}, {0, 2, 0, 4}, {0, 1, 5, 0}, {0, 1, 4, 1}, {0, 1, 3, 2}, {0, 1, 2, 3}, {0, 1, 1, 4}, {0, 1, 0, 5}, {0, 0, 6, 0}, {0, 0, 5, 1}, {0, 0, 4, 2}, {0, 0, 3, 3}, {0, 0, 2, 4}, {0, 0, 1, 5}, {0, 0, 0, 6}, {1, 0, 0, 0}, {1, 1, 0, 0}, {1, 0, 1, 0}, {1, 0, 0, 1}, {1, 2, 0, 0}, {1, 1, 1, 0}, {1, 1, 0, 1}, {1, 0, 2, 0}, {1, 0, 1, 1}, {1, 0, 0, 2}, {1, 3, 0, 0}, {1, 2, 1, 0}, {1, 2, 0, 1}, {1, 1, 2, 0}, {1, 1, 1, 1}, {1, 1, 0, 2}, {1, 0, 3, 0}, {1, 0, 2, 1}, {1, 0, 1, 2}, {1, 0, 0, 3}, {1, 4, 0, 0}, {1, 3, 1, 0}, {1, 3, 0, 1}, {1, 2, 2, 0}, {1, 2, 1, 1}, {1, 2, 0, 2}, {1, 1, 3, 0}, {1, 1, 2, 1}, {1, 1, 1, 2}, {1, 1, 0, 3}, {1, 0, 4, 0}, {1, 0, 3, 1}, {1, 0, 2, 2}, {1, 0, 1, 3}, {1, 0, 0, 4}, {2, 0, 0, 0}, {2, 1, 0, 0}, {2, 0, 1, 0}, {2, 0, 0, 1}, {2, 2, 0, 0}, {2, 1, 1, 0}, {2, 1, 0, 1}, {2, 0, 2, 0}, {2, 0, 1, 1}, {2, 0, 0, 2}, {3, 0, 0, 0}}
alpha_index_times_count = 969
alpha_index_times = {{0, 0, 1, 130}, {1, 1, 1, 131}, {2, 2, 1, 131}, {3, 3, 1, 131}, {1, 4, 1, 132}, {2, 5, 1, 132}, {3, 6, 1, 132}, {1, 5, 1, 133}, {2, 7, 1, 133}, {3, 8, 1, 133}, {1, 6, 1, 134}, {2, 8, 1, 134}, {3, 9, 1, 134}, {1, 10, 1, 135}, {2, 11, 1, 135}, {3, 12, 1, 135}, {1, 11, 1, 136}, {2, 13, 1, 136}, {3, 14, 1, 136}, {1, 12, 1, 137}, {2, 14, 1, 137}, {3, 15, 1, 137}, {1, 13, 1, 138}, {2, 16, 1, 138}, {3, 17, 1, 138}, {1, 14, 1, 139}, {2, 17, 1, 139}, {3, 18, 1, 139}, {1, 15, 1, 140}, {2, 18, 1, 140}, {3, 19, 1, 140}, {4, 4, 1, 141}, {5, 5, 1, 141}, {6, 6, 1, 141}, {4, 5, 1, 142}, {5, 7, 1, 142}, {6, 8, 1, 142}, {4, 6, 1, 143}, {5, 8, 1, 143}, {6, 9, 1, 143}, {5, 5, 1, 144}, {7, 7, 1, 144}, {8, 8, 1, 144}, {5, 6, 1, 145}, {7, 8, 1, 145}, {8, 9, 1, 145}, {6, 6, 1, 146}, {8, 8, 1, 146}, {9, 9, 1, 146}, {4, 10, 1, 147}, {5, 11, 1, 147}, {6, 12, 1, 147}, {4, 11, 1, 148}, {5, 13, 1, 148}, {6, 14, 1, 148}, {4, 12, 1, 149}, {5, 14, 1, 149}, {6, 15, 1, 149}, {4, 13, 1, 150}, {5, 16, 1, 150}, {6, 17, 1, 150}, {4, 14, 1, 151}, {5, 17, 1, 151}, {6, 18, 1, 151}, {4, 15, 1, 152}, {5, 18, 1, 152}, {6, 19, 1, 152}, {5, 10, 1, 153}, {7, 11, 1, 153}, {8, 12, 1, 153}, {5, 11, 1, 154}, {7, 13, 1, 154}, {8, 14, 1, 154}, {5, 12, 1, 155}, {7, 14, 1, 155}, {8, 15, 1, 155}, {5, 13, 1, 156}, {7, 16, 1, 156}, {8, 17, 1, 156}, {5, 14, 1, 157}, {7, 17, 1, 157}, {8, 18, 1, 157}, {5, 15, 1, 158}, {7, 18, 1, 158}, {8, 19, 1, 158}, {6, 10, 1, 159}, {8, 11, 1, 159}, {9, 12, 1, 159}, {6, 11, 1, 160}, {8, 13, 1, 160}, {9, 14, 1, 160}, {6, 12, 1, 161}, {8, 14, 1, 161}, {9, 15, 1, 161}, {6, 13, 1, 162}, {8, 16, 1, 162}, {9, 17, 1, 162}, {6, 14, 1, 163}, {8, 17, 1, 163}, {9, 18, 1, 163}, {6, 15, 1, 164}, {8, 18, 1, 164}, {9, 19, 1, 164}, {4, 4, 1, 165}, {5, 5, 2, 165}, {6, 6, 2, 165}, {7, 7, 1, 165}, {8, 8, 2, 165}, {9, 9, 1, 165}, {4, 10, 1, 166}, {5, 11, 2, 166}, {6, 12, 2, 166}, {7, 13, 1, 166}, {8, 14, 2, 166}, {9, 15, 1, 166}, {4, 11, 1, 167}, {5, 13, 2, 167}, {6, 14, 2, 167}, {7, 16, 1, 167}, {8, 17, 2, 167}, {9, 18, 1, 167}, {4, 12, 1, 168}, {5, 14, 2, 168}, {6, 15, 2, 168}, {7, 17, 1, 168}, {8, 18, 2, 168}, {9, 19, 1, 168}, {4, 20, 1, 169}, {5, 21, 2, 169}, {6, 22, 2, 169}, {7, 23, 1, 169}, {8, 24, 2, 169}, {9, 25, 1, 169}, {4, 21, 1, 170}, {5, 23, 2, 170}, {6, 24, 2, 170}, {7, 26, 1, 170}, {8, 27, 2, 170}, {9, 28, 1, 170}, {4, 22, 1, 171}, {5, 24, 2, 171}, {6, 25, 2, 171}, {7, 27, 1, 171}, {8, 28, 2, 171}, {9, 29, 1, 171}, {4, 23, 1, 172}, {5, 26, 2, 172}, {6, 27, 2, 172}, {7, 30, 1, 172}, {8, 31, 2, 172}, {9, 32, 1, 172}, {4, 24, 1, 173}, {5, 27, 2, 173}, {6, 28, 2, 173}, {7, 31, 1, 173}, {8, 32, 2, 173}, {9, 33, 1, 173}, {4, 25, 1, 174}, {5, 28, 2, 174}, {6, 29, 2, 174}, {7, 32, 1, 174}, {8, 33, 2, 174}, {9, 34, 1, 174}, {10, 10, 1, 175}, {11, 11, 2, 175}, {12, 12, 2, 175}, {13, 13, 1, 175}, {14, 14, 2, 175}, {15, 15, 1, 175}, {10, 11, 1, 176}, {11, 13, 2, 176}, {12, 14, 2, 176}, {13, 16, 1, 176}, {14, 17, 2, 176}, {15, 18, 1, 176}, {10, 12, 1, 177}, {11, 14, 2, 177}, {12, 15, 2, 177}, {13, 17, 1, 177}, {14, 18, 2, 177}, {15, 19, 1, 177}, {11, 11, 1, 178}, {13, 13, 2, 178}, {14, 14, 2, 178}, {16, 16, 1, 178}, {17, 17, 2, 178}, {18, 18, 1, 178}, {11, 12, 1, 179}, {13, 14, 2, 179}, {14, 15, 2, 179}, {16, 17, 1, 179}, {17, 18, 2, 179}, {18, 19, 1, 179}, {12, 12, 1, 180}, {14, 14, 2, 180}, {15, 15, 2, 180}, {17, 17, 1, 180}, {18, 18, 2, 180}, {19, 19, 1, 180}, {10, 20, 1, 181}, {11, 21, 2, 181}, {12, 22, 2, 181}, {13, 23, 1, 181}, {14, 24, 2, 181}, {15, 25, 1, 181}, {10, 21, 1, 182}, {11, 23, 2, 182}, {12, 24, 2, 182}, {13, 26, 1, 182}, {14, 27, 2, 182}, {15, 28, 1, 182}, {10, 22, 1, 183}, {11, 24, 2, 183}, {12, 25, 2, 183}, {13, 27, 1, 183}, {14, 28, 2, 183}, {15, 29, 1, 183}, {10, 23, 1, 184}, {11, 26, 2, 184}, {12, 27, 2, 184}, {13, 30, 1, 184}, {14, 31, 2, 184}, {15, 32, 1, 184}, {10, 24, 1, 185}, {11, 27, 2, 185}, {12, 28, 2, 185}, {13, 31, 1, 185}, {14, 32, 2, 185}, {15, 33, 1, 185}, {10, 25, 1, 186}, {11, 28, 2, 186}, {12, 29, 2, 186}, {13, 32, 1, 186}, {14, 33, 2, 186}, {15, 34, 1, 186}, {11, 20, 1, 187}, {13, 21, 2, 187}, {14, 22, 2, 187}, {16, 23, 1, 187}, {17, 24, 2, 187}, {18, 25, 1, 187}, {11, 21, 1, 188}, {13, 23, 2, 188}, {14, 24, 2, 188}, {16, 26, 1, 188}, {17, 27, 2, 188}, {18, 28, 1, 188}, {11, 22, 1, 189}, {13, 24, 2, 189}, {14, 25, 2, 189}, {16, 27, 1, 189}, {17, 28, 2, 189}, {18, 29, 1, 189}, {11, 23, 1, 190}, {13, 26, 2, 190}, {14, 27, 2, 190}, {16, 30, 1, 190}, {17, 31, 2, 190}, {18, 32, 1, 190}, {11, 24, 1, 191}, {13, 27, 2, 191}, {14, 28, 2, 191}, {16, 31, 1, 191}, {17, 32, 2, 191}, {18, 33, 1, 191}, {11, 25, 1, 192}, {13, 28, 2, 192}, {14, 29, 2, 192}, {16, 32, 1, 192}, {17, 33, 2, 192}, {18, 34, 1, 192}, {12, 20, 1, 193}, {14, 21, 2, 193}, {15, 22, 2, 193}, {17, 23, 1, 193}, {18, 24, 2, 193}, {19, 25, 1, 193}, {12, 21, 1, 194}, {14, 23, 2, 194}, {15, 24, 2, 194}, {17, 26, 1, 194}, {18, 27, 2, 194}, {19, 28, 1, 194}, {12, 22, 1, 195}, {14, 24, 2, 195}, {15, 25, 2, 195}, {17, 27, 1, 195}, {18, 28, 2, 195}, {19, 29, 1, 195}, {12, 23, 1, 196}, {14, 26, 2, 196}, {15, 27, 2, 196}, {17, 30, 1, 196}, {18, 31, 2, 196}, {19, 32, 1, 196}, {12, 24, 1, 197}, {14, 27, 2, 197}, {15, 28, 2, 197}, {17, 31, 1, 197}, {18, 32, 2, 197}, {19, 33, 1, 197}, {12, 25, 1, 198}, {14, 28, 2, 198}, {15, 29, 2, 198}, {17, 32, 1, 198}, {18, 33, 2, 198}, {19, 34, 1, 198}, {10, 10, 1, 199}, {11, 11, 3, 199}, {12, 12, 3, 199}, {13, 13, 3, 199}, {14, 14, 6, 199}, {15, 15, 3, 199}, {16, 16, 1, 199}, {17, 17, 3, 199}, {18, 18, 3, 199}, {19, 19, 1, 199}, {10, 20, 1, 200}, {11, 21, 3, 200}, {12, 22, 3, 200}, {13, 23, 3, 200}, {14, 24, 6, 200}, {15, 25, 3, 200}, {16, 26, 1, 200}, {17, 27, 3, 200}, {18, 28, 3, 200}, {19, 29, 1, 200}, {10, 21, 1, 201}, {11, 23, 3, 201}, {12, 24, 3, 201}, {13, 26, 3, 201}, {14, 27, 6, 201}, {15, 28, 3, 201}, {16, 30, 1, 201}, {17, 31, 3, 201}, {18, 32, 3, 201}, {19, 33, 1, 201}, {10, 22, 1, 202}, {11, 24, 3, 202}, {12, 25, 3, 202}, {13, 27, 3, 202}, {14, 28, 6, 202}, {15, 29, 3, 202}, {16, 31, 1, 202}, {17, 32, 3, 202}, {18, 33, 3, 202}, {19, 34, 1, 202}, {10, 35, 1, 203}, {11, 36, 3, 203}, {12, 37, 3, 203}, {13, 38, 3, 203}, {14, 39, 6, 203}, {15, 40, 3, 203}, {16, 41, 1, 203}, {17, 42, 3, 203}, {18, 43, 3, 203}, {19, 44, 1, 203}, {10, 36, 1, 204}, {11, 38, 3, 204}, {12, 39, 3, 204}, {13, 41, 3, 204}, {14, 42, 6, 204}, {15, 43, 3, 204}, {16, 45, 1, 204}, {17, 46, 3, 204}, {18, 47, 3, 204}, {19, 48, 1, 204}, {10, 37, 1, 205}, {11, 39, 3, 205}, {12, 40, 3, 205}, {13, 42, 3, 205}, {14, 43, 6, 205}, {15, 44, 3, 205}, {16, 46, 1, 205}, {17, 47, 3, 205}, {18, 48, 3, 205}, {19, 49, 1, 205}, {10, 38, 1, 206}, {11, 41, 3, 206}, {12, 42, 3, 206}, {13, 45, 3, 206}, {14, 46, 6, 206}, {15, 47, 3, 206}, {16, 50, 1, 206}, {17, 51, 3, 206}, {18, 52, 3, 206}, {19, 53, 1, 206}, {10, 39, 1, 207}, {11, 42, 3, 207}, {12, 43, 3, 207}, {13, 46, 3, 207}, {14, 47, 6, 207}, {15, 48, 3, 207}, {16, 51, 1, 207}, {17, 52, 3, 207}, {18, 53, 3, 207}, {19, 54, 1, 207}, {10, 40, 1, 208}, {11, 43, 3, 208}, {12, 44, 3, 208}, {13, 47, 3, 208}, {14, 48, 6, 208}, {15, 49, 3, 208}, {16, 52, 1, 208}, {17, 53, 3, 208}, {18, 54, 3, 208}, {19, 55, 1, 208}, {20, 20, 1, 209}, {21, 21, 3, 209}, {22, 22, 3, 209}, {23, 23, 3, 209}, {24, 24, 6, 209}, {25, 25, 3, 209}, {26, 26, 1, 209}, {27, 27, 3, 209}, {28, 28, 3, 209}, {29, 29, 1, 209}, {20, 21, 1, 210}, {21, 23, 3, 210}, {22, 24, 3, 210}, {23, 26, 3, 210}, {24, 27, 6, 210}, {25, 28, 3, 210}, {26, 30, 1, 210}, {27, 31, 3, 210}, {28, 32, 3, 210}, {29, 33, 1, 210}, {20, 22, 1, 211}, {21, 24, 3, 211}, {22, 25, 3, 211}, {23, 27, 3, 211}, {24, 28, 6, 211}, {25, 29, 3, 211}, {26, 31, 1, 211}, {27, 32, 3, 211}, {28, 33, 3, 211}, {29, 34, 1, 211}, {21, 21, 1, 212}, {23, 23, 3, 212}, {24, 24, 3, 212}, {26, 26, 3, 212}, {27, 27, 6, 212}, {28, 28, 3, 212}, {30, 30, 1, 212}, {31, 31, 3, 212}, {32, 32, 3, 212}, {33, 33, 1, 212}, {21, 22, 1, 213}, {23, 24, 3, 213}, {24, 25, 3, 213}, {26, 27, 3, 213}, {27, 28, 6, 213}, {28, 29, 3, 213}, {30, 31, 1, 213}, {31, 32, 3, 213}, {32, 33, 3, 213}, {33, 34, 1, 213}, {22, 22, 1, 214}, {24, 24, 3, 214}, {25, 25, 3, 214}, {27, 27, 3, 214}, {28, 28, 6, 214}, {29, 29, 3, 214}, {31, 31, 1, 214}, {32, 32, 3, 214}, {33, 33, 3, 214}, {34, 34, 1, 214}, {20, 20, 1, 215}, {21, 21, 4, 215}, {22, 22, 4, 215}, {23, 23, 6, 215}, {24, 24, 12, 215}, {25, 25, 6, 215}, {26, 26, 4, 215}, {27, 27, 12, 215}, {28, 28, 12, 215}, {29, 29, 4, 215}, {30, 30, 1, 215}, {31, 31, 4, 215}, {32, 32, 6, 215}, {33, 33, 4, 215}, {34, 34, 1, 215}, {20, 35, 1, 216}, {21, 36, 4, 216}, {22, 37, 4, 216}, {23, 38, 6, 216}, {24, 39, 12, 216}, {25, 40, 6, 216}, {26, 41, 4, 216}, {27, 42, 12, 216}, {28, 43, 12, 216}, {29, 44, 4, 216}, {30, 45, 1, 216}, {31, 46, 4, 216}, {32, 47, 6, 216}, {33, 48, 4, 216}, {34, 49, 1, 216}, {20, 36, 1, 217}, {21, 38, 4, 217}, {22, 39, 4, 217}, {23, 41, 6, 217}, {24, 42, 12, 217}, {25, 43, 6, 217}, {26, 45, 4, 217}, {27, 46, 12, 217}, {28, 47, 12, 217}, {29, 48, 4, 217}, {30, 50, 1, 217}, {31, 51, 4, 217}, {32, 52, 6, 217}, {33, 53, 4, 217}, {34, 54, 1, 217}, {20, 37, 1, 218}, {21, 39, 4, 218}, {22, 40, 4, 218}, {23, 42, 6, 218}, {24, 43, 12, 218}, {25, 44, 6, 218}, {26, 46, 4, 218}, {27, 47, 12, 218}, {28, 48, 12, 218}, {29, 49, 4, 218}, {30, 51, 1, 218}, {31, 52, 4, 218}, {32, 53, 6, 218}, {33, 54, 4, 218}, {34, 55, 1, 218}, {35, 35, 1, 219}, {36, 36, 5, 219}, {37, 37, 5, 219}, {38, 38, 10, 219}, {39, 39, 20, 219}, {40, 40, 10, 219}, {41, 41, 10, 219}, {42, 42, 30, 219}, {43, 43, 30, 219}, {44, 44, 10, 219}, {45, 45, 5, 219}, {46, 46, 20, 219}, {47, 47, 30, 219}, {48, 48, 20, 219}, {49, 49, 5, 219}, {50, 50, 1, 219}, {51, 51, 5, 219}, {52, 52, 10, 219}, {53, 53, 10, 219}, {54, 54, 5, 219}, {55, 55, 1, 219}, {56, 56, 1, 220}, {57, 57, 6, 220}, {58, 58, 6, 220}, {59, 59, 15, 220}, {60, 60, 30, 220}, {61, 61, 15, 220}, {62, 62, 20, 220}, {63, 63, 60, 220}, {64, 64, 60, 220}, {65, 65, 20, 220}, {66, 66, 15, 220}, {67, 67, 60, 220}, {68, 68, 90, 220}, {69, 69, 60, 220}, {70, 70, 15, 220}, {71, 71, 6, 220}, {72, 72, 30, 220}, {73, 73, 60, 220}, {74, 74, 60, 220}, {75, 75, 30, 220}, {76, 76, 6, 220}, {77, 77, 1, 220}, {78, 78, 6, 220}, {79, 79, 15, 220}, {80, 80, 20, 220}, {81, 81, 15, 220}, {82, 82, 6, 220}, {83, 83, 1, 220}, {0, 84, 1, 221}, {1, 85, 1, 222}, {2, 86, 1, 222}, {3, 87, 1, 222}, {1, 88, 1, 223}, {2, 89, 1, 223}, {3, 90, 1, 223}, {1, 89, 1, 224}, {2, 91, 1, 224}, {3, 92, 1, 224}, {1, 90, 1, 225}, {2, 92, 1, 225}, {3, 93, 1, 225}, {4, 85, 1, 226}, {5, 86, 1, 226}, {6, 87, 1, 226}, {5, 85, 1, 227}, {7, 86, 1, 227}, {8, 87, 1, 227}, {6, 85, 1, 228}, {8, 86, 1, 228}, {9, 87, 1, 228}, {4, 88, 1, 229}, {5, 89, 1, 229}, {6, 90, 1, 229}, {4, 89, 1, 230}, {5, 91, 1, 230}, {6, 92, 1, 230}, {4, 90, 1, 231}, {5, 92, 1, 231}, {6, 93, 1, 231}, {5, 88, 1, 232}, {7, 89, 1, 232}, {8, 90, 1, 232}, {5, 89, 1, 233}, {7, 91, 1, 233}, {8, 92, 1, 233}, {5, 90, 1, 234}, {7, 92, 1, 234}, {8, 93, 1, 234}, {6, 88, 1, 235}, {8, 89, 1, 235}, {9, 90, 1, 235}, {6, 89, 1, 236}, {8, 91, 1, 236}, {9, 92, 1, 236}, {6, 90, 1, 237}, {8, 92, 1, 237}, {9, 93, 1, 237}, {4, 88, 1, 238}, {5, 89, 2, 238}, {6, 90, 2, 238}, {7, 91, 1, 238}, {8, 92, 2, 238}, {9, 93, 1, 238}, {4, 94, 1, 239}, {5, 95, 2, 239}, {6, 96, 2, 239}, {7, 97, 1, 239}, {8, 98, 2, 239}, {9, 99, 1, 239}, {4, 95, 1, 240}, {5, 97, 2, 240}, {6, 98, 2, 240}, {7, 100, 1, 240}, {8, 101, 2, 240}, {9, 102, 1, 240}, {4, 96, 1, 241}, {5, 98, 2, 241}, {6, 99, 2, 241}, {7, 101, 1, 241}, {8, 102, 2, 241}, {9, 103, 1, 241}, {10, 88, 1, 242}, {11, 89, 2, 242}, {12, 90, 2, 242}, {13, 91, 1, 242}, {14, 92, 2, 242}, {15, 93, 1, 242}, {11, 88, 1, 243}, {13, 89, 2, 243}, {14, 90, 2, 243}, {16, 91, 1, 243}, {17, 92, 2, 243}, {18, 93, 1, 243}, {12, 88, 1, 244}, {14, 89, 2, 244}, {15, 90, 2, 244}, {17, 91, 1, 244}, {18, 92, 2, 244}, {19, 93, 1, 244}, {10, 94, 1, 245}, {11, 95, 3, 245}, {12, 96, 3, 245}, {13, 97, 3, 245}, {14, 98, 6, 245}, {15, 99, 3, 245}, {16, 100, 1, 245}, {17, 101, 3, 245}, {18, 102, 3, 245}, {19, 103, 1, 245}, {20, 104, 1, 246}, {21, 105, 4, 246}, {22, 106, 4, 246}, {23, 107, 6, 246}, {24, 108, 12, 246}, {25, 109, 6, 246}, {26, 110, 4, 246}, {27, 111, 12, 246}, {28, 112, 12, 246}, {29, 113, 4, 246}, {30, 114, 1, 246}, {31, 115, 4, 246}, {32, 116, 6, 246}, {33, 117, 4, 246}, {34, 118, 1, 246}, {0, 119, 1, 247}, {1, 120, 1, 248}, {2, 121, 1, 248}, {3, 122, 1, 248}, {4, 123, 1, 249}, {5, 124, 2, 249}, {6, 125, 2, 249}, {7, 126, 1, 249}, {8, 127, 2, 249}, {9, 128, 1, 249}, {0, 129, 1, 250}, {84, 84, 1, 251}, {85, 85, 1, 252}, {86, 86, 1, 252}, {87, 87, 1, 252}, {88, 88, 1, 253}, {89, 89, 2, 253}, {90, 90, 2, 253}, {91, 91, 1, 253}, {92, 92, 2, 253}, {93, 93, 1, 253}, {84, 119, 1, 254}, {0, 130, 1, 255}, {0, 131, 1, 256}, {0, 165, 1, 257}, {0, 199, 1, 258}, {0, 215, 1, 259}, {0, 219, 1, 260}, {1, 132, 1, 261}, {2, 133, 1, 261}, {3, 134, 1, 261}, {1, 135, 1, 262}, {2, 136, 1, 262}, {3, 137, 1, 262}, {1, 136, 1, 263}, {2, 138, 1, 263}, {3, 139, 1, 263}, {1, 137, 1, 264}, {2, 139, 1, 264}, {3, 140, 1, 264}, {1, 141, 1, 265}, {2, 142, 1, 265}, {3, 143, 1, 265}, {1, 142, 1, 266}, {2, 144, 1, 266}, {3, 145, 1, 266}, {1, 143, 1, 267}, {2, 145, 1, 267}, {3, 146, 1, 267}, {1, 166, 1, 268}, {2, 167, 1, 268}, {3, 168, 1, 268}, {1, 169, 1, 269}, {2, 170, 1, 269}, {3, 171, 1, 269}, {1, 170, 1, 270}, {2, 172, 1, 270}, {3, 173, 1, 270}, {1, 171, 1, 271}, {2, 173, 1, 271}, {3, 174, 1, 271}, {1, 175, 1, 272}, {2, 176, 1, 272}, {3, 177, 1, 272}, {1, 176, 1, 273}, {2, 178, 1, 273}, {3, 179, 1, 273}, {1, 177, 1, 274}, {2, 179, 1, 274}, {3, 180, 1, 274}, {1, 200, 1, 275}, {2, 201, 1, 275}, {3, 202, 1, 275}, {1, 216, 1, 276}, {2, 217, 1, 276}, {3, 218, 1, 276}, {4, 141, 1, 277}, {5, 142, 1, 277}, {6, 143, 1, 277}, {4, 142, 1, 278}, {5, 144, 1, 278}, {6, 145, 1, 278}, {4, 143, 1, 279}, {5, 145, 1, 279}, {6, 146, 1, 279}, {5, 141, 1, 280}, {7, 142, 1, 280}, {8, 143, 1, 280}, {5, 142, 1, 281}, {7, 144, 1, 281}, {8, 145, 1, 281}, {5, 143, 1, 282}, {7, 145, 1, 282}, {8, 146, 1, 282}, {6, 141, 1, 283}, {8, 142, 1, 283}, {9, 143, 1, 283}, {6, 142, 1, 284}, {8, 144, 1, 284}, {9, 145, 1, 284}, {6, 143, 1, 285}, {8, 145, 1, 285}, {9, 146, 1, 285}, {4, 166, 1, 286}, {5, 167, 1, 286}, {6, 168, 1, 286}, {5, 166, 1, 287}, {7, 167, 1, 287}, {8, 168, 1, 287}, {6, 166, 1, 288}, {8, 167, 1, 288}, {9, 168, 1, 288}, {4, 169, 1, 289}, {5, 170, 2, 289}, {6, 171, 2, 289}, {7, 172, 1, 289}, {8, 173, 2, 289}, {9, 174, 1, 289}, {4, 203, 1, 290}, {5, 204, 2, 290}, {6, 205, 2, 290}, {7, 206, 1, 290}, {8, 207, 2, 290}, {9, 208, 1, 290}, {4, 141, 1, 291}, {5, 142, 2, 291}, {6, 143, 2, 291}, {7, 144, 1, 291}, {8, 145, 2, 291}, {9, 146, 1, 291}, {4, 147, 1, 292}, {5, 148, 1, 292}, {5, 153, 1, 292}, {6, 149, 1, 292}, {6, 159, 1, 292}, {7, 154, 1, 292}, {8, 155, 1, 292}, {8, 160, 1, 292}, {9, 161, 1, 292}, {4, 148, 1, 293}, {5, 150, 1, 293}, {5, 154, 1, 293}, {6, 151, 1, 293}, {6, 160, 1, 293}, {7, 156, 1, 293}, {8, 157, 1, 293}, {8, 162, 1, 293}, {9, 163, 1, 293}, {4, 149, 1, 294}, {5, 151, 1, 294}, {5, 155, 1, 294}, {6, 152, 1, 294}, {6, 161, 1, 294}, {7, 157, 1, 294}, {8, 158, 1, 294}, {8, 163, 1, 294}, {9, 164, 1, 294}, {4, 175, 1, 295}, {5, 176, 2, 295}, {6, 177, 2, 295}, {7, 178, 1, 295}, {8, 179, 2, 295}, {9, 180, 1, 295}, {4, 209, 1, 296}, {5, 210, 2, 296}, {6, 211, 2, 296}, {7, 212, 1, 296}, {8, 213, 2, 296}, {9, 214, 1, 296}, {10, 181, 1, 297}, {11, 182, 2, 297}, {11, 187, 1, 297}, {12, 183, 2, 297}, {12, 193, 1, 297}, {13, 184, 1, 297}, {13, 188, 2, 297}, {14, 185, 2, 297}, {14, 189, 2, 297}, {14, 194, 2, 297}, {15, 186, 1, 297}, {15, 195, 2, 297}, {16, 190, 1, 297}, {17, 191, 2, 297}, {17, 196, 1, 297}, {18, 192, 1, 297}, {18, 197, 2, 297}, {19, 198, 1, 297}, {0, 221, 1, 298}, {0, 222, 1, 299}, {0, 238, 1, 300}, {0, 245, 1, 301}, {1, 223, 1, 302}, {2, 224, 1, 302}, {3, 225, 1, 302}, {1, 239, 1, 303}, {2, 240, 1, 303}, {3, 241, 1, 303}, {84, 131, 1, 304}, {1, 226, 1, 305}, {2, 227, 1, 305}, {3, 228, 1, 305}, {1, 242, 1, 306}, {2, 243, 1, 306}, {3, 244, 1, 306}, {4, 229, 1, 307}, {5, 230, 1, 307}, {5, 232, 1, 307}, {6, 231, 1, 307}, {6, 235, 1, 307}, {7, 233, 1, 307}, {8, 234, 1, 307}, {8, 236, 1, 307}, {9, 237, 1, 307}, {84, 165, 1, 308}, {85, 166, 1, 309}, {86, 167, 1, 309}, {87, 168, 1, 309}, {84, 199, 1, 310}, {0, 247, 1, 311}, {0, 248, 1, 312}, {119, 131, 1, 313}, {0, 251, 1, 314}, {0, 252, 1, 315}, {84, 222, 1, 316}, {131, 131, 1, 317}, {131, 165, 1, 318}, {131, 199, 1, 319}, {165, 165, 1, 320}, {131, 222, 1, 321}, {0, 255, 1, 322}, {0, 256, 1, 323}, {0, 257, 1, 324}, {0, 258, 1, 325}, {0, 259, 1, 326}, {0, 261, 1, 327}, {0, 268, 1, 328}, {0, 275, 1, 329}, {0, 289, 1, 330}, {0, 291, 1, 331}, {0, 295, 1, 332}, {1, 262, 1, 333}, {2, 263, 1, 333}, {3, 264, 1, 333}, {1, 269, 1, 334}, {2, 270, 1, 334}, {3, 271, 1, 334}, {1, 265, 1, 335}, {2, 266, 1, 335}, {3, 267, 1, 335}, {1, 272, 1, 336}, {2, 273, 1, 336}, {3, 274, 1, 336}, {1, 292, 1, 337}, {2, 293, 1, 337}, {3, 294, 1, 337}, {1, 286, 1, 338}, {2, 287, 1, 338}, {3, 288, 1, 338}, {4, 277, 1, 339}, {5, 278, 1, 339}, {5, 280, 1, 339}, {6, 279, 1, 339}, {6, 283, 1, 339}, {7, 281, 1, 339}, {8, 282, 1, 339}, {8, 284, 1, 339}, {9, 285, 1, 339}, {0, 298, 1, 340}, {0, 299, 1, 341}, {0, 300, 1, 342}, {0, 302, 1, 343}, {0, 304, 1, 344}, {0, 305, 1, 345}, {0, 308, 1, 346}, {84, 261, 1, 347}, {0, 311, 1, 348}, {0, 314, 1, 349}}
alpha_scalar_moments = 92
alpha_moment_mapping = {0, 84, 119, 129, 130, 131, 165, 199, 215, 219, 220, 221, 222, 238, 245, 246, 247, 248, 249, 250, 251, 252, 253, 254, 255, 256, 257, 258, 259, 260, 261, 268, 275, 276, 289, 290, 291, 295, 296, 297, 298, 299, 300, 301, 302, 303, 304, 305, 306, 307, 308, 309, 310, 311, 312, 313, 314, 315, 316, 322, 323, 324, 325, 326, 327, 328, 329, 330, 331, 332, 333, 334, 317, 335, 336, 337, 318, 338, 319, 320, 339, 340, 341, 342, 343, 344, 345, 346, 321, 347, 348, 349}
species_coeffs = {-4.713793510036817e-01}
moment_coeffs = {-9.590308105517630e+00, -4.249950187942210e+00, -2.016795348965346e+00, -1.269868434051418e+00, 1.724007583829991e+01, 5.569585401000444e+01, 8.266146781722910e+01, 9.129253876862830e+01, 1.015174372534711e+02, 3.491420129028737e+01, -6.330315619195753e+00, 1.225906006752003e+01, 2.900604462204947e+01, -3.537707843243757e+00, -4.822184790036737e+00, 2.636361543047815e+01, 1.317842150453696e+01, 4.772880786850445e+01, 4.595759534762888e+01, 1.964098265642110e+00, -1.137799489087552e+01, 2.693297918912301e+00, 1.168377740873130e+01, -1.969159011477268e+00, -1.953575248194709e+01, -3.646508656211425e+02, -4.192679414079782e+02, -1.033125091184796e+01, -1.269466574472050e+02, -1.680090125944930e+02, 1.032906290573289e+02, -1.365823482780937e+02, -4.622839166596896e+02, -1.252060734281960e+02, -5.269141972733009e+01, -5.538761291407951e+02, 3.683316188922750e+02, 6.420176220288248e+01, -2.164670705816898e+02, -1.706858441281854e+02, -4.255899207882739e+01, -2.948526201608729e+01, -6.409237211825442e+01, -5.619851497775257e+01, 6.732949888191443e+00, -1.225129419674519e+02, -2.218586854387081e+02, -7.158626887614626e+01, -2.000311296917303e+02, 5.728072155875444e+01, 2.147839199063566e+01, 2.245945174662364e+02, 2.371942189490832e+01, -1.215267397176891e+02, -1.080081360250295e+02, -2.293033479333962e+02, 3.281150668065074e+01, 2.198901616534985e+01, 6.961139365360428e+01, 8.532182670699076e+01, -1.569413815468328e+02, -3.537105764925184e+01, 1.230031871513886e+02, 1.342182856855666e+02, -1.211750118840972e+02, -9.185685367439176e+01, -7.090305839054011e+01, 6.332193131733556e+01, -2.602916553887503e+01, -8.500121812662536e+00, -1.113734414920613e+00, -1.033853089032349e+01, -1.714769157194014e+02, 3.990526000341541e+01, -2.663795851753675e+00, 1.546196380740319e+01, 7.342141528588517e+01, -4.857410408678674e+01, -1.173144391746793e+02, -1.548636299229494e+02, -6.254601425297468e+01, -3.875894112902219e+01, 4.942083507464130e+01, -4.629725179359974e+01, 1.554560377525317e+02, 1.265541107618323e+02, 6.472977967328463e+01, -1.457373135797802e+02, 2.631480360920606e+02, 1.088519297602370e+02, 1.863945426305305e+02, -1.040022600244984e+02}
#MVS_v1.1
energy_weight 1.0000000000000000e+00
force_weight 0.0000000000000000e+00
stress_weight 0.0000000000000000e+00
site_en_weight 0.0000000000000000e+00
weight_scaling 2
#Vyj8f?
M]˩ӿdtxEe?aRBѿ	XN?`O?؄. cɿv.HR?YܻV?K5ƿ6!L?@kZy%& c??^B?	jܵ3岿寗?@հ^K?[??m9䳿)zb˿E".?u)@?tܱC^?ʗRa E?^զ?      ?J6=?sa*Y¿m?hx±?4_J F\?>[>N?؝U9??fG? :~?LO~rq~XDCٹ^,~xW>#{"?J'}~f!?#'r?P`ArO?`-znD?ؒ?{?fE>Zf }c?j[?U;\?'"?\>8aT>@]q&>wfbM?F>vM?H>XE$52E?YUE[>i,sK[nUM]?,h u(FHܾL|9Om:`4ӾSV@ G+sy[y{k꾍Mbk
F\tlc>!%|+2nj?'?i8>INU?&@>^7x0>?>ؖb5?)v>Ce>N<K8ʩ>d&?ZOH&?ɪn>tq좽GYO[>JP=
*X>ʵ'>Lr[>O)Yhހ>TZp>T0>SA%? Nw?$MO1W̾5Ъ6d>:@孾cd4~aY7o,9C3`ObD?G'?7&ʿF63ÿz0%?8XJǿKh2ǿi86@?&zhͿtۿh5?8}?Sǿh>C,?į/z?WlQ(Ͽᅒ*?N_6?9p@ϯ5m$X9?@8z97Oꣿ׊ ӿ?;r)Ӌȿ\Ϡ"x?;v]?&@zȌ?nl\?NhO:»p?      ?&o/M5!?W[a)n'?=x,p?v!?ڸA?:B<H&2?7S(~?F-<B?Mdx?|h6"CE7{Vt6֗
6u
O"-i> mW@ڸд?2h?
t]=?Ias?<?=44lr?5h9>	7[?Pp:?b,S?h ?W[>?a H>}}6Ytm>T{]D?{E>\вEE?^[$>1(,??Уo7>f/TE>Q``LPuB7CTѾ[*ѾCL%)Oо˲f=J RPhVtZu+fn"p|F>ؾ`Z?c?>̈́QUH?*KL>V 1?">i2*?[ZS>$>az3Sܮ?Xe?h#>FIci>ܸ#L>Gc>j^L4>ʖ>#A><ȴv?>޴ИI>E ?Z?nTH.=DpϾٌJ'rOL$ImĮ$J8d|%i8Đr/B7D=d1?	8Z?>Ͷoǿ;?eD?tuv?Vǿʛ?q[?-9^&dۿzF'i?)W?B;?Rئʿpǰ?clqf?~u?)&	l6<?:){`D2 %h?zcĢ?N<v2v?T|e !??$2ſάY?º(2?9g?}mQD]A\?ʖxn?nQ㰔      ?ZҴ>?Iu9'dzh
sg?fSq?< )?inci?L+Z#9?)	Uu?"&E?R3+r?j3օo*=ʲ2=NN-qA<CєLM(jubh˕ftоw|x?v?o
0T?f'֏l?Aɣh?~`m?aK>b13>kT?|?0FK??@;>u$i>$ࣶ>}S>Y=?eL>`!}=?
wRt>NJ>3?2r[+g>uN[6^,+ZE$C9mSվ͒d5羥*vso۾Cg1{_CaEo 9vikG{>~9HHEL?ޢu)?c>$.;GB?H9OR>|pDo)?DFIm>D8,!?E]Ӏ&>j>Z> tE?r-Ʊ?*e>2d|Ia>G>JA i>f4˥> ?0}f>,J6>}g>>Ks>g*?4m_>6_b1Y۾D+>3hI{ž4-2!sj%)0u
A&jJ"?a?ҿBFBs?saXο ]? &ڱG?M*>S׿_S?3{C?b#?N&TIuZ.g??n*?W+{if?y"#~j8׫w:?=է}p:Bݸz?X
JGƿκ??)|IlXmu?KעaŶwĎ?      ?qo?.Է rȆoH?kۄB&?${7?y5"~?1:?4قw?D=HA?`=t?^:T0a(ɥAw5HvPْs9x]/G\3"?mkP~tj#r?g'?LdR?x<s?J<Ȼ?x<=d?+>PS˱P?G#?7<:J?W݌*E?S >_g[>$]'g>\HR>|;F<?!op>Fm<?*cg>m=6?A[~H>w\rӕ=c%MqI@|ɡq;5w{辊PA"˾9B>žѯz6syF+gTЭp?m ].> &{̾n8jS?+ihR$?>演x96?`w0ͥ>MC"?4/>>
?Dkz>JyKY>|Յ>||C?Cϭ?n>@λe"><Fn{>:Nu<>2Gߦ{>LGu=>Ws&>M'~`>됸l|>*A6M>ix?!7>ƫR3/aJ;,}ykQInQ7~[˸!lR.@
Y<;2oN7`0H#o=%?ϺeѿJԍg<̜Ap?d{?r_?QHMƯĿ ?^}eL?}ӿRv	r\/?H8?!)ѵ"ƿv)ǿ,]~Mo?z};_?ĉR<#_tbFW?2&!N~?*@\8Ђ`w*?0?F?P'KVwE"pp?扦b?cpʖnQ|?:'?      ?Jn?l8c~p P#5cI)?8@~,¯87Z7Oji?$yߦ8Hj}`?A 82xe\?:h#-ĦlZt-m:f. (`reEicBd-xԇoPpf>i>[KW88]ɾ>9
@2?jgDTlM?؀؂x8<L3?,q8xs)?v!8"̽<W`82p}ZkWQN8лYg'?q^zQYg'?k#W8j#e?iON848@Y߇޾gN]<&to	b﫺$8MC6J#}0a%bEJ8\GZľd߇޾s	/81zQ-Q[Mͧ}ѡ>!8P~7?x]m?4B8'C=G>og@;8jFy>%|89)8&'$x,~/>ʖ,~/>F*"8|e;qd9\8
VpЄo1Ck8v^1~
xW59)8h
`Pf1X,~/>k>3k eDITTDSӷHqW1SJDNXtu4ޢ8ӷBu)2Ák>-nSW?Gxbɿ&[ TAWl?ǂʿtR?F"bO3¿pOk⿢I?C/<?1t[a~ǿdo\
¿Bhy?46?Hxq&?/gK+gC3?`[2n=BI*?>BUx˿;L?F<<?(u&jgnƄ wƦqxR?hɫ?      ?⒲Gg?`4C﾿fſ
:}ų?\X*?5;kk0>}&L?~OJ?趉(?f~\W?&j~B z?aM/f(%]S]#v6SLduR!?Uu
\ȥ%c?;?^u?2]?_v?&Om? 	?E`>\qe?m%?*+Z?$2?QB>>t>?@>*s'9>4M?[?zM?2>?})B?r0>o#y~s+}'+S[ܡbH.UMې
pǇ/)?sžpikph0FnȾ
cCO
CdZNO]«kZ&w{n>dL9ξr}:Cg?<-7??>/uMjY? N>pU'74A? ? XNn5?1N>6>X/mx>`\mq'?LAr?'?3'$>|h/=J}YZt>kA=:pe(s>Ȫ:>n>DSaխ>.*>\PSjR>VJ'?҅l?+2N*8ݚ`߾]^b5Ƙ%'S¾8^+V4J|/yC18Qۃ UKSB??}Wο73¿?ۓ5v@ο/nPN?7.eͿm_$׿:Ijh?hNJc?UWprĿp*(?J/˝tt¿Gخy=?v>?z7Rޓ*I?bǰ71ǐ,9k?ޜgǿR.n?XMߣ?a݋A[Œ?g7N6S}%;w "?      ?<7d?.8fi¸ׄE$޼7?F3v?}M>ˁ?)Ur ?!#+|?ph)?d)HQx?rnr^4KPy)myB+</v	$>-yp&?2.'?h1?h\s?xЧ;?DDj?(灔>zAj*U?޳@_>V,sP?Vq/8>=>5o\>Ghڑ>49c>}Z{A?H]B0>\A? |'05>W_<?Z+l8>'aw"ؾJlHNpڝ b_}7]D.ľȧFƪP5V2` `£m7T:S{^oKžArXSdq>v`y)V?*28tM?axf>NT@?tWz>V,)? ?ctC>$#?&rfe>?)z>4><e>2?] ?ؐ/>]8=l&J>b-K=nI>"a=!/'h>md֯>s>!MS>d>j?Az!?
rl>4;{7l/?">!ɺQ՟r'eca*0I` ).Gt|[k
P-8^$2+?DrI?mYlѿT0?j9?Φ+縓%5y5?y`Wƿ(IX?_⿒r)?4?rO֡Fwtȿߠ5Yi;?u;¿S)5?6%6L/િvit?ئ?'/d?x5}Vа|9?fvo˿&@)^?:g?%J3)sq6:( M8p~l?Յ      ?;Y?zd{Ŀ0S?O3?X?L휋?HgT?vMÐ?5ou^?P$z?{SfŚVrAzYm<Ē_~_Swƅ:vU:9?=	8a#?(| b?f]m?Zul{?:?{*v2?~x!>}v)f?BYЊ`0?DI?ߎv[?jPԥr8?,|h>>86QPO>L(>8>H'M?E?	]7M?F>?n`3 zB?!(?{5'}u@AÝi/FF]Am?9m,C|־V*j?澊s7]ʡZ51RDP^v,\z)LZϻD%jN^zD|<*?G7V뾘k?¿=G?!r?ܚhZ?8i퍀>;H0A?3X1J
?a6?ϰ4>d>~ne>;ɫ'?e2HY'?~:@)>HP>0>-y<>&aU>TEg3h>D$]T>&k>dp}>)X8{>'?rHo*?R׆?QI3
֝sP7BTRtkx߾b+7Xp^g&7oɨlUt(EfF?a&8n?&AV'JJ|&b?=HZmQs "?.X獿 9x{c?z?b ?*٦1|tH?9пym򘶹q?	#?2V鿂忰]8K*?ݥݷv?61.?S.?ϿzH?c.?<ÿ^?;Q&bi}:?      ?JtlUY?g!Nؿ3j̿tb?ǉx`?  A!9b;+?  8M?@79:>?'ſ  T#}b @5Z8]V،I  `8[N1 
?! )?  ,g;'9r6T?Z\?">_?#8>~?^<8/V ?8:8:8~W
8|88h(wHS?*5HS?&nuy8ːsVu?8g\qxI418"ݧҸy2:,8V{"/(yyX+θ@P qxUig{_cC鑐¤v]8@$zE߸=?|m9poF8oC?9@8[?ņ?kS8Ȝ8iG[{?
o&8Ǿ7?"8,+/^8ϩ\n?ϩ\n?p{8E)1aqަ8]+0`2ًqަ8zmO1*l8p{&8C*l8rdJz
2ϩ\n?=T?5p˞ ķy>W\V}쾸:y^1׸(̸ y>W_xe!~쾸v`_?)J?_#NEyj)ɮ74?teR/S/(4|?V)XaZa?9M?|ߡe?>c*?*6L3?H/l*?9»Cӿ)?1~ڿoEG?U7ҿùӿ?#o.п6?z<?VQ0ɿFQ?x?iǿChl?      ?B?!ҿ@yҢͿ*_ARd?Qd4?(kk8{ۥ?#j28OH?{F'8gN7-?FJШܛ޹m1ʡ3ǃ8i&]Vڡ&?8|w#-{l޿?LO?h8#jJ?']?im?a8<E?789:~?UJ/8i$,8PF<؍oUSP?\쐸؀t?x ˃m؀t?`ǿ8Nh?gi\8BlzhIϐQRsН8RRø&RamA̝ܸXFT􋈸^$78`PpO АQ#0_srӸu:6i_wF8hָY LD?'!?8PWCP8y@j?'7g81& u?O,r8	dSj?}8FPyG,љQު.]?Qު.]?+ɠ흦8eq/ѱda!8#,28_j1^jLwz}8jLwh|1-Qު.]?xqtC?mDSM3bmrJ1'd]ĸ`wqmr}"ñr0'{\|ͺ\ @?Y&?Zÿd'΀? Wp֣?
" 5?1dGÿ8P4?
?zD 促c[H?16?8**>tCӿ6ą?\\e?V~Y|?arS|5̵[y?ׂuH?LU&d"uDpCge\?/?xFE˿b<V?
s?<TclUTۈ>b<a?vT?qj&O裿      ?1y.6?9
RSTȿ?5(A?I8?Xᅏ?zQ}B?aޠڃ?DTK?Qw{?hZ[NAB5`JzJ>pxQT_6T|$?©??L1Z?$y?]?+=?B?ak?(_?Mڇa?Jd'?JÜ>&L[PH>_*>-ik>+vR?pp$X?Br"R?\e?X|G?GPp>BG<w.d  `ZZ&2	0yz9}mgXSUw8C`X:ҡFzBT_oX"i4TJ(&*J^پ}R
ѲЊk?u*7?PId?	>a?4hH).><NcG?!>tfĄ=?f;>%>c>>ٜӛ/?Z0?{+8K>/Ww>!H	 >DBc><m>_)d>a "ƾ>̝1>e	>}A&>yr/?ebE{?j-T}n+;N_;9q⾾]aYSe;&앾eɾ}JN^CT7H?jRU?Yfʀ$?\. ?ͼp ¿@E$??uj~?ߩOT<?'XG'6ΐu«և׿rfY?<8Upy8UrܿCM?Q.ɲ0)ȿmw?}J`?Q=tſ]8^?=?CͿETea?Pc?a`¿<(~ ?pS}b]      ?1@B??c'%ÿr)EͿፚ?B?EI8ϖ?4H͙8<.?;N6'8F{?>Wt.qx87"o[[j.eȸu*=ꀿ.>ˮD8)ڇQV?mټ?H8~?{|NG?lS&?S[ay8Ĺw? WuU8Cl?)89|ʁL8W왪X,ݎ:c^p[r_?J8[r_?&		9V8vd	S?6&$8nF7/#[Ρ]"]lDa93ۇ'a Mj8fxǦpνr?8a(dER0"]ln,08Cи#]׏,t8@8u|3-y?pf8j8XJr?M"y8BvbX?\Kp8J4M?>ٵL8']Dr7b	A@?	A@?8~i
# p8(-z1L6p8/Im1 0([XL8^~'[Xޫ1	A@?LYb)%?e9jViJTMy|A'}FqKshUJTM9+S0 V|?ph}vpuZ?<u <q˪GMtod?P,'?#S^Ͽ4%%gC?UٿGb?b?p~p?],G
?~8Ե?\aÿ+/`,t}[?⿀^Va_)Qep?;2Ȃ?=5-ZJg=E?S"Q?,jĿJ?g,7'?䤜w$pS1+U?"䭿8|᡿      ?J)?|*$!
¿r#!?*%u?,+*?z4<7{?V],WA?Ʒvq?׹M?F!k? N{]f,35l
dtbAu]4L; kӻGj{AH?FQc?|~A?Q?T@5`|?we?1%Ë>0@$N?A5?\PC?qu ?g>]<V>7R>dO0>΃97-5?<Z*>B'C"5?Wr>oI,?2w!$A>!NbN;oV6]d058Hz"0|ԫjHˠ:ؾ!!=g5lJ~wGPxnz f;-龫[i`A]X5?̫?Z<L5>w-S8?3@>H_ ?WBpE>nGp?zW>u>`PF>B<Jt? v5?ꘙa.>|x3-BDBoFN@>.̜f>XYv>>jd>	JT>(>)>5?>2x3}>Է&?N'i>?)!~`ھ8Xni>	t~Oz,w`q	3Ĵ<oaAkr[۹l08(F?:?v)5NCNlR?_x	0?LB$~:?J;
E?UC2J?tEA񿗪N?e?FbsAe|;%?zmȿ@տi?d쀰:seտ?e=nf?d_IՖпF:Z<?	Q?'ݭdɿWW'?pN?Ny{b?ĿN      ?˩Z?a"Z2п<P#ͿN
?K+Ȼ?j,g#,9"`s2r?b87uK?en8d?m/W>@u:]ޱD)/-:x,Zf?<#?Fe?8hB^ܕ?n')v?PM?C8:Ug?J&<
8;Da}?+U~88a 8SEY8>Ep?._ >Ep?{@,8&Q}-c?}>3i88Ii)xkθ"ￂ-6bո<DnٸTθNh4Ge>/8 zhKￂkU?8(3늸۸7șE]Ѹ.1{#kW?*/i	8/ _8Ր -?("%,8kssp?R%8+EY!p[c?> 18S&O1.w{If9pU?f9pU?pJ7s8 ?j8N6227pj8Jh2rtن18Ѣt|g 2e9pU?BL"<?J	,2InbhmNٸ"NlNnbhUvz^';wxx|?y4a?LkwFq	Rޭ?5?X*/^.73y7?؉gYH?8:r?_pϿʲ`]ܿ<? ?5տ뎉?{--"?=.Z&?IRL[:H?׆ʿĞ?f?(CHιi¿\?WU?g      ?(N?X-S̿&k-?q;~H?EѼVu<@p0?4<Z?7<<qK? Ζ2O&˫/% h~`jzqʼ-62 s[Ǧ
B</oԩ
70?2Agj?<bߍl?x?o'?zkb<Z=굴4l?8ox<d^2a?.<wMH<(MH<s-ڑH<z+<?<(R?9@<(R?U@<?TF?iMcs<]Usܪ:6"|ZY5?	%\<g7dj\G'$pJEQgQG'$pzd<g7|hA"|Z$uG'$p	fXXXDη%ƅPl.{<Fk	=cZqb?>%\<	v<XÓ;mb?iH@<Y.H?D4<Zt=?Ћ(LN%<XLN%<AN\%<;ta0?;ta0?z[te<%096<#6`9p6<L	(~FD9v<(LN%<v<Mkp\9;ta0?3F?&_HNQyeVW)7þc'%.LLVW)7}>;BþcbzGn@@?+H?ADe绿xn)ut?dN/UztD$ւ	X'?ǛQEհ"H㿄/#+?SBi?Jtп!eT|hH?&gee>?ݛ?쭛ǣJh*I5v?Z??kbO(<ʢ?Aԡ(8| 7˿)?@ff0?hfF`󆭿O&ژ?	̓^cAG?      ?nc?5&kȿ/  ?qg`å?=d>Z;JY?^p>?0b?Nq1BP?*O{?mLw鈗`<KG"F{w1\C $tUMo)?&MB&D?]s?nDxsL?I_r?r'?xp͜?LL> 4h?i?S]?*??4>Ɋ>nn>Bjh>(eP?(O?Dcg}P?.aq ?v^naD?F؋*>F1CYhs~R9>yPbZz yx9<Qƾw	\IwdþyB p-ZMeC0?(ڀ5i5>jӾSd?{Pv'?^k>[/]?FD>ظ!5C?>
8?ܵY>>+R̅>̊8+?s@2+?M5>HZ^E5vx>N	w%>v
=&v>*]7>j;Z>#.J>w?>,H>E2*?_Yʱ?"Pf>پf,6rr}6\.Mn7?n35/.~%[:bOA?@?ڎ彷@}{af?#OM=emf?!YkБ17&An]?-k?K$K:p׿vn!s?~pпm3?"?8,Wk?U?]Ǩ':l]?ݡݫ?v\ykʿQ/?E-ѣ?%﾿〤j,鲟S?`kk,}?      ?:?.yz>
ZĿb1?g'(Ng?@l|Fg?MfF?]ߖE_?՟xݶ?_0]?\Waz?Nėi7Z SԀ2ýcRmNvNwv؞c\"fX{>y;?ꕅՎ?ĕ.N?FS_bv?ҝkܓ??
|?@A?Scc?|lG7?ЇtnY?LG٭6?:9 ?&$?7ט?YOm?$!ýK??(0t9AL?47 ?ƵGskB?G.P?#~+rcl3hY!+XZۈ8òC郿G6&@~22BA!YYIN.-*)Erw`:A<l>cXȥg?\<'?Hko(?y;(mU?jT?k]=?B~y?l+,g3?-B>`>>J]:.%?ԋ%?@J@>do]>F1&4>IFJ&>E>*ji>>ȵ?&ئ&>Ӡ>o0$??`U
K+/&^C'3xewy}+Wim3>D:kԾ󶦤yﾖcQ>Q/B?g"?hOfM&YO?QfSCȾ5Bq?U]nf濞e/?6 Y&?"ZuV ҿyI4%5[$?A%wc?)zs?L|&?zb>(~ZHvs(t1G?FgnqqYQ>;(o?
lhyh˿EE
?`m?" Nޯ`,*!?Jp)k?(E?      ?2"t?IȈȿ^Tb?O԰?DUQA?
S?#@?9?m,vF?n?SD˝كZJ[ޑ%:i+ZG1< yљ9D{8D@R>shߟ??~Ud	Y?9}{{?A?񣣆?@|.?R@n?)6W?yjpVc?x=q%? **?|?eM1q>&>h9T?8ևx?gbT?ݒ?rI?Ю-*>7qc|;V(˰Lc8:_2&Dp9X3O	1_\[F{iJIc5&]`yxꂿ}>qo [W>s?h:7?]o\?}uBe?mms>*޵L?.&;>-WA?HlH>UQ5>p8E>t˙z3?
(a>3?E>Ԓbf>}TR>ଡ>ǫ	>0>[@>fAI">m!c>CB?>K<b3?9N?	[=0[Q;xBVރܾCy$eQBȗX֩#[־1%//Ua9+S??T? yȿU)uRnW#?~'TTOY0_˿ljHy?ǚє4FH >L?ӻe?`ԝ&LĿ.4p¿?HK)l<?q?¬^%$$JO?s9-?-?>0?	أ2.N2ʿHMzhç?(?)$Y\l'F,.+˯?v(dfOz?      ?s?fxi침\Ŀɕ<?;k4?vD@?iF?*F?1,fT??YV(R?Mz{??5hoFH_D*(b|LKTJtw!5U	_t>H\?V*`g?[?DDy?%nط?>QVY\~?'%mĈ?9td?[$%"?dZ$9[?cA,?{HW?ʃRU?44C>& M6>s:DM?D4{^	?JLM?;^fM?1!QC?=
>z:Ƒ sGu"m~`[D'jI9n
a%Vp	h*J[1DқW1+ZHi`+
а?EH?aux$;QOCcyh?v\d6?Qc?>9?X?SCM>o/@?B0~">-cU5?>.~@>$B>6׮T'?7:('?>z8T>>!M̹>~dik>Z	n>S>>q>M>>N2'?I?GN#qHD096Y"־Yic'-Q%l#֗A5@n݅FҾS<8uD?s6?_9ȿQװTp^"?Chƿ֚p?0;um?gV{dS3V࿊"J?jĠ??.mbUĿ-ɬ(<`R?!ҷ?v"pP?5n4☰SK0̦?ePif;x?D華esʿwH+K?le=C?Am K̜Ex̂._`?ُ8?      ?hKe?n SWC2F4ÿWV?
\%?#DØ?@UQ?VTO? M
~?7ξW?nt=w?P7uw.h/GxnD3|7JREzyEsU$n
wj<`{R?&ˈ?}H?Hs?đc?{d0y?jh/>i:a?{*K'?V?Fޅ1?bz>qAf>a+>Rqr>O_$zG?R?t=G?W?@:v>?<>d]mTGTad^FA,˿ξkྲkF3Э׾I6۾==2Ƣ>PT-QZ9=<*{Q@t(T24$㾉>hpϋފb?"?ȹg>ґ漋R?X_>l39?^?O@ٙ10?>`׹a>]U>2QJD!?Km!?),>|;1%@>G3h>9B;~ZT>->2&Tg>HV{|>\J>>b~~>7!?5U??Fp0HϾnU.d_)ئ.`gW¾W+걾.=/.B=]"OQW"IȦ@3	N0Fv;?HP?M-tſdH^!uQ?墈Ŀ=44WT)r3?h'vн?I_Q(?7I]ʿPerq?1빿Ix2?DEa?oH],sP?}3ql2cNU욿)4l-?gi(rcʿ?Φ?pv!?&P1?Gʮ~&UWjcܕ?r6G?      ?b8?RJ^FaQXmſ"U?~?ޭYF8?tܱx?*z;?nuVP?D!n?F?Ģu3}?aLy33*
F!9`Qmx"8Sh]ɂ0MH^eR#ǘ?,F?7椟=?+?:w?(͐2?J6?)]H?e?*Y(?Q \d]?I턻 ?1>DE>*>1e=vv>!Q=uO?5qk>ó}2+P?6pj*>jZE?&G>,ysy}3` ^[JPx"q\YP  E-
H`viŚEg6ZdhZ)mה7p6z0-W"Pah?H|xz?{%B>_|L5_Y?uݪ>:A?77H>ķ7?d>
)|>՛c>:·)?O:*?AO"^>@9 >Iw>5xʓ>U>n>&>Ԗa2>.μg>Ox>鉑#)?Or?^pĦO_oa375sfž'rӾZ=; Z:^63
>GmZ<$T_D?x~?$୿fN|̅?@mpDp;n?Etb?ݻjGؿ	Os]!?>fI?Y?4Oܿÿ&fc?}4/BΓQxS?trύLMj?]p>q?4Q5DZ?^s~?r:NLĿT?c{8?wA[n0?J@:\L  p      ?u4?/?h8\Ɔ9m%Kb?u	 l?ؖo(?_N2xz?oLH?f;p?nUWT?.cj?ON>) ;4"Gy`fo'@x1j^ .z28Z?p!-̧WJz^9?6Y@j?vN+&?#	M{=T?^g?`yQe?)ފ>VrM?d/?B?${W*'?!Sl`X>Y91>8OЎG>Rc>اP4?"f3?:<aL4?XQPU?Mב)?%`RD>)Q,(?UBe8<~Kf<' Ⱦ'r7ھzt7 :پg6 ̾aRym!n&B.W8)	پM[)LS),edD$\!ca>?C>$m>=C@8?>Egq ?Lv>CW[ ?^j
>1<q>@ljQ>95l?H[<P?Yip>vŴ̅&*>$Ś,n>kKw>Qzl>=jO>>Fbz>1q>d>?(\N?2>N'8$ɂ;gľURK41~jK}? OSu	Qe&:3ᗾa-
A8,F UG?8-8?|$g:"㱿k]_?RV~)}`b?&5[G᡿+Am fe?Eb"?qȈx(M`?Gj?GfъW?^;?;I޿ӹ.:ko?jN&xHl3ſBAp1?]$:޿
Lпm"TV?MpMJZ?$
vǿxe?9eYѢ?5U9\ƿAaԺ?      ?d7?Xտ0E%]Ϳ\0?b=?  28%k}?  .9/5O՞?ԡT8p냗?aze  !L8>-M  c$,.M]   Q՗8<A"x&?GW? L9\:d?\?MD֭? 8->?J8@Qܚ?֮P88uxtf|E8Drz?_2%#ĸPrz?ecO8l#&o?M$ِ8~dIH|>5d8;$CKnk%۸ ڤuriO1GzG08Nyh=ػ8ۮ]w$CK4C)k8f~+8= M$Đ?axuy85lѸ:D#?w8n~?Rr]8d~8r?e( 8G*ը[DP d?P d?p[z8u̱0 x8jl$1= x8TلO1cbO 8%bv"1P d?+lK?fL83r3[zcF+
@h~J85r3[zǟSZ1nOF+KƌT"JnF}?ܦc޾?fMɿj}.?iVJ?@>ҿ+}o7JُW@?]ayrڿ܀?¶~?,\5?7hiǿ 񛥲M?KW)?`~/r?,41O?'?jXQĿJҾH?ȶ?~b=H?$8=dޙk?      ?CN?ɺ?/[oxԜ%Ĺ?%F?d.?fx?N?^Rۃp?
#jΟU?6ц,i?J.ͻʁ¥OCŔk4ZTzk~.d?6F"?
zsy_?ˏRr?<fPY?	3c?%B~?]a?e_ ?ƴ?ZI? ?65@? *vx&?MP~'>X3_}>Wjy>M-
!>GnL2?܉?~72??YeU(?+>|R̫?Rhm<P6%qT>־UEVV婀BK4CvA꾪w<ʖ&'S:b,2$q!d^Ă>*s*!aG
C?uz*?rR?ާ2?*iw>L'X?Qx>
]?Lݲ>Sڽ>Q]B>&kC?V?]>]?_>b >y>+m>r>j#%av>>Zw->w>zō>8wb?X6>ލ;6#٢5!E0g&YȾF?!M$N@قʹm{M0/Tl?bl*`\?^ޯ=!۲?5?,.R'`
??]HSܿ+9j?ՑW?Hhù$]4[̿oqtœ?XJo¯?xY#ȿN:H?埏MF'rɪ-w?+iXæ?*:|wBN |?mQ[ſNVP7??Y}:jUө`*?5jP?`      ?/?͞~⭿Whg=ÿ;	3?ֱv]?ۉP?k5n?6J?9ˀ-s?))L?n7M
gp?*l	a.G h*ই<CfMd`\ԋ0C{=[P%X2}5g3$?m?qC?m` T?A)N&?-_om?	!?eΕkS?0G?螦P#I?P6?B4?<%u?1r>$G,L7>^J:?ZCD%?ug:?v+[?Lw1?O^h>15WqӜt=?lY[)O8[=V첦]	ej(d54%l5? ?=RAddnb':!Fv!ELL"C?c?@< ?6FLB?|E>e)?~>r> ?y@E>#D>8+>G-C? #^? R5>g:`~>=`}>Hκ>U>P\f>:s>2v>&l\K>H[Ȳ>H(6?:|>4mR].,羐2&EYS-þG۾
%ξ-)l-ҳFekwUrCGm!?+;ҿ! պ*6?2wfHj?"C&CsUMTv̿,Pԗձ	? ̿pe[L).L>?{c.?[-qƿ'  _>?ĦjCԣ𐿢v2?;'?.^@-Ec*ԗp΅[9,?FϧiXly`?c֭?<hiMe
Ш?      ?I.>?
(fJ]?$ RU5줿^ӳZl?	8V4"R?fNO8n|I?l4AK8cɬeG?ю>>?dZ.{?=v$?urKsKq޾?"?pp84@V)c?|@4r8paP>yrl"Bѯ	淰*?ؖv8nD%?I/^8{<:Hf?2YEV8z"2^8+%U:뷣\t
`>R/9zb`>]SxD8в:'0D>0G28e >	]5 :YU>hO'
tTTg08[$!e<"QH8`ktj!2oYη㜏">YU>=:1<8Bʭ08j@k/X\[A8s':zI>b08ac!ʻ>oZQ58ҿ>C9j88Ă>2wl8m䫺Q8S꩷GU>kU>=5<=E8
1
`<.8Kו1r<[8 $S3R1KTǡ'xl8@ǡ`̆h1U>O@Ɲ>.WL>fP2>G?*7)8Oe?j2>'èADk-7ǬuAǓN>H><?
| C̿Xw!?rIf?'lɿx? 5"ȿKH?D﵉sڿ+?O,,?c#g8Ă?喒?lE]ʿi'^?ĢuO4}?,Yo})?$b?G	)e?ӽ@a?ܞsMĿ{@؝?:C+?!ew#}?=J85h2b?E      ?_1?prx
lB:
i[?ԃV {3?ҁx?H15SR?l`o?xW?~-Fh?i~+dhԍ(L-5JjSX=fhc,濍_64?DWs{˞Rs?0Vd?ܨd?~L~?\Ob??,/tII?J#?o0֞U@?(;`)?x1/>:">>؉Y'>bL?1?h»E?e1?%
?擰{&?z] ?;X\S{դ8ҭ;JvF*q@2*Y%uExO:+s$D $:6;:1o`z}Q_G?24P;D?&5?d*?sp3?@Ζ>zg$?1\ZO>wF2? R>ڛz>&v(>4(?4rP?l#,>65`}>/>nӷw>z;/>Z>*uK>K\0q5?>䟋>fP>bC?)=>%9b$WU4dyC	v#6PC?ŕdƾŮվ /k+ni$LG֯>`y!|0}$$?W?Oƿt.?}?jĿ)?G}<HB)^?]_57l??l/?ntQ=" rG7nĿC?~d:R?=Q?@2ejPNqm<?ϰl?juq}?LHʧF?IMG5ȿ_'â?<H~K?N?X;5߫hҐ
V?`@?      ?2ۖ$?8L\\gK[ÿD hc?vmjޤ?Һ@T?CBv?Ӱ/D;P?}4y?,GX?T`hs?0*hwj@h^$uݙs^VjlKBm32?bEe9F7|?yfB?rc?.bͽ9*k?p)1?`4X[4u?BDmh>"cdPR\? FŔv&?-v-qQ?N#&0?]1><iO>*-U8>xO>bIUB?ES;?ŅGB?~?DlV7?KB>C^fZM`N6.R:׾>2 h$/QadN4M ?[! n!x%stS#	?5#|W? +e:?vÉ&?CtrXM?R?> 73?z:`>(My#(?μu>h$p7>dS>]1?ml8?4GO>(D6Y>k7>V0G׾L>kOג@>^Lk>uiF>ade>%~>j?~>,?2t8?Xd>%'DlQ
$vecf*,:GYVվF$4R\pw/HOEJ&T0?Bi?.?kſVsz?R61T2f?p
+Y(}=Q3?0?"ϿN;uD?"/slm??/aPx?_fBQ+]CpU->? Ȑ-*oIʿ	m?V?sK״}.KA?뙩?g
/r?      ?j#v?4"zF^.%Ŀ._C-5?`U?. B?TF=Ul?fH[YJ?i-TԘ?}
R?T8{?쟙USQ@b2@JíBxEY6E65;,4K?k AH?]]C?ğ){???WCO,?J(?}6EfVf?%s$?"]?&6-?U?.9e?^Q>
y>1O??5?NO?xPb?IHy퀡D?+S>[Au&$
Ot^nh\%@䌷 GkvBx9yrĖGE+ .YdFxȵ^%r@f
gF4yI<,63Lۘn? ?BSFa?[?)&Q(>V$iC?	?wk8?ZZ>I>>*?PѺ8+?aǧ((>`V>\V>Aj>&ք>4[U>,B>p󑃸>9w>5]>?m*?F@i?5rx7SHVMe9;=۾2]KUmu߾tD:Qj'A'PF־hQU/%NK?$v7?=xsǿV.]\?Viw1?i,s!$ÿFݥe4C?A^>[}?]-Pܿ1'3H?f^?Ŗ0aUz-j-L?,p8}ɨ?u.UQ?7f棿C@[?в^yfUb?[Ŕ?4ƿTU?\?ޢ0-7
>ď5.Ȳ&ìڒ?dd8>{      ?爗O?b	O8B7kJ?F?X	<?!?YUH?aNv?:jQ?nPr?VŖ"!8ӎ`;E2t'HPTn<N9+h>{66T|?D?Z\nI?h)Tp?ѣI8?g1n?V4?|U??Ń:MM?WCgR&?3>j+w>`Y>~ç>N,??̜d?zIpG	@?Nߗ}?(75?o7X>>W1Oa	K;&ߔJPZw{On"+9	ZcϽthK4_pI]Ft<Xn,1i_:	O8p˧PNU?Tc3J ?73`T?43D?p
ڟL>$yW\,?G%>dO#?XBX>j5}`>1>9?"xV_?0Ӧ +>QQ|>Nn+>7sw9֘>IhϷ>w$>ݴ>>儧l>S<_>n!?t7FQ>/f7UIY!smƾfYپ`Q%о枾 GCgto
ɰ@NQ',?ph?E}^d])|ܹ%?{3{+	fI?¿ϡQ?gQmy3"6
IB?6mr?pcѿWͨRܛ?xg.t
R/s?gL#Wܶ?|o?Z+}O%y?D|?ʶ6˿?_^?m?$ aڪ~HL>? Go쿘@O      ?0#R?dCycǿH?1V?|2?3}̌?hg.?[?t?Tϑ]@?VN6~?IOŗ]+)'H'.3,;+UvY>!&Vp̏?T.܊?^w@?Gc.v?[
@?dIu?@Nw>g?TW	?J1^?7{?@$
>CO>住\0>xP>-$O?)DV>r5	^P?DDM>܃D?>
,zsgz=[:1ezվfy]XFOkOԾZ5
</Ct2]}KZm#*nFN>0 >7q\^
f?W|?^>	\?hx>_MC?ȝ>XZS8?PTtBt>Gob{>Dc>Y3*?(͛U*?N1>ZRI>q@y>/>2 [>iIP!^>[N>|hvգ>y^>X6_>]vf>N\*?>1$?LO;ྊ9RX6^Ҭ:!Ǿ0ᵠmȾs5XPbZa(4YS@B?Iđ?2Jx A_N*?!n 9ſ[`>?LiϠFf?y*2*2迮4?IC? 7@ؿ"
S#AL?P3#yɿ?&?ưɆ۹2Sw#?b$pbߩ`[\QҴ?u4#r^+̿Nx*?? *.0ǣH:xAq?xL~(>DXN?      ?ݍ֧?Y-uQǿ¥&?,֫?śj(U?xU?zN?l?,Q?>ߤ?WS﩮9+Z?,;S]EYQH*3-{[kmʫ#@ޅXz67.|?D"T?~a?#`A5|?|5ę?2&Ɔ?;}T1?pPn?YK(?P4Pc?0-?t5h?hy?m'G?N|4?717S;8U?:?*+<sU?m+3?
J?@3?#zE}9'l5c:c(C-
WWMl"~bZ
e?lKw	RcHzwzc=
x؂ %bb*/jYs?p(%<?pl'?
֋%e?GD?TiL?+^?<9=A?g@ޚ> *>o">f3?á3?f>`s>N2*>2:>1p(72>m>m>iM> E+i>j:>-N=3?jn ?FF[7a*vN	lB)qY)CĴbYBt?ʾ'0oOaxOR?j@пI"m?2k{-?+΢?7hǿfGſ_V&?ݸjxĿKΐT?Aȱw?H&!?#?/Ycߔd7W?Rۥ?xUޛz?̆-dSÖF@?:W?a^b/얿sH@?5+m ?lgu}?>P磿`	SerK?      ?P5E?mU#a?;ݯ\ʘ!xoP1Y?ET8 A?Kr¢8qe8?=p8NB6?^7?/]8f(g?#aF-Y9ƺM?|d\ q𔝒8aCp[W; 3?~Io[_8rF>5Q:M]iD?dzg4B854>khh4W88+>ϑ^8u(8nC=!89ۭK8ơ)^rf>#$(rf>>F?8_>aWK18Z>D]m8.cZ>FfDKG8gxLC 8	-7Sz7{ν>&Z>nL
858q+6?G8?;-.D4{>08H^NQv7OE>J_A87zz>p8@(S>C
7.Q5,7mbX7QQ>
QQ>q17j741dY79\Gm)1>Y7"+	*$1f?77FC72_@1ԹQQ>lSlx>'>C37-l߲h>S)!97KiC*7g;d7o߲h>ͯJ0!,&97-Ǿb>/?`%OHÿ-f1GfFn?cĿK4(0ƿ1??Ke?S[?mS(?:SJO|ǿ5V2[*?o ["L?n_Gtָ?6yǸw>BMĹ?_Ƅڮ{	ڱ͹?g^?"]ʫǿ1*?%۴\?4[w?XX7畿
T?d<f[?      ?1Z?߇)Api,ÿdt#c%?$<3?FXFZQ?sF?lM@M?+Ry?Ap#OR?TJt? 藦o$kT"	c0wΆeQT)Ao	7|ۻD)pC>GTٗ-7?%v"Xf?Xΐ\? xn?tU5?h`mt?+'?+Y%U\?Y!%$?*A%R?3+)?{~?vщǝ?"d>tc?{3,7?2@hjC?Է.ei?\D?|Sa?B9?D,Ո2?܎!gɑ02,UPwT'OQJZi){g9W=0<Zc9ܬ8
#E
Pꪎ-!8j!O ]q*TPP$$;[?Ee.g3?3?Oa2M?j,ڕX ?HE	<4?SQ2>,V)?Y">:v>Ҫѥ">,_?chY?f>E?®>~>-+7>`Ǉ&D>#be>?H>E Rl>wC>U<3k>&V	?eXE8q?ApP/~F2F_(TPeK۾ӫMhL뾛[E'dwvK>پI4?!ɚg?A=dtv)?Ɋ> V;mtA:L?U/ Fd#hv:?G?HEѿdpi|?i`ۯ?"	e1?|xMe߀NƳ?5\a?|[2g6?"?և˿?el?6F%@P@Scs?=x?opx      ?m"e?O#ǿ3 ?忠??A?<"F	c?,FC?ڻ.?-K?䑐ͺS?xY',CZ#;*2	.lgDG؋}zZ&Ť8hvwf狿W"!?捁_?*paI?rKP	{?|(?IX?e?&kQzm?űr ?.Eob?d8(?a- 9?|H?C>$ڪ>hBZ6T?Uza?E-ZT??ȷ+kI?mWc{}>
V{]P_0(b``5"M7`[-<v-{vH H=ICbMė)Lϟ[P	Lq!G.+q?V! '?-Ւ1
?u$d?؛A>]hTHK?
>'K><^A?c-#>-0h><睂>2?2?148>Fಒ>\>1c_>Bw>}>wԓ>V>v>Brϡ>J>2?M?L<Z9\!.d-ũQA~@ԾG}龬eoھL&AJ32ѾM|al:Q?7~5|?ߜ֕¿m?Zݒ,ltGͿDU?B0˓?6ֿm$?l	? »?^V1H?#T?\vwͿAc?c\ϑ?=#/x?1)m$shoW:.?eCid?hqq*ĿD?}f?ͫ\ErGĂ?{ɘ?@xdag?      ?V|?c-.㔉CIo|ֹ=?ɼ?6V!?{?&6?{ u?&Zj`C?؈M+q?)43S8*(]o![cmQ7^qrj-㵵YwG?m8s?2-2;6?i^{c?{9wv4?2σc?]y]>IWYM?0_?UoMu?F?eޙO?ֆdF>h0>o>ĆQ>GJI@7?"p@>MR*%8?bQ>^gtuc2?ڎJ>pVS?ԗ+8,@Nޜ灾,^'L_|%uWҾ>?x׾"Rk, j^>A!;/;]n`:x4^`(ﾌL\D?ic?Xj&>bb*r$4?vg.t>cw=~?DJ;>R?(B>"c>0~>+	?B*
ac	?a>cIͩ'ԂDav>VeR>n}No>d*O>^Ks<>6Khr>X&>α~g>ݻـ?
$؍>W$E{;JPq.R!xe!H3w̲㬾\E3֋COܕg1|{s^_?6Z?mָ.`m)wƑ?riۗsʿ<!Û?aY"1?iؿ[۟e2N?.uk0\? :aA|ҽ{?_jPũZ=*?YB0z*ʗ.I<N!?{?欍kӐ?+:'?}MĿRCLU?.Zп?Ls!S$ޏQdS?p0)      ?t[D?bV1\oڂ)?28DU?8x9?8]z?'u:?q?J]{sG?ZW0m?l!W~Ҹ%tq[hS8'48~kavٽ{C1\eTFyn?D>i?i!M9?ҷDY\?~̽^~?J,Ψd?~/WA>6b1M?D*?HC?pE(k?.߰">#+o?>^E>O<>pâX5?I5>k]5?r>S8,?Q>tPL(8,);"#
?h,Bʾd^eR#_ھ ݼ4wkɾyaOp&#=8ā1.
d5d咜վ(k#<?$=Z??}߿>Qy6?ݥ>`} ?ANEG>]'?dbeN3>p>zI7@>JKg?{) ?2CK>d^WW>ĉ_d͓>R-[>:>bٚqr_>`p'fx>
a>^x<>yB_k>lD?.`>1|ƀ"UaA,Ⱦ)8^nXl蛫D #B
<;3c^u8E:6Tkˀ?                                                                                                                                                                                                                                                                                                        ư>                                                                                                                                                                                                                                                                                                                                                                                                                                                                                                                                                                                                                                                                                                                        t>?ק6,`Nm%%ltW?yZ~^Wtȿ?Pg/!&q?0>){[?4?տ&B8f]N?S	u˿F֓=??<?r]V`hm|KZ?FJ=;jd?!TAD˿s<Ky?7H-u?@8Һ`;(GV]?eh&ٰ ?      ?>>?RlV28:ǿqC?/L?̨H?/?`69E?Kbdw?UP?% ?YiÜpAELʱ@HEWZYz^Uģ#OcA"$ 3m]?4ך>?4gߛG?ǻ{?,l?\	e?WZܥ>#?:#Y8l?ʼYV!?JLa?'r	t+?=?^ 	?x~ ?D+ l>S?*L?LWS?AX6?kGS[I?V8x>MyOPA?'4!`1b[ܐ	!-C\Ƅ
Tގ}KՎ@&|J*aznn	۩[/15s~bo^qz!BIp?/#?NI?+;;"b?,/_>>QSH?]C>J<F2??/
>`.>Xo>f ?^1?(Yp1?^\v>OΚ>()Ӧ>.fn}>8>>4>/">w>>6/$_/1?dj=u?w?iDW^z2ZwB@xSpݾeK^zTy$`]㾶뒕 @R9`!}׾eD#^[`vN?l\gq?W`F_ÿݖoĿÃ&Y?)$#ѿi+q?(qۢ?=#RԿ'RPܱ?Ew;?vv>ӝÿ?zbk/?VοE8/?4cl?*K[.HNw!G3^?m@
B[)ɲ_ظ?mCroÌĿ3k<?˝?OG2
],"[?7|?ʨWd?      ?|?WHjajA?;?^b;?`JE>W|?o7OI>hw?E>%e`lu?<X@|H@9\EI;r6`YVQp/t\zNAؾ@v
I9?c2X[x?؛9o>c\ i?g4? Pa?&Dg>HM?,	>EbKH?V|>3(j>N]Ru>(jl1ћ>vAD.>nA9:?(l~>{F-:?T}QU>":5?`.%>*1NCU8O]#EvC6xʽ@>λcEjHwj3꓾A751$i<A(>)l⽬(d]հ^''᲏:GI?O~HsǾ>n.7ӏ>}Ȓ2?i+z>>+?d>?,;&Y!F>%l>DõPI ?!sO*?96tw>ZIEeTq6>a=0"w>=0q3Z>W&f>|c>+7>#h"=ƥ蛇	?OT>:&$iS(f3ݒ":h>g?wToWRAOL_8̽ͯg3O:.{	<?`1PQw?M&ǿ]M/?A
ʿ _,?ȹ^?Anta'2;?xg\?ҿ2[fzG?')}X9?_6]?QݽYKE8H?$v(qdyQV,iD;H?B=^̿h>LO?֙E?zI=e9z7d-a?Ȳ̙lUb>?      ?H?+q+ԩؾƿfl?L?nr1?%HwQ?aZˏ?J%M?Η<?u*2ȇS?>݃?%(Zy$٧,Ve߄90	|5RHyw@{N[ծ7`7;?bwo?(԰9Lc?иsj|?,җ?N-F?,~\*?u{[k?~,'?-4na?ʊ$0?\D~?8{?U1?<la? ^D#S?19WW?jS?/9;?8XH?kj?R儻y7Py915!%bˀ~P-
I$ uc~H">ѫI"?MJ*ya}\Ƿz\eǯ}Y'm'Xq?04@?~M+$#?(a?+|?T۹G?E]?PE>?i>	qi>r>h0B!>A
X{0?ծ;0?ˤ>]y;>^hD>rF>jB0>Z-b|>:Ҩ!>hA>]v٢?>Mn8>~z0?!1P?(#Vك 1)?H ֬b=`<)}M BR{Q?f#ǾХ9Q\߾_u[l.bN?_ˊ?ђye2¿rhf@\+?Ha8˄0ȼ?86{^⿛hsh6?t@?h}߈ѿ~>na !?M</?9)?fr3UBxrх??L=Be?ı+#{t?I8u˿.|Mc ?Jei?EMn\jJ~} E?Y?	ۃ<Z"g?      ?q	n? aD=Cjƿ}9ؑCF?[?dW?
ߋ?H:臑<?8e
?!O?#({?>lh&^<EVȁsiǜO?0|љuX˔^Ҝ*,%⇿eJX?=y('?JyUY'?pv?v
o?HCz?vU(>{47zxf?>?3tcA\?U:/C(?>~Go>xXOx>**%>'|N?r>j|;N?)Z>SHC??v>8ryt~P5tZֵ)BLԾpA)2"-q쾔ZP0þ[ھBUU1{Y]	͸ƾW
2QܓR'}
>\T ڎB?{e?,1V?,(>
Z?uMv>i)B?ƸML>
16?|.)Ou>)>l?>}v(?mi'(?Fi>0'	B>_&>rE~VQS>n^ޡ>l-X>ɗk>Ғx>8(e>j-p>ԞO(?-?2UNl M_5<2}g"<ڬƾ<ƈr̳4)o&3swrW&&cA?uf1?&/ĿG8n?a
?bađRؕa,M=d?6!_Nٿ?
aJ?P_ZnBǑ_)?V$cZ?JhIamcp>`9ș?8kJy?иӕm0]2g]3ON?IYq,ſ}F?~rx?6ѿTc/Cw?7?d@      ?{ r?/>:`OkO2?B<?	-?ز~?=QP,D? t?LUiL?N0q?	^F٘S= '7Ttq2pa]ET:*Gi]|@l%խ)ѧQzb\z?nz?b	\J?\֪g?\o?ۃ^7i? Ne>-})R?/T?`nu#I?% ?b>}>ڽ;q>:ԩ>oݶ;?Ed?^<?:.?Ta43?@[>Gּ\t6(/-MFˣ]b@ ־
-	޾.`,eV;t:۾h.߯Ҿ#ykx1KD]D%ݱ侦l	Xte5dc&^5$[^jQ?Vj!?w>@%"??\&>$#&?a*>f<?->^gsp>IR#J>B+?gĈ?xJ؛>[co>.䓟G#>An
u>!˦>AW[s> {>>b|WѢ>hzr6>>;hhg?U4>v=tq2A6lɾ3:GJɦ"~zQN<F8$t-ּbbr\ǙցJ`:nT&?`=6HL?#z>;Ŀ?V&Y!Ŀyݾ
?Ii>੿<˨?\п껾?y_?߿Yfx_P?mg?OTމпxjm@? <?9X?ӿcw^i"?8?o|p깝Է\͒ɼ?Ѡrt4~3[UHc)s?cw?4nQǿ*?Eפ?X'BQ?[.ׄ?cՒ,/!~?      ?c		Y?x5ʹm(m}U@w?xMv\? 4^?]GVL?+u[?s`,y?BZ%^?+s?8Ryi8Y+JsSyc!WV4qd@T'VW'~ ?]<?uilV? pu#~q?4nϸ?N1s?ZۍA-?iq[?,C0?nR?gJ3?H<9?H?Y?<{_?b֖C?cK?O'D?ɂ,? ~9? 
?Dzx^jyL(5WyR>X@+f 9a ux)==:@dRξ=y#Wo3pX&([a? P%?p{r?EXM?T+>E4?&1S?jPL*?J5>L>0d>{	2d?*!'?TnJ>Tu5>%C>$S>ED>D>z1*>Z
n>9Cs>Ys>Wz"?:o?F&7 DVrS5+Ci"yU˫lr|8++|ǡQmվtQ㧒پZ;XG,0z;?                                                                                                                                                                                                                                                                                                                                                                ư>                                                                                                                                                                                                                                                                                                                                                                                                                                                                                                                                                                                                                                                                'h?ǿa2k?
5?يc.UǿfSٞ?O3!8TILߎٿeQS?o&"i?5ܦ3ݝT#!8L=?X!?R-x?dV9'pBݚMm~?T]̗\?Gm2|$^A?0yſ"d:?j?w3N둿fJ@@慔?\nQ?      ?X-?A^e2ȅS?;v?"VC?T93Х;}?nbt,.?au?)*\6?-r?&Xe*o&R'p$wX-":ɣj>NK$0 ?lXqxDWom?Uv<t?JiCZF?b;Mh?_U?c&'g?ʣ/>O;$WP?Ε`&M&?AZG?VTW	?m2 >)Z}>|M>m ">Ex8?oۓ>!28?%18:>X*1?|i}OJ>XF6V^̡^54<BZ%i%ľ]f"w8о˭w̾=."0k?M澬]@=o]1.d؂>^ϛ޾g0AG?*䊱?NQ8>Nk5:?pҿŦ> z"?2~>	q?bO>cY~ǡ>G`h.>P?Щ?z9E>4,j7>tP>U5>p|	ʊ>[5yD>m@>Gh0>=H><O>&8
?"6	>~b)46I;tτ6㗾oR;ࢾO6(Ƹ<j/ʃpMK&l>87R (?`?>Te4c?¿Qxog?Q5H?3$t+˿o	?b2?aVu?VRK?hҿE'\൲ɿ4:?uY
5rſD?07XM4o1Zfͳ?~\T?&m]:?p+<Og?Mʿ[U?w0֕? J฿V~'aI0?oTp|2خ      ?9?»pc8[QȿS	jP?N7?{E?=xɍ?tF%?֜?yc~9??έe*%ڲ{S;~rc+*WYog uT2L8>QnjA_?:?+<S.?\q?"S`?P2?wz>qܑbh?-/?y'Ѿ_?$?k#>/hK>Oҏ>0(r>kP?%vn>VP?g>`'aE?T4>GC@Xs+_BLZ1HE4Q$*~Ftھnw:پkھrmڄ-AH*ǼYH\%cھ7`ۣGuKgX>çC0Ad?kz-5	?R0	>t^?IX[>?tD?7ԠM>26o:?ϟ[<>p!w>>B6+?V+?>$F >>{2>/Z>0;4>|j>WN>H>A!LH>=,,+?7N?+*P@оW9 5C䓾'B52At35@e,m>|
Tr\\@?Mh?0%m4ȿPX?5]8?taCs8Rs
?3x?W;=p)tӅV?;o*?#vP .
.ƿrڃ?jR3?2Wjg|Cpc?LA)?<7m=ix̩?lfؿS˿E	K???Eͪ0峿y0?y?Pq      ?0aI?" [|Dl(ǿDZ4?5>N?]r#?hr?6b_:?)ڂ?7	G?8E~?_tI"#g8ވDPmxo&Xݢʚa\mD?f֍?D(GW?\éP2y?Ey?$R
K?LOL ?-ah?ǧ4?f@4_?#?\O6 >rC>s>aMc5>kaP?Z%Z>NAP?#[>bfXE?`g >ttv., L]l]!,sqھ)49g2XAZY{Qھ[	:E{|\r/\$7NMs	E.xdvY O1.i?M4?5d8>^	 ]?GWb>Ɨ`WBD?HA6>G}19?+iw> ƭ>Dq>nݹ+?y$+?T`>3O>G>[&Z>]Eۨ>!A:U>B ;@>Z4rܰ>_=bY>~8p>c%q+?}雎?YଝQwea޾D82ӵ.̲;#1 A7SO֕P͒`Y/'BYZO.RE?+ E?JuӤY$nFM?fL
bu*Xÿw2}.? x?_ܿ=ZI޴?7"8?\(D~ſƠ|ϸ?@=LD?%?DUDRV0ʫB6}L?x"*5n]?+Q6?gt?PA`sɧƿx.?|<?
8n=Rf,;w?~Tt3K?      ?É?nx)¿w??5}|՘?
G?x(?h$R?J v?\hZ?p?[޺BO%`=NParzoKf@iDZnD޾OÐ?rs藙{?d")(;?=
e? ʟ?.4N+oo?6S"?4"U?}|&?=.K?.0?;^߈>b#GŖ?Xf#>ҽm6>2?e:F>?Ӎh?:63>?ַ?Zz3?S>`kHC1kGk_ԭ uR㾏cdI$
dؚxТOd1-n]F9*ո0S$ԏl"TvHQ?t&}?>TD?P4>ҭϟ+?ҶC	>vRX.!?Ir.>-H>4}5>1ZR?"І ?zĥ>Hv@Ӻ>T>lfE>.7>f>ߜV;>~>J,mr>p>;=$?W>uZ{5-LSPnq^T
ζϻ޾dEþkLn0l40WQT-BtnH'?                                                                                                                                                                                                                                                                                                                                                                                                        ư>                                                                                                                                                                                                                                                                                                                                                                                                                                                                                                                                                                                                                        f%:?=:cĽ)ߎ<\?c͞ѷѲ>-7e?rd~YGN0 V#XE?5}K#??l"ѿbSuv?Njſl$@J?
} ?W3ӝqtz(UR?uu?1xΙ?:y5meNcɿ֤O?qf0?˞R)TL?-!9C?      ?i\?<̈́pRTLÿh7?͟h*Ǡ?Cc?=r?_Ot<\?CZ!~?&d0Y]?ir5w?pכfT̑i}b RVA?tu뛿"`qb@ȁNQ	?:j|?&dMJ?͕s?ٖDI?.	x?ujFY;?8a?fn03?&*~dV?wNەb5?=@{?I$x ?/;?nkl4i?ȪD~kH?T?EH?#մ?86@?uԜЬ2?=Bto,IU-[1	V{Yj4*)K	]J6g<oh90<4A&t!;#@gŇUΧE0^Za'F&egt\=W9:r7,H;mc?T#? *6!?YqFR?'O!?LPU9?q-h?c%0?p_>b>v+}>IutE"?Dq"?#>1Ai>ᰡȄ>8aC*L>xed>_>";z>@.q>n&AB>	 zh>
!?8-[?y#6G?&/m0QBlI $*k70Pa;n1徊oNHae=?ǉ}U'?ډÿP-ȧr; _?oĮÿ7jƿcz?Sq!Kdߋǰ?`Q+ ?LVĿ\(ФR#k>?&"Ŀ~<?6}?\Prv7d?ؔ`(ObxO?*"ȮCɿwFM?-`9&J?s;Ҏ|.œ_^?O5\ZS?      ?<TG?NsI{BL
ƿZId?<S<?e fx?91겈? 0p?\?uO\ ?P{+|?8RcExKc)3-zNJAuEf/2W(9Aj?N	Q? I?UGVq?8??3S{?&>A('b?nE>S6zY?+>۹>&6^>"tD>~^?+>-0@I?xw^>UJJ?`:3>A?}08O>~"kke ?@J-ZT HD쾰*UȾvVоH rrlҾt5_F%0>fR{"Ѿg5`ᾼ2	xcw9Z\?|>#TFT>^aT?pa>l_ 0;?Y@t>Nn<|;/3?0ϰ>>r>Z[w#?BJ녣#?ABM>W9*>܈>"@5lC>l!>p8%1>╓>>>_W>`ZE>LgMY.#?aˮ_%?*y]DJ,<).Ps$	қrFT	9s雔,FV\?/zΛ7EMRT~5?                                                                                                                                                                                                                                                                                                                                                                                                                                ư>                                                                                                                                                                                                                                                                                                                                                                                                                                                                                                                                                                                                #P?*uȿVZ?e~-?ѿ>Jf,?5#n?Eu$d~޿}B?8n:o?_a!!1¿TƢ?z?*"Ÿ?vUAT<U
R䡿)?m2C8	W?ǜQKe?5Buɛ=1rhǿ%S֏?s5?}b.ӕ:zjɬ}?\n|衱?      ?d\?	Z%KvJ0?(:?1I5?mgQ;?RD?wb,w?X_N?%٪Ss?*<dA1tыVeN'mm<:/ϊPRA>8~~u"x?c-p?HFoKW?$7|Yn??P?4T|q?WVv?Y>W?3b?{c4O?3su$?h> N}>c:֩>S6A>t$c@?xG?Uq-A?.0?*ss6?Z`>!"bW=U0R>!Kd$}dZ/(;P2R?<Ő=EP\5* J/mfPAL@۶G*mhT>mVlV?D	L.?Fte?bAYqF?F> ,9-=/?#k:>>OZ$?`jF>2Yv>`+>L	?]?jU^>z}>z%o>貮I>Q2W:>X#΀>/>6gF>}>;>YGQO?4B^ ?YBO9@:4
"Ad @eҾkc30׾|Z!^.:*"⺾JBFeD.?2f?L~SqWDxv?p4
,'8~tȿ9 ?b?ULIῳ}<?m?mvÿpћOI\W:?332毳?s1?Zu˃M0OGY^?C)iXaZ`Rl`\?#Œ?7j%ȿ3G2?0q&G?1Pzd:_n_?.ޓdt?      ?P?muAſ ̃ ?n8?VL?}3[?IaEdB?`|?H/I?uv?oXր.mSzwaHh4ox[dꝿ:it)Uf3n?t~Ζ?xK\?}ek?;/,?B\x?2kf#? L`?kӳ?nŜU?]Ri!?b
?Z	?7ܜ>1| ?WwG?N}?}i[G?hW"?O 3>?gqݝ>mj~+ؾ" Rt!>**U0PrP|=0'|g[X9uR^5Gxܰso
iaO%vyP̈́!]d]?xN`4?}L?syER?~U$>>!w9?,όJ;>B8G׽0?sJ9>U y8>:$>\Q;Z'"?⊼|"?
0>nM>G۪o>5/y{>e	xZ>?>Z
3IJ>w>*);>FR>>@hrb!?Z8
?=D*%l65,Eeܾh/SMt=hJ7,܃ 9Ҿ.P0H'^k7?%.U3^?DxzT0ʻdĿ-H?ڻw¿i-)W?2_H>9_޿i^?\M啧?'Ã˿!) $?܋ȿY6e|B? ?訥HBL0i	qh;?].o_?Tuꃠy?+t8}%Kȿ4?WA3])?gD '8 ~Ȫ?(cIߛ?      ?ٹ
.?H=	^9+¿c)?͇3?>)V?_A?k޿Q?4({?XPkʟS?yIv?41>;/q4=yxF-+@br$☿i3~LYl4l?cc45?2.+?En?Y?#Jbr?ƩbV-?4[?-RV'?RkR?$*?䕑A?lH?H9^>ͦN?ڢHC?$׽,?`pˡVD?22?OMD;?/6>А̽em_o]3\aP%~Z>HD暡·QI wb9`꾲&M=+S9aYӿ/OpӬd9^۷Xk@2p9ͣ0XTZ)$Y?w*Y"1?X?,xgI?}?1m/2?>[u(?(i>U>Iֶ>ڷxIZ?,B?v8>I┴>~wi>>;*r)۸>bٜ>>H1>1Sy>&᜚>
\>?CTJ4?&U=픣P5澰NR&!w$J	$? %Dtl>u
	AѾ kF'P0?՚{/h?׸¿@|m唿ưҘ?Pwm8ⒹRz?20r ׿_/?
-?A ?4h'?Mֹ/Mq?[?et9ŹG|\t?nef⇿n$?-	[?+
62ĿyOD՛?D'YQe?ԥjM֣Z?= ?t6xh\?      ?upEc?C3Bq]s!|l ? u?9#x5?vx??VH?v%p?	'LQ?k?NOހ	YIsN{:jxq<*6JMB>cօΣm/=&Cp,tN"?KH q?٭7?.߯a?۸F|?alna?:H> <ȭH?2#{I"?Nn$A?b2*2"?>>5iغ>c>k!G>l5˽42?c9<?"/x^U2?6?Z%w)?C	$>5QUSrҾVZ0:K9෾S-3 FV˾.!QxS&T>H]O% 0X8bd_ƾz
nBA^Xt⾁'mپ
?sA?jg?KPz>Nhh2?gm8ͮ>zyv?yF嫔>M?3> Ƀ֌>>%?<y,?a]v@>oT/9>O*~>xj|0>i1~.~>	jS>l
M艅d>Fg>LUìr>yf>~o?AZ.>bȱ!r H
/$&NQ¯󈾾ˈ[%.u1A	)TBqeG:X<}c0Ǆ?#7zN?pRӇsk,2x?OȽzϜ)}L+?vfrX0??d֕?._"ҿZWA2?nY Yƿq?Ё?u&la·FvF?vrg[Eb?e?Ӆ_ˑϾfʿ2Z?}-$S?сƧ] S{c#"踟?;B+쫿<M?      ?9?Pr 8'[.Eſ1t?Оs|?ILE?l"(?R
9F?IWO?vv^Q?'qH|?NMr1QRG@-n/*FUëw_*&à|2#,ۀ	V?~`1?ԾL?<O)w?Вk??qXC?u ?,9f?iڼĭ!?&!O]?=|h,?ӈ)o~?)B?=#w>3>ddO?b?$̦PP?I@F?h E?G]z>L~.nt6SY"ӻ]u3!<,6;2;	b%]Y;;
(/E>f`\VShsyII~{3<p<upOj?^.\&?/?3&[?훰>^(B?>}KR8?CO>J_H>S>{E*?Zهg+?3>!CO>b>Yǩ>;|>	V>U^_>$>--e]2>T>Ha?*?l{?*JQpyN 8%.ܾ֮X현)|H 8M<LY'־^?b[VnH&IF?                                                                                                                                                                                                                                                                                                                                                                                                                                                                                ư>                                                                                                                                                                                                                                                                                                                                                                                                                                                                                                                                                (S1?@~ƿ߻$Һ?*=¿.ȿ-u?fehvy1bۿS?0`v?yE1Ch:?a(Zj=BMĿv8s??G0?4ogҧbwPF~4+?ֵ/id$h@]>P?ZIhr9+:ƿ_F<?+Ue?sS7%k0|?AH]0a9?      ?N9+?0z%/C~{	_|Y?/?MiM?\p)?WXG?(x?>tBH?3ht?!W69KKѫsJ'謾}G7xnd1"d=LF^BIt|Stߊ?=1Dj?ӑP?P41Ҡi?0X?+[o?h%t`?~hV?Vp?gfa`%P?ްD?fP7	?;X<?6pڤ>^->c^@?*	?(;A??p˹ݻ8?~>yӓb[V>"x`0K6{:[<dL(@5x<|4eaOJf&ٟ3ۃB66Rjn5E*/^(V?e/*!?^6?eȢ$J(F?.ig>3Ev/? >Cco&?fաa>>@Fǆ>MUo??pl?b>&;bƱ>0 P>R<>-f>EH>Qf>+>RH<b)>lnJ>	)DBZ?G?"]:辬'#B˾\iоIK]վ=s.?"֘ΝTz{@{nPB0?{b?
MnK(኱%U3e?nWjDj¿.-dSӹ?%T{?1hڿs?&3"-?I{eﴰxϰ?Z|pҊ?D?;2.iםM˨??p3?XD4$$Ȕ?Dgzp?0GM<ƿ	?tMFl?XƟfoHmo/?+{)@	      ?B?*画¿Y?K?RԽ: ?xho?}D7:?@w?QZJ?4
cr?eQ;\"V}{+q:;Q}\hr.PԻ	z胅_b>`?W\*w?G^"5?̖"xb?I?M'w~n?Z>'U?F?2gI	M?!/z,p!?e6ۂ>at݄>̬n>8+`>L??]P7>DEv|@?a+MY>j5?)!S>~]فKΑcEBU EݣIǾm
90e,t-8ܾ#оiO08
Es#1R2JlȲ%޾BMN?Ԟ?X1a
>iuVC?I$>+?%W>f[7T"?f6$>z>lL>>޻}?? !O>mg)N4>P&>z&@V>>å=>1/gY>Pt0N>9r>ZLHٕ>Gq>8U?=Cm5 ? \#G3OϾY	ߝUo8)1Bvx:;TYvdU<BPA$?+i?߱OpTЮ]U_٘?Eſ_54yA$1>u?3Qߠ{_x,?Lm>?PԿY2w܆?ZKo%ϫ?L?vqF!vkǼ?&nݘspr_?빅̿
?`?޺	qC靿mT?I2u<7g?      ?T:܉?]J{ì`"ǿ'?<<2?&viO?w7-j?w@$H?-J̱?:7P?Z?+BFQTV896\)Q`3O&zqWf-V,L0|ӇİL#?<!+?jc?Ёݪw|?j5?ڑt?-sG*?nYm?GtΨ!%?y/qlb?lNi,?
?<>@o;?ewR0$d?ңز?l^7PT?d ?PfFzuT?;"Oo?&OI?ِz?H{cE3Ԗ'
c'+-nk	n)7b'&Jlqh&X($5?Jr<)^cYMC^rzօꁿcNW`&q}r?zd:
A?w]'?c}fc?[d"D?YJJ?IWC?9\@?!tu>fP>/22N>#2?72?c&>6>h >-	HZ<>Cٷw>tB>r'DK/>">>$!>VТv_2?L0V~?YIk0 A"徽	n*AAV>!fŒT!8`_W]pQ?	?;zOɃѿWe?{N?v&7ӿxr,?
~ߵZo(+:έAkݿ7?v"8?;/-`AE?|̿ˆ?݄5.?.z?*A;bwi|1?Ц?}fg?^נUˊv[{ɿޭ\?`?%my(0H?Re~d.<Jhǧ?w8?      ?
t?r؋K_JMN[?ɃbG?,"W	gw?Mj?PpH?z^G7z?&!S?bb|{hu?`<WWz^哨3S1F@X{t
Rls!AJ*m%d$? |˼3Bp?z,?~Z?F9AD;u?/Z?\q?^>GY?Lղ?"JtQ?_R/)?H#I>OY>*㪬O>p?C->-
]B?Zۯ9	?(nr>.C?W\!q?PvXk>:?%3>HeȤfVj	깦} Q2|(vyu/뵾-qԀU۾"뾼['۾nkB!<ć4ڠ5P;oZS|5Idk0>r\?ܝG1?^h'Q ?0AG?
4x>M 0?c>b&?}/h̛>bGp)>gԑ>`l?9?nvM>hB>5">!I0>F;f}>\gҌO>O(+U>@6'>Ni>'i>}?p8ht?־%L=;.eN'ƻ$qvرy¾q{*%~cUJH;T.Ŕxt&B.#&v2?J?Tm:^X䰿D'?Ƞ"	
WǿkOý?pO]?lfSXݿAkְ?]'P?p$Ŀ̃jÿt?;Î-NrY)m?بa]O@ΰ{v?ECe?b=gMJ(>?.2/2Ј?y3ƿyeqf?3q?!k rf=W,_$k?j~}P      ?bO?2ȇ9 Jzÿᖹwr?ц3?r&M?O>?I<GDI?}Tx?1c@N?s?CQ:8J<)Ǳq=Z4EudiqܘzE E6kZPgҩ%n?
hx??K?`~b?WC?2p?m!?'h;W?Lz?ŰB?O?rva"?Ć
?08?9%>53Z>v@?&?_EA?BMy?d66?rp>.u`Sw`R}W)9oGD>1vBwl<Ӌ"zEe^v_	T1oݞ:G**zcK p!#ݺU!NiP?f ?쌨.?z.SE?'+6A>Yi.?6s>xow$?!3/2>dV&>êFR[>4F{?Ä?_>|R>@>]sh>ie>rh> s>l>w}>j3?)>yn?R?5a^1K$aѾ{7J6o۾L0a6岾ʱz˾zwDyq%?                                                                                                                                                                                                                                                                                                                                                                                                                                                                                                                                ư>                                                                                                                                                                                                                                                                                                                                                                                                                                                                                                ?I:˿/tӮN;?	=᭶?⭴ʿ[VIpa?dxzX@v?zj?ޅܿW:n?0#? <(튿1h9m\+?&Tʹ?2Q$?~oުoHLكeO?m:_W7C?O\gGl<r?5'(ǿxr?Ӯ?y˟g4;;m2ks?,tb?      ?蘮kN? Pʶ5tAo?O-?@;t@?8ݶł?ID?S[y?خ\&L?r=u?"L0A 7/B4x=
3H4k{/r~m^0y.on̻}c~?_mb?yxVN?8S\r?jٔ?U$[q?2U?=4Y?~p1P?t0c
\Q?a"?( ?J>4{p>牷}(>EB??u0BC?kȍ?Lnx:?4fe>ƌTeZSЂ6c.Pm$V |}b+	`$} O]?R* W?k:S4OO捘SĿXPLzH+lv
Ȏ~J0Z\?b禳#?Jձ3?b v7G?:>m&t^1?}M.7b>41'?Pek>ry>L>u=M?g^g?Ɠ~>톦5V>W>PK>Y.O>#ۙC>z&h>.xX>Y(3.@O>Tؠ>7e+?T#n?@h>ehq3NE'spm~о/ˡV;9ѨԾV|	&5L~2TǾj\z$4Cb-Z)4?L[sl?nʿrff6=?LhTʿ@q|*A˼?   )#h=gտZjʘ?8 ?l񗗿lg?hW$4':i`?\
?wHv0M`uqu;)uO?6Vv#,U.тZh(?yf\ۗDħĿ-Y2g#ͥ?0+A"?/T
Z0??`8!W㎪$k(?      ?yHI?zkN︿B?Ƅ?*E>9R5{?]>0?
iv?vT5? hlks?-lAX-LX@s+n~l<F!|p1"aM-(?#sӽ=?z?HC?-yl?f?'?T)"H`?>=>2eTK?`D[ ?'	kF?UY?l>f1>&><>ȸ&8?oFw3>v"H;8??Z8><3ۛ3?P$V>[yU%뾺%~C.&"8xR4Xپ:Ct	fŷ5J׾xƲR+1bʸA>Ogf׾.JoOYZ>~JKC!>UK??bظma>a,1?pq>e/?f>nT?UA>D[>敼>i?~?f
cp>{.>Zk>f8=A@k>G;v#>lq>R>eirk>.N4>/ը!?-V>%XϊsMI
x}`좴TBA)M۫!Dʴ>tf ?K*s?M?bǿVm|NO?lz?X0|οF)'z?L~о? N+'ڿ+n?!]&?lC:?!񹿺sfԙX%?`? ()asBV޶?󸈔KkN?5"?瞾Bƿ
	?y׹?.mF]ZPWvi?KE|"kSs1q?      ?j4o?V |
ɹݱ;N,?򫑝?dg,/?ҮTX~?O?¨Ut?xlV?HKp?c'iTV/-Y`q1ۉQ/i8둿0t,A[x}Qx?%5A}?s>C?-t3j?XWQ?,;oj?v,?Pnu)R?b藙9#?qH?|+?>crc~>.8f<X>,$xQ>49?~ ?ˁ#U:?tG/Y
?;W2T1?/>8+N^SdRF$Q~%e.߾Xİwڇ5 )Шd}Psᾭm3џ0(tD{1qܲS$.eP-ѐp N?hoR?;w7?Ey>??xf><8σ&?;_>ݖme.?\D>>lR[>4R%?+˖?B:9;>'c>ۿN>H0G|>K]>t;~>ʬRF7>PE#>_ Z:S>ԗ+>GO_?..>'2ɈΥԾ\D>qie;̡Ǿ+`X?D;l$sNxpz0*Hu9M\'?                                                                                                                                                                                                                                                                                                                                                                                                                                                                                        ư>                                                                                                                                                                                                                                                                                                                                                                                                                                                                                                                                        zœ?Q㒩g5tͧ?CxX3&Ϳt5}?#r٫?"<hڿ"+4?RX?8J"ÿ[GA};?.$aV>*HX?nars	d?4/QPxJԩ?bY0g?.pgFmſ;1\?|ľ?9%>`㰿x2_gЪ?5U}      ?0fb?/`7Q{Q}Ֆ?Ϊ ?ɳC?ܸ^?F?>"<Рv?Kp:hK?ɾ §r?SwAe%0EL5siDu0Dk)blNDZҲ*_67#&|M}?hE~?REsH?*@h?BV?	xl?-'1?f〱T?,3i?_L?@ ?Y5a>4|*6?rJ>Y`>kD'H>?+#?V@?>SK?hu5?Ұ>֙Qm`o '8YV6IE#=ռ1eh%}
;K cm\ׁIJ4ESWHVUrv_M06T8PhKŖz`zQTT?NŇ{??ss]B?)E^U b>؊S*?ʗ>HV:"?\9>w{>mʏ>爵?Fkz?sQ>>@H>]>l˵ۻ>oԩM>	PQʴ>-몽>r<6O]>>/>AɛHv?4V ?@dc6<kpu1 ƾF)SԾ0V~S g/]>ľ|>g:X w+?~\ں?Q$?󔿓_?I@߰Bw'?sՊL?ݿf?
I@? O8X=W;ኬV?h\;JK?ӡd/?6<1an}GbW
?ޛfklrG!;"M?珿,Aſ|?j?Blӂᠿmڐ?T뙁J	[v?      ?qR6?گ3W˲K1l(gy&?X9d1? 'R?OIS?9-LO?F
-u?UQ?mFq?4>Dȇ\PQ}p`?Oo~g3Hı|>Cܣ?U8z?)?X?Kcd?/%ȷ?vm?᫰#?h#4VvT?@݊"?,|[XJ?&HZ$?r;??P	?4\c>]ef1?A<?.%V?xN=?=k?Y3?>mr^?$ոl"ֺE:.ٗղ"YߒzgG}ݬ"	CAhb`/јr_eEa	6tj08 Y"߳8!8JP?BP-?]X?-C?SEJm>㝼*?>_!?LJ,>6m	j>MOy>Ĝտ?D<2/?G\>>^9N>St:M>yXf>>趓>7l
l>JU>:>c.ڴ>V).?w*6>Y&4w<8$UҾxw3ƑLܾE* 8QϞ׺;m7˾ZKmJA{ו&?쩩f?8"0!V54bm?XGkGo¿?oQ\f3F߿&h?i̾?"ſG.c?G?#%?Tz1fCn&G&?@ wW)S/eAh?Vߖ籲ȿ["z`?	q?lӓ7寿T{Ib-"	?1-u?      ?9
	Yg?Y
67?Dnÿm?UE?B3H?/vF?_d`L?Ӱ?rz?PleHP?A~u?xȄՎ25>AJuɦ
	I$t(oLzujD3L큿#?-?`ݬp?[;2E?"j?R%Ƌ?Tunt?fh?Z\?!?
)R?\'$?H?)["?F4V>QfPR>֫ iC?zu?C?ǳIC?
'4.:?Wv>8,e5D}0Nm@`))9H)vMސP9QȦ5j`.66ͶMn9A[*Q6bjrc) Y\vKkW?'?ֱf?ueM?F->AӨ;3?ʮ	@>܀B2b*?,g&>
M>g8z>ycؔ?	?-A3>SV>ov>!핞>PmX>	>E>
>8"PJ>Jr2>ZP1`>X Q?ߏRt1?7oJ`?l8辢ΐ#&Dξ;=⾄gҾ]Ɛ-%oQ]ɾDXJ|N1?l|R?lUP+¿n -7M%Tc?}ɩz)+Z&?e΄??ȃ*㿫~3D?\׬U?'>пd(7W=?x!c?)#K-?ܦ']ηz)%?F\?6&_݌?G|?iH?˿cl?\@?b]u4	zc?zνkx?/M!d      ?GLA?roWYƿA*j!?4z?D1?Y+c?ʅB?;)?1kPVO?<4}?,kCţ޸y=37C#EKXuwNG<Λ!D PA҉y>,?v?0l3G?R%3x?Su?R"#??i+GVh?PdDc&?Z{-_?"HE)?WOHϣ,>0+>ӈ23>bhK>#q'P?}?iBP?.<?E_E?.}~">MGuOU]b ш!OaztC*P3׏Eq2DWR"]HY	ژ~dW@Iq|j?xȭ$?蕨8?.	]?K_(f>K}@D?4">)z9?z!>x&Z|>sH>?+?i+?n<>.xm>٧b>[#y>l࣮>¿&u>(^>non2>׶>`Y>x+?Mrf?E
!Ry)	ս9>wjɾG>DԾ	t58|g
=žf`FYCIIF?r©$?Y
&ȿ?jr?K3?nF4U޷s~:D|?8 0yq?܆0߿H7$?bVn?sx9VUÿ~m!'d.ė?!?@,WuNnͭ|J?_(q?l=9z"rђ?* 62ȿy?c?*vKWpl0V?m?{      ?hA߬?3TMC
ĿgzC\?m8J?,a0?Wcֆ?^:C?Z}?a}P?~Row?^ʝȁސ,{+JʂGH^n.ys7d;$.n;"8ޟ?#B쉇?h6xJ?Ȋ^t?a8?9YƈAw?^?j1ٞ`?֋ ?p4ʒ/U?CR`'?fgM>uCd>$Tu>uש8 >&已G?8lS?2QϻIH?G;$zb?4/Uη??:>?k7
YڼT!!Ϩcᾪȸ#>ULO>oLUk? adS`Gܫs*<|#t%PaI|9%b?gg_$?C>0hBrQ?D)6>oΔgx8?&@c><yu*	0?H>$ Q,>[)>NC3r!?uM@!? j>St>^BM>+Q>srĘ5>rpx>Jq>Aa[>ǛS>#s>)J*!?Tn/
?{g-Eݾοx/	[]jоk$ľ_Q+-Fm{TvETV>gVMRO;?k?rg3ÿz:U¿Գ
?#=H>M$Aȿ_bf?cXoi?Q{x⿠f?^Vk;?:txbӿP$V7|_$?ƿϺBvw?ؓ7a1*!^?L:ic̜1væ~E?_V?@m@B˿=%?D~?yxtzi.U;??8k{!ㄴv      ?8B(?&jX<ӥſ/N?V<? Zm2?J-k=?َL=F?	@R?cY}Q?gr||?Q]	xE>,-.eğJ+rGvF+ԵQ)j>|BM;:,ҟ?Wp?O?fץo<v?<yb?w?{H?
f?Ǧ["?p<Q]?_,^i-?TWZq>φN\">4?>O>5rO?U?(R9O?C?puyפC? ɲ=B>Q7t]>aw[gR%8	W](z q4K	b 	gL徵]/  Ckp 7[LY ai߮~SY|&-=1>l't6Heh?}9b*?򅀥?û[?(uf2>n ;B?.x.b>SJ7? L>k|>Z}pn> 
7\uE)?`h)?۠.>
q>8Adٿ>_> ϳ>v>lϱx>3P^8>˰&>D~>'()?<u?+*P3i#4 Ƨ6!C!ľ]G޾	R8ھI6eRcy^wþNLWD?w?;Jſ?DEz?'?t*lſwB|Նڹ?m"ؿ/?I̩O?e`.kϲ}o$m92s,?E:33? ?Yr6${h܄ǜ?ZƓok}E?d.?Ӽom?!'Ŀu?i?6nI}KhTQ{? 1ܷ{?      ?`sZ?J_s!ǮKّ)?B%ฐ?{o?!Ǘw?QA?}zwp?hL?`B@'k?6
݃j
.n|ܞixI_G.dw$U7398E?zBྠs,~{}h?Xxn?߫BT?Nrb?~O{?/2qa?#>J#H?߱?
z@?fc?آ@M>8@>δM>ɺk>dQw1?.p >!"1?8">A>ls(?>Ow>a[$PI'oW9!trN)¾َͫRо&Áоo{$s&a6ݳjR5n]K>Kܾ\w2Y>?'`n$?h]՟>!tW1?+%(R >+yT?t>[V&C?Bg\ʬ>l->quj>+?=5?	>Dm9>G<pTK>#5>Vp̓>Lf)R>O>
>hGݗ>3c0>ŕ1c>p?1C>eu ;I5ξ/{P
J\RG5ʷM/xWM޿mUخ+㠈no.1Bѥ?.N?,%O¿4LdC?.,ݫ
'.,aD^,?PJRk㿶?Hn?쥉ѿ)U&&d?xo-%t7F?A'?*<O8Lc!XAE?L!\T@?Yl\&*?`?Z2|t?<[=˿,Ҭ?a?;]6:棿fEQk?z0`Qs?      ?"ɄE{ ?0۽`ȶƿL6ճY?^wwd?OT.?z*?`C?fϺSd?KSR?6-cK|?s*\)/^GE+RQvDX6ˢIUҭ,Fyt\Ru?OeG?Ff$IA?vt?$.?!W?;p<?@vZg?bM?v):d2^?4F>g\-?s
>:C>A'P>-fy><ޤ)amP?L?E#ݩP?cŒZw?q(pD?Ir*Z>b5tCv+zz\"9!,I;GRN龈3İ?=ODm
NChU[mB0;꾥%uQr~up&	9":]g?dK
H?1ذ>?:\?B}!>џY_C?@%\	>8?չ]>$r7>@[׼>D%+?Zi+?BB>ca>uk>[:_v>2:VG>ps>9u>d3>D$y>-;(>uy/$*?}V{Y_?NPZL^Yx"7\zCp վp{~ǾCf`6 ,lݭm)b[YvXWZC?Gi3)ʿ"b?|)~ǟ?*3NW񹣿ʷ㌂?ȣ5?fA͂ܿb(S'8|'? ?ewq׿\vvu1X?l`tv?gɧQ?$SI릿h{)av1?SG?~@klW	q?nnſ&nn?U2&i?xcѓ24Qd 2E\c?}I,      ?L??նӼ_}#&Aǿ=)iHs?Nk^f?g5=?<!>s@;u?'D>xq?+2z|@g$r*Uwa>wW~%L\Ý4J9O{ݒ׃,'?6%oHJZ?.]>J0A?^sSl~?2,7p?EK=␕ʟU? dhy=@aJ?j=`ٺ=캼=3.5Q=l7˘=.<??66=.<?1x/6=m1?kt =\iBPRuRe̽f&76SVֽm'GL %@E	
o'3Yy3&76WQymXraBHQՋQ%0?ȶ=!= MD?.!ɑ=Hf6^+?勢q=_]!?©׶w=RuH׶w=_s=D(>?D(>?#^l=;t_=	;ƾt_=Or;m u_=p>׶w=_t_=.V0~;D(>?li[S>$WKTI*CD=X_z.r_`jTI*cSһw
=X4C(UGN.'0s?<6g?,n %ޮ)"6?xh'NWdU0%?-o?|[u*|I??0TgϿdX/OĿ6U?wKYuk?$6DǴpJ]?yFԗ'w?:2It?NP3Hfvsh?EB?;ʿA/RE?8Q?nu?NnܵwМ?fgx8?>៿      ?FPG?qbǿV?! D?@r zC?N?:xB?ܞ*?Hda\O?8kz?&#XtҢHI~f
4p G䄉s1 .^q+l +nG?}fƊ?4
+#S?mps?&6'?\nz?[A?!mf?=ꎍ?^[?on%)? C?ja?a?M>1j3>}=dN?ņ;~J?H& O?%?%QC?8%t9	>ؗrr#`@Y#H%=r,(YZt[m2KBnyYYqs>;ک51}<ud7xQg?$/$\	0?a£?ؾ)[?D>Ha2LxB?*6zv>[/6?P1>O@W>q>ʥK)?H⩝)?[>`B<>A+z>>;#>')>
w>p>ED>>>,o)?>f?L~<Ov+ -ͳ5"țJվQ)&0`澏5w؟y|ҾpmWo<D?                                                                                                                                                                                                                                                                                                                                                                                                                                                                                                                                                                                                                                                        ư>                                                                                                                                                                                                                                                                                                                                                                        F^?㦚M1ſX?vZn?FzVU3¨gyUC?ï L߿S8)?. ?V6FAzf.l?MvD<?HF޸?;Lfʦ׶K?ni!o?-?w=/O?贯{gȿ\3#? m?p1"鶰JB$9z?bdh;?      ?%2? ĿpV.?(DtϞ?3	?-)Ԅ?ޯr:=?:}z?t6H?d@u?`򍿸:/h*Q^[u.UmG&VnISc\"?Xդa?8gb}?]5B>[?k?@9X?icu?s>^\?oE-?ӂ:R?3k!?=Y>|sw> 42>kXh}>M-fC?^PU>vmC?Vg>}(9?e>TdrTI3iM]! ͪԹ $ n
:PѾ9uɾmzOQ5ҹK_L~^؉() o ;6s4>D@=.oSVT?i+2?(V^\H>LM?|V:$Ǹ>F4?]*1>އ)?B8#HҠ>4X@>/	aö>KY??~>Z)~/>A5%'>O=Cv&>>8
mG>l!->
a>FI> (
Y>'?F6J?<h)޾Ɇ$Ak2P=?
m_Yž4ۿAw#e%MQۇNcKgj),?VQ?:ſ
X3O#l?G$¿(>%??W#U?鮝d'A,N۽?bD?|:`ɿ7kȿ]x3mYI?j`X?Y?YS*?8߃kv!ل8?s?$D7鋿i]1煿P$a?Fz˿t?s]?aDkqPĪ9>XA?\(e?0r?      ?q=!q]?WD6WCYǿVq$?=Л?z0r;?"0?{\
A?FOǃ?<\L?@Q?>?͗Mn<]TD.u/G:-oyfc4Ѷsz ,@![Glȗ?*ʖz?ѦgN? dz?eY?iTE?0?;gaj?pQ?9`?| '?RM>B5%P ?R:H8p>>3R?%j?B{~R?=?.G?B>w:p&A ~}`iSe#jY}< O9wy$-OoD%G=oU2`4D $>vw\I^SשLn?}OgB*?LtyL?N7#`?R3@*>TF?^8L>M* =?q8>m=f>)&Mr>2I⡻F/?h#t/?IG^ia>r5ڄ>FQ>\U{>iq>`ۿԇz>Cr>pE4>>Wt>
K	/?5ʸ?oTdGj)j<
2 ξ;hv	>r	پowj:<یS]ɾ&÷[NTwJ?)Rm?H(7߻܈cXx?\RV Dm? ?ٻ
;?ۿL2
D?[3j?Cyk\c//BuÿnlV?{?fpZm?շ?	@a SaӮG<? B)S%}U}?L@v?dFƿS2A?bJ[?r)<%v꼇CwɮBw'&?Ʊ_۟?4G?      ??Q`9=8HUÿ	?e%i?eԟ1?E#?h$Q>?%x_w?,jE?zs?;l(;Xu,a|r`͋5jn
ݮ|*vpA*﹀X6_.?+K<|?$Oφ5?5%Jf?Eh0?.'	p?sNi?}zW?&?9l/O?(Hp?P:'>^<>$
>tegq>r@?P+>rA?.	l>׶5797?Y$$>D<rPa`!IػjC 
 ZB־Z5hq lh(AT־[/z3(MkH!=M Lqn4i+I<;AVs6$T?WS?
?_ >@TF?MU{>KE/?f>~=9%?h6>fyN|>Gx>,i?S^?
Ĵ>3pA0΀>0sj>CU>u>O&|~> e[>
͓>*K>@u>NR(mZ?y.?lG%!P8'-о(!8uRoÔR_U4!=^Q
R{UDKQ%i;D<T 1,?s?ÿ^$AR?(!O	¿#`jD?oq-kܿʛ0s#?;W4?(ÿZ?DX^?FGiƿPb2*t?heD?̆,&+yBkdFB?'i#Ec?3M(/!ӗ?`	.y ſGYJ??3mQ	j?y9"?h@ޮFaP?      ?x?8T-@&ƭGlx*s?׶?Vi<T?^?2DsxS?=Jt?u3V?ESp?7yÈZ_J1LИ'rM, QUvcjR\QnNzEKl?xQP{?lgl?P?AbAeg?h!Q&?E]l?hSN($?LS?H($?T*J?*H1)?PC.?z
?ȳxY?H?x5<?i2Y1?0eY#<?xșv{? 3?N|?Z_ AymⴻG(`!v _r D9&IBT:WK51ăEFe6 y1-i˻ƛ"8ş,!pQ?jܵ]4?/p	?4IB?->"42*?U`sy->X!?j$6>s'!>*Ls(>$*w?20_>?ސύ>JMz>>*>Z>JdHn>>yC>KR>כ;>rK>2J=?>*14B澯^UX҄о_kJVϾ_2Y$!/	̾@p<sF'?I?zUÿwyesAo?Myÿ3<zE?uz]DA]cۿpV?1D?5DÿN
?߸Onp~񡿠?n+1??g>,na=:.Y;?nc=~jJK00c?QW
{ǿL~ߢ?sV?PǧC0OE1Uja?k+̲}Ѫ?      ?{?N~
qLce%!¿ِ?.zs˚?C #?8?3 >?B,X;z?+#r;K?Ϗ}\u?d"wvJ==pp&-8}V#NplInNҍ?q<?DNԣD?D*a딈m?¼Єv?	=q?ɑ+B>:ȏY?E@?-N&jQ?[~ڛ!?⃴>h͓>fpZ?>`>B?C]>
6'EC?V>R :?m]P>6>r*UdN[k䍅NyNޞtԾp;#ؾ2Ev?6ƾwh־!oYM7 bL, Pm׾J7u;1N+3o
3uoZ\W?ʅjw?K>TKH?T|>p\'P1?c>	砐'?yf>sau
>IO> F?rh?W/鍳>Uw1{[>H
>{=2]>>3f>vwD>~H6>ި>|
 Mt>~rd"?;_3?eM
<'m2l̾($G#|Wpp^N?#nLO;ym-Eb0?fכyʰݸ}dW?^dD?4(;K@G?wi|ӆ?28ڿ2-i?,?@~,}xN\4o?_B7^?e#NGͅP?ax!<ԑ?Q_w \ÏĄĿpM?(?<?Q"z צ&r[k+み!?      ?ږ?TrX@g.	4qX?h矣V?zH+?y?ǇVeF?6p?LnߜaP?|3Gyi?<gz*q>>W+b$Y"IvAi[YwNuƓ ^ʾ?ddRzrFҁs?#볭b?Q?UxpO?8W|{?pZAe?i:B>8meL? 5sQ?5-A?&K"?ٕSr>N2>J!u>[gs>s2? e" ?9U3?+S  ?	v?'?~H=>0ԋMBI"oZ3vN^!׾mx&i往O/ܾn$<M37گk ulNePT}>j6[n04?^*"?Rh><qU^7?,( >"7?ܘ׏>nTc?\z>J&`M>|>v1#?.hP?=d$>]m>?\>PS`g>
p>
zþt>DP>FP8>F`/oq>dr$>7?GS>s= A׃7BL7m"ug\ɾ<\k$k0I[zƉ>j7#͒?fT?sd{
ظ)8UM ?[oR|`j˿\?Bƹ?byL\/6?&tg`?1;hx
Ͽ\yſ?B'/bn5`?  |c#-?Nmkq.?.u=uu?iԖ?RɿCy2ο?HJS?K"S޵hϟxתĶ?ff@      ?UWA/M?\˸ƿ!?`y?\
K2S	?ٯ6?)4?R?NC?R.*z?)ڒ`	cv#z,$2WȤq~V\[>Ѯnn+Q?KeS?m|hs$?AzRo?NSܩ?<(9|?vx>>E_c?VE?M\X?5?UWK3>Dq>tzZ¾>&XE>'hX8I?ْ>6)@,J?Uڝq>`JOܻ@?'H}>M=l?듩޾d %I6Tōƈ4P5iuJJӾU)&þ1ǪY%<ƌ
pS<Mev;ǾUA3baElzƱ>?vH⾲Al]?J">WvG>E9lU?TO>Hr=?,];>?R2?dNA(>>zoV>hd)#?8j'#?)ǿa>qE=O}e>TT1>ګʭ>"d:@>;˃>!>$|Ӈ>%5.V>m#?K͕?j&Eb:,?НQ3.YL×FZa*Ϟ?-+D ه۔M"TQl6?} ?BſЬk?WIſ] dN?ćī	::s!A^?&Uq?3&ѿhwnPb?3Um?ж?ILZ?seGޡ6?5{^.);?˿B?3;?=bZ#Iߟ?G3Ɠ?d9?      ?)Ӎ5?_uI3' b/yƿʰ?`X;P?jr AG?LUظ?	P?ܭ?PV?]a*+|?~2T?[N{	Ă!hTԅ6wє㺢?oz-;5bDˢ?CCj?;~.`?Tc}Oy?sf?܈u?ѱ'}"?Wxi?uMƃ*?i&̊_?H2?נ1	? 0u{?$>bt>n0)AQ?"C<?18[`Q?Vk
?0quE?e~ ?b~wӈyp'~z`N0J#O;pLHHo-6 B%FB	_O )[z~ s7HbD/إ6 Dn?9C;?^f%?D3`?*!ϡ>t5QZE?C`"?:?Nz>Z=>f>%-? C-?O:>3/>ۙ$>8*=>>~>=}^>v0>+zK>l]~~Ш>Nq-?Ow~?ggzTxjݡDh;O ۾GOK,Je7.&S<D;¦48GF׾ϘfZ]*~J?                                                                                                                                                                                                                                                                                                                                                                                                                                                                                                                                                                                                                                                                                                                                ư>                                                                                                                                                                                                                                                                                                6;Q?ݡhD4
y?"Vkyv{ȿ\ #?l;Q
9?&-CٿȪ?)g>C?3"WV>2_+m?^UFgȝ.?`v7AmY2nԮ?*Dk?ء|)̢?j	s?طGſ_ R^?t]?N%S6B#6n?Q5`zO      ?5T$?Ѻy]5/?^mr?8N^:?c&v(c5?56gA?2@v? fiJ?plq?"GY,k+rB4. ȪPp+[O,9I\%h_u-54yo~fb]?+w?R͔!4?>2pb?W{?W̒?Al?l\?q\M'T?>W?:K?=[G ?25q>l>"H	>t >ݸ;v=?曆h>R)Ǩ^>?~JZ=>>o4?2&'_ U>ϘK]9`DE{`@yE$м/Bw+}#Olh]߂Cc04#MDh_d;|z5i	+zu/:F7vb*)B~O?`%	?Ivt>e?B?(;IA>)?௯P>3a!?@ԠHG>A	>8o>&Jд?*9?R3>"y@J>aZ>X.EgQo>\,
>ԝݺ>s~>NOz%>e_>\=MO܊>fV?x$~$>}c3ؾھ&G$sg"ɾZľ'
oj1U惾ɳ᳾9@}%?	Kxb? ve|'53?jEBL2{?)bof¿?!?ne@bQ/?#sn(?Β?ѿ@ѿHqCG?<1Pݠ??̿?!PCz?Y? C̳KX[f?W?x!ʿU֡?$E?VnNށc9պ?V?g,K21      ?Z{ߔ?}#DKʿڸ$?ϰׅ?KEI>rutlƎ?33$?l?CyoC?0`~w}?k \'jzâN7e-'*[łs cgH
r;¾O.T̮l Ȣ?Z%?_kĮ*?giJ͢p?uHU&J?~?D<>]cj?I?V`?wJd ?F>r/>56׻>w[>f(Q?؄>t܊Q?'Ǻ>E?5Gi>rLsqh۾c~Z}WgQ.PGf¾I.xMNþs&xkcf:qB*Z%[1ľV|vI_"タ<r4\Sqоc?/AP?&>y41S4`?$ݮNoK>0jb{#F?>/_2;?mf>~Y>v
B>'e-?
y--?d`D>m[>@;|>t>o a,}>Zߏv>۫
^|>3>)"|>3+ԇ->-?Kf?mP)iDz~6obrX.ϱn@$]76BOi4sSO`] ݵ@?LG[&?Xÿgէ0e?먒ÿ!p,v?!㏿&2-ŕ?a8 U?KeKʿ\&wEJ~?VX\3Z.M׮?@?v̩0dj/f?ꙿ^#Kţ?吿eH& ɿ2	v6?\XcX?96;􂱿hԓDh``ܺ?TB􊇿^
?      ?Tĩm_m?z󕆺6 oĿ.@ߺ??p0?KQM?
B?=L?>wiA ?V_)G!S?&
Hsx?Uٶ`P:q4G}hDg3O-Шsm`+G96R@i>v%?OB1p?+[?0rt? r-?Gz?5hs$?@b?]#Q$?-PW?+al,?
~%?Lߖ?uQ?Úg?B@!I?(Z?]${J?w?3e͛@?*ۺ?"yp"*-0)"yX)Wh%Z'+w}L~[x:oqw@$ѲRVHFiA9[N{ڇvϵP	>:I"k!e?M?5?<]5I?p
U?5\">u<?Nz>"_2?*P0+>h>A>_1$?n2$?񳎻I>mMu>ChI>nY|ݯ>H>
;>Q>eQ">>Fp8>:#?azͼK?+{J֛.E12~\ܾNTF<̏'<ur7M2V,,MBjOؾCLQMX%A?H?Jp1*?Ŀ	0w-s?L7~Ŀ1FDStc?=E¿[KPڿtZr?ޕچ?g

,qȈ?`\r ,¿+hm?؁(O?-$.뺧v?|H  Y6Eߜ?)Obͤ
\ſҁ|~?6?BB8v?CX([?47CxpyR?      ?vN}6?]z5wr>&yӾWp꙲?f?#fFBE?
#7?>q3<L?)v?%*¸P?W=r?8].nbNVCBs$JtXm;zV<,!zt"%?Y)~?b~F?L*Dj?A?ոk?1?+$T?9n6 ?šbuK?NV #?,5Lͥ?[Rt?zɄ>۔`?>M=?Wώ?/yF>?=qjI?^bk&4?$>`Ю8gxHYv,XE3( )q~ѡ:3WG^B)f<lgٟ'g:{&iBXPX@T?[,rd?zoL?TJs B?Iʪ>7M-)?;>@Gֶ'"?ҾHk>B>l/s>Uo?TZq!?0N/>cTy>F>tO>[.>{߆쓛> ->fg>`Ͼ>d׮> ?^_>W')5F6(2 (.'оu`GuhӾlmP,qt~;f	Ⱦ4+=,^9dw*?                                                                                                                                                                                                                                                                                                                                                                                                                                                                                                                                                                                                                                                                                                                                                                        ư>                                                                                                                                                                                                                                                                                                                                                                                                                                                                                                                                                                                                                                                                                                                                                                                                                                                                                                                                                                                                                                        ư>                                                                                                                                                                                                                                                                                                                                                                                                                                                                                                                                                                                                                                                                                                                                                                                                                                                                                                                                                                                                                                        ư>                                                                                                                                                                                                                                        6&δ?X5͛ JH?*Q[Q?Wr{p"7?XxBt?ϓ<Ϳ$De8?j䔿b"ǰ??B9Vo$zQH?ǅ=}?$9n샿2r?-S0nIP'<˿?\;?G\g?vQq:6.<X	se?ҥԞ[6?      ?!U?R? 
ƿ||?r?`?0?|J$?l C?K%Q ?BP?nTԧo|?E'XR ;X?B 26vMko	K &h2/Fu?tO`iY?deza:?w\t?eMmƔ?o??qn&Y>OOhf??1]7]?#R*?!9>\>Z]>>В">(N?eŠ9?eyN?V
>?PĪC?0>K4(sp?OOCt?dZuRjqMҾU):*˾㸄_x"Ѿx6˾2"YMB:Y2Sg;ZHlCܾ}_bZ
6e?Z3t?r>Վ[?P.j>r6ЊB?Z>ey7?/h#>TUyĵ>m,P>%)?U+ob+)?-w>vu*,҄
>\T>?>e< ^>f[ϙ>ø>+>ݨIZw>(?M7σ8?e5&d,O	7R{_%z5dlb3>ľ:N!ө4HXM!Ar9"LBXzA?                                                                                                                                                                                                                                                                                                                                                                                                                                                                                                                                                                                                                                                                                                                                                                                                        ư>                                                                                                                                                                                                                                                                                                                                                                                                                                                                                                                                                                                                                                                                                                                                                                                                                                                                                                                                                                                                                                        ư>                                                                                                                                                                                                                                                                                                                                                                                                                                                                                                                                                                                                                                                                                                                                                                                                                                                                                                                                                                                                                                        ư>                                                                                                                                                                                                                                                                                                                                                                                                                                                                                                                                                                                                                                                                                                                                                                                                                                                                                                                                                                                                                                        ư>                                                                                                                                                                                                                                                                                                                                                                                                                                                                                                                                                                                                                                                                                                                                                                                                                                                                                                                                                                                                                                        ư>                                                                                                                                                                                                                                                                                                                                                                                                                                                                                                                                                                                                                                                                                                                                                                                                                                                                                                                                                                                                                                        ư>                                                                                                                                                                                                                                                                                                                                                                                                                                                                                                                                                                                                                                                                                                                                                                                                                                                                                                                                                                                                                                        ư>                                                                                                                                                                                                                                                                                                                                                                                                                                                                                                                                                                                                                                                                                                                                                                                                                                                                                                                                                                                                                                        ư>                                                                                                                                                                ?IYo`cN?UWNɿ8-p?C?	yÈ
?Th?-.x˿"2~E^N[?{&M!ntW?@jLy?0.`y3HM7?@ ?.`I.FwT]Ƞ?vi<=v?yN ȿ1">P?pJ
l?vEe@NՔϨ$R+x?L<oP9Z      ?sG?]Ej$ 	4ĿZLV?U?A|U?ʡ_?sbiQ?>z?J3u'T?H^?nsu?%{ǐ_]UQ[x}vXtQ%+m0`r]sJFK}لڃgZ?"?^!PZ?0qk.ui?TRcܝ?'w?D)?tJh_?uCj\'?CRS?N\O+?2r?"Y?E7e)?he瓦?ǳYߊE?I?8_E? ?67:?] ?Hji*Ƹ+GQذj'(d-|E60ͺ(=-"?7't%Q瀧=\j muF: t)@\?Ȱll1?%hc?v~Q?CJ_ ? !{g+8?>Oy-?8u]j>#hy>	 eT>pgnL ?3
j ?3ev	%>im-Nq>M杵>UB>vޤ>]>$A>x>EN>6>J= ?U1?MCA;%qc	yDW*h7mھo!Ӓ~0%}*D!þ\:Ծ #2P+5?                                                                                                                                                                                                                                                                                                                                                                                                                                                                                                                                                                                                                                                                                                                                                                                                                                                                                ư>                                                                                                                                                                                                                                                                                                                                                                                                                                                                                                                                                                                                                                                                                                                                                                                                                                                                                                                                                                                                                                        ư>                                                                                                                                                                                                                                                                                                                                                                                                                                                                                                                                                                                                                                                                                                                                                                                                                                                                                                                                                                                                                                        ư>                                                                                                                                                                                                                                                                                                                                                                                                                                                                                                                                                                                                                                                                                                                                                                                                                                                                                                                                                                                                                                        ư>                                                                                                                                                                                                                                                                                                                                                                                                                                                                                                                                                                                                                                                                                                                                                                                                                                                                                                                                                                                                                                        ư>                                                                                                                                                                                                                                                                                                                                                                                                                                                                                                                                                                                                                                                                                                                                                                                                                                                                                                                                                                                                                                        ư>                                                                                                                                                                                                                                                                                                                                                                                                                                                                                                                                                                                                                                                                                                                                                                                                                                                                                                                                                                                                                                        ư>                                                                                                                                                                                                                                                                                                                                                                                                                                                                                                                                                                                                                                                                                                                                                                                                                                                                                                                                                                                                                                        ư>                                                                                                                                                                                                                                                                                                                                                                                                                                                                                                                                                                                                                                                                                                                                                                                                                                                                                                                                                                                                                                        ư>                                                                                \ԹE?D-_¿G2vl~B??¿oy?^h?`KZ㿲UQ9C?v3vK?	4yʿqH^$긿[?
(n?f"Ѐ?"H?A@$HP*?H y`̺Wqy#-t0)?	9ʿJ}.?!KЬ?6򻅱z/㦿ͼ?e?;fZ?      ?>5O?H0[ļjHRſY?ꔝA?}@?)b?FHE?+с?u9M?o>|?y2b85ÙQ
