MTP
version = 1.1.0
potential_name = MTP1m
scaling = 1.970502699241862e-01
species_count = 2
potential_tag = 
radial_basis_type = RBChebyshev
	min_dist = 2.065418021150114e+00
	max_dist = 7.000000000000000e+00
	radial_basis_size = 8
	radial_funcs_count = 5
	radial_coeffs
		0-0
			{5.227816191027378e-02, -3.685059147637806e-02, -8.299861286903253e-02, -3.557778119284230e-02, -1.242117040253033e-02, -1.174540041307622e-02, -8.739749803424611e-03, -7.298507024046722e-03}
			{1.383593876821620e-01, 3.923139316071942e-01, 3.370185544464648e-01, 2.142725435511999e-01, 1.019177864349584e-01, 4.926847636123625e-02, 4.197419837664364e-02, 1.000959288917169e-02}
			{4.963810561940543e-02, 3.462375561826306e-01, 3.352115456841245e-01, 2.721427917589909e-01, 1.316698715215682e-01, 1.079706393348590e-01, 7.610414433228556e-02, 3.836556533891696e-02}
			{-2.063433893557213e-01, -2.258628240613312e-01, -3.093844154358356e-02, 1.065446709600190e-01, -4.342976161795257e-03, 8.485507073072884e-02, 8.646638737904791e-02, 8.479634377232316e-02}
			{2.082154086978096e-01, -1.174769094516922e-01, 2.095888505457822e-01, -1.947210937476223e-01, 2.343346756441066e-02, -6.977278592215155e-02, -4.736988945740150e-02, -4.482713345537941e-02}
		0-1
			{1.406959652869029e-01, 1.037390607091057e-01, -1.129448530959238e-03, 2.683337216369834e-02, -4.964431231769643e-03, 1.056616226634303e-02, -3.053211491818196e-04, 1.676995540008179e-02}
			{4.497703697339703e-02, -2.135370275284836e-01, 3.305125994732066e-02, -4.011425886513230e-02, 9.201308839558052e-02, -2.252751695342129e-02, 2.528121955942230e-02, -2.505313163367281e-02}
			{-2.460763213280387e-01, -3.624678695896786e-02, -1.946758235426354e-01, -4.928948111330501e-02, 1.200565721945144e-01, 3.430753032350608e-02, 2.508933102538004e-02, -2.267959401494145e-02}
			{-2.019391826450494e-01, 1.586433072190523e-01, 3.297594762210103e-01, -1.312104514931932e-01, 4.105821871785981e-01, 1.064030266118182e-01, 1.550759154205275e-01, -1.958595048376091e-02}
			{3.593191915952824e-01, -2.830481449209953e-01, 1.690398324748850e-01, -6.958935240382379e-02, -4.003067354274038e-02, 2.078605777176870e-02, -1.288355704630531e-02, 2.778174144631512e-02}
		1-0
			{2.138446040798526e-01, 3.021325481805733e-01, 8.467501610238615e-02, 1.108140120141594e-01, 4.768067725762744e-02, 3.450425216340143e-02, 5.431630480314485e-03, -1.170676397164988e-02}
			{1.688859343920051e-01, 3.033605580796462e-01, 3.066723244119685e-01, 1.418395998373041e-01, 9.379125252355225e-02, 1.918830651401617e-03, 7.254926247349940e-03, 9.086513252045427e-03}
			{-4.637128791056705e-02, -4.991732075541093e-01, 1.254725324617620e-02, -2.917512976998156e-01, -1.974578667311881e-02, -1.677864391145317e-01, 2.568901404555257e-02, -9.395107926388081e-02}
			{1.617071275079789e-01, -1.037113104467118e-02, 4.122107804691330e-01, 2.262717469455078e-01, 1.834353705816326e-01, -2.900608524294300e-02, 1.131044466702302e-01, -5.028989390030017e-02}
			{2.603084798610539e-01, -2.975615985836786e-01, 3.925442918151780e-01, -5.625940196521407e-02, -8.360332510813522e-02, -2.088583698134932e-02, -9.059937045846342e-02, 3.473559216888090e-02}
		1-1
			{4.934620146371296e-01, 5.628960497722700e-01, 3.766846732983797e-01, 2.377265472964124e-01, 1.634445203870480e-01, 9.183059871770463e-02, 3.452422270785357e-02, 2.102171601552428e-02}
			{-3.005392034847760e-01, 2.339591677078729e-01, -3.378812574206070e-01, 2.155588086934109e-01, -1.647239599821210e-01, 1.078902874577841e-01, -5.346795757853672e-02, 3.517142348555247e-02}
			{1.484067832625763e-01, 1.600088596624898e-01, 2.952000488754236e-01, -1.504053801620443e-03, 1.352219387725226e-01, -7.425173556205553e-02, 2.090306283651594e-02, -4.900501446364502e-02}
			{-1.823321588314806e-01, -1.370834609669091e-01, 2.533635360227386e-01, -3.471199962175636e-02, 1.328945682520321e-01, -1.954115440096391e-01, 1.381899192178677e-02, -7.293667090306230e-02}
			{2.962259576192917e-01, -3.591677837320073e-01, 8.092242400992697e-02, 6.142944376007967e-02, -1.132797740556079e-01, 1.726676552547517e-01, -3.074023180676207e-02, 6.819211397514290e-02}
alpha_moments_count = 718
alpha_index_basic_count = 201
alpha_index_basic = {{0, 0, 0, 0}, {0, 1, 0, 0}, {0, 0, 1, 0}, {0, 0, 0, 1}, {0, 2, 0, 0}, {0, 1, 1, 0}, {0, 1, 0, 1}, {0, 0, 2, 0}, {0, 0, 1, 1}, {0, 0, 0, 2}, {0, 3, 0, 0}, {0, 2, 1, 0}, {0, 2, 0, 1}, {0, 1, 2, 0}, {0, 1, 1, 1}, {0, 1, 0, 2}, {0, 0, 3, 0}, {0, 0, 2, 1}, {0, 0, 1, 2}, {0, 0, 0, 3}, {0, 4, 0, 0}, {0, 3, 1, 0}, {0, 3, 0, 1}, {0, 2, 2, 0}, {0, 2, 1, 1}, {0, 2, 0, 2}, {0, 1, 3, 0}, {0, 1, 2, 1}, {0, 1, 1, 2}, {0, 1, 0, 3}, {0, 0, 4, 0}, {0, 0, 3, 1}, {0, 0, 2, 2}, {0, 0, 1, 3}, {0, 0, 0, 4}, {0, 5, 0, 0}, {0, 4, 1, 0}, {0, 4, 0, 1}, {0, 3, 2, 0}, {0, 3, 1, 1}, {0, 3, 0, 2}, {0, 2, 3, 0}, {0, 2, 2, 1}, {0, 2, 1, 2}, {0, 2, 0, 3}, {0, 1, 4, 0}, {0, 1, 3, 1}, {0, 1, 2, 2}, {0, 1, 1, 3}, {0, 1, 0, 4}, {0, 0, 5, 0}, {0, 0, 4, 1}, {0, 0, 3, 2}, {0, 0, 2, 3}, {0, 0, 1, 4}, {0, 0, 0, 5}, {0, 6, 0, 0}, {0, 5, 1, 0}, {0, 5, 0, 1}, {0, 4, 2, 0}, {0, 4, 1, 1}, {0, 4, 0, 2}, {0, 3, 3, 0}, {0, 3, 2, 1}, {0, 3, 1, 2}, {0, 3, 0, 3}, {0, 2, 4, 0}, {0, 2, 3, 1}, {0, 2, 2, 2}, {0, 2, 1, 3}, {0, 2, 0, 4}, {0, 1, 5, 0}, {0, 1, 4, 1}, {0, 1, 3, 2}, {0, 1, 2, 3}, {0, 1, 1, 4}, {0, 1, 0, 5}, {0, 0, 6, 0}, {0, 0, 5, 1}, {0, 0, 4, 2}, {0, 0, 3, 3}, {0, 0, 2, 4}, {0, 0, 1, 5}, {0, 0, 0, 6}, {0, 7, 0, 0}, {0, 6, 1, 0}, {0, 6, 0, 1}, {0, 5, 2, 0}, {0, 5, 1, 1}, {0, 5, 0, 2}, {0, 4, 3, 0}, {0, 4, 2, 1}, {0, 4, 1, 2}, {0, 4, 0, 3}, {0, 3, 4, 0}, {0, 3, 3, 1}, {0, 3, 2, 2}, {0, 3, 1, 3}, {0, 3, 0, 4}, {0, 2, 5, 0}, {0, 2, 4, 1}, {0, 2, 3, 2}, {0, 2, 2, 3}, {0, 2, 1, 4}, {0, 2, 0, 5}, {0, 1, 6, 0}, {0, 1, 5, 1}, {0, 1, 4, 2}, {0, 1, 3, 3}, {0, 1, 2, 4}, {0, 1, 1, 5}, {0, 1, 0, 6}, {0, 0, 7, 0}, {0, 0, 6, 1}, {0, 0, 5, 2}, {0, 0, 4, 3}, {0, 0, 3, 4}, {0, 0, 2, 5}, {0, 0, 1, 6}, {0, 0, 0, 7}, {1, 0, 0, 0}, {1, 1, 0, 0}, {1, 0, 1, 0}, {1, 0, 0, 1}, {1, 2, 0, 0}, {1, 1, 1, 0}, {1, 1, 0, 1}, {1, 0, 2, 0}, {1, 0, 1, 1}, {1, 0, 0, 2}, {1, 3, 0, 0}, {1, 2, 1, 0}, {1, 2, 0, 1}, {1, 1, 2, 0}, {1, 1, 1, 1}, {1, 1, 0, 2}, {1, 0, 3, 0}, {1, 0, 2, 1}, {1, 0, 1, 2}, {1, 0, 0, 3}, {1, 4, 0, 0}, {1, 3, 1, 0}, {1, 3, 0, 1}, {1, 2, 2, 0}, {1, 2, 1, 1}, {1, 2, 0, 2}, {1, 1, 3, 0}, {1, 1, 2, 1}, {1, 1, 1, 2}, {1, 1, 0, 3}, {1, 0, 4, 0}, {1, 0, 3, 1}, {1, 0, 2, 2}, {1, 0, 1, 3}, {1, 0, 0, 4}, {1, 5, 0, 0}, {1, 4, 1, 0}, {1, 4, 0, 1}, {1, 3, 2, 0}, {1, 3, 1, 1}, {1, 3, 0, 2}, {1, 2, 3, 0}, {1, 2, 2, 1}, {1, 2, 1, 2}, {1, 2, 0, 3}, {1, 1, 4, 0}, {1, 1, 3, 1}, {1, 1, 2, 2}, {1, 1, 1, 3}, {1, 1, 0, 4}, {1, 0, 5, 0}, {1, 0, 4, 1}, {1, 0, 3, 2}, {1, 0, 2, 3}, {1, 0, 1, 4}, {1, 0, 0, 5}, {2, 0, 0, 0}, {2, 1, 0, 0}, {2, 0, 1, 0}, {2, 0, 0, 1}, {2, 2, 0, 0}, {2, 1, 1, 0}, {2, 1, 0, 1}, {2, 0, 2, 0}, {2, 0, 1, 1}, {2, 0, 0, 2}, {2, 3, 0, 0}, {2, 2, 1, 0}, {2, 2, 0, 1}, {2, 1, 2, 0}, {2, 1, 1, 1}, {2, 1, 0, 2}, {2, 0, 3, 0}, {2, 0, 2, 1}, {2, 0, 1, 2}, {2, 0, 0, 3}, {3, 0, 0, 0}, {3, 1, 0, 0}, {3, 0, 1, 0}, {3, 0, 0, 1}, {4, 0, 0, 0}}
alpha_index_times_count = 2634
alpha_index_times = {{0, 0, 1, 201}, {1, 1, 1, 202}, {2, 2, 1, 202}, {3, 3, 1, 202}, {1, 4, 1, 203}, {2, 5, 1, 203}, {3, 6, 1, 203}, {1, 5, 1, 204}, {2, 7, 1, 204}, {3, 8, 1, 204}, {1, 6, 1, 205}, {2, 8, 1, 205}, {3, 9, 1, 205}, {1, 10, 1, 206}, {2, 11, 1, 206}, {3, 12, 1, 206}, {1, 11, 1, 207}, {2, 13, 1, 207}, {3, 14, 1, 207}, {1, 12, 1, 208}, {2, 14, 1, 208}, {3, 15, 1, 208}, {1, 13, 1, 209}, {2, 16, 1, 209}, {3, 17, 1, 209}, {1, 14, 1, 210}, {2, 17, 1, 210}, {3, 18, 1, 210}, {1, 15, 1, 211}, {2, 18, 1, 211}, {3, 19, 1, 211}, {4, 4, 1, 212}, {5, 5, 1, 212}, {6, 6, 1, 212}, {4, 5, 1, 213}, {5, 7, 1, 213}, {6, 8, 1, 213}, {4, 6, 1, 214}, {5, 8, 1, 214}, {6, 9, 1, 214}, {5, 5, 1, 215}, {7, 7, 1, 215}, {8, 8, 1, 215}, {5, 6, 1, 216}, {7, 8, 1, 216}, {8, 9, 1, 216}, {6, 6, 1, 217}, {8, 8, 1, 217}, {9, 9, 1, 217}, {4, 10, 1, 218}, {5, 11, 1, 218}, {6, 12, 1, 218}, {4, 11, 1, 219}, {5, 13, 1, 219}, {6, 14, 1, 219}, {4, 12, 1, 220}, {5, 14, 1, 220}, {6, 15, 1, 220}, {4, 13, 1, 221}, {5, 16, 1, 221}, {6, 17, 1, 221}, {4, 14, 1, 222}, {5, 17, 1, 222}, {6, 18, 1, 222}, {4, 15, 1, 223}, {5, 18, 1, 223}, {6, 19, 1, 223}, {5, 10, 1, 224}, {7, 11, 1, 224}, {8, 12, 1, 224}, {5, 11, 1, 225}, {7, 13, 1, 225}, {8, 14, 1, 225}, {5, 12, 1, 226}, {7, 14, 1, 226}, {8, 15, 1, 226}, {5, 13, 1, 227}, {7, 16, 1, 227}, {8, 17, 1, 227}, {5, 14, 1, 228}, {7, 17, 1, 228}, {8, 18, 1, 228}, {5, 15, 1, 229}, {7, 18, 1, 229}, {8, 19, 1, 229}, {6, 10, 1, 230}, {8, 11, 1, 230}, {9, 12, 1, 230}, {6, 11, 1, 231}, {8, 13, 1, 231}, {9, 14, 1, 231}, {6, 12, 1, 232}, {8, 14, 1, 232}, {9, 15, 1, 232}, {6, 13, 1, 233}, {8, 16, 1, 233}, {9, 17, 1, 233}, {6, 14, 1, 234}, {8, 17, 1, 234}, {9, 18, 1, 234}, {6, 15, 1, 235}, {8, 18, 1, 235}, {9, 19, 1, 235}, {4, 20, 1, 236}, {5, 21, 1, 236}, {6, 22, 1, 236}, {4, 21, 1, 237}, {5, 23, 1, 237}, {6, 24, 1, 237}, {4, 22, 1, 238}, {5, 24, 1, 238}, {6, 25, 1, 238}, {4, 23, 1, 239}, {5, 26, 1, 239}, {6, 27, 1, 239}, {4, 24, 1, 240}, {5, 27, 1, 240}, {6, 28, 1, 240}, {4, 25, 1, 241}, {5, 28, 1, 241}, {6, 29, 1, 241}, {4, 26, 1, 242}, {5, 30, 1, 242}, {6, 31, 1, 242}, {4, 27, 1, 243}, {5, 31, 1, 243}, {6, 32, 1, 243}, {4, 28, 1, 244}, {5, 32, 1, 244}, {6, 33, 1, 244}, {4, 29, 1, 245}, {5, 33, 1, 245}, {6, 34, 1, 245}, {5, 20, 1, 246}, {7, 21, 1, 246}, {8, 22, 1, 246}, {5, 21, 1, 247}, {7, 23, 1, 247}, {8, 24, 1, 247}, {5, 22, 1, 248}, {7, 24, 1, 248}, {8, 25, 1, 248}, {5, 23, 1, 249}, {7, 26, 1, 249}, {8, 27, 1, 249}, {5, 24, 1, 250}, {7, 27, 1, 250}, {8, 28, 1, 250}, {5, 25, 1, 251}, {7, 28, 1, 251}, {8, 29, 1, 251}, {5, 26, 1, 252}, {7, 30, 1, 252}, {8, 31, 1, 252}, {5, 27, 1, 253}, {7, 31, 1, 253}, {8, 32, 1, 253}, {5, 28, 1, 254}, {7, 32, 1, 254}, {8, 33, 1, 254}, {5, 29, 1, 255}, {7, 33, 1, 255}, {8, 34, 1, 255}, {6, 20, 1, 256}, {8, 21, 1, 256}, {9, 22, 1, 256}, {6, 21, 1, 257}, {8, 23, 1, 257}, {9, 24, 1, 257}, {6, 22, 1, 258}, {8, 24, 1, 258}, {9, 25, 1, 258}, {6, 23, 1, 259}, {8, 26, 1, 259}, {9, 27, 1, 259}, {6, 24, 1, 260}, {8, 27, 1, 260}, {9, 28, 1, 260}, {6, 25, 1, 261}, {8, 28, 1, 261}, {9, 29, 1, 261}, {6, 26, 1, 262}, {8, 30, 1, 262}, {9, 31, 1, 262}, {6, 27, 1, 263}, {8, 31, 1, 263}, {9, 32, 1, 263}, {6, 28, 1, 264}, {8, 32, 1, 264}, {9, 33, 1, 264}, {6, 29, 1, 265}, {8, 33, 1, 265}, {9, 34, 1, 265}, {4, 4, 1, 266}, {5, 5, 2, 266}, {6, 6, 2, 266}, {7, 7, 1, 266}, {8, 8, 2, 266}, {9, 9, 1, 266}, {4, 10, 1, 267}, {5, 11, 2, 267}, {6, 12, 2, 267}, {7, 13, 1, 267}, {8, 14, 2, 267}, {9, 15, 1, 267}, {4, 11, 1, 268}, {5, 13, 2, 268}, {6, 14, 2, 268}, {7, 16, 1, 268}, {8, 17, 2, 268}, {9, 18, 1, 268}, {4, 12, 1, 269}, {5, 14, 2, 269}, {6, 15, 2, 269}, {7, 17, 1, 269}, {8, 18, 2, 269}, {9, 19, 1, 269}, {4, 20, 1, 270}, {5, 21, 2, 270}, {6, 22, 2, 270}, {7, 23, 1, 270}, {8, 24, 2, 270}, {9, 25, 1, 270}, {4, 21, 1, 271}, {5, 23, 2, 271}, {6, 24, 2, 271}, {7, 26, 1, 271}, {8, 27, 2, 271}, {9, 28, 1, 271}, {4, 22, 1, 272}, {5, 24, 2, 272}, {6, 25, 2, 272}, {7, 27, 1, 272}, {8, 28, 2, 272}, {9, 29, 1, 272}, {4, 23, 1, 273}, {5, 26, 2, 273}, {6, 27, 2, 273}, {7, 30, 1, 273}, {8, 31, 2, 273}, {9, 32, 1, 273}, {4, 24, 1, 274}, {5, 27, 2, 274}, {6, 28, 2, 274}, {7, 31, 1, 274}, {8, 32, 2, 274}, {9, 33, 1, 274}, {4, 25, 1, 275}, {5, 28, 2, 275}, {6, 29, 2, 275}, {7, 32, 1, 275}, {8, 33, 2, 275}, {9, 34, 1, 275}, {4, 35, 1, 276}, {5, 36, 2, 276}, {6, 37, 2, 276}, {7, 38, 1, 276}, {8, 39, 2, 276}, {9, 40, 1, 276}, {4, 36, 1, 277}, {5, 38, 2, 277}, {6, 39, 2, 277}, {7, 41, 1, 277}, {8, 42, 2, 277}, {9, 43, 1, 277}, {4, 37, 1, 278}, {5, 39, 2, 278}, {6, 40, 2, 278}, {7, 42, 1, 278}, {8, 43, 2, 278}, {9, 44, 1, 278}, {4, 38, 1, 279}, {5, 41, 2, 279}, {6, 42, 2, 279}, {7, 45, 1, 279}, {8, 46, 2, 279}, {9, 47, 1, 279}, {4, 39, 1, 280}, {5, 42, 2, 280}, {6, 43, 2, 280}, {7, 46, 1, 280}, {8, 47, 2, 280}, {9, 48, 1, 280}, {4, 40, 1, 281}, {5, 43, 2, 281}, {6, 44, 2, 281}, {7, 47, 1, 281}, {8, 48, 2, 281}, {9, 49, 1, 281}, {4, 41, 1, 282}, {5, 45, 2, 282}, {6, 46, 2, 282}, {7, 50, 1, 282}, {8, 51, 2, 282}, {9, 52, 1, 282}, {4, 42, 1, 283}, {5, 46, 2, 283}, {6, 47, 2, 283}, {7, 51, 1, 283}, {8, 52, 2, 283}, {9, 53, 1, 283}, {4, 43, 1, 284}, {5, 47, 2, 284}, {6, 48, 2, 284}, {7, 52, 1, 284}, {8, 53, 2, 284}, {9, 54, 1, 284}, {4, 44, 1, 285}, {5, 48, 2, 285}, {6, 49, 2, 285}, {7, 53, 1, 285}, {8, 54, 2, 285}, {9, 55, 1, 285}, {10, 10, 1, 286}, {11, 11, 1, 286}, {12, 12, 1, 286}, {10, 11, 1, 287}, {11, 13, 1, 287}, {12, 14, 1, 287}, {10, 12, 1, 288}, {11, 14, 1, 288}, {12, 15, 1, 288}, {10, 13, 1, 289}, {11, 16, 1, 289}, {12, 17, 1, 289}, {10, 14, 1, 290}, {11, 17, 1, 290}, {12, 18, 1, 290}, {10, 15, 1, 291}, {11, 18, 1, 291}, {12, 19, 1, 291}, {11, 11, 1, 292}, {13, 13, 1, 292}, {14, 14, 1, 292}, {11, 12, 1, 293}, {13, 14, 1, 293}, {14, 15, 1, 293}, {11, 13, 1, 294}, {13, 16, 1, 294}, {14, 17, 1, 294}, {11, 14, 1, 295}, {13, 17, 1, 295}, {14, 18, 1, 295}, {11, 15, 1, 296}, {13, 18, 1, 296}, {14, 19, 1, 296}, {12, 12, 1, 297}, {14, 14, 1, 297}, {15, 15, 1, 297}, {12, 13, 1, 298}, {14, 16, 1, 298}, {15, 17, 1, 298}, {12, 14, 1, 299}, {14, 17, 1, 299}, {15, 18, 1, 299}, {12, 15, 1, 300}, {14, 18, 1, 300}, {15, 19, 1, 300}, {13, 13, 1, 301}, {16, 16, 1, 301}, {17, 17, 1, 301}, {13, 14, 1, 302}, {16, 17, 1, 302}, {17, 18, 1, 302}, {13, 15, 1, 303}, {16, 18, 1, 303}, {17, 19, 1, 303}, {14, 14, 1, 304}, {17, 17, 1, 304}, {18, 18, 1, 304}, {14, 15, 1, 305}, {17, 18, 1, 305}, {18, 19, 1, 305}, {15, 15, 1, 306}, {18, 18, 1, 306}, {19, 19, 1, 306}, {10, 10, 1, 307}, {11, 11, 2, 307}, {12, 12, 2, 307}, {13, 13, 1, 307}, {14, 14, 2, 307}, {15, 15, 1, 307}, {10, 11, 1, 308}, {11, 13, 2, 308}, {12, 14, 2, 308}, {13, 16, 1, 308}, {14, 17, 2, 308}, {15, 18, 1, 308}, {10, 12, 1, 309}, {11, 14, 2, 309}, {12, 15, 2, 309}, {13, 17, 1, 309}, {14, 18, 2, 309}, {15, 19, 1, 309}, {11, 11, 1, 310}, {13, 13, 2, 310}, {14, 14, 2, 310}, {16, 16, 1, 310}, {17, 17, 2, 310}, {18, 18, 1, 310}, {11, 12, 1, 311}, {13, 14, 2, 311}, {14, 15, 2, 311}, {16, 17, 1, 311}, {17, 18, 2, 311}, {18, 19, 1, 311}, {12, 12, 1, 312}, {14, 14, 2, 312}, {15, 15, 2, 312}, {17, 17, 1, 312}, {18, 18, 2, 312}, {19, 19, 1, 312}, {10, 20, 1, 313}, {11, 21, 2, 313}, {12, 22, 2, 313}, {13, 23, 1, 313}, {14, 24, 2, 313}, {15, 25, 1, 313}, {10, 21, 1, 314}, {11, 23, 2, 314}, {12, 24, 2, 314}, {13, 26, 1, 314}, {14, 27, 2, 314}, {15, 28, 1, 314}, {10, 22, 1, 315}, {11, 24, 2, 315}, {12, 25, 2, 315}, {13, 27, 1, 315}, {14, 28, 2, 315}, {15, 29, 1, 315}, {10, 23, 1, 316}, {11, 26, 2, 316}, {12, 27, 2, 316}, {13, 30, 1, 316}, {14, 31, 2, 316}, {15, 32, 1, 316}, {10, 24, 1, 317}, {11, 27, 2, 317}, {12, 28, 2, 317}, {13, 31, 1, 317}, {14, 32, 2, 317}, {15, 33, 1, 317}, {10, 25, 1, 318}, {11, 28, 2, 318}, {12, 29, 2, 318}, {13, 32, 1, 318}, {14, 33, 2, 318}, {15, 34, 1, 318}, {11, 20, 1, 319}, {13, 21, 2, 319}, {14, 22, 2, 319}, {16, 23, 1, 319}, {17, 24, 2, 319}, {18, 25, 1, 319}, {11, 21, 1, 320}, {13, 23, 2, 320}, {14, 24, 2, 320}, {16, 26, 1, 320}, {17, 27, 2, 320}, {18, 28, 1, 320}, {11, 22, 1, 321}, {13, 24, 2, 321}, {14, 25, 2, 321}, {16, 27, 1, 321}, {17, 28, 2, 321}, {18, 29, 1, 321}, {11, 23, 1, 322}, {13, 26, 2, 322}, {14, 27, 2, 322}, {16, 30, 1, 322}, {17, 31, 2, 322}, {18, 32, 1, 322}, {11, 24, 1, 323}, {13, 27, 2, 323}, {14, 28, 2, 323}, {16, 31, 1, 323}, {17, 32, 2, 323}, {18, 33, 1, 323}, {11, 25, 1, 324}, {13, 28, 2, 324}, {14, 29, 2, 324}, {16, 32, 1, 324}, {17, 33, 2, 324}, {18, 34, 1, 324}, {12, 20, 1, 325}, {14, 21, 2, 325}, {15, 22, 2, 325}, {17, 23, 1, 325}, {18, 24, 2, 325}, {19, 25, 1, 325}, {12, 21, 1, 326}, {14, 23, 2, 326}, {15, 24, 2, 326}, {17, 26, 1, 326}, {18, 27, 2, 326}, {19, 28, 1, 326}, {12, 22, 1, 327}, {14, 24, 2, 327}, {15, 25, 2, 327}, {17, 27, 1, 327}, {18, 28, 2, 327}, {19, 29, 1, 327}, {12, 23, 1, 328}, {14, 26, 2, 328}, {15, 27, 2, 328}, {17, 30, 1, 328}, {18, 31, 2, 328}, {19, 32, 1, 328}, {12, 24, 1, 329}, {14, 27, 2, 329}, {15, 28, 2, 329}, {17, 31, 1, 329}, {18, 32, 2, 329}, {19, 33, 1, 329}, {12, 25, 1, 330}, {14, 28, 2, 330}, {15, 29, 2, 330}, {17, 32, 1, 330}, {18, 33, 2, 330}, {19, 34, 1, 330}, {10, 10, 1, 331}, {11, 11, 3, 331}, {12, 12, 3, 331}, {13, 13, 3, 331}, {14, 14, 6, 331}, {15, 15, 3, 331}, {16, 16, 1, 331}, {17, 17, 3, 331}, {18, 18, 3, 331}, {19, 19, 1, 331}, {10, 20, 1, 332}, {11, 21, 3, 332}, {12, 22, 3, 332}, {13, 23, 3, 332}, {14, 24, 6, 332}, {15, 25, 3, 332}, {16, 26, 1, 332}, {17, 27, 3, 332}, {18, 28, 3, 332}, {19, 29, 1, 332}, {10, 21, 1, 333}, {11, 23, 3, 333}, {12, 24, 3, 333}, {13, 26, 3, 333}, {14, 27, 6, 333}, {15, 28, 3, 333}, {16, 30, 1, 333}, {17, 31, 3, 333}, {18, 32, 3, 333}, {19, 33, 1, 333}, {10, 22, 1, 334}, {11, 24, 3, 334}, {12, 25, 3, 334}, {13, 27, 3, 334}, {14, 28, 6, 334}, {15, 29, 3, 334}, {16, 31, 1, 334}, {17, 32, 3, 334}, {18, 33, 3, 334}, {19, 34, 1, 334}, {10, 35, 1, 335}, {11, 36, 3, 335}, {12, 37, 3, 335}, {13, 38, 3, 335}, {14, 39, 6, 335}, {15, 40, 3, 335}, {16, 41, 1, 335}, {17, 42, 3, 335}, {18, 43, 3, 335}, {19, 44, 1, 335}, {10, 36, 1, 336}, {11, 38, 3, 336}, {12, 39, 3, 336}, {13, 41, 3, 336}, {14, 42, 6, 336}, {15, 43, 3, 336}, {16, 45, 1, 336}, {17, 46, 3, 336}, {18, 47, 3, 336}, {19, 48, 1, 336}, {10, 37, 1, 337}, {11, 39, 3, 337}, {12, 40, 3, 337}, {13, 42, 3, 337}, {14, 43, 6, 337}, {15, 44, 3, 337}, {16, 46, 1, 337}, {17, 47, 3, 337}, {18, 48, 3, 337}, {19, 49, 1, 337}, {10, 38, 1, 338}, {11, 41, 3, 338}, {12, 42, 3, 338}, {13, 45, 3, 338}, {14, 46, 6, 338}, {15, 47, 3, 338}, {16, 50, 1, 338}, {17, 51, 3, 338}, {18, 52, 3, 338}, {19, 53, 1, 338}, {10, 39, 1, 339}, {11, 42, 3, 339}, {12, 43, 3, 339}, {13, 46, 3, 339}, {14, 47, 6, 339}, {15, 48, 3, 339}, {16, 51, 1, 339}, {17, 52, 3, 339}, {18, 53, 3, 339}, {19, 54, 1, 339}, {10, 40, 1, 340}, {11, 43, 3, 340}, {12, 44, 3, 340}, {13, 47, 3, 340}, {14, 48, 6, 340}, {15, 49, 3, 340}, {16, 52, 1, 340}, {17, 53, 3, 340}, {18, 54, 3, 340}, {19, 55, 1, 340}, {10, 56, 1, 341}, {11, 57, 3, 341}, {12, 58, 3, 341}, {13, 59, 3, 341}, {14, 60, 6, 341}, {15, 61, 3, 341}, {16, 62, 1, 341}, {17, 63, 3, 341}, {18, 64, 3, 341}, {19, 65, 1, 341}, {10, 57, 1, 342}, {11, 59, 3, 342}, {12, 60, 3, 342}, {13, 62, 3, 342}, {14, 63, 6, 342}, {15, 64, 3, 342}, {16, 66, 1, 342}, {17, 67, 3, 342}, {18, 68, 3, 342}, {19, 69, 1, 342}, {10, 58, 1, 343}, {11, 60, 3, 343}, {12, 61, 3, 343}, {13, 63, 3, 343}, {14, 64, 6, 343}, {15, 65, 3, 343}, {16, 67, 1, 343}, {17, 68, 3, 343}, {18, 69, 3, 343}, {19, 70, 1, 343}, {10, 59, 1, 344}, {11, 62, 3, 344}, {12, 63, 3, 344}, {13, 66, 3, 344}, {14, 67, 6, 344}, {15, 68, 3, 344}, {16, 71, 1, 344}, {17, 72, 3, 344}, {18, 73, 3, 344}, {19, 74, 1, 344}, {10, 60, 1, 345}, {11, 63, 3, 345}, {12, 64, 3, 345}, {13, 67, 3, 345}, {14, 68, 6, 345}, {15, 69, 3, 345}, {16, 72, 1, 345}, {17, 73, 3, 345}, {18, 74, 3, 345}, {19, 75, 1, 345}, {10, 61, 1, 346}, {11, 64, 3, 346}, {12, 65, 3, 346}, {13, 68, 3, 346}, {14, 69, 6, 346}, {15, 70, 3, 346}, {16, 73, 1, 346}, {17, 74, 3, 346}, {18, 75, 3, 346}, {19, 76, 1, 346}, {10, 62, 1, 347}, {11, 66, 3, 347}, {12, 67, 3, 347}, {13, 71, 3, 347}, {14, 72, 6, 347}, {15, 73, 3, 347}, {16, 77, 1, 347}, {17, 78, 3, 347}, {18, 79, 3, 347}, {19, 80, 1, 347}, {10, 63, 1, 348}, {11, 67, 3, 348}, {12, 68, 3, 348}, {13, 72, 3, 348}, {14, 73, 6, 348}, {15, 74, 3, 348}, {16, 78, 1, 348}, {17, 79, 3, 348}, {18, 80, 3, 348}, {19, 81, 1, 348}, {10, 64, 1, 349}, {11, 68, 3, 349}, {12, 69, 3, 349}, {13, 73, 3, 349}, {14, 74, 6, 349}, {15, 75, 3, 349}, {16, 79, 1, 349}, {17, 80, 3, 349}, {18, 81, 3, 349}, {19, 82, 1, 349}, {10, 65, 1, 350}, {11, 69, 3, 350}, {12, 70, 3, 350}, {13, 74, 3, 350}, {14, 75, 6, 350}, {15, 76, 3, 350}, {16, 80, 1, 350}, {17, 81, 3, 350}, {18, 82, 3, 350}, {19, 83, 1, 350}, {20, 20, 1, 351}, {21, 21, 2, 351}, {22, 22, 2, 351}, {23, 23, 1, 351}, {24, 24, 2, 351}, {25, 25, 1, 351}, {20, 21, 1, 352}, {21, 23, 2, 352}, {22, 24, 2, 352}, {23, 26, 1, 352}, {24, 27, 2, 352}, {25, 28, 1, 352}, {20, 22, 1, 353}, {21, 24, 2, 353}, {22, 25, 2, 353}, {23, 27, 1, 353}, {24, 28, 2, 353}, {25, 29, 1, 353}, {20, 23, 1, 354}, {21, 26, 2, 354}, {22, 27, 2, 354}, {23, 30, 1, 354}, {24, 31, 2, 354}, {25, 32, 1, 354}, {20, 24, 1, 355}, {21, 27, 2, 355}, {22, 28, 2, 355}, {23, 31, 1, 355}, {24, 32, 2, 355}, {25, 33, 1, 355}, {20, 25, 1, 356}, {21, 28, 2, 356}, {22, 29, 2, 356}, {23, 32, 1, 356}, {24, 33, 2, 356}, {25, 34, 1, 356}, {21, 21, 1, 357}, {23, 23, 2, 357}, {24, 24, 2, 357}, {26, 26, 1, 357}, {27, 27, 2, 357}, {28, 28, 1, 357}, {21, 22, 1, 358}, {23, 24, 2, 358}, {24, 25, 2, 358}, {26, 27, 1, 358}, {27, 28, 2, 358}, {28, 29, 1, 358}, {21, 23, 1, 359}, {23, 26, 2, 359}, {24, 27, 2, 359}, {26, 30, 1, 359}, {27, 31, 2, 359}, {28, 32, 1, 359}, {21, 24, 1, 360}, {23, 27, 2, 360}, {24, 28, 2, 360}, {26, 31, 1, 360}, {27, 32, 2, 360}, {28, 33, 1, 360}, {21, 25, 1, 361}, {23, 28, 2, 361}, {24, 29, 2, 361}, {26, 32, 1, 361}, {27, 33, 2, 361}, {28, 34, 1, 361}, {22, 22, 1, 362}, {24, 24, 2, 362}, {25, 25, 2, 362}, {27, 27, 1, 362}, {28, 28, 2, 362}, {29, 29, 1, 362}, {22, 23, 1, 363}, {24, 26, 2, 363}, {25, 27, 2, 363}, {27, 30, 1, 363}, {28, 31, 2, 363}, {29, 32, 1, 363}, {22, 24, 1, 364}, {24, 27, 2, 364}, {25, 28, 2, 364}, {27, 31, 1, 364}, {28, 32, 2, 364}, {29, 33, 1, 364}, {22, 25, 1, 365}, {24, 28, 2, 365}, {25, 29, 2, 365}, {27, 32, 1, 365}, {28, 33, 2, 365}, {29, 34, 1, 365}, {23, 23, 1, 366}, {26, 26, 2, 366}, {27, 27, 2, 366}, {30, 30, 1, 366}, {31, 31, 2, 366}, {32, 32, 1, 366}, {23, 24, 1, 367}, {26, 27, 2, 367}, {27, 28, 2, 367}, {30, 31, 1, 367}, {31, 32, 2, 367}, {32, 33, 1, 367}, {23, 25, 1, 368}, {26, 28, 2, 368}, {27, 29, 2, 368}, {30, 32, 1, 368}, {31, 33, 2, 368}, {32, 34, 1, 368}, {24, 24, 1, 369}, {27, 27, 2, 369}, {28, 28, 2, 369}, {31, 31, 1, 369}, {32, 32, 2, 369}, {33, 33, 1, 369}, {24, 25, 1, 370}, {27, 28, 2, 370}, {28, 29, 2, 370}, {31, 32, 1, 370}, {32, 33, 2, 370}, {33, 34, 1, 370}, {25, 25, 1, 371}, {28, 28, 2, 371}, {29, 29, 2, 371}, {32, 32, 1, 371}, {33, 33, 2, 371}, {34, 34, 1, 371}, {20, 20, 1, 372}, {21, 21, 3, 372}, {22, 22, 3, 372}, {23, 23, 3, 372}, {24, 24, 6, 372}, {25, 25, 3, 372}, {26, 26, 1, 372}, {27, 27, 3, 372}, {28, 28, 3, 372}, {29, 29, 1, 372}, {20, 21, 1, 373}, {21, 23, 3, 373}, {22, 24, 3, 373}, {23, 26, 3, 373}, {24, 27, 6, 373}, {25, 28, 3, 373}, {26, 30, 1, 373}, {27, 31, 3, 373}, {28, 32, 3, 373}, {29, 33, 1, 373}, {20, 22, 1, 374}, {21, 24, 3, 374}, {22, 25, 3, 374}, {23, 27, 3, 374}, {24, 28, 6, 374}, {25, 29, 3, 374}, {26, 31, 1, 374}, {27, 32, 3, 374}, {28, 33, 3, 374}, {29, 34, 1, 374}, {21, 21, 1, 375}, {23, 23, 3, 375}, {24, 24, 3, 375}, {26, 26, 3, 375}, {27, 27, 6, 375}, {28, 28, 3, 375}, {30, 30, 1, 375}, {31, 31, 3, 375}, {32, 32, 3, 375}, {33, 33, 1, 375}, {21, 22, 1, 376}, {23, 24, 3, 376}, {24, 25, 3, 376}, {26, 27, 3, 376}, {27, 28, 6, 376}, {28, 29, 3, 376}, {30, 31, 1, 376}, {31, 32, 3, 376}, {32, 33, 3, 376}, {33, 34, 1, 376}, {22, 22, 1, 377}, {24, 24, 3, 377}, {25, 25, 3, 377}, {27, 27, 3, 377}, {28, 28, 6, 377}, {29, 29, 3, 377}, {31, 31, 1, 377}, {32, 32, 3, 377}, {33, 33, 3, 377}, {34, 34, 1, 377}, {20, 35, 1, 378}, {21, 36, 3, 378}, {22, 37, 3, 378}, {23, 38, 3, 378}, {24, 39, 6, 378}, {25, 40, 3, 378}, {26, 41, 1, 378}, {27, 42, 3, 378}, {28, 43, 3, 378}, {29, 44, 1, 378}, {20, 36, 1, 379}, {21, 38, 3, 379}, {22, 39, 3, 379}, {23, 41, 3, 379}, {24, 42, 6, 379}, {25, 43, 3, 379}, {26, 45, 1, 379}, {27, 46, 3, 379}, {28, 47, 3, 379}, {29, 48, 1, 379}, {20, 37, 1, 380}, {21, 39, 3, 380}, {22, 40, 3, 380}, {23, 42, 3, 380}, {24, 43, 6, 380}, {25, 44, 3, 380}, {26, 46, 1, 380}, {27, 47, 3, 380}, {28, 48, 3, 380}, {29, 49, 1, 380}, {20, 38, 1, 381}, {21, 41, 3, 381}, {22, 42, 3, 381}, {23, 45, 3, 381}, {24, 46, 6, 381}, {25, 47, 3, 381}, {26, 50, 1, 381}, {27, 51, 3, 381}, {28, 52, 3, 381}, {29, 53, 1, 381}, {20, 39, 1, 382}, {21, 42, 3, 382}, {22, 43, 3, 382}, {23, 46, 3, 382}, {24, 47, 6, 382}, {25, 48, 3, 382}, {26, 51, 1, 382}, {27, 52, 3, 382}, {28, 53, 3, 382}, {29, 54, 1, 382}, {20, 40, 1, 383}, {21, 43, 3, 383}, {22, 44, 3, 383}, {23, 47, 3, 383}, {24, 48, 6, 383}, {25, 49, 3, 383}, {26, 52, 1, 383}, {27, 53, 3, 383}, {28, 54, 3, 383}, {29, 55, 1, 383}, {21, 35, 1, 384}, {23, 36, 3, 384}, {24, 37, 3, 384}, {26, 38, 3, 384}, {27, 39, 6, 384}, {28, 40, 3, 384}, {30, 41, 1, 384}, {31, 42, 3, 384}, {32, 43, 3, 384}, {33, 44, 1, 384}, {21, 36, 1, 385}, {23, 38, 3, 385}, {24, 39, 3, 385}, {26, 41, 3, 385}, {27, 42, 6, 385}, {28, 43, 3, 385}, {30, 45, 1, 385}, {31, 46, 3, 385}, {32, 47, 3, 385}, {33, 48, 1, 385}, {21, 37, 1, 386}, {23, 39, 3, 386}, {24, 40, 3, 386}, {26, 42, 3, 386}, {27, 43, 6, 386}, {28, 44, 3, 386}, {30, 46, 1, 386}, {31, 47, 3, 386}, {32, 48, 3, 386}, {33, 49, 1, 386}, {21, 38, 1, 387}, {23, 41, 3, 387}, {24, 42, 3, 387}, {26, 45, 3, 387}, {27, 46, 6, 387}, {28, 47, 3, 387}, {30, 50, 1, 387}, {31, 51, 3, 387}, {32, 52, 3, 387}, {33, 53, 1, 387}, {21, 39, 1, 388}, {23, 42, 3, 388}, {24, 43, 3, 388}, {26, 46, 3, 388}, {27, 47, 6, 388}, {28, 48, 3, 388}, {30, 51, 1, 388}, {31, 52, 3, 388}, {32, 53, 3, 388}, {33, 54, 1, 388}, {21, 40, 1, 389}, {23, 43, 3, 389}, {24, 44, 3, 389}, {26, 47, 3, 389}, {27, 48, 6, 389}, {28, 49, 3, 389}, {30, 52, 1, 389}, {31, 53, 3, 389}, {32, 54, 3, 389}, {33, 55, 1, 389}, {22, 35, 1, 390}, {24, 36, 3, 390}, {25, 37, 3, 390}, {27, 38, 3, 390}, {28, 39, 6, 390}, {29, 40, 3, 390}, {31, 41, 1, 390}, {32, 42, 3, 390}, {33, 43, 3, 390}, {34, 44, 1, 390}, {22, 36, 1, 391}, {24, 38, 3, 391}, {25, 39, 3, 391}, {27, 41, 3, 391}, {28, 42, 6, 391}, {29, 43, 3, 391}, {31, 45, 1, 391}, {32, 46, 3, 391}, {33, 47, 3, 391}, {34, 48, 1, 391}, {22, 37, 1, 392}, {24, 39, 3, 392}, {25, 40, 3, 392}, {27, 42, 3, 392}, {28, 43, 6, 392}, {29, 44, 3, 392}, {31, 46, 1, 392}, {32, 47, 3, 392}, {33, 48, 3, 392}, {34, 49, 1, 392}, {22, 38, 1, 393}, {24, 41, 3, 393}, {25, 42, 3, 393}, {27, 45, 3, 393}, {28, 46, 6, 393}, {29, 47, 3, 393}, {31, 50, 1, 393}, {32, 51, 3, 393}, {33, 52, 3, 393}, {34, 53, 1, 393}, {22, 39, 1, 394}, {24, 42, 3, 394}, {25, 43, 3, 394}, {27, 46, 3, 394}, {28, 47, 6, 394}, {29, 48, 3, 394}, {31, 51, 1, 394}, {32, 52, 3, 394}, {33, 53, 3, 394}, {34, 54, 1, 394}, {22, 40, 1, 395}, {24, 43, 3, 395}, {25, 44, 3, 395}, {27, 47, 3, 395}, {28, 48, 6, 395}, {29, 49, 3, 395}, {31, 52, 1, 395}, {32, 53, 3, 395}, {33, 54, 3, 395}, {34, 55, 1, 395}, {20, 20, 1, 396}, {21, 21, 4, 396}, {22, 22, 4, 396}, {23, 23, 6, 396}, {24, 24, 12, 396}, {25, 25, 6, 396}, {26, 26, 4, 396}, {27, 27, 12, 396}, {28, 28, 12, 396}, {29, 29, 4, 396}, {30, 30, 1, 396}, {31, 31, 4, 396}, {32, 32, 6, 396}, {33, 33, 4, 396}, {34, 34, 1, 396}, {20, 35, 1, 397}, {21, 36, 4, 397}, {22, 37, 4, 397}, {23, 38, 6, 397}, {24, 39, 12, 397}, {25, 40, 6, 397}, {26, 41, 4, 397}, {27, 42, 12, 397}, {28, 43, 12, 397}, {29, 44, 4, 397}, {30, 45, 1, 397}, {31, 46, 4, 397}, {32, 47, 6, 397}, {33, 48, 4, 397}, {34, 49, 1, 397}, {20, 36, 1, 398}, {21, 38, 4, 398}, {22, 39, 4, 398}, {23, 41, 6, 398}, {24, 42, 12, 398}, {25, 43, 6, 398}, {26, 45, 4, 398}, {27, 46, 12, 398}, {28, 47, 12, 398}, {29, 48, 4, 398}, {30, 50, 1, 398}, {31, 51, 4, 398}, {32, 52, 6, 398}, {33, 53, 4, 398}, {34, 54, 1, 398}, {20, 37, 1, 399}, {21, 39, 4, 399}, {22, 40, 4, 399}, {23, 42, 6, 399}, {24, 43, 12, 399}, {25, 44, 6, 399}, {26, 46, 4, 399}, {27, 47, 12, 399}, {28, 48, 12, 399}, {29, 49, 4, 399}, {30, 51, 1, 399}, {31, 52, 4, 399}, {32, 53, 6, 399}, {33, 54, 4, 399}, {34, 55, 1, 399}, {20, 56, 1, 400}, {21, 57, 4, 400}, {22, 58, 4, 400}, {23, 59, 6, 400}, {24, 60, 12, 400}, {25, 61, 6, 400}, {26, 62, 4, 400}, {27, 63, 12, 400}, {28, 64, 12, 400}, {29, 65, 4, 400}, {30, 66, 1, 400}, {31, 67, 4, 400}, {32, 68, 6, 400}, {33, 69, 4, 400}, {34, 70, 1, 400}, {20, 57, 1, 401}, {21, 59, 4, 401}, {22, 60, 4, 401}, {23, 62, 6, 401}, {24, 63, 12, 401}, {25, 64, 6, 401}, {26, 66, 4, 401}, {27, 67, 12, 401}, {28, 68, 12, 401}, {29, 69, 4, 401}, {30, 71, 1, 401}, {31, 72, 4, 401}, {32, 73, 6, 401}, {33, 74, 4, 401}, {34, 75, 1, 401}, {20, 58, 1, 402}, {21, 60, 4, 402}, {22, 61, 4, 402}, {23, 63, 6, 402}, {24, 64, 12, 402}, {25, 65, 6, 402}, {26, 67, 4, 402}, {27, 68, 12, 402}, {28, 69, 12, 402}, {29, 70, 4, 402}, {30, 72, 1, 402}, {31, 73, 4, 402}, {32, 74, 6, 402}, {33, 75, 4, 402}, {34, 76, 1, 402}, {20, 59, 1, 403}, {21, 62, 4, 403}, {22, 63, 4, 403}, {23, 66, 6, 403}, {24, 67, 12, 403}, {25, 68, 6, 403}, {26, 71, 4, 403}, {27, 72, 12, 403}, {28, 73, 12, 403}, {29, 74, 4, 403}, {30, 77, 1, 403}, {31, 78, 4, 403}, {32, 79, 6, 403}, {33, 80, 4, 403}, {34, 81, 1, 403}, {20, 60, 1, 404}, {21, 63, 4, 404}, {22, 64, 4, 404}, {23, 67, 6, 404}, {24, 68, 12, 404}, {25, 69, 6, 404}, {26, 72, 4, 404}, {27, 73, 12, 404}, {28, 74, 12, 404}, {29, 75, 4, 404}, {30, 78, 1, 404}, {31, 79, 4, 404}, {32, 80, 6, 404}, {33, 81, 4, 404}, {34, 82, 1, 404}, {20, 61, 1, 405}, {21, 64, 4, 405}, {22, 65, 4, 405}, {23, 68, 6, 405}, {24, 69, 12, 405}, {25, 70, 6, 405}, {26, 73, 4, 405}, {27, 74, 12, 405}, {28, 75, 12, 405}, {29, 76, 4, 405}, {30, 79, 1, 405}, {31, 80, 4, 405}, {32, 81, 6, 405}, {33, 82, 4, 405}, {34, 83, 1, 405}, {35, 35, 1, 406}, {36, 36, 4, 406}, {37, 37, 4, 406}, {38, 38, 6, 406}, {39, 39, 12, 406}, {40, 40, 6, 406}, {41, 41, 4, 406}, {42, 42, 12, 406}, {43, 43, 12, 406}, {44, 44, 4, 406}, {45, 45, 1, 406}, {46, 46, 4, 406}, {47, 47, 6, 406}, {48, 48, 4, 406}, {49, 49, 1, 406}, {35, 36, 1, 407}, {36, 38, 4, 407}, {37, 39, 4, 407}, {38, 41, 6, 407}, {39, 42, 12, 407}, {40, 43, 6, 407}, {41, 45, 4, 407}, {42, 46, 12, 407}, {43, 47, 12, 407}, {44, 48, 4, 407}, {45, 50, 1, 407}, {46, 51, 4, 407}, {47, 52, 6, 407}, {48, 53, 4, 407}, {49, 54, 1, 407}, {35, 37, 1, 408}, {36, 39, 4, 408}, {37, 40, 4, 408}, {38, 42, 6, 408}, {39, 43, 12, 408}, {40, 44, 6, 408}, {41, 46, 4, 408}, {42, 47, 12, 408}, {43, 48, 12, 408}, {44, 49, 4, 408}, {45, 51, 1, 408}, {46, 52, 4, 408}, {47, 53, 6, 408}, {48, 54, 4, 408}, {49, 55, 1, 408}, {36, 36, 1, 409}, {38, 38, 4, 409}, {39, 39, 4, 409}, {41, 41, 6, 409}, {42, 42, 12, 409}, {43, 43, 6, 409}, {45, 45, 4, 409}, {46, 46, 12, 409}, {47, 47, 12, 409}, {48, 48, 4, 409}, {50, 50, 1, 409}, {51, 51, 4, 409}, {52, 52, 6, 409}, {53, 53, 4, 409}, {54, 54, 1, 409}, {36, 37, 1, 410}, {38, 39, 4, 410}, {39, 40, 4, 410}, {41, 42, 6, 410}, {42, 43, 12, 410}, {43, 44, 6, 410}, {45, 46, 4, 410}, {46, 47, 12, 410}, {47, 48, 12, 410}, {48, 49, 4, 410}, {50, 51, 1, 410}, {51, 52, 4, 410}, {52, 53, 6, 410}, {53, 54, 4, 410}, {54, 55, 1, 410}, {37, 37, 1, 411}, {39, 39, 4, 411}, {40, 40, 4, 411}, {42, 42, 6, 411}, {43, 43, 12, 411}, {44, 44, 6, 411}, {46, 46, 4, 411}, {47, 47, 12, 411}, {48, 48, 12, 411}, {49, 49, 4, 411}, {51, 51, 1, 411}, {52, 52, 4, 411}, {53, 53, 6, 411}, {54, 54, 4, 411}, {55, 55, 1, 411}, {35, 35, 1, 412}, {36, 36, 5, 412}, {37, 37, 5, 412}, {38, 38, 10, 412}, {39, 39, 20, 412}, {40, 40, 10, 412}, {41, 41, 10, 412}, {42, 42, 30, 412}, {43, 43, 30, 412}, {44, 44, 10, 412}, {45, 45, 5, 412}, {46, 46, 20, 412}, {47, 47, 30, 412}, {48, 48, 20, 412}, {49, 49, 5, 412}, {50, 50, 1, 412}, {51, 51, 5, 412}, {52, 52, 10, 412}, {53, 53, 10, 412}, {54, 54, 5, 412}, {55, 55, 1, 412}, {35, 56, 1, 413}, {36, 57, 5, 413}, {37, 58, 5, 413}, {38, 59, 10, 413}, {39, 60, 20, 413}, {40, 61, 10, 413}, {41, 62, 10, 413}, {42, 63, 30, 413}, {43, 64, 30, 413}, {44, 65, 10, 413}, {45, 66, 5, 413}, {46, 67, 20, 413}, {47, 68, 30, 413}, {48, 69, 20, 413}, {49, 70, 5, 413}, {50, 71, 1, 413}, {51, 72, 5, 413}, {52, 73, 10, 413}, {53, 74, 10, 413}, {54, 75, 5, 413}, {55, 76, 1, 413}, {35, 57, 1, 414}, {36, 59, 5, 414}, {37, 60, 5, 414}, {38, 62, 10, 414}, {39, 63, 20, 414}, {40, 64, 10, 414}, {41, 66, 10, 414}, {42, 67, 30, 414}, {43, 68, 30, 414}, {44, 69, 10, 414}, {45, 71, 5, 414}, {46, 72, 20, 414}, {47, 73, 30, 414}, {48, 74, 20, 414}, {49, 75, 5, 414}, {50, 77, 1, 414}, {51, 78, 5, 414}, {52, 79, 10, 414}, {53, 80, 10, 414}, {54, 81, 5, 414}, {55, 82, 1, 414}, {35, 58, 1, 415}, {36, 60, 5, 415}, {37, 61, 5, 415}, {38, 63, 10, 415}, {39, 64, 20, 415}, {40, 65, 10, 415}, {41, 67, 10, 415}, {42, 68, 30, 415}, {43, 69, 30, 415}, {44, 70, 10, 415}, {45, 72, 5, 415}, {46, 73, 20, 415}, {47, 74, 30, 415}, {48, 75, 20, 415}, {49, 76, 5, 415}, {50, 78, 1, 415}, {51, 79, 5, 415}, {52, 80, 10, 415}, {53, 81, 10, 415}, {54, 82, 5, 415}, {55, 83, 1, 415}, {56, 56, 1, 416}, {57, 57, 6, 416}, {58, 58, 6, 416}, {59, 59, 15, 416}, {60, 60, 30, 416}, {61, 61, 15, 416}, {62, 62, 20, 416}, {63, 63, 60, 416}, {64, 64, 60, 416}, {65, 65, 20, 416}, {66, 66, 15, 416}, {67, 67, 60, 416}, {68, 68, 90, 416}, {69, 69, 60, 416}, {70, 70, 15, 416}, {71, 71, 6, 416}, {72, 72, 30, 416}, {73, 73, 60, 416}, {74, 74, 60, 416}, {75, 75, 30, 416}, {76, 76, 6, 416}, {77, 77, 1, 416}, {78, 78, 6, 416}, {79, 79, 15, 416}, {80, 80, 20, 416}, {81, 81, 15, 416}, {82, 82, 6, 416}, {83, 83, 1, 416}, {84, 84, 1, 417}, {85, 85, 7, 417}, {86, 86, 7, 417}, {87, 87, 21, 417}, {88, 88, 42, 417}, {89, 89, 21, 417}, {90, 90, 35, 417}, {91, 91, 105, 417}, {92, 92, 105, 417}, {93, 93, 35, 417}, {94, 94, 35, 417}, {95, 95, 140, 417}, {96, 96, 210, 417}, {97, 97, 140, 417}, {98, 98, 35, 417}, {99, 99, 21, 417}, {100, 100, 105, 417}, {101, 101, 210, 417}, {102, 102, 210, 417}, {103, 103, 105, 417}, {104, 104, 21, 417}, {105, 105, 7, 417}, {106, 106, 42, 417}, {107, 107, 105, 417}, {108, 108, 140, 417}, {109, 109, 105, 417}, {110, 110, 42, 417}, {111, 111, 7, 417}, {112, 112, 1, 417}, {113, 113, 7, 417}, {114, 114, 21, 417}, {115, 115, 35, 417}, {116, 116, 35, 417}, {117, 117, 21, 417}, {118, 118, 7, 417}, {119, 119, 1, 417}, {0, 120, 1, 418}, {1, 121, 1, 419}, {2, 122, 1, 419}, {3, 123, 1, 419}, {1, 124, 1, 420}, {2, 125, 1, 420}, {3, 126, 1, 420}, {1, 125, 1, 421}, {2, 127, 1, 421}, {3, 128, 1, 421}, {1, 126, 1, 422}, {2, 128, 1, 422}, {3, 129, 1, 422}, {1, 130, 1, 423}, {2, 131, 1, 423}, {3, 132, 1, 423}, {1, 131, 1, 424}, {2, 133, 1, 424}, {3, 134, 1, 424}, {1, 132, 1, 425}, {2, 134, 1, 425}, {3, 135, 1, 425}, {1, 133, 1, 426}, {2, 136, 1, 426}, {3, 137, 1, 426}, {1, 134, 1, 427}, {2, 137, 1, 427}, {3, 138, 1, 427}, {1, 135, 1, 428}, {2, 138, 1, 428}, {3, 139, 1, 428}, {4, 121, 1, 429}, {5, 122, 1, 429}, {6, 123, 1, 429}, {5, 121, 1, 430}, {7, 122, 1, 430}, {8, 123, 1, 430}, {6, 121, 1, 431}, {8, 122, 1, 431}, {9, 123, 1, 431}, {4, 124, 1, 432}, {5, 125, 1, 432}, {6, 126, 1, 432}, {4, 125, 1, 433}, {5, 127, 1, 433}, {6, 128, 1, 433}, {4, 126, 1, 434}, {5, 128, 1, 434}, {6, 129, 1, 434}, {5, 124, 1, 435}, {7, 125, 1, 435}, {8, 126, 1, 435}, {5, 125, 1, 436}, {7, 127, 1, 436}, {8, 128, 1, 436}, {5, 126, 1, 437}, {7, 128, 1, 437}, {8, 129, 1, 437}, {6, 124, 1, 438}, {8, 125, 1, 438}, {9, 126, 1, 438}, {6, 125, 1, 439}, {8, 127, 1, 439}, {9, 128, 1, 439}, {6, 126, 1, 440}, {8, 128, 1, 440}, {9, 129, 1, 440}, {4, 124, 1, 441}, {5, 125, 2, 441}, {6, 126, 2, 441}, {7, 127, 1, 441}, {8, 128, 2, 441}, {9, 129, 1, 441}, {4, 130, 1, 442}, {5, 131, 2, 442}, {6, 132, 2, 442}, {7, 133, 1, 442}, {8, 134, 2, 442}, {9, 135, 1, 442}, {4, 131, 1, 443}, {5, 133, 2, 443}, {6, 134, 2, 443}, {7, 136, 1, 443}, {8, 137, 2, 443}, {9, 138, 1, 443}, {4, 132, 1, 444}, {5, 134, 2, 444}, {6, 135, 2, 444}, {7, 137, 1, 444}, {8, 138, 2, 444}, {9, 139, 1, 444}, {4, 140, 1, 445}, {5, 141, 2, 445}, {6, 142, 2, 445}, {7, 143, 1, 445}, {8, 144, 2, 445}, {9, 145, 1, 445}, {4, 141, 1, 446}, {5, 143, 2, 446}, {6, 144, 2, 446}, {7, 146, 1, 446}, {8, 147, 2, 446}, {9, 148, 1, 446}, {4, 142, 1, 447}, {5, 144, 2, 447}, {6, 145, 2, 447}, {7, 147, 1, 447}, {8, 148, 2, 447}, {9, 149, 1, 447}, {4, 143, 1, 448}, {5, 146, 2, 448}, {6, 147, 2, 448}, {7, 150, 1, 448}, {8, 151, 2, 448}, {9, 152, 1, 448}, {4, 144, 1, 449}, {5, 147, 2, 449}, {6, 148, 2, 449}, {7, 151, 1, 449}, {8, 152, 2, 449}, {9, 153, 1, 449}, {4, 145, 1, 450}, {5, 148, 2, 450}, {6, 149, 2, 450}, {7, 152, 1, 450}, {8, 153, 2, 450}, {9, 154, 1, 450}, {10, 121, 1, 451}, {11, 122, 1, 451}, {12, 123, 1, 451}, {11, 121, 1, 452}, {13, 122, 1, 452}, {14, 123, 1, 452}, {12, 121, 1, 453}, {14, 122, 1, 453}, {15, 123, 1, 453}, {13, 121, 1, 454}, {16, 122, 1, 454}, {17, 123, 1, 454}, {14, 121, 1, 455}, {17, 122, 1, 455}, {18, 123, 1, 455}, {15, 121, 1, 456}, {18, 122, 1, 456}, {19, 123, 1, 456}, {10, 124, 1, 457}, {11, 125, 2, 457}, {12, 126, 2, 457}, {13, 127, 1, 457}, {14, 128, 2, 457}, {15, 129, 1, 457}, {11, 124, 1, 458}, {13, 125, 2, 458}, {14, 126, 2, 458}, {16, 127, 1, 458}, {17, 128, 2, 458}, {18, 129, 1, 458}, {12, 124, 1, 459}, {14, 125, 2, 459}, {15, 126, 2, 459}, {17, 127, 1, 459}, {18, 128, 2, 459}, {19, 129, 1, 459}, {10, 130, 1, 460}, {11, 131, 2, 460}, {12, 132, 2, 460}, {13, 133, 1, 460}, {14, 134, 2, 460}, {15, 135, 1, 460}, {10, 131, 1, 461}, {11, 133, 2, 461}, {12, 134, 2, 461}, {13, 136, 1, 461}, {14, 137, 2, 461}, {15, 138, 1, 461}, {10, 132, 1, 462}, {11, 134, 2, 462}, {12, 135, 2, 462}, {13, 137, 1, 462}, {14, 138, 2, 462}, {15, 139, 1, 462}, {11, 130, 1, 463}, {13, 131, 2, 463}, {14, 132, 2, 463}, {16, 133, 1, 463}, {17, 134, 2, 463}, {18, 135, 1, 463}, {11, 131, 1, 464}, {13, 133, 2, 464}, {14, 134, 2, 464}, {16, 136, 1, 464}, {17, 137, 2, 464}, {18, 138, 1, 464}, {11, 132, 1, 465}, {13, 134, 2, 465}, {14, 135, 2, 465}, {16, 137, 1, 465}, {17, 138, 2, 465}, {18, 139, 1, 465}, {12, 130, 1, 466}, {14, 131, 2, 466}, {15, 132, 2, 466}, {17, 133, 1, 466}, {18, 134, 2, 466}, {19, 135, 1, 466}, {12, 131, 1, 467}, {14, 133, 2, 467}, {15, 134, 2, 467}, {17, 136, 1, 467}, {18, 137, 2, 467}, {19, 138, 1, 467}, {12, 132, 1, 468}, {14, 134, 2, 468}, {15, 135, 2, 468}, {17, 137, 1, 468}, {18, 138, 2, 468}, {19, 139, 1, 468}, {10, 130, 1, 469}, {11, 131, 3, 469}, {12, 132, 3, 469}, {13, 133, 3, 469}, {14, 134, 6, 469}, {15, 135, 3, 469}, {16, 136, 1, 469}, {17, 137, 3, 469}, {18, 138, 3, 469}, {19, 139, 1, 469}, {10, 140, 1, 470}, {11, 141, 3, 470}, {12, 142, 3, 470}, {13, 143, 3, 470}, {14, 144, 6, 470}, {15, 145, 3, 470}, {16, 146, 1, 470}, {17, 147, 3, 470}, {18, 148, 3, 470}, {19, 149, 1, 470}, {10, 141, 1, 471}, {11, 143, 3, 471}, {12, 144, 3, 471}, {13, 146, 3, 471}, {14, 147, 6, 471}, {15, 148, 3, 471}, {16, 150, 1, 471}, {17, 151, 3, 471}, {18, 152, 3, 471}, {19, 153, 1, 471}, {10, 142, 1, 472}, {11, 144, 3, 472}, {12, 145, 3, 472}, {13, 147, 3, 472}, {14, 148, 6, 472}, {15, 149, 3, 472}, {16, 151, 1, 472}, {17, 152, 3, 472}, {18, 153, 3, 472}, {19, 154, 1, 472}, {20, 124, 1, 473}, {21, 125, 2, 473}, {22, 126, 2, 473}, {23, 127, 1, 473}, {24, 128, 2, 473}, {25, 129, 1, 473}, {21, 124, 1, 474}, {23, 125, 2, 474}, {24, 126, 2, 474}, {26, 127, 1, 474}, {27, 128, 2, 474}, {28, 129, 1, 474}, {22, 124, 1, 475}, {24, 125, 2, 475}, {25, 126, 2, 475}, {27, 127, 1, 475}, {28, 128, 2, 475}, {29, 129, 1, 475}, {23, 124, 1, 476}, {26, 125, 2, 476}, {27, 126, 2, 476}, {30, 127, 1, 476}, {31, 128, 2, 476}, {32, 129, 1, 476}, {24, 124, 1, 477}, {27, 125, 2, 477}, {28, 126, 2, 477}, {31, 127, 1, 477}, {32, 128, 2, 477}, {33, 129, 1, 477}, {25, 124, 1, 478}, {28, 125, 2, 478}, {29, 126, 2, 478}, {32, 127, 1, 478}, {33, 128, 2, 478}, {34, 129, 1, 478}, {20, 130, 1, 479}, {21, 131, 3, 479}, {22, 132, 3, 479}, {23, 133, 3, 479}, {24, 134, 6, 479}, {25, 135, 3, 479}, {26, 136, 1, 479}, {27, 137, 3, 479}, {28, 138, 3, 479}, {29, 139, 1, 479}, {21, 130, 1, 480}, {23, 131, 3, 480}, {24, 132, 3, 480}, {26, 133, 3, 480}, {27, 134, 6, 480}, {28, 135, 3, 480}, {30, 136, 1, 480}, {31, 137, 3, 480}, {32, 138, 3, 480}, {33, 139, 1, 480}, {22, 130, 1, 481}, {24, 131, 3, 481}, {25, 132, 3, 481}, {27, 133, 3, 481}, {28, 134, 6, 481}, {29, 135, 3, 481}, {31, 136, 1, 481}, {32, 137, 3, 481}, {33, 138, 3, 481}, {34, 139, 1, 481}, {20, 140, 1, 482}, {21, 141, 4, 482}, {22, 142, 4, 482}, {23, 143, 6, 482}, {24, 144, 12, 482}, {25, 145, 6, 482}, {26, 146, 4, 482}, {27, 147, 12, 482}, {28, 148, 12, 482}, {29, 149, 4, 482}, {30, 150, 1, 482}, {31, 151, 4, 482}, {32, 152, 6, 482}, {33, 153, 4, 482}, {34, 154, 1, 482}, {35, 155, 1, 483}, {36, 156, 5, 483}, {37, 157, 5, 483}, {38, 158, 10, 483}, {39, 159, 20, 483}, {40, 160, 10, 483}, {41, 161, 10, 483}, {42, 162, 30, 483}, {43, 163, 30, 483}, {44, 164, 10, 483}, {45, 165, 5, 483}, {46, 166, 20, 483}, {47, 167, 30, 483}, {48, 168, 20, 483}, {49, 169, 5, 483}, {50, 170, 1, 483}, {51, 171, 5, 483}, {52, 172, 10, 483}, {53, 173, 10, 483}, {54, 174, 5, 483}, {55, 175, 1, 483}, {0, 176, 1, 484}, {1, 177, 1, 485}, {2, 178, 1, 485}, {3, 179, 1, 485}, {1, 180, 1, 486}, {2, 181, 1, 486}, {3, 182, 1, 486}, {1, 181, 1, 487}, {2, 183, 1, 487}, {3, 184, 1, 487}, {1, 182, 1, 488}, {2, 184, 1, 488}, {3, 185, 1, 488}, {4, 177, 1, 489}, {5, 178, 1, 489}, {6, 179, 1, 489}, {5, 177, 1, 490}, {7, 178, 1, 490}, {8, 179, 1, 490}, {6, 177, 1, 491}, {8, 178, 1, 491}, {9, 179, 1, 491}, {4, 180, 1, 492}, {5, 181, 2, 492}, {6, 182, 2, 492}, {7, 183, 1, 492}, {8, 184, 2, 492}, {9, 185, 1, 492}, {10, 186, 1, 493}, {11, 187, 3, 493}, {12, 188, 3, 493}, {13, 189, 3, 493}, {14, 190, 6, 493}, {15, 191, 3, 493}, {16, 192, 1, 493}, {17, 193, 3, 493}, {18, 194, 3, 493}, {19, 195, 1, 493}, {0, 196, 1, 494}, {1, 197, 1, 495}, {2, 198, 1, 495}, {3, 199, 1, 495}, {120, 120, 1, 496}, {121, 121, 1, 497}, {122, 122, 1, 497}, {123, 123, 1, 497}, {121, 124, 1, 498}, {122, 125, 1, 498}, {123, 126, 1, 498}, {121, 125, 1, 499}, {122, 127, 1, 499}, {123, 128, 1, 499}, {121, 126, 1, 500}, {122, 128, 1, 500}, {123, 129, 1, 500}, {124, 124, 1, 501}, {125, 125, 2, 501}, {126, 126, 2, 501}, {127, 127, 1, 501}, {128, 128, 2, 501}, {129, 129, 1, 501}, {130, 130, 1, 502}, {131, 131, 3, 502}, {132, 132, 3, 502}, {133, 133, 3, 502}, {134, 134, 6, 502}, {135, 135, 3, 502}, {136, 136, 1, 502}, {137, 137, 3, 502}, {138, 138, 3, 502}, {139, 139, 1, 502}, {120, 176, 1, 503}, {121, 177, 1, 504}, {122, 178, 1, 504}, {123, 179, 1, 504}, {0, 201, 1, 505}, {0, 202, 1, 506}, {0, 266, 1, 507}, {0, 331, 1, 508}, {0, 396, 1, 509}, {0, 412, 1, 510}, {0, 416, 1, 511}, {1, 203, 1, 512}, {2, 204, 1, 512}, {3, 205, 1, 512}, {1, 206, 1, 513}, {2, 207, 1, 513}, {3, 208, 1, 513}, {1, 207, 1, 514}, {2, 209, 1, 514}, {3, 210, 1, 514}, {1, 208, 1, 515}, {2, 210, 1, 515}, {3, 211, 1, 515}, {1, 212, 1, 516}, {2, 213, 1, 516}, {3, 214, 1, 516}, {1, 213, 1, 517}, {2, 215, 1, 517}, {3, 216, 1, 517}, {1, 214, 1, 518}, {2, 216, 1, 518}, {3, 217, 1, 518}, {1, 267, 1, 519}, {2, 268, 1, 519}, {3, 269, 1, 519}, {1, 270, 1, 520}, {2, 271, 1, 520}, {3, 272, 1, 520}, {1, 271, 1, 521}, {2, 273, 1, 521}, {3, 274, 1, 521}, {1, 272, 1, 522}, {2, 274, 1, 522}, {3, 275, 1, 522}, {1, 307, 1, 523}, {2, 308, 1, 523}, {3, 309, 1, 523}, {1, 308, 1, 524}, {2, 310, 1, 524}, {3, 311, 1, 524}, {1, 309, 1, 525}, {2, 311, 1, 525}, {3, 312, 1, 525}, {1, 332, 1, 526}, {2, 333, 1, 526}, {3, 334, 1, 526}, {1, 335, 1, 527}, {2, 336, 1, 527}, {3, 337, 1, 527}, {1, 336, 1, 528}, {2, 338, 1, 528}, {3, 339, 1, 528}, {1, 337, 1, 529}, {2, 339, 1, 529}, {3, 340, 1, 529}, {1, 372, 1, 530}, {2, 373, 1, 530}, {3, 374, 1, 530}, {1, 373, 1, 531}, {2, 375, 1, 531}, {3, 376, 1, 531}, {1, 374, 1, 532}, {2, 376, 1, 532}, {3, 377, 1, 532}, {1, 397, 1, 533}, {2, 398, 1, 533}, {3, 399, 1, 533}, {1, 413, 1, 534}, {2, 414, 1, 534}, {3, 415, 1, 534}, {4, 212, 1, 535}, {5, 213, 1, 535}, {6, 214, 1, 535}, {4, 213, 1, 536}, {5, 215, 1, 536}, {6, 216, 1, 536}, {4, 214, 1, 537}, {5, 216, 1, 537}, {6, 217, 1, 537}, {5, 212, 1, 538}, {7, 213, 1, 538}, {8, 214, 1, 538}, {5, 213, 1, 539}, {7, 215, 1, 539}, {8, 216, 1, 539}, {5, 214, 1, 540}, {7, 216, 1, 540}, {8, 217, 1, 540}, {6, 212, 1, 541}, {8, 213, 1, 541}, {9, 214, 1, 541}, {6, 213, 1, 542}, {8, 215, 1, 542}, {9, 216, 1, 542}, {6, 214, 1, 543}, {8, 216, 1, 543}, {9, 217, 1, 543}, {4, 267, 1, 544}, {5, 268, 1, 544}, {6, 269, 1, 544}, {5, 267, 1, 545}, {7, 268, 1, 545}, {8, 269, 1, 545}, {6, 267, 1, 546}, {8, 268, 1, 546}, {9, 269, 1, 546}, {4, 307, 1, 547}, {5, 308, 1, 547}, {6, 309, 1, 547}, {4, 308, 1, 548}, {5, 310, 1, 548}, {6, 311, 1, 548}, {4, 309, 1, 549}, {5, 311, 1, 549}, {6, 312, 1, 549}, {5, 307, 1, 550}, {7, 308, 1, 550}, {8, 309, 1, 550}, {5, 308, 1, 551}, {7, 310, 1, 551}, {8, 311, 1, 551}, {5, 309, 1, 552}, {7, 311, 1, 552}, {8, 312, 1, 552}, {6, 307, 1, 553}, {8, 308, 1, 553}, {9, 309, 1, 553}, {6, 308, 1, 554}, {8, 310, 1, 554}, {9, 311, 1, 554}, {6, 309, 1, 555}, {8, 311, 1, 555}, {9, 312, 1, 555}, {4, 332, 1, 556}, {5, 333, 1, 556}, {6, 334, 1, 556}, {5, 332, 1, 557}, {7, 333, 1, 557}, {8, 334, 1, 557}, {6, 332, 1, 558}, {8, 333, 1, 558}, {9, 334, 1, 558}, {4, 270, 1, 559}, {5, 271, 2, 559}, {6, 272, 2, 559}, {7, 273, 1, 559}, {8, 274, 2, 559}, {9, 275, 1, 559}, {4, 276, 1, 560}, {5, 277, 2, 560}, {6, 278, 2, 560}, {7, 279, 1, 560}, {8, 280, 2, 560}, {9, 281, 1, 560}, {4, 277, 1, 561}, {5, 279, 2, 561}, {6, 280, 2, 561}, {7, 282, 1, 561}, {8, 283, 2, 561}, {9, 284, 1, 561}, {4, 278, 1, 562}, {5, 280, 2, 562}, {6, 281, 2, 562}, {7, 283, 1, 562}, {8, 284, 2, 562}, {9, 285, 1, 562}, {4, 313, 1, 563}, {5, 314, 2, 563}, {6, 315, 2, 563}, {7, 316, 1, 563}, {8, 317, 2, 563}, {9, 318, 1, 563}, {4, 319, 1, 564}, {5, 320, 2, 564}, {6, 321, 2, 564}, {7, 322, 1, 564}, {8, 323, 2, 564}, {9, 324, 1, 564}, {4, 325, 1, 565}, {5, 326, 2, 565}, {6, 327, 2, 565}, {7, 328, 1, 565}, {8, 329, 2, 565}, {9, 330, 1, 565}, {4, 335, 1, 566}, {5, 336, 2, 566}, {6, 337, 2, 566}, {7, 338, 1, 566}, {8, 339, 2, 566}, {9, 340, 1, 566}, {4, 400, 1, 567}, {5, 401, 2, 567}, {6, 402, 2, 567}, {7, 403, 1, 567}, {8, 404, 2, 567}, {9, 405, 1, 567}, {4, 212, 1, 568}, {5, 213, 2, 568}, {6, 214, 2, 568}, {7, 215, 1, 568}, {8, 216, 2, 568}, {9, 217, 1, 568}, {4, 218, 1, 569}, {5, 219, 1, 569}, {5, 224, 1, 569}, {6, 220, 1, 569}, {6, 230, 1, 569}, {7, 225, 1, 569}, {8, 226, 1, 569}, {8, 231, 1, 569}, {9, 232, 1, 569}, {4, 219, 1, 570}, {5, 221, 1, 570}, {5, 225, 1, 570}, {6, 222, 1, 570}, {6, 231, 1, 570}, {7, 227, 1, 570}, {8, 228, 1, 570}, {8, 233, 1, 570}, {9, 234, 1, 570}, {4, 220, 1, 571}, {5, 222, 1, 571}, {5, 226, 1, 571}, {6, 223, 1, 571}, {6, 232, 1, 571}, {7, 228, 1, 571}, {8, 229, 1, 571}, {8, 234, 1, 571}, {9, 235, 1, 571}, {4, 236, 1, 572}, {5, 237, 1, 572}, {5, 246, 1, 572}, {6, 238, 1, 572}, {6, 256, 1, 572}, {7, 247, 1, 572}, {8, 248, 1, 572}, {8, 257, 1, 572}, {9, 258, 1, 572}, {4, 237, 1, 573}, {5, 239, 1, 573}, {5, 247, 1, 573}, {6, 240, 1, 573}, {6, 257, 1, 573}, {7, 249, 1, 573}, {8, 250, 1, 573}, {8, 259, 1, 573}, {9, 260, 1, 573}, {4, 238, 1, 574}, {5, 240, 1, 574}, {5, 248, 1, 574}, {6, 241, 1, 574}, {6, 258, 1, 574}, {7, 250, 1, 574}, {8, 251, 1, 574}, {8, 260, 1, 574}, {9, 261, 1, 574}, {4, 239, 1, 575}, {5, 242, 1, 575}, {5, 249, 1, 575}, {6, 243, 1, 575}, {6, 259, 1, 575}, {7, 252, 1, 575}, {8, 253, 1, 575}, {8, 262, 1, 575}, {9, 263, 1, 575}, {4, 240, 1, 576}, {5, 243, 1, 576}, {5, 250, 1, 576}, {6, 244, 1, 576}, {6, 260, 1, 576}, {7, 253, 1, 576}, {8, 254, 1, 576}, {8, 263, 1, 576}, {9, 264, 1, 576}, {4, 241, 1, 577}, {5, 244, 1, 577}, {5, 251, 1, 577}, {6, 245, 1, 577}, {6, 261, 1, 577}, {7, 254, 1, 577}, {8, 255, 1, 577}, {8, 264, 1, 577}, {9, 265, 1, 577}, {4, 286, 1, 578}, {5, 287, 2, 578}, {6, 288, 2, 578}, {7, 292, 1, 578}, {8, 293, 2, 578}, {9, 297, 1, 578}, {4, 287, 1, 579}, {5, 289, 1, 579}, {5, 292, 1, 579}, {6, 290, 1, 579}, {6, 293, 1, 579}, {7, 294, 1, 579}, {8, 295, 1, 579}, {8, 298, 1, 579}, {9, 299, 1, 579}, {4, 288, 1, 580}, {5, 290, 1, 580}, {5, 293, 1, 580}, {6, 291, 1, 580}, {6, 297, 1, 580}, {7, 295, 1, 580}, {8, 296, 1, 580}, {8, 299, 1, 580}, {9, 300, 1, 580}, {4, 292, 1, 581}, {5, 294, 2, 581}, {6, 295, 2, 581}, {7, 301, 1, 581}, {8, 302, 2, 581}, {9, 304, 1, 581}, {4, 293, 1, 582}, {5, 295, 1, 582}, {5, 298, 1, 582}, {6, 296, 1, 582}, {6, 299, 1, 582}, {7, 302, 1, 582}, {8, 303, 1, 582}, {8, 304, 1, 582}, {9, 305, 1, 582}, {4, 297, 1, 583}, {5, 299, 2, 583}, {6, 300, 2, 583}, {7, 304, 1, 583}, {8, 305, 2, 583}, {9, 306, 1, 583}, {4, 307, 1, 584}, {5, 308, 2, 584}, {6, 309, 2, 584}, {7, 310, 1, 584}, {8, 311, 2, 584}, {9, 312, 1, 584}, {4, 313, 1, 585}, {5, 314, 1, 585}, {5, 319, 1, 585}, {6, 315, 1, 585}, {6, 325, 1, 585}, {7, 320, 1, 585}, {8, 321, 1, 585}, {8, 326, 1, 585}, {9, 327, 1, 585}, {4, 314, 1, 586}, {5, 316, 1, 586}, {5, 320, 1, 586}, {6, 317, 1, 586}, {6, 326, 1, 586}, {7, 322, 1, 586}, {8, 323, 1, 586}, {8, 328, 1, 586}, {9, 329, 1, 586}, {4, 315, 1, 587}, {5, 317, 1, 587}, {5, 321, 1, 587}, {6, 318, 1, 587}, {6, 327, 1, 587}, {7, 323, 1, 587}, {8, 324, 1, 587}, {8, 329, 1, 587}, {9, 330, 1, 587}, {4, 372, 1, 588}, {5, 373, 2, 588}, {6, 374, 2, 588}, {7, 375, 1, 588}, {8, 376, 2, 588}, {9, 377, 1, 588}, {4, 406, 1, 589}, {5, 407, 2, 589}, {6, 408, 2, 589}, {7, 409, 1, 589}, {8, 410, 2, 589}, {9, 411, 1, 589}, {10, 341, 1, 590}, {11, 342, 3, 590}, {12, 343, 3, 590}, {13, 344, 3, 590}, {14, 345, 6, 590}, {15, 346, 3, 590}, {16, 347, 1, 590}, {17, 348, 3, 590}, {18, 349, 3, 590}, {19, 350, 1, 590}, {10, 307, 1, 591}, {11, 308, 2, 591}, {12, 309, 2, 591}, {13, 310, 1, 591}, {14, 311, 2, 591}, {15, 312, 1, 591}, {11, 307, 1, 592}, {13, 308, 2, 592}, {14, 309, 2, 592}, {16, 310, 1, 592}, {17, 311, 2, 592}, {18, 312, 1, 592}, {12, 307, 1, 593}, {14, 308, 2, 593}, {15, 309, 2, 593}, {17, 310, 1, 593}, {18, 311, 2, 593}, {19, 312, 1, 593}, {10, 313, 1, 594}, {11, 314, 2, 594}, {11, 319, 1, 594}, {12, 315, 2, 594}, {12, 325, 1, 594}, {13, 316, 1, 594}, {13, 320, 2, 594}, {14, 317, 2, 594}, {14, 321, 2, 594}, {14, 326, 2, 594}, {15, 318, 1, 594}, {15, 327, 2, 594}, {16, 322, 1, 594}, {17, 323, 2, 594}, {17, 328, 1, 594}, {18, 324, 1, 594}, {18, 329, 2, 594}, {19, 330, 1, 594}, {10, 378, 1, 595}, {11, 379, 2, 595}, {11, 384, 1, 595}, {12, 380, 2, 595}, {12, 390, 1, 595}, {13, 381, 1, 595}, {13, 385, 2, 595}, {14, 382, 2, 595}, {14, 386, 2, 595}, {14, 391, 2, 595}, {15, 383, 1, 595}, {15, 392, 2, 595}, {16, 387, 1, 595}, {17, 388, 2, 595}, {17, 393, 1, 595}, {18, 389, 1, 595}, {18, 394, 2, 595}, {19, 395, 1, 595}, {20, 351, 1, 596}, {21, 352, 4, 596}, {22, 353, 4, 596}, {23, 354, 2, 596}, {23, 357, 4, 596}, {24, 355, 4, 596}, {24, 358, 8, 596}, {25, 356, 2, 596}, {25, 362, 4, 596}, {26, 359, 4, 596}, {27, 360, 8, 596}, {27, 363, 4, 596}, {28, 361, 4, 596}, {28, 364, 8, 596}, {29, 365, 4, 596}, {30, 366, 1, 596}, {31, 367, 4, 596}, {32, 368, 2, 596}, {32, 369, 4, 596}, {33, 370, 4, 596}, {34, 371, 1, 596}, {0, 418, 1, 597}, {0, 419, 1, 598}, {0, 441, 1, 599}, {0, 469, 1, 600}, {0, 482, 1, 601}, {1, 420, 1, 602}, {2, 421, 1, 602}, {3, 422, 1, 602}, {1, 423, 1, 603}, {2, 424, 1, 603}, {3, 425, 1, 603}, {1, 424, 1, 604}, {2, 426, 1, 604}, {3, 427, 1, 604}, {1, 425, 1, 605}, {2, 427, 1, 605}, {3, 428, 1, 605}, {1, 442, 1, 606}, {2, 443, 1, 606}, {3, 444, 1, 606}, {1, 470, 1, 607}, {2, 471, 1, 607}, {3, 472, 1, 607}, {120, 202, 1, 608}, {1, 429, 1, 609}, {2, 430, 1, 609}, {3, 431, 1, 609}, {1, 432, 1, 610}, {2, 435, 1, 610}, {3, 438, 1, 610}, {1, 433, 1, 611}, {2, 436, 1, 611}, {3, 439, 1, 611}, {1, 434, 1, 612}, {2, 437, 1, 612}, {3, 440, 1, 612}, {1, 451, 1, 613}, {2, 452, 1, 613}, {3, 453, 1, 613}, {1, 452, 1, 614}, {2, 454, 1, 614}, {3, 455, 1, 614}, {1, 453, 1, 615}, {2, 455, 1, 615}, {3, 456, 1, 615}, {1, 457, 1, 616}, {2, 458, 1, 616}, {3, 459, 1, 616}, {1, 479, 1, 617}, {2, 480, 1, 617}, {3, 481, 1, 617}, {4, 445, 1, 618}, {5, 446, 2, 618}, {6, 447, 2, 618}, {7, 448, 1, 618}, {8, 449, 2, 618}, {9, 450, 1, 618}, {4, 429, 1, 619}, {5, 430, 1, 619}, {6, 431, 1, 619}, {5, 429, 1, 620}, {7, 430, 1, 620}, {8, 431, 1, 620}, {6, 429, 1, 621}, {8, 430, 1, 621}, {9, 431, 1, 621}, {4, 432, 1, 622}, {5, 433, 1, 622}, {5, 435, 1, 622}, {6, 434, 1, 622}, {6, 438, 1, 622}, {7, 436, 1, 622}, {8, 437, 1, 622}, {8, 439, 1, 622}, {9, 440, 1, 622}, {4, 460, 1, 623}, {5, 461, 1, 623}, {5, 463, 1, 623}, {6, 462, 1, 623}, {6, 466, 1, 623}, {7, 464, 1, 623}, {8, 465, 1, 623}, {8, 467, 1, 623}, {9, 468, 1, 623}, {120, 266, 1, 624}, {121, 267, 1, 625}, {122, 268, 1, 625}, {123, 269, 1, 625}, {4, 473, 1, 626}, {5, 474, 2, 626}, {6, 475, 2, 626}, {7, 476, 1, 626}, {8, 477, 2, 626}, {9, 478, 1, 626}, {124, 307, 1, 627}, {125, 308, 2, 627}, {126, 309, 2, 627}, {127, 310, 1, 627}, {128, 311, 2, 627}, {129, 312, 1, 627}, {120, 331, 1, 628}, {121, 332, 1, 629}, {122, 333, 1, 629}, {123, 334, 1, 629}, {120, 396, 1, 630}, {0, 484, 1, 631}, {0, 485, 1, 632}, {0, 492, 1, 633}, {1, 486, 1, 634}, {2, 487, 1, 634}, {3, 488, 1, 634}, {176, 202, 1, 635}, {1, 489, 1, 636}, {2, 490, 1, 636}, {3, 491, 1, 636}, {176, 266, 1, 637}, {0, 494, 1, 638}, {0, 496, 1, 639}, {0, 497, 1, 640}, {0, 501, 1, 641}, {120, 419, 1, 642}, {1, 498, 1, 643}, {2, 499, 1, 643}, {3, 500, 1, 643}, {120, 441, 1, 644}, {121, 429, 1, 645}, {122, 430, 1, 645}, {123, 431, 1, 645}, {0, 503, 1, 646}, {120, 496, 1, 647}, {202, 202, 1, 648}, {202, 266, 1, 649}, {202, 331, 1, 650}, {202, 396, 1, 651}, {266, 266, 1, 652}, {267, 267, 1, 653}, {268, 268, 1, 653}, {269, 269, 1, 653}, {266, 331, 1, 654}, {202, 419, 1, 655}, {266, 419, 1, 656}, {202, 441, 1, 657}, {0, 505, 1, 658}, {0, 506, 1, 659}, {0, 507, 1, 660}, {0, 508, 1, 661}, {0, 509, 1, 662}, {0, 510, 1, 663}, {0, 512, 1, 664}, {0, 519, 1, 665}, {0, 526, 1, 666}, {0, 533, 1, 667}, {0, 559, 1, 668}, {0, 566, 1, 669}, {0, 568, 1, 670}, {0, 584, 1, 671}, {0, 588, 1, 672}, {0, 594, 1, 673}, {1, 513, 1, 674}, {2, 514, 1, 674}, {3, 515, 1, 674}, {1, 520, 1, 675}, {2, 521, 1, 675}, {3, 522, 1, 675}, {1, 527, 1, 676}, {2, 528, 1, 676}, {3, 529, 1, 676}, {1, 516, 1, 677}, {2, 517, 1, 677}, {3, 518, 1, 677}, {1, 523, 1, 678}, {2, 524, 1, 678}, {3, 525, 1, 678}, {1, 530, 1, 679}, {2, 531, 1, 679}, {3, 532, 1, 679}, {1, 560, 1, 680}, {2, 561, 1, 680}, {3, 562, 1, 680}, {1, 569, 1, 681}, {2, 570, 1, 681}, {3, 571, 1, 681}, {1, 585, 1, 682}, {2, 586, 1, 682}, {3, 587, 1, 682}, {1, 544, 1, 683}, {2, 545, 1, 683}, {3, 546, 1, 683}, {1, 563, 1, 684}, {2, 564, 1, 684}, {3, 565, 1, 684}, {1, 591, 1, 685}, {2, 592, 1, 685}, {3, 593, 1, 685}, {1, 556, 1, 686}, {2, 557, 1, 686}, {3, 558, 1, 686}, {4, 572, 1, 687}, {5, 573, 2, 687}, {6, 574, 2, 687}, {7, 575, 1, 687}, {8, 576, 2, 687}, {9, 577, 1, 687}, {4, 535, 1, 688}, {5, 536, 1, 688}, {5, 538, 1, 688}, {6, 537, 1, 688}, {6, 541, 1, 688}, {7, 539, 1, 688}, {8, 540, 1, 688}, {8, 542, 1, 688}, {9, 543, 1, 688}, {4, 578, 1, 689}, {5, 579, 2, 689}, {6, 580, 2, 689}, {7, 581, 1, 689}, {8, 582, 2, 689}, {9, 583, 1, 689}, {4, 547, 1, 690}, {5, 548, 1, 690}, {5, 550, 1, 690}, {6, 549, 1, 690}, {6, 553, 1, 690}, {7, 551, 1, 690}, {8, 552, 1, 690}, {8, 554, 1, 690}, {9, 555, 1, 690}, {0, 597, 1, 691}, {0, 598, 1, 692}, {0, 599, 1, 693}, {0, 600, 1, 694}, {0, 602, 1, 695}, {0, 606, 1, 696}, {0, 608, 1, 697}, {0, 609, 1, 698}, {0, 616, 1, 699}, {0, 622, 1, 700}, {0, 624, 1, 701}, {0, 625, 1, 702}, {0, 628, 1, 703}, {1, 603, 1, 704}, {2, 604, 1, 704}, {3, 605, 1, 704}, {1, 610, 1, 705}, {2, 611, 1, 705}, {3, 612, 1, 705}, {120, 512, 1, 706}, {1, 613, 1, 707}, {2, 614, 1, 707}, {3, 615, 1, 707}, {1, 619, 1, 708}, {2, 620, 1, 708}, {3, 621, 1, 708}, {120, 519, 1, 709}, {120, 568, 1, 710}, {0, 631, 1, 711}, {0, 632, 1, 712}, {0, 635, 1, 713}, {0, 639, 1, 714}, {0, 640, 1, 715}, {0, 642, 1, 716}, {120, 608, 1, 717}}
alpha_scalar_moments = 163
alpha_moment_mapping = {0, 120, 176, 196, 200, 201, 202, 266, 331, 396, 412, 416, 417, 418, 419, 441, 469, 482, 483, 484, 485, 492, 493, 494, 495, 496, 497, 501, 502, 503, 504, 505, 506, 507, 508, 509, 510, 511, 512, 519, 526, 533, 534, 559, 566, 567, 568, 584, 588, 589, 590, 594, 595, 596, 597, 598, 599, 600, 601, 602, 606, 607, 608, 609, 616, 617, 618, 622, 623, 624, 625, 626, 627, 628, 629, 630, 631, 632, 633, 634, 635, 636, 637, 638, 639, 640, 641, 642, 643, 644, 645, 646, 647, 658, 659, 660, 661, 662, 663, 664, 665, 666, 667, 668, 669, 670, 671, 672, 673, 674, 675, 676, 648, 677, 678, 679, 680, 681, 682, 649, 683, 684, 685, 650, 686, 651, 687, 652, 653, 654, 688, 689, 690, 691, 692, 693, 694, 695, 696, 697, 698, 699, 700, 701, 702, 703, 704, 655, 705, 656, 706, 707, 657, 708, 709, 710, 711, 712, 713, 714, 715, 716, 717}
species_coeffs = {-3.210925245686040e-01, -3.769757376526255e-01}
moment_coeffs = {-6.506021403220332e-01, -4.254087564729667e-01, 2.927236477094695e-01, -6.751691859468970e-03, 1.709795612347297e-01, 1.705562287812208e-01, 1.196425749981464e-01, 3.462027277920811e-02, 4.065101317713222e-01, 6.317017076004597e-01, 9.927930113368662e-02, -1.417784140023987e-01, -5.734164811794087e-03, 1.315022628667751e-01, 1.157025155340368e-01, 6.174233362100614e-01, 2.400226390658851e-01, -9.142897282776871e-02, -3.121525941320217e-02, -1.139613366598020e-01, -1.835962223400994e-01, -1.388503599688226e-01, -1.072439101601213e-03, 3.140811552357710e-02, 2.296554458351319e-02, -1.727105812805282e-02, 5.584850620781114e-02, 3.988391952513186e-02, -8.740609988497660e-03, 2.307097222902535e-03, -2.181176397938893e-02, 3.055139255098882e-02, -1.696230772378042e-02, -3.244308085354281e-02, 2.476323966639660e-01, -3.462964780008631e-01, -2.545468534984336e-01, 1.261162972748022e-02, 1.934006597764243e-01, 5.866922090958748e-02, -9.777178410878116e-01, -2.065777824671879e-01, 6.244989366014055e-02, -5.022010650311476e-01, -9.317764727541588e-01, 1.990458406951679e-01, 2.546884610824801e-01, -3.318756653356062e-01, 1.458557432738480e-01, 4.787518912222848e-01, 3.005275549784398e-01, 3.466328648900715e-01, -1.543114774259869e-01, -1.176110031012379e-01, -3.592610599019314e-03, 2.120392941217146e-01, -1.094924314944113e-01, -2.632271500749700e-01, -7.945968216248624e-03, -5.011825301302536e-01, -1.846453557225960e-01, 3.090869062661636e-01, 1.643016342272644e-01, -3.863116716536313e-01, -5.700085437318139e-01, -6.380736390275127e-02, 2.876777201784038e-01, -4.552119697946984e-01, 3.461576941354479e-01, -6.602970002481358e-02, -2.314108676358748e-01, -1.325677595821349e-01, 2.804299169329529e-01, -1.908220279709041e-02, -5.656165281724156e-02, 1.382539047189287e-03, 2.151553378804578e-02, 7.556900255409749e-02, 2.401223962926245e-02, -3.309819797955131e-02, 3.630347969826328e-03, 9.777871123835359e-03, 1.929352590006814e-02, -2.520423003753029e-03, 4.888368929178167e-03, -1.005842574085069e-02, -3.806258413661693e-03, -6.127667562376893e-02, -2.990740144973501e-02, -2.464131139928374e-02, -2.742173787004273e-02, -3.120569120818100e-03, -2.340809874466936e-03, -3.847709810049519e-03, -3.029312670752663e-02, -1.853519002616981e-02, -3.115862102263377e-02, 2.192174655958588e-02, 9.673187848187510e-03, 1.486151591881346e-01, -2.205970870328707e-01, 3.696357261683021e-01, 1.136124105379519e-01, 1.445668969442410e-01, 2.946629320124005e-01, -9.405324068646748e-02, -2.848343192092878e-01, 3.580858469291185e-02, -2.026792938588338e-01, 6.636882655328246e-03, 1.479617880962025e-01, 3.428535202406700e-01, 1.325267093753831e-01, 3.370280764472466e-02, -7.367020572320231e-01, -9.915818607346768e-03, 1.757948729298798e-01, 2.241534386030980e-01, -3.246861689573653e-01, -5.672898014201810e-03, -8.148694760437903e-01, 4.283251296144969e-01, 5.979829520450033e-01, -1.608087159894795e-01, -7.703320685970683e-03, 1.658791998330263e-02, -5.216127458858093e-02, 2.823052919233783e-02, -6.528428310196106e-02, 7.294802437265655e-03, 2.088186153041995e-02, 9.141961578608448e-01, -3.102680592418154e-01, 7.933252372729422e-03, -1.347933607730929e-01, -3.423896187738119e-02, 1.969958408081331e-02, 1.146693984626378e-01, -1.802533889029385e-02, -6.397883317300315e-02, 2.249927493378421e-01, 2.107530738479261e-02, 1.005800115456639e-01, -7.787039168583091e-03, 2.546591370036421e-02, -3.899256374210788e-02, 4.178344489457927e-02, -1.174380472484159e-01, -6.330033941081709e-02, 2.617073371158481e-01, 6.022543382490334e-02, 2.405743838068394e-01, 6.920740283219443e-02, -1.868370060205783e-01, 8.693948650877772e-02, 4.021628784983719e-02, -3.181471614761403e-03, -1.240853488685562e-02, 5.993626216566225e-03, 1.152991153598148e-03, 2.508894140297324e-03, 8.372980823001103e-03, 1.447376438292119e-02}
#MVS_v1.1
energy_weight 1.0000000000000000e+00
force_weight 0.0000000000000000e+00
stress_weight 0.0000000000000000e+00
site_en_weight 0.0000000000000000e+00
weight_scaling 2
#H&r!?j,F?;`	H;?b?@+?/Sb'M2<3S?9]VS	(?fk?Bi
?TFZS?s?N3?6fy?3#hwKSqhB5?lr.Wg^?J?hX6{?T@/kaH@44cV|np9?dCh?Sgq?dMU%9@?/M`t`?rct?F,rgu2:-@F?RfI?}=Om?eZ4*?3f/A/[;>I]j?iA#;t*@>y?%2?t<w].;v?Dra?biz?>?b9'?=)UIfT?"Y?Ic^s?	Q~?g-?!>DJ?@Ux???F9?6q&?qJ?TV\qCU?rfX+}Ngz$C3`?6R?,h'PAy?+?Z%2Y?"0?SF5@i?y_u9j?naXEj-U?|?@L?_pJ;G@7e?rc?gx:ox?	Q~?g-?!>DJ?@Ux???p-ag\PD?{b?X(eNQ+?K#jBj?\$aTAxgftT7&?06,h?<-B?
?D	Rg???9g?qjHN`j0e?r_ YXBU#?.W^{&5?{eDp? :dUZmd?C@u`.WZ4u,oeC^?qIu?-r]g	e?Xx?7#s16Xy      ?      ?(B@sAx>"?,J!@SHC?s9@Clj??XV?<SA2?J\k?5Df~*l6ie-}I)
Q%2F>nnuzED!#E?r@(V]i?"~?uY'hFa?`U7@	e?_]9@ h?RH!@8`?]@q6?*xB@}T>?=-?*Q??] ?+j@hP3?(bBh?qdT@Rq?(`?-*?* ?1?h-P?; 6?>D'kAa,xV^;B& /a|GXr<P>f60$g*{mK!a00=H>3B'd9*\)3B2lf`~
<by5|0IbPC'zyjj]:@-g?}$0@
?G~R-j?v?gX@1|r?r4'@ XMMS@}^[	?P:@}?0@??}??u0Z8?xm"@la"?,"@
ZL?T@SU<?:A@?DP?Sui?%c?j$`??C?'EZ ?@d??Cj
?Vy?[[!Wf?y?
?u!?T
@9yB-"@{6?9S?0
5@RXQW?F?@~1Z(c%1cj8jZ#=gZNifxR"'P5sy+Mp$:f|ku[:bDT?W$?dQyUF(KenY'N:8	tO1@b~f@z'??.^R7 L1&,?%-?NB;
K?)~sMQO?7IC=Kx3?)^.8?uG?25H`3a?v=;??z*"N+kICjqfV?}I?XwT,?si{?0n*}TH)h)W?	
?P+y!0??K5%Ye}*fsKD\FR:?d?j~e|?v0?SVSj
~-$?.e?-]?/ QOW/2?< ZmD06dJo]{? ^wAF[PC?m"?@/g? 8??+?=)A4K??n%??!g?1h?TY^T6=B{?Kr?(N4W?@^!?@NdowhoF?G?vlsde-c?sV[zG"-,n\w?/6G?$MS_2s?QPW&k-?)6=a_H#;a9?@?e;ZmEL?Gx?ouVZ?8zaenGNb?z?e`?QZo?1h?TY^T5=B{?Kr?(N4W??^!?dc%1\?T6Ib?X2W?h[.%>EWh!?gZ?2G,R		e?L[v>~0? n?! XM?tE ;?..!2U?1tG? 00[%6?EY=?C';6L?3+?a+?o5Q[bNp{h(?jq?84R?|)?      ?      ?_	aO@	*Vr\wB8?nJ@=E?b=J|v @ +#?Zpqb?S{U?qR?(dm?z#w,Z?^f
.Tf{?vBf>? L1JZ+,,0zGkaE\Rya?r?>;h?M^NU?W?m:rk/D,@H]5?9z?@%?4#z@|DV?VkI@Rx? \?6?X=-?U.?PvZ @-n?~h?c @7?&WZ?P=?U?>e?QX?j	8;?<??JFaCma?F/fk?t?utf?GV4MNv? 7U'Ti?6d' /c?vZ\s?_665eFU=ve?bdjbh??j*KX%5lLbS?0c0?s?Q?*U-?@!0q?{s|?a:L=y?0~\HQ?
3]&TC@q;?	t,@j6H?r/$@Z&^?~I ?A?D!S?ql
?E@!Z~?,R@DY?v@4?k>g?F=?&f?"Lfp?g8==?`_v_g?Uj?{Oke?J?o!s?0[w?;}?6!l?<0f?(LLr??	?O7?[GY@K@X-Ek??r@3/b?4?$,%' 0 W@u:2!:H$P?#8X#n?JZX9{?#]
iaclXm?eCU?hnP?m?+NUS3w9MP?8C"	%Mp?3v_+~\!fJ@}t?@!?R?                                                                                                                                                                                                                                                                                                                                                                                                                                                                                                                                                                                                                                                                                                                                                                                                                                                                                                                                                                                                oRD?v'IN\Co?Ao?h<?0J#?YiT?Fb)z1mS1e?~[?{XBn?r#@KJ?vfZ?!x:?M_tjAU?gqAk^ >4@xI 6?ng?r:E r%? I?-nB@:IdP]A!YjT~@#l?%O?4
@              ?R@Zm);|SW@nC@    n9r@*@   9|%@   g9EI@    0h9F_+,     D{hk    xN8B    A&'!    IH&t    @fE     ez&@     d9/	?     }9<si	@     ha9un@`s9kRT@z-19
l5H@-w9>kB@<L/9&d9Nws9fQ;Og9Y}a9PmLAu;@s )V~90@RmLAu;@MNkA90@TZx9CuM9u%
9Lr9&I?(@R]V<c(Mv={eVs1A@leKq?Y10q5Pn:h- OnU3#rU3# 2DMv=9X!rU3#]xCK<Wz2h 1"@}5L
1sxxS2!dBNY FfYpxS2{@ph}?@)tH9p3%@lV4%9QXft9j3%@9qM094?m-4@&G;@*!99;9g'@'N;29~ms@6G&9!l9W9*9i!2HI9O\e@zcCN9O\e@4v9@;Y@/`9  py2H9  2  
2`93H9 +439H9eqX9wqy9#l9eqX9eqX9 B@b3 oP3wqy9	R69{L@O\e@`t94v9{L@x9x9<U/l,~iPgP9Wx<IvP]tgZB~^KV6kNviPg/%lon  @L2  @#=KB~^x<I   ex<I*2SKM6kNi vd|._w:p2"h@!`f9Mt 91Z+9N5eFm{C}?0g?3<ua?jm@2]=?k??4e ;;!\?2J6?Mi9?R\rZ]<CW?V?L?2EqD,sxlA-iw}S?7h!?Pl$=Y?ofF?5xoM[HI`4Y?l(\k_?p2Up?/;?D+i?p.Q|0F)>	v?R>?>uHPM.?y?F_LB[Y? h?{QHPNLYiL?:"r?IO&D?T?G?5+jB
?Mp)r7d*B?cl?rbO0W6?r?rG }?8?Z7<0G?r+?"tm.aO1K';7?@Iy?xDB0Cl<?'yu?? 4RER$#~?E?}I]kg?S??3<H]D
Xp]c?AFH?UB+m?@?v~?C i??`*,69?	#:~?c;;j?zk"J?T|dL]_bs`N?r+?"tm.aO1K';7?@Iy?vDB0Dl<?Bwn>x?;~??eyhXy*??`MY%?$d?g?I,f;e#p5y?c I
??Z%%WH1?[_ZlzP2?x3?{dGy	7?i?^1y_,L/?Q?<7zK?\x?a=E)5]tn?D?cn5\QbZm?      ?      ?|@@;Z*j5<m
ync9?Pzm@ALz?p>` @J^O3?F@?j~I?tp?b:"A?xV";yL?k,mFkx?>q? r??+a;	db"5?CB'?cf?(u?B?#=T^?(R0@6?'S@|?@U?oU!@\-?gW? b!?"O?'H?~ @sX?t0-ON?/8@f=?_(?6:?~?V"4Ol?tpA?B?M":d0?K'/S?*?IqX?:?Lw}?+83*H?`k C[+8&?5/2C]X?YZi y?x N?r7iEBVd?Ik0]k $?R2/X@8T~G?I>v o4q]???v
?KlF?
M?1gn?DDcOBA?8j~& I@r<A?HK2@hiU?-ja&@.^? :,a?c?x ?5?.@XV6?~7@N\b?8U^@D]?B?92?%M97@?~	?Y)?eZ?>?XQ?
?'(?MS?37?AG?0C?JCk_j?w?Pp?}\9\@jmE@}90?Gs=?xX/s@ zS_~?l?$@z,?N`
tuLVYN?PQ?"?w=\2XN?B3&g2FO{0? gsB?@,aQZ?\SP?u?s?6q/7%?cORk;??LZ"c4Se)1CSc;x?rv'{G@onI?sb?6rG?f*?R Q~J 9j?2ROfmI?J?N`5S&?EHj{T? ZI9Y.n?%Z?fD(?rviRo@yK?
qs?x
0n3$?D?uk@Sk|RJ?w?s1%
_hP?g,@>;>}SJS?kO5?)i_9*0?n!j/?U,?mcD6_?R<?X"YU [$%hm>?~d?1Lzpx?K$?LU.@??6dmdP?{$ufsj?A+A?008]L\he?+O)8? D8V=,YBw2x?~IK?o| X4I?G>E:?LmPq0T`O?m0D]<?\PJfx]@?Uu|i?P@r?BeU+)cTad~?1C&)?Q~lr81']?$:N? 6z9x>&G?lb?42C19m?||A^JB?@Rjk?G ^p$	`VF?*?Z[pkFrZ1.?NBS?QX^ (Ce?F>E:?KmPq0T`O?m0D]<?\PJfx]@?vcU?+uJa?ny~ ?O?'eH>cPQ?sSJ?WTY?iT?K<HR)?e*6'?%
*Zhq?V/4e^?#z+H%D?~?"@R0?1<K@2y?j?(1_1*Bl$,?l?*D?nds	?A\M$I?R tX)`g^??UUUUUU?xB>	@W 
yf?/*p$@!?@ #? \X$@@/,-?\XN?t?&,NK`i
YAzUc+uYYn|U's\[rkK^e %'efYs&e@9TB?n??,.pHj @	e?qsr@@u? tg&@1R~?f@VY?Z&@T??9??I? bk=@:^?\@W@? <>@:<\?<,?u?5e`M?OJ?Yk`C5)C9q]?dzT#$,	IL|3yf0x"4}
db+ep5^O
6PTVE|V8=HBBgXht)E|DXnkfaf\)C@<.@bH^#?1K3@{g;??-'@^oL*?bf:@`F\j'rZ@Ugj?KXB@ube?L8cn6@jd?u?~H?
Dh??B	(@u?) ")@~o?XD@I1?*\f??
Q?"O?<?rVW?%Ybe?yp?Hu?>o?Ls?)?p`Zuj??LBU?q\?t6?H<oj[@ &(@`4q??N@8W?~\B?0_jQ `p|7|IA{ *Q^}y`.[Ds 8@7hHH8][j?]}/G`LeK8%Q81CA(Va `-H^^_.@W]96(`I@YZY@JR@?)?IrGT84,?2?-8y!Z0	;,??y.?UqD?)<8? sSV?YihwP?=Gm1	U?Y
h?n,g?*tt?Vr?&tj)s,n?s?!&s?+yq?R^SvO?,?uXQt2K	@Q?$:N?nA? ]0PFUVh!?t]?H=kCPb,Ygtm?;H}"]n?rI?/&c/ln4fD3a`?lW4?}?|VpT~?c3?;%AQ?IK_~CO?BF?`M ?I#xx??vMQC?~H^J%M?U<9X?XeegV?2?#X?,N(-	?\FI2?t:#tli$QXp/?,wCoz.2?|X}?,2E5B 3WI?P?7:.Y(?lt&,3M#?qvO?O:[+?:?8?:l;'?|PAC4+A?W?}^a?W!$M?U<9X?XeegV?2?#X?,h;h}c?v-M?U`L 7iv\?!~418F3?:!P?w[;G	R?u#?50
u}F?E
6!Wn3?Fff?.o7Y\}8$B?~?u~I(yQ*vfH|?~Xo!B?ZJ\_bt6_?~?TM'T}wq9JK&?L[?lrbJa@?      ?      ?	oA@q$6H6AV^&d@p#@Jdx? ;}@*?@Q0?ud?8CR?A<UN
C+z8&XI:- ##o^*v^48''U]m{F"r'1K4?81p%)?Hd6<?j?Y8?H?r_?hjU%A@B?3]6*"(@?y@U&q?P"i1@C?G?gw?Q	Gi?aS?2q;@V?$-@FV@ ^y?NJ@!:?#Ke?M0?JDJ?[sx@@TM'5t?1vAGb bVNRPwH m1Ib0=A'J
yW+R2o~(z~(]~[e~wV%+!weGYV`8g*61^N%-;%SCLV,#L{Di@ ec57?1gL?jO?55?u9?v#Y&l?,G@C+[%Di^@wWq@aTE@\`]@js;@{rvD@?g?L[?j@?v/@w?s*;? /@6 B8?'8$@>z??N#?jd?UqB0?Dr`I?`~[?YSA?@ G?pwC?}?\Gf?8|?x?y?3?l?Aw"?|?8@X\.@RK@?dLm ?*@oH/h?f?x+_D=9-T1"3_!zsb!D*DABB4>^-et`Z5ci=y.T7\\F5
BXl|h	=?=.Y)X?r|F<5\;?]->W|,@y[ii?}8H?K?O 5;BWbb?(?R3])(Z?7?,h6TS
l`&?ZH?Mn<VvXr?XI?Fy?t?*q[' )kd!@E?)Yg?@I#<4~b?TS#0ul?
=$u6??JM0iH<S?Y*Dg?w{ebR4r6q?l?5+%,D%2Ote?p2?x#	,i?=lYv9F1Ie?[f?%HJT?u
ubv:#[?Iy}Q3?"?@<J?n?IS?VPTKEIzBd?'|?NA%?d?	X?\K M"J0[SW?hF? Q#5p7?4Z?H=A5?6!q7?D4CWl?y5tZB	2?$:?gTUI/%?4fd;B)?`0 ;j@@h/a~?\pN?[R5aa@/a?.:?@Q?n?@`)~	?7+.?g\2B?i/?	X?\K M"J/[SW?hF?P#5p7?4Z? tG ~1 7_F?K{\7?@L7,B 8 Aj8?0F?~`<`'?,0?B6N*71s\?^]%?h+?bGqxy?b=+kQ^6f(?B?<	
r<Y?c?8u{%~?6&?oKj%r}??".!"?@?Q7qRm      ?      ?U/@=Cji@I{;r?p_;@3?n?$/;?~F?1?	( ?+?d`,@A?#
CjL`?Gvv \?Oy.lEQC}+m#!)2/?r 	q?3|" ?Ci?irH
?u`{-@|ej?z@!w?*6+	@X+A?oM	XZ	@g?n_3H?l?N=(?PS? ?wgy?0I3?qQ?#v@?m/?8X?,Ly6>?vS?~1B`?F?s(	*H?}-^J?;KSZ)A>w?WU"N'+?}G+?|b) rq-R?0*jD?f1;:/,,-?sH)69#'7UjNRY	4/L|\6xp@?Pg#?$J4S?^`-0.Y\?ch+?Cy	@^:?bC@sE?2w+@tGu?	&X9!@i'T.?r?SA?uT?gN?],@l1??*I	@6e?@?{?@Z?fDq?7uG?<*Y?$?^?Xm?o?Ck?SkI?kW~q?Q?n?fn@?,seie?$~?IPO?$?E0?j 7@ ??<*f?P{l? >?#2#(|?~	::-`?4k"/V?N['?*;:O2mvSsE
J?ZT5>V?#,?jnl:8?V6t?i?d"]	z<!=M*@b?)!oE<-?R-vp?b@u?6L:R?m?3<';}J y?{?9eEvxm5?~9Z??389?(xr?I7h?\SmB1u?[ ]?<-uw:A6? \S?mHI?$Mi<u@GTpcw?,	
@bpF_?A`k?~                                                                                                                                                                                                                                                                                                                                                                                                                                                                                                                                                                                                                                                                                                                                                                                                                                                                                                                                                                                                      ?        94#G?*-.tF}k)CP
?_&@@    `U9 ?   eT9 6?   jk5M9P?  @bY9D%+    @(O	I   9uS$UV   nG7     dxs   Y`M-NL     k:\j@    (L9z?   `_9MYE@     <]9%@lb9{m?|W4a9N>`?.KFX9s?H9q2BD9%X69uIF%9}O9}Z?\kj>@9Nh?}Z?IzG9Jh?xtN@9>19/qQ99S9t09~}M?5-ZV"`	!|dHNL?6I_5*bh8A>DI_$U U ]AeFVP]=U :DeG\aS^%/QQ4 b] hq>\|%s&Uw o yWE\|C%eC@+2E X9Yl>?wZ9eA9Yl>?r!. @9^ @PT5~X @4"o9G @3sn9^+?
(iX9e9$#bl!U9_qQ9	
C93#29^	?(w
K9^	?"T9>r?@;E9   JC2^,<9 *6Md2  @2^,<9 B2<?u19}G~)9A79n/Ff)9##bl!U9A79A79 2 $=2n/Ff)9h6~/J9,U?^	?<9!T9-U?ti:9ti:98)-] f=&sGlZUN-Bog/N0TQx-=&sYIhm   2  xl<g/NZU   
ZU	41TQ|-x,fg~${|$o @p vd9WR]f9 =zo9=?1,+i!?8*l2?
8M7"d?>NC?igD@4|?.2/j(5+E?Z\X\#.p?sL@?K(t?s?6+V?yf	YO!?j!A:%q?.j?2yh@"Feg?z4@Cp?m
'?j_N?;*;oIX?AV^,?LL{(ez!_|/?<]?N5t
DaxjJ4? 
?i~-?E?b9WpwO?0ev?{UtC_iOxLKA?o}v<+ue?x?|kr?.jkP$vI?8pdWm?Z?:p?*BnvxE?fQ uV&G?)=sFJ>~-Y?[_:}H?~+Z[Q2?;[)KV9QrmsaY?w?MC7k g?m$x?_"WM~n/O?iGdm?E/vU_at
?b_CX
U.v3-'!t?&?Iu?q'}XIr?KTav,z=gzo|?Z?7p?*Bn{xE?hQ uW&K?                                                                                                                                                                                                                                                                                                                                      ?      ??0@TG3@l,=<r]?vP!@s}
K?1$JG@uD?AR?G+B(?=?:]? J'x:=W  WX7]cYg%6m]P-xku?OX@u{w?y?.:?S@p_9?Z/:@G L?Z]
"@/
?4f%5@-wC?E|@2?{-z?{&}?2CD?$}?I\	@&J?>06]?QdkE	@(P?1}M&?FK? 6?a?QJ
? Ch?2 =&1	iFD*;@6U^N:"}/7{]{  \Zh6V\[Ck0 |}7gs#&1^rA S`g_Ou	\?\&Yq& p&`z/7R"{q%%7qm'@]Z?ZTD@->?vx^?1dh@Z?b Zx5@e
/ ZMoS@6f<?#E:@OyS?%6,0@  C?OP?T&?
SWY?R7*9$?}"@v7?D#@m?0}l@O9q?o_??	 5?XA@?G3?7_?2>l:?zE?Ta/b?pO71? ?fo?\:Mo?xPX?r?eZ?M%+?fz@cEN"@kCS?1(?[@6a>?hnQ?qQI BLC1A!HeX .Tdn(JH8}1?0ID:SD+5]LTz0O(Q|VP@\fD+1j_7jNI<:kxW&],.hc* oA@kA?b/?vAc?MV?K*L E9UHjD?	[Tec-,?5rp9O`Vq?O?{#IK^?i^?oW-l}m2~5?r?anQxB)?A5P)1	HG;?,s;7be5?EPd!k<J=t.?	[({TC?\y\3jAv=?]~\P?RxV08%?&RhfP2#)???'Kfk?j^R?;?JBFT?sb?>%yI026}?%0z?Gc?\?;%cGX~(?f"?rol
oi{A ?Vn?.xes$6??7/u!Ke}?u!z?b/`^?@Q?*x*`ga}.`D(ln<g?z,%I?0IzzPC{??"\?}8 K	C?26 5?J,F@/BKzl?@LPH?e?~"?;4)O?>?w>;)b\q?H?Xo}7xNZ(A?6N?tqps y%ee}?u!z?b/`^?AQ?*x*`ga}xj2?&5>?#Qv!0T.?g?(t90x$D?qm`>r?zbArgA\?k, i?E3T7'?+31?'?Vf?[;a7
N|?FV3?-s\2gkwz'@K?8#?<t'[,?i0x?p^yWrJ?=<?8<J@yC9?      ?      ?QV)F@wB,9_"op1$r?'Q0@M&?tt@s?vi?u(?oL?N!!o?6f GAj'R|M"~tf|9skZA],Re_>"vv'hp*?fu1?jk?X v'b? $Y?kIy?F6Kw2@oI?@@]!?< 
@tI
?\z
@?We?g? C?C
?@[q?zOs_i?;@'/?|E?`)?el4?-i=|?[?.e6?vQ?;j.p+c}-95< <WsamQk5TOF,}e/V'.0 'Q!chC_Iv%?mew,Z^UG D;)+CvmPi%7n8:20r?trv??K,H?p1L?WYH?H!?}n@%-)9>$8J@Z: @oQ	3@ @^'@M@Ln?b=?%?)1?
	?w @|L{?0as.@+m?<70@dp?!K?5??a=?Q=??{;?II`?0Q?!RI?XEI6?%i?7?"'?
_E?F?LIpqZ?2-MS@i!@1QC?	TwV?!?@sy?8?j@0}xdix<NY\s`7kp"h=C_C 
};8qBgL(i;P]\3X;i7f{!Y/ X3>dN2pQ@Y2(?mn[u?W,b?')S?8I$_D#s?J670n^%d?L4JByl? _f+?DNxOA*?yD?uvkI("D?i^"vT?Z^WX?3=- RoM{I?DkV?.O3!l4?6?rxc<,hiIqj3LW?+T+<@w,j=KJh$?3?=	PpiB5 @HJ(8Vr?{|?&d?v$]3~pt9
?{dd[_f,!y
!?I?Y,ed0ua?80azcs?(ku>C>
?C`$?x:HLv+7? D?\	?J~vnD?#&\?ebH?Xr00?*_8?ZZ1-U3@?PsE?-:r?4>e?#36B?F92?JOXd?jc[}g?L%}}R? A{?5BE/? u?wQE d)?a W	i?OkW@:?(W@?@{9?h?bq?Qf`Wz|?cm?cD B?r?Gg?*_8?YZ1-U3@?PsE?-:q?4>e?                                                                                                                                                                                                                                                                                                                                      ?      ?|@<]	-, BH ?h['1. @[*cz|?DK=.t@,?J?'?P??ikI Z+BMss%L>3v%rvBjYwq1#yl?+D@~?F?V?fA@L~%h?\8@G+?EdD @CD'?#@`H?w@qJ|?5\_{?FYr?]r?jYj?	T@;?)ao?N@O6?Mk?\?Ot?=>}?4 C?J?.;(?N5dm_4o.'3&q{eISR<<dR6p 6V
YY`ykC71kJ|N S'3*`5FR{!wT	_>-8$4A&Y)9x$;$/3%@PB~?]0@7?oz7?6m=J@ ?$+5@mZG')~Q@k?E7@WeL?z:K-@HWj?(?CR?EW3??h @4?rc; @.~1?`5@N];w?[oo]!?+Hc,|?k^_+?jz)$.?<3|?gg1(?D3>r?' 
z?sMz?sr?t98?,{?{?#f0?[X_+?@Jr?qe?\0@w @=LSz?	[B5?0@sW@;i?.&1?6EO xtE-is7:gX#rsZVVM`
	~1-?7n4bmk7#{:r^o| /Hx}lzWI=m9%\;k$=H
NFUUWYh|h.dT:>@(0&?m6?8'y?hO:?7iqA~kM/?\4?w$BL?Z_6=?7I?N8?>j6?gjmG{u?APl?y"?A?HZ_G3?ipU?7(t?-nF6?7Uq3oCA"K?}/3?7?7|HK	N-K@&$o=&?ZG+? VCH_,?IX~=,'JF?#?""b9/
Q/?U+?bun>q#??&dj9Oj?bsh?+8#I\@?9_I?L {?NBx?Wfwm@3<h?8I;T?#cU'@"A?)? w~Z_ -S?		?|jA fXEyh?%C?ZOpM~i\}?Hcx>?$J2?]UtGVo @u?!0h?Bd(<NkihD??EXwN3JY?fF?5r01I94?SEAUeTf? lZ?n3>W`DI(\\1?7 0?$WR5^j?b?2(%U+F}?		?vjA fXEyh?%C?[OpM~i\}?( Fh }R?u-~?xUR.<S}(?p:T?1@LvuhqRk?h?QdNe9\v?yM?4?NGo?KvD2b~{h?b?voBwMk[=;?7PWv?~e}`Prwm?W;;?CIA~*?+~|?Ni;?UZ?CGS?!(       ?      ?C"9P@Q\#UGjtx)`?A@)y_?\@ThP?VpB? tL?;?WE4?bU6]"&Elv{WG-v^A\?]"'EL@i{sq"@W? ,w?r?{?B1uW>?P|@V\?&_n5@Z&?WPF@T<O?I@y?	q@>1?5[?R?~^y@3?KGH?zv@E?: ^?NI@4s?R?#w?_b`?8?4r ?d?V BSLU'bVB ODxbcx_vKH\,Y{[%RrgFUV~H:Fyq01~R!<++Z
;AV@o^?h}K0aJ,vWmyf<[svf	>*l:n[:x&@,A]? p? ?Z{?k.e?lTv?UrX@,12EO@0|?)L5@i|?Eb)@n+"/?ei5?gxEH?n?k?lbb@e?lC@;qx?o@%p|4?+5?Y	$?V
7?X&x"D?7,?< <?3j?-[\?d?1XrQ?Juq6?c?t?~2?g6C?VSTP?Jf C?v/?\[@KO(@J? ?Ru|@bY??kA7PmFR8c" ,L"zGWr!9DN0$v2F 2-Ecz:&V#aS>'mmc^:FTu6@;0K09IQAqvf/\=AwhiFLHQ3$@aU?i?}?I;93I;?z?-?P~#TKX7t-}et&K?mi?aZ?"hB `.U1ZJ?xG?j=Hn')PuX\^C?:E\>?Ci{b@?	?~khq?\ii@t<	8398k'v?'YV?*l-zDe?9K?5D?k@c(%) -?v?%'d1?FMm1??:d	QVXX?%iTvz,G)??(XQ9?w1sYo?a39OvA?4Gg?+$UI?\?n=P?oEX#Y~k}?iv?hRtJE8V?Bf?$|\?by)CaS;k`Wy?| "?9c@),AZ?"H?.v?xeA:b?n]ge?'=?OqjOfASn?0w;[?jV?Gdk8~b&~4?SL=lZ	?4rhj1?=~?; ~O?]y?F5J?cR;fKs^N3i?BtT-?
LF5iP?a?$|\?by)CaT;k`Wy?v "?9c@),AZ?H?Zv'i/?E?(1?Cf?o?$'{/Yi"?9|7?]AnNA$2Ydz?@T]?`FST?!s?{5Ek=?ab? s@tw*M??a*->RO?K?W3Q.)$?
E?!\BV,D?<;i?%H@*Q7kG?      ?      ?Q)@2=Q7Sh4E)P(;?jRK*@81?bZ{gn @`&?d1?c?Jc?;E??Dfkzg)!Lp 4ZCpuG& 9lJQZ/*OeBTV?n??jxT_5?&?=9jqZM0@Ag3?9i@Z|7&?@ T?qy	@ '?*0?l?$L3?\?r]{Z@"Zx??b@.A?0?I|?C ?w&?;^?>B?5P>R+muLPUVdAqsR*]>DAvTBT
s\!ZN#uO>cRRfUUKOI1opZ+l'o
sg:) kqKItAOL*0<K<?c?:	?p?7o4f?^q?\=?|Zj?v:(o;UNkG@#?=-1@>?*'@Xu?ddke[b?Tf?s?;lr?t/|ma@xN_?iiB@^?WPO@0P_?$VK?P_s? C?Uf?n?MK?.`
?/~?.?$\?VY?5iY?a?90P?D,<?X?W)?(K@29@)"(?vi?lK~Y@E"?d5G?,Q#k,[a8g99YvU;Uu"#H)+!R./Yz.Rq-5`wZ]2bcDiB1VH.iGGv~Jo!~8Z9k@*L?!?*>t?2?iE5?{v^? 0vOo`$?O
Z?z09CZG?H?D[&;I?"il?S,*k9?1;E?$?UW.' o6?N?V$#Hz?h?P];:eN?"f@Y\xO!]TVL=?:)?WRvn
Go.g?S461!?[?Un_m?Es?h5F?	#C;hN'? F ?4#9/5?HT?N31?um?-TEhAHo8;N?Ti.{?cH?e=MdpT]p4]?f9c0+C?J&74O}8?^0@HS	4_?1iN54?i7K-X?K,Lw>?Gqz<?&hCkV)ho <?64V?tL+(Rk?SP?K9-?PPvIQ?9ti8-[%E
?XXw-U???xk@&Zo !g?O^yvF'?gG6xw"N=Mxb?0$p64O}8?^0@HS	4_?1iN54?i7<W.?c
CEie>?bw|Bz|>pU> 3w?p,SH*_>6?XfErg'r8`{?lIri8`{(Wv3>TM8`{?p#H`B8`{%%>>llE?*#QdE7"5s>mKE?hY<v#EHQd->^B?%jB~b\C>PsB?\B}B=A?      ?      ?Cdk@30gOjJCZ+D-?l! @M?=)^@d7G?S?ua?6)?>?`:T]?n01?or[Q?G!5da6&XW2'%qf%@JB?nVj"E??t@fK4<7@+w?K @3=?;){@Z[?Okq@(*1?9b?J?Z?hS[R?$e@;^H?Y.?q@z}:?h^?vZr?2?6~?O?H?Nw&v^5?l!a=}1?r	3!~?Z:Fx?o")?$tBNbm)T7a?|efg?>E#x6ham?LJ#7w=+#,UG~Zq )w:wg@a?ky)@%31S0rSn @@S?DJ*@UNJ
<TR@m7?9@(?Yw/@/d?y^|?8r?H?+?#IIK"@:-?Z"@Hy?Tk@[qD?Zo?0?Q@N?L
)5?3)?96|j5?oiE? `?Ts?>8^?_=%%2?~Kq?LXA?uNT8?Cx?0Y?N5o?E
@OeP!@B=S?Z??A'"@?W?a!i@M	Om?&T'&_@?Pz`8m_t*%??3Tf,T?w+]0?Js&/ox?pvu?y?GDTHt?`1&"?XM2*`*R~?(%	&[4	,MR6)j*y+ y0@!S%p%?L[dE?<|s	@0y..bD	Kf @&b7~L@.bFc?{4? lyJU`\?S`Nar?Z3g?{Q.UfB?W<z?ql,H>*?(+a>CHCS?0j@LS r_w @7dE @I"L?q/ Q>\w(@zMaG
>Xh@<JD@I
@t@xB-q                                                                                                                                                                                                                                                                                                                                                                                                                                                                                                                                                                                                                                                                                                                                                                                                                                                                                                                                                                                                      ?        "@5>zv+4""0wC*K@37EjF@  S9-@   `$v9u!@ y9@P@ Dyu39_gB  vbsx'(   br2N *0O    A*v 5   0Xzc1OF   0a ^D9>@  m9-V&$@  7w9qI@   8uw9
 er@0R9V2Y@y9zN@	e9H>^E@uE9#T9<E9`?w9F2	l9ah@@:xHbpQ4@ah@@&&9pQ4@Hb09B?q9({z9Uu=L]-@
MnsNb)R3\Ty#6HDT(9	wP;b*_3?2uP	oo%[Mb;%[Mb;$<3\T{m9%[Mb;`n
:W,2Sb9-b&qHtePcz,
/'VRapdK8N>3a{rKi@7@a9^+P@x?V999^+P@U,9X_ytu@ Mdu'f@_mJ9@
U19\!y@4r9M~<'9C*97oq9tO9Dm#`k@{-Dm#`k@Lv9,`@"*9PiU2pT(9(_#rDK83yT(929c=V9^f9.6>W94~<'9^f9^f9 	r2q+*3,6>W9vGv9tlR@0m#`k@N 9>v9vlR@}9}9H?$esVZ0 Z+s8P g7&gXMCt{q"fVZ0m9}d(b`;1H^1n5\DCP g1W8k#P g-t{p"f(2[u(ZI+@K9.29]9N2|<8#mS?mm?cD_~1InPj?P@?S}g4Delp?oU?[`,& >?MsX3?C?Q~??Q_H*?;L?~u?['?A?-	DZf>?GxWm?_\ qtz*?vzv#O?Zb0/C? "?g?z#s&yIeYdUG?2}/m?t E;2[?:k
hp?OM1c?wU}2Lu7L?	GBa>(VXx?%!rA 	?t<?rVqlMyc<?kj?=}'E?81:?=?6f>6 ?<jL2?k$P@? p`(Ve$y?sE5?1hMPh?%f%w|?i*`bw?@|?2B MJ$|M?LFw\0HdW?RjA?bG?-L`pjm! ?KV	xS]a?Y+ ?l/	?B? =(.?]j#{co$?Dl?0%Yy<D1?AaQ?l$P@?!p`(Vd$y?sE5?1hNPh?%f%w|?&Is0F?MQJv?_p/m|G<u[?	}nH.IXg?].G?!jP=!DfS9?;[-?'oYU?z=p4m?A_G}?%? 0	2?JI6a?J<:igC?"l?	?7j*~g7gZ??m8p em?|sp?z:}ie?9y/1&      ?      ? @,k^66[?Zb"@g?_Ep?Vp?x"vI?T2$?d&X1?!\?~8 '|ze)cFvx,[b[u&}{'dT tgpo4cX.LZA?;
?
w?Zfg?g1[?j0$@(E?ln2@?h_@@?r;^@Fb@?4y?GK?]hP?[.T?9R?L1p?B ?wj%?A?rmK?/X6?ybb?VyD?*?a?y}"^>L9)e%@<U;O +3s8uh0Zn8c;#iwCroVqN a)?F'ZcAm m_MFr5@<	k,xX dIs9zWGQ{#1-dbBw<mJp9nU$f+)(7?~?V?u=}?Wk?v_c?B*r?)u'7sC7@Qv;O+?7 @?P@x,K?^8]?XO?S,?xb)?Gbp@8#?vx@yY_?G'@sb?CY?{(?Q?
^?	[?#V?qJb})|?j.{?HAM?
.N}?mSuS?GvU^?vBgS?c}S?JW?!@,
~|?<r?6!+?1@@t!?5}m?He4?G?|K?9n26:EC^YiPAR"l [>EkiCM-/OLOe'S9CO&VS^;.{BW`FTZgz>LV*<1D~.W+//m=yx :kn@z??]zP'?z~?F1hjlm$?g??5?a$jc 2M5F-U)4!p?p,?"N?=!AYnt*|,%?Y }]?9uZ@P%
mvm?sL??h-?6?uQm'rAY-H~XKI?"0?"@W}?<<?`N?*R1"e)h$J?'E?|{S?h%Xe?v/?9+g-(?$a^?\?K@u()F?] k?mlqbL?' MY?D$}$i}21?<? 2dgvb+x?J:S?A	kN9Jnk?.E?4F_*?L^ns?g?pfs7jP8\c?Z?>`ZE?E??:ZZ?-Px?)*QC? PFf"vP]RPZ?1(#S?21lFCtTd^(?sZS*c|5?$*4jW??~?>8Ysw#(D%?*~u?S`V)?T$7?I}*-	8*?lr?h?pfs7jP8\c?Z?>`ZE?D?2	m<li~?uA !)%vj2?GnPlV#Az]
?0JYD?[KTnE?oE?wFi?1&?9aEIDl?K	nA|SR?B*?2I?\%Ha]q?jf*?Ww5g?h2^-w?z?4*?\dv?@8*Y?ve2?0-WC?	S!?UUUUUU?UUUUUU?Y7Ay@z{_{`3WWuP}?PM@{	?o~b@9
Q?X[c.?i@H??Jw?Cp?j
j8m=f'0~_W V*#PWI*knm",_x?25U??H%?R? 8!L;5@I?P
2k@	G?/A@?sy6@	Q1K??)?A+?hn"?@
?RQ?~@u85??Kb?M ?~*:{??[5u?3?r#lQihxJYZ&\sb>EWiD(=CAu=Ps=]l(7{`{@
9
THc/h
+*C^,9fl*Y&W[X # ];aFa 9b;Q@4?nf(,&? Tq?I\?Yy?)C?z? v1b?R|Q@?E7@"i4?20@P?m;?QzL?pmB?\rp7e?p]v @dZ?c@&2?6N}@T1p?g??BW? ?.??\%N?M)?Y=FD=?Iqs?\?tK?k+?dv?B^?/O{)?j"?je;k@@.?M;?*Rz@?8?X03,9["3>lQ]ouS*x}gzd|uT&l|+R
DB{y~84v}km\G>-J4C}Zc'mbkN- :4i e@5rs"?yy?)~0?                                                                                                                                        >                                                                                                                                                                                                                                                                                                                                                                                                                                                                                                                                                                                                                                                                                                                                                                                                                                                                                                                                                                                                                                                                                                                                                                                                                                                                                                                                                                                                                                                                                                                                                                                                                                                                                                                                                                                                                                                                                                                                                                                                                                                                                                                                                                                                                                                                                                                                                                                                                                                                                                                                                        /u=B F?!/i?H7Dc677B\?U,<n5?(=?F?w?
"[r7?^f=:m?&:B)Km1`j?Rc[B_?bT,?yt<)ZP#\n{<?f#
}v?(SQU?qcz}E3aA:8%?A	R}mN99zw+{?0#?JVDRVn&F"?g,&?,tj3?sc\?\?K." }a?}?L@)!?(8)yv?2?u!GtewM?@?]V5	iH3{?yh?B*:?&\0? |RJl?~\?!	@	V/Z?F&Z~?x5s?Wl%T?,Z?ta5B'w}4#Qs?v"V?I8l|PYlc]?a?fW"?rl-o;0?Ee+e?nlXn3?:g?q=3VS_?n<?p|H%"-W?&\0? |RJl?~\?!	@	V/Z?)C\Qc$=?\j;?C8yf^M?SVxTh03?/?DFj3O\O5[?lD%??'aZcD7\b?/aT?KU?9L~44?e?N"!BS)?)Sc?E#7?Iwj?WcX0?=[Zm5-?R"?tT?UUUUUU?UUUUUU?t^@"2uf{7c(Ea@R&e,'#@p+OG?Xk	@t)T?!W @C?Y0t?>?V .%>J;N;N;%%?ES(
yH}F%DF:=}IO,r/3mF??:?Md?!@*Q?[?<?@*?="~%@I7E?^y@gDX?KP@mt?9rx?)&?R?	5?Fyw@-~?@+\@mA?^l2@W?Bj?<3X?_7U?vd'?G!;B'8\h
 !{N;&XMu-qvHzsZ&Z[2)W2
6nN!<I^fcG\}9J. VEuPp?"$*!"38=H8]8C:S)Qg&Sg8*8X/qW+9DxM@s`	#?Us?0''D?c{?L'E?%k?tG?RM@tAQY@%-\?@<A@?<IP(6@:
?l9}?z4U?P?u?gT'@5PL?>K2"|(@U,?NStZ@(|?82Q?]s>?r??x?zo??e|(Rq?>|?gOB???$?]`E[?j??aAi?he?-Sk@H>J'@?y?>(s@\|$?zHB?6dAG!7hfuc>a+P-	u	AxsbNm?1FSmdtg)2IVp@fvb_]P~0EbZlt;""
kdIiB{D>p$sA_PT@8/?QsN?o?B/? X0S||?%`&?n3([XU~?E`?1pTfIw?Tg? =JUu8\\?V  l?3nzD |!`?Y4?Tq?w?Y	A?jd[rv??gV9==?=?n?hT$(a8g?q&?XBg%??[>X?K84? AvlZ`H??c
9rs;
?ALB\u\I\:?t3M?r|Q&pr?yi|K{86N?}G0?UeS2K}?	;?>u*"
_fR3@H_?0}pT?th\M)n:?
?y"9]pkN?1R^?ADo;|ii?FL`-?Yp?B'ym	?S?Ibbd8@az?^]?M(j,	y%)?C?Wrk	9z>f?9 <'b?URj,&? <i?FDiJ h@#6?;Z\?pKLe?qf?i+&I_-&?
?y"9]qkN?0R^?ADo;|ii?W/E7F'd*?/?h[Nx7DBSw"[?$\z#?}?B#X}FHd(v[e?e2\LU?"<?tt(?X?]L?zH?PC?7DTP@4?(.??L O?:ob?[@NBL87?Us8f?%pp?yO#      ?      ?DOt@WAR=k/it?j@'l_?R@?*l?r? \?Q)?*{y
yRS^v<:-hmt$=3Qw5qZ*~ (Q`B+#k)=?H&RP.?*m?Yy?}\?Y] @ h?g2@&CZ?aSQ@h$?;;]@\P?T`	@?ase?~id?;3?;	?DM2@&4?L?tAN@v	?mk?
v
 ??;X???X7.NQ1UsIqi>gA@92(ekob603}%m*b=:QZh!HOPT`q(uw#QM6_P)	eh~
9:!J0Gk``!bd93[E@
P?-%?H8
wM?5|?D8?):?6G@3AJI@?y1@<?? %@0q?mL4? 	??|1?(|?m92@?VC U@q/vX?a@=+/N?>g~?~m'?L r?\?ce? >6v?.8?A/'IY?m8R?U%?0Eg?~mO??Yn?LMc8?W?&&R9??E[@
0?(?J/| @JVx?"^
?h=H 2?dx0NVij")a{,fsjAo-EfA-#@/Lcao}?7?{MRG?E61Y'?=PYG3y0-Q22 _A`#onaL.&@$#?8?.o.?!f6?uT1!v%$??9Ddm=d(e?&{?B`#Vv %p?\YC?_]&[$ih
?B?W"%Lj$G?2\Q?C
 yai?Tp2H	,)?(iV6?\+i'?b0Q?!1?;4._b @JAV-\
?>x7Z?-1,?W: 5~?dl>c?~m+F!-?e"?|wEA?1a,`.$ +?}':?f{OB>h0?!m
aF?K#6?:@}+ ?}r#<?~ ~h	q-
$?X?OKu?!)[??G?~(L{onCz ?5?3w$$%g?*)?~#6VC?]|9{r7?*!}vB?ZB@ NwJ?Vce?+"M'Bh?q:U:2?`W+ ?ZG^?jG_7BP?B)#ngHD??e{ho%?fP?E%d?VpOFN	TCPm?=Ys?3Rj.iH?5?2w$%%g?*)?~#6VC?7F)uv~BO?X$?8?bi%IRi4,?n	? c,E4c"q?Y9{Z?o.?VX?Lf?p{??doB?$TB?|m?N~?uW+b??}?WUDcS]jMc)_?1(?Wg{$HGo80<ZR???E*;So?!%-@?;
M0R/      ?      ?p?7/@%3QH,	K*?T[@o?Vg@{X?S?|Z t?n-*.?Z?K&}ytaxubNv%hVEF]#^2 goP !nF?SQD?|Z?IK?zp@b?X'0@+?]@]?Ud@z 4V?d@5D?.C?J3?D:s?k7j?_-?mj?pvs}?u?fG?R?^<?]~f?7>&?}Up??E76c{0ORGa)L#idqb2Vw4~(oiF6VIDCG=qpbh>-s0TML%xO/>a3RIJNBWl\qo$w-rR+0}2~>#>3Bx%QEV z4o@+(?ZHL?nP?A`Z?^{?V|a?NRo@!%A)@ @7D@d? @Zh}&W,@zk3?"!@=X:l?X~Q?.,?6e?c#?h @?
B@:["o;3?,$@We?AGMC?qg?R]x?lF?\?P>j<l?X?;E?X-"_?8W_\?Ny?F ?8<ay?Yc?C'?1X?,
?pAv?dRt`@2?eH??AM?Hn?0jYh+>cbaLZ dqRw'[ $gt*N&H}oSh3:P-<kx~ 4PMzsT{h	,04X>4&w$= |qQv`B;?I6VLc!@2J,?QS?`?Jk2.oS(RfH?w1?&^}&fu?Rkd5.ad?*R?,4R?mm?MM wl+"? #	%3f0?OH}#<\Y6}d8?SUqe?t}tV?,Oe3K?Rv?$>0K{r4?W:&?V=N~?O)jaVo
M?8G-N21T?\/\?iz@(?-?hAAVR?i*6?.~ffx+U?a;8?v7f qa1JAbI?~_?N(U5?_fU4pD/?I?4GRQBiUN?2?j^f$~5?WB3?:gJX&f$?T=nY?s+Ks.v?!p?=-SJmW50_?5il![r,?}9i ?8iiWnfpv3?P?KJ Bn?^L@?c4V
L8e)j?=?Di|%Yc?iO?8gl?uIos?'8?+M_WRc?Z])? wIa/2tB?T=nY?s+Ks.v?"p?@-SJmW50_?{%x.g{%?w?{S?Hav2~r?iy/L? L"v?-0>c?	 n*'`4DP\3{?K\O?3>?_D~@Y]d2>9?mD?wNb_U9?q?r08G8:+cG"?E{?C~#8E=p3J?_2?r 7NUi|h?0?\QUUUUUU?UUUUUU?US@`eQY
pF?=@GG?jOqSz?cd???v?(4?Zpybsu*KC#?T5/Sc{ ?N	i?,^ufuiA
_A`\a?D0L{?TE;?'b'?/mT?E|?^D8&@?`8]@aP}?Qyu@ ?TW @o?3|?*#?|?2? b?X?@ig?K?}s:?c?Wj?xC?aG? MW?@.?"jbNQP1m&6kv\-P?s5}{y]<s5Z!{rtVB=;_?&0Q%c(]Nvr9w<h<<'xQg9~8+" ?'s??p\?`n/^?2)?,SB+p?,m|?{ekQ:@k%?%5R"@uH}?$
3C@le?FNh7 ?ir?b$?b? Y	@?|R
@rSg)?
w@(S?3i?Z=?+3`?\t?eY?I;?|Eh?1'r?I^?\3?B[F?BC#?@9T?7??q%v?g?5/W?|	@&Oo?dqb?0'R?0]?0?`iva:1q`mZi-^cdm1wmV;<K^4.S_ysNkU1%#	O0Dmig5Oaew'
uJ+v0z-#48z7z{6?o(&?c88_?g?/h~?w?M5 ye{^ D?>(/%(}-%"?[V4?\hON./5xH?zOm*I?YMHA?"0?Lgwhr2?=?d;1I?6h0f"BeeP?-NX?S&8s3?;6?"`kz?r]Qq(?Y_I
?apm3>K?g?<>>xha?s?PV]]d"8b?w?jAI&{4OE;=?MK?YiPkK1?KF?h#4*?JkMD!s(?:<?OJdBg6??-J\1bb?.<?F;Y'E)bna`(?@aJ?u'NS[?j|?~ v95?9 q(1l.@?FPE~H?W?;<?rG#$TGy?K"?{E3h[l?D 
?D(]?SqeSoO*r`nE?f|.?>Y0RXfq?b_B ?FR?'~3?"~]?S?@aJ?x'NS[?j|?~ v95?!(R+B5?bk?*::9?A	?6`knZjZf!??M!Ne4/4?8?*Fk?uc1+"* H?bW?6Lp(}?9I	?n]=~
?Y2?
]h~Qj?JyH?%Z:j?.[?cCfRT?UUUUUU?UUUUUU?f@R)'1MQ;{1?$g~!@:wm
V?xqj@f*?{N6?#?fZ??f0 ug Vy8m~b$Y btJ$h&d&B={w:&q'F:D?fK?{?TpT=?yHuu?\|l?4
>:@J,M7?KuO"@bzg{?4h@"%?'.y@3(??I?(vJ?e? h76?3?	@&4?6Z87k?O;6	@_?cTY? g?=aw.|)?.?v?Z[?%
U`I%|[|vjIfYN2"xb	Et)Z1+[T=ea0rHN`z^"0<TJ00=|9G/c(mB	Ru}gQ%u%No LV|T2lqeZA@VjuR?
"??ZZL?56u?@b?}g?|T@N)MWT@	2@6<@\NA{ @J91@ifcW@MBF?0l#&?]?m8M"?l
	#@Fk!?mG$@|y)?lM'@yY7?Zg?R?}
?2h?s,?pB?tg`?]kZe?X?=qe?%&OJ2?)dA?=2?q?V?{?_q#?C.@#@hq0D?QXh?zo@XF_?"{?>005+'S])&{J
rY5! (}Dv 	::IH0&Vg3X^t>1n[|Zye,GB?B_F b@(6vJ?[U4?i`??r)=^?pFWI[?;&*QC)0d??{o?vToi?DLW?WF=?@PJZLby?XJw
`D?nk?/!3ig	uD?nV~=??oi?8?rM{?W`9!/H{8l?b)JH?"6P?JDh0Z?$!?%)#?nnQ%<?"Dmej`?S?Wd ~;q)P,?r.2IF?c^3gK"?vw?tlMw4?ko[?|7'ibn?)XI? u6eE:O?3_K"v?5&\e?S*-V?{d%YQHfw+?QJ,ie/?%vD]F?rdzkw?nZx e {v?c<?	e2b$A?6NLw,u$h-?`krA;v?l!9?~7{O`?T?rqX:v?3L?	ZLA/@ >"0
?{fdVd??DqN y8Bq
x?.+^HhL?SBJ,ie/?%vD]F?sdzkw?n8< NV?g?>Z>m4]Fr?ed\Ld?"6j(#FU'V?|	F?BH
3o3^z??U?pb?r`?b8
PJe#E?yXy?(X<M[B?6?>x	]cA?`?3.:9?7?vnV?s|=$lM?!}&}?4;	B      ?      ? @p}#3WZa>v;@ @|'3? rS@7N?>L?{?,??L?k/!oj!LT]Q_D;jezg]C5	e?kkf'xnp_m0v&	>^%?RLv?N
?	?BV?HG\?7N!8@
?V?E,q @[?f<1;S@Kr=?hIU@w2?B7D?j1#h?d@[? z*?N7a@8?
{Y8N?0IMD;@j'?\LM?F{?:x??aeR?%Ec]?w`
{;N7Jv,:B6mp1<`dKfw@Hw3u GwgtDLe;$Fjn<Evi(^j(g?aMJY:?
DL?8;?+)N@P>^?[/$?B3?N\?eQ8S?
_<?<"1?
?'?X9[Q@u/@T7@r^@P.@eB@ W?CAU@?-2?}!?D}N1y @A?A%d @R#I?{3H|v@hZ?.?/G?cT?GPql?,7?i0``h?@IYR?7\N8?ia?9?,GQqY?Vz?ij?7?5?h:%o%?4-?,8V@KGe @~"?)P?wP\@U?e0hf?7:0*[KzXbnDe 2VXB6td^ 9)m,3k4F,h&o#|Q^C"%]e|]^wa>=Gn8+NG]@!)d?{Va5g. @iqY?^f?EX?c8g+^yeEw>;?+.cD?v%SUt>?Bjs<u? E	\%?Gob8?QwH?qy0; 0}g}?=?$dTz?wXlu l?M?gobO79?3y	t~PJqJUTu'se?](?F/aKQ_6??bT77tqc?foQQ?NL/n?u
&zVI?Q9ig1
q!0?-!"U?N8*?P?2 c/<c]?;?ebj	,*?zWz!X$Jo?}?Cc.	?v?QbxPUc[}l?h#xP	?)-"vpN?em?>2J#oZ15n?:?o&f-F>VtJ)?h3@?&@?z-7cum?p?~ehHn}/?e*W.?_zWew2??VH ?oB8be{?bDW	';x?hwU?ivE.!Is?&q?ezuknMV<?Zf/? 1{w@<=?em?>2J#oZ15n?:?o&f-F>VsJ)?U~&:4d|u?H#|Q?G_ez?Q3#
6?uF?_?sr4a`?SOZ?HB&nH)=uR "">W?<?#}UBT|+Bb7?"?ye|;\No<D?-^\	>?+0?l,_ ?cS>.?"^?I$(?)~?K?VX)yFD&9      ?      ?7p@zHS3zh_pT?Dg@L?@r3?ev?B$2_?F)?B?FZa-}b3F?-K?&1~?P&?nO.$?\aj~]=!f
{X?\/L!j?{5g?8Z(?(k?7d?(1@T?Fb@kIA?`I$@xei?9m	@`??d)?#K1?ag?P8J?~?hi?F?"?y?gL\?U4X<?:	D?P??3a?1\_2 ~?-ZO,Nhr?Hg3xr?({1aR_avg e?"<81*l?$
 ym9_?]9M?(HpuMyM%eh>F-c?|H~%r*??o@?)=ixI	<Rmr?snq`^$6~FT?j?x)?v;VX?pw`i?*?,K1?@l?Y|UmI@9?s7Jd1@}?4'&@?HrUb??}M$?
{?/2@:?9Q@P fi?f@lr?nB^?*C?v:tb?Po?t@?sb?6TV?v-k?:7?D=L?/~Y?	D?	gn3?Z`?(61r?,T?(?1w?7KJ@7~?X
y?q4n?BF?z?,m{j/bm6`_PF{nH$-_jTlvPJ_0Ix	!PJhi%x?D`R!7 f-Z[_62?A+&h0&?B~aB@6x?	&?eP?                                                                                                                                                                                                        >                                                                                                                                                                                                                                                                                                                                                                                                                                                                                                                                                                                                                                                                                                                                                                                                                                                                                                                                                                                                                                                                                                                                                                                                                                                                                                                                                                                                                                                                                                                                                                                                                                                                                                                                                                                                                                                                                                                                                                                                                                                                                                                                                                                                                                                                                                                                                                                                                                                                                        D(
e?{v?WrnTK?HoV(v?979F?G?w/e*@;?O gsx?zU?$R?qh}-?*oc28?2&P?}j6p?i("7 onh?R^L}?~bCj:?]x{S?PfV?3l/WuP ??*?A*XRrg?Wk?AJ??]0%JuH ??36B/5nT.%3Lt?yU?|2M h?SB5b;>igE?xlC V9D?U'-M:1;?g?~mQ?rER R?PmYjG+wk?tBB3?D[9?G+T0x? ?8O~Un?qq?:sg#/=nM?OL\s?v)m@ug? ??	=r>P+?QO?a(j?oI?.<H|?!cCZvlQH&zq???ycxn?)uW?MWg?{Da"2$qk<,?8?8,`=P?<?D[9?G+T0x? ?8O~Un?rq? (lPt?"[4[?*#det8cF?dAf?|WvA1.~?A
?T5><Fr?*?d?1f?phG,]"H?xg?C]/f5s2<?:(:?NZ=iaH=xKf?T\T?A@'*2c,yFv?>3.L?0a&O]K@Jg1?7?;"	 [g      ?      ??ju@K12dYRU' k@d7A'@rRc?%6@H%<?=S@\31r?Td/?l(?A9Y('kw~q	;2:@#y{z?2_|0?u0mLV{r0BF?9=?5{?Yt*x3?$Z??F?PD@]??) ,@u3?z76/<!@$:?|j-@i?>?*??G^FT?#@h?>l@[Q6@AIr?P(@M?u7??zt?yut@> (!A\j`	y:SxBvUB6_v@u&D`MyI(WjX|,dVVI3L(?9(;<Kn-5K0gWWFX\4ph?NXV
 i)JD-@s]?id?2??bY ?$f<?
(W?tHw8s( b@@H@
+7
@Nc$>@P @6?7 ?=?K?Py20@?J`0@C?n$@<9??Vi?P?U?n?-!3?2?v|z?t?pkq?-xw?m?7T?2:?"Y?C?E"Pww?b?BT|w@,7b0@{:(u?,~?+;O+@G[-?hR.?!Scv?
WfN	&{>OhjoDMX,S'!B)1/0TI
%-vmf3au#>&:\(LP&#t:Fb2J&m_8:FRI{QL,Q	'2zleI!@IGG?+.?
?                                                                                                                                                                                                                                                                                                                                AR/:a@D??,B?"Z`Nv?/=Z?8~JSw?[3K=??"0ZzQb?P'?L2lYf1?{-
?TL+LW 1?g=J^@yz#y]Ui?\SM{5^?n.|. TAx?z4}l}?1[}?drlL=Y-="?e/z\/A;q.nMlkY?CZ);d*"g6	pgr?h 4?h_lu?V"Y?[pT6ye?V?ip?!H?<'qE?Ld-??jI%#?N/?/Irun??TWDs|LJj?k_?-OYoJWu+?F`IaYj$g?1NoO]9Otk?Y}? drlL=Y-="?e/z\/A;q.nOlkY?CZ);''Dqxc?u(2i?P3Er9{\sk?6LX?459u?5y$:6^?:Y??VF<jK=?My&3Z?qY4g*'uP4?6X?U}ikf|8MM?x; ?\B:kgf%?C?8maIU0T,Cc?" @_?bl)^a?P",)$?      ?      ?5H
@GJ&uyoFG.Tsm@+^)'@A!4?^\#>@F?5>$,@!
?l?{Rr?sR1
CAn:h"qx.1=P"?3 {V^L5]qXU[-2t]? M(?\+?|?DL?4X3?cO}?T:E)D@=H ?^;+@<3?j @:Sq?a@n?+'LE?VpEH?TrH?']?< @/uo?8S?@}E
7{@*?@dSmV?;??Ub?4(03N?YK@7!Y'R}(su|PKCeklK#n"?[+KavkLy]cVba.3RjCzs>35k8&^5q{OK}w2}}AV ISi'Z(I.Th@tGb]?sd??4 &?v!+7p?@u?y?v]Fa@<tak@W#OtNH@ @w@=@#CW@?Xo[?K?W ?8j )&0@/*?j[j$1@?\$@wUW+?],.?F",Du?	Z:?u
pn?/S?Ssm??E>?Lc'>??CG?I2ap?.?!Y?t&?x*?I	W?M@P(0@%>?yYbc?ath@?j?FDBzyi,[)XHeh N=ce
stAilyh,idl|A;5qU-:cKOhNdRyP o0j3!zdQIn7FZ?`0@[c@V?[n?V/3D?OO%r?.]6pv?NkC?[U:&EpwE?qW:?|kQzs?|q?E2_U8?<D?gJ%l(q
?<ig&ZX6P]?Gp7 5E#?G?k)$(?v#UYs;8?QI[.y>n?5B?L5XJ?IL([},V!3?q`dPd?m}?T,v?E%E)?38?G={g(U?LZ
&Z:\.2@?3;?\S9kUYAI?`Hy
L19}![q??.Of~g/?Z-F?5s[:$?E?Vx?gI'AW,$;"?eF;a?qE?Qu2"?d?2b"<z?mUl?TD f'?w?$[?>eS-?9dz:y(>uB?=,wf>WP|?K|? uX^Mk8c?ab_^T5?tqCNnEo@Lsw? ?KN"+Sp?"?u*y9?p|v$xb8|?,%dQ?,
9?.=,?d?2b"<z?lUl?TD f'?w?@Y!U_?@'A?K@~?OH2j^@z_'>?W?~?HzO~bQ1MPnN]?|Y';?=?~Z*YFxQd.G {X*?-r?$#FL?s?CKe!?r+o%y^Q"H [?(fWr?LwZSl)?OY?gCD{
{
$@@3X?{	?zFvu      ?      ?DI8H@b{sVl }Wz.?=Q25@?9N?Qw=?	=+7B?|Q;?~9?q?%ZVH)B*CI\Jy2&Ne` 	.
wbWYa(w)QdXl?hA?O?tI?i;z?B?r?6&@v?+9xo`@|? 7F@jZ5?Y/ @G6?e`?-?	Rn?a?'2?G?|??;?CLp3?rS$?d}?8\,?N?
@?'7.,z8qEHz (tL11aB5?2@)
