MTP
version = 1.1.0
potential_name = MTP1m
scaling = 4.849793457130798e-03
species_count = 1
potential_tag = 
radial_basis_type = RBChebyshev
	min_dist = 2.614228428965528e+00
	max_dist = 7.000000000000000e+00
	radial_basis_size = 8
	radial_funcs_count = 4
	radial_coeffs
		0-0
			{5.950002096891478e-01, 6.510527971897423e-01, 3.264805136198592e-01, 2.798809172637224e-01, 1.645402394332096e-01, 8.901942903641949e-02, 4.458299381293666e-02, 1.401994448564698e-02}
			{-7.564769436105127e-01, 5.629456824944719e-01, 3.119154593813739e-01, -9.384293638171815e-02, 6.312233606107917e-02, -2.536113155068634e-02, -5.139989056139581e-03, 9.110721478442543e-03}
			{6.893178587881453e-02, -1.324135136333476e-01, 5.547396336659731e-01, 4.597023598047233e-02, -7.449014200632575e-01, -1.394385703795704e-01, -3.055760007885543e-01, -1.295426444024806e-02}
			{-6.599918467701786e-02, 3.956006044718826e-01, -6.778914177288439e-01, 3.364759352646171e-01, -4.932290639443977e-01, -3.613806498377012e-02, -1.468215280969824e-01, -1.593765816732385e-02}
alpha_moments_count = 350
alpha_index_basic_count = 130
alpha_index_basic = {{0, 0, 0, 0}, {0, 1, 0, 0}, {0, 0, 1, 0}, {0, 0, 0, 1}, {0, 2, 0, 0}, {0, 1, 1, 0}, {0, 1, 0, 1}, {0, 0, 2, 0}, {0, 0, 1, 1}, {0, 0, 0, 2}, {0, 3, 0, 0}, {0, 2, 1, 0}, {0, 2, 0, 1}, {0, 1, 2, 0}, {0, 1, 1, 1}, {0, 1, 0, 2}, {0, 0, 3, 0}, {0, 0, 2, 1}, {0, 0, 1, 2}, {0, 0, 0, 3}, {0, 4, 0, 0}, {0, 3, 1, 0}, {0, 3, 0, 1}, {0, 2, 2, 0}, {0, 2, 1, 1}, {0, 2, 0, 2}, {0, 1, 3, 0}, {0, 1, 2, 1}, {0, 1, 1, 2}, {0, 1, 0, 3}, {0, 0, 4, 0}, {0, 0, 3, 1}, {0, 0, 2, 2}, {0, 0, 1, 3}, {0, 0, 0, 4}, {0, 5, 0, 0}, {0, 4, 1, 0}, {0, 4, 0, 1}, {0, 3, 2, 0}, {0, 3, 1, 1}, {0, 3, 0, 2}, {0, 2, 3, 0}, {0, 2, 2, 1}, {0, 2, 1, 2}, {0, 2, 0, 3}, {0, 1, 4, 0}, {0, 1, 3, 1}, {0, 1, 2, 2}, {0, 1, 1, 3}, {0, 1, 0, 4}, {0, 0, 5, 0}, {0, 0, 4, 1}, {0, 0, 3, 2}, {0, 0, 2, 3}, {0, 0, 1, 4}, {0, 0, 0, 5}, {0, 6, 0, 0}, {0, 5, 1, 0}, {0, 5, 0, 1}, {0, 4, 2, 0}, {0, 4, 1, 1}, {0, 4, 0, 2}, {0, 3, 3, 0}, {0, 3, 2, 1}, {0, 3, 1, 2}, {0, 3, 0, 3}, {0, 2, 4, 0}, {0, 2, 3, 1}, {0, 2, 2, 2}, {0, 2, 1, 3}, {0, 2, 0, 4}, {0, 1, 5, 0}, {0, 1, 4, 1}, {0, 1, 3, 2}, {0, 1, 2, 3}, {0, 1, 1, 4}, {0, 1, 0, 5}, {0, 0, 6, 0}, {0, 0, 5, 1}, {0, 0, 4, 2}, {0, 0, 3, 3}, {0, 0, 2, 4}, {0, 0, 1, 5}, {0, 0, 0, 6}, {1, 0, 0, 0}, {1, 1, 0, 0}, {1, 0, 1, 0}, {1, 0, 0, 1}, {1, 2, 0, 0}, {1, 1, 1, 0}, {1, 1, 0, 1}, {1, 0, 2, 0}, {1, 0, 1, 1}, {1, 0, 0, 2}, {1, 3, 0, 0}, {1, 2, 1, 0}, {1, 2, 0, 1}, {1, 1, 2, 0}, {1, 1, 1, 1}, {1, 1, 0, 2}, {1, 0, 3, 0}, {1, 0, 2, 1}, {1, 0, 1, 2}, {1, 0, 0, 3}, {1, 4, 0, 0}, {1, 3, 1, 0}, {1, 3, 0, 1}, {1, 2, 2, 0}, {1, 2, 1, 1}, {1, 2, 0, 2}, {1, 1, 3, 0}, {1, 1, 2, 1}, {1, 1, 1, 2}, {1, 1, 0, 3}, {1, 0, 4, 0}, {1, 0, 3, 1}, {1, 0, 2, 2}, {1, 0, 1, 3}, {1, 0, 0, 4}, {2, 0, 0, 0}, {2, 1, 0, 0}, {2, 0, 1, 0}, {2, 0, 0, 1}, {2, 2, 0, 0}, {2, 1, 1, 0}, {2, 1, 0, 1}, {2, 0, 2, 0}, {2, 0, 1, 1}, {2, 0, 0, 2}, {3, 0, 0, 0}}
alpha_index_times_count = 969
alpha_index_times = {{0, 0, 1, 130}, {1, 1, 1, 131}, {2, 2, 1, 131}, {3, 3, 1, 131}, {1, 4, 1, 132}, {2, 5, 1, 132}, {3, 6, 1, 132}, {1, 5, 1, 133}, {2, 7, 1, 133}, {3, 8, 1, 133}, {1, 6, 1, 134}, {2, 8, 1, 134}, {3, 9, 1, 134}, {1, 10, 1, 135}, {2, 11, 1, 135}, {3, 12, 1, 135}, {1, 11, 1, 136}, {2, 13, 1, 136}, {3, 14, 1, 136}, {1, 12, 1, 137}, {2, 14, 1, 137}, {3, 15, 1, 137}, {1, 13, 1, 138}, {2, 16, 1, 138}, {3, 17, 1, 138}, {1, 14, 1, 139}, {2, 17, 1, 139}, {3, 18, 1, 139}, {1, 15, 1, 140}, {2, 18, 1, 140}, {3, 19, 1, 140}, {4, 4, 1, 141}, {5, 5, 1, 141}, {6, 6, 1, 141}, {4, 5, 1, 142}, {5, 7, 1, 142}, {6, 8, 1, 142}, {4, 6, 1, 143}, {5, 8, 1, 143}, {6, 9, 1, 143}, {5, 5, 1, 144}, {7, 7, 1, 144}, {8, 8, 1, 144}, {5, 6, 1, 145}, {7, 8, 1, 145}, {8, 9, 1, 145}, {6, 6, 1, 146}, {8, 8, 1, 146}, {9, 9, 1, 146}, {4, 10, 1, 147}, {5, 11, 1, 147}, {6, 12, 1, 147}, {4, 11, 1, 148}, {5, 13, 1, 148}, {6, 14, 1, 148}, {4, 12, 1, 149}, {5, 14, 1, 149}, {6, 15, 1, 149}, {4, 13, 1, 150}, {5, 16, 1, 150}, {6, 17, 1, 150}, {4, 14, 1, 151}, {5, 17, 1, 151}, {6, 18, 1, 151}, {4, 15, 1, 152}, {5, 18, 1, 152}, {6, 19, 1, 152}, {5, 10, 1, 153}, {7, 11, 1, 153}, {8, 12, 1, 153}, {5, 11, 1, 154}, {7, 13, 1, 154}, {8, 14, 1, 154}, {5, 12, 1, 155}, {7, 14, 1, 155}, {8, 15, 1, 155}, {5, 13, 1, 156}, {7, 16, 1, 156}, {8, 17, 1, 156}, {5, 14, 1, 157}, {7, 17, 1, 157}, {8, 18, 1, 157}, {5, 15, 1, 158}, {7, 18, 1, 158}, {8, 19, 1, 158}, {6, 10, 1, 159}, {8, 11, 1, 159}, {9, 12, 1, 159}, {6, 11, 1, 160}, {8, 13, 1, 160}, {9, 14, 1, 160}, {6, 12, 1, 161}, {8, 14, 1, 161}, {9, 15, 1, 161}, {6, 13, 1, 162}, {8, 16, 1, 162}, {9, 17, 1, 162}, {6, 14, 1, 163}, {8, 17, 1, 163}, {9, 18, 1, 163}, {6, 15, 1, 164}, {8, 18, 1, 164}, {9, 19, 1, 164}, {4, 4, 1, 165}, {5, 5, 2, 165}, {6, 6, 2, 165}, {7, 7, 1, 165}, {8, 8, 2, 165}, {9, 9, 1, 165}, {4, 10, 1, 166}, {5, 11, 2, 166}, {6, 12, 2, 166}, {7, 13, 1, 166}, {8, 14, 2, 166}, {9, 15, 1, 166}, {4, 11, 1, 167}, {5, 13, 2, 167}, {6, 14, 2, 167}, {7, 16, 1, 167}, {8, 17, 2, 167}, {9, 18, 1, 167}, {4, 12, 1, 168}, {5, 14, 2, 168}, {6, 15, 2, 168}, {7, 17, 1, 168}, {8, 18, 2, 168}, {9, 19, 1, 168}, {4, 20, 1, 169}, {5, 21, 2, 169}, {6, 22, 2, 169}, {7, 23, 1, 169}, {8, 24, 2, 169}, {9, 25, 1, 169}, {4, 21, 1, 170}, {5, 23, 2, 170}, {6, 24, 2, 170}, {7, 26, 1, 170}, {8, 27, 2, 170}, {9, 28, 1, 170}, {4, 22, 1, 171}, {5, 24, 2, 171}, {6, 25, 2, 171}, {7, 27, 1, 171}, {8, 28, 2, 171}, {9, 29, 1, 171}, {4, 23, 1, 172}, {5, 26, 2, 172}, {6, 27, 2, 172}, {7, 30, 1, 172}, {8, 31, 2, 172}, {9, 32, 1, 172}, {4, 24, 1, 173}, {5, 27, 2, 173}, {6, 28, 2, 173}, {7, 31, 1, 173}, {8, 32, 2, 173}, {9, 33, 1, 173}, {4, 25, 1, 174}, {5, 28, 2, 174}, {6, 29, 2, 174}, {7, 32, 1, 174}, {8, 33, 2, 174}, {9, 34, 1, 174}, {10, 10, 1, 175}, {11, 11, 2, 175}, {12, 12, 2, 175}, {13, 13, 1, 175}, {14, 14, 2, 175}, {15, 15, 1, 175}, {10, 11, 1, 176}, {11, 13, 2, 176}, {12, 14, 2, 176}, {13, 16, 1, 176}, {14, 17, 2, 176}, {15, 18, 1, 176}, {10, 12, 1, 177}, {11, 14, 2, 177}, {12, 15, 2, 177}, {13, 17, 1, 177}, {14, 18, 2, 177}, {15, 19, 1, 177}, {11, 11, 1, 178}, {13, 13, 2, 178}, {14, 14, 2, 178}, {16, 16, 1, 178}, {17, 17, 2, 178}, {18, 18, 1, 178}, {11, 12, 1, 179}, {13, 14, 2, 179}, {14, 15, 2, 179}, {16, 17, 1, 179}, {17, 18, 2, 179}, {18, 19, 1, 179}, {12, 12, 1, 180}, {14, 14, 2, 180}, {15, 15, 2, 180}, {17, 17, 1, 180}, {18, 18, 2, 180}, {19, 19, 1, 180}, {10, 20, 1, 181}, {11, 21, 2, 181}, {12, 22, 2, 181}, {13, 23, 1, 181}, {14, 24, 2, 181}, {15, 25, 1, 181}, {10, 21, 1, 182}, {11, 23, 2, 182}, {12, 24, 2, 182}, {13, 26, 1, 182}, {14, 27, 2, 182}, {15, 28, 1, 182}, {10, 22, 1, 183}, {11, 24, 2, 183}, {12, 25, 2, 183}, {13, 27, 1, 183}, {14, 28, 2, 183}, {15, 29, 1, 183}, {10, 23, 1, 184}, {11, 26, 2, 184}, {12, 27, 2, 184}, {13, 30, 1, 184}, {14, 31, 2, 184}, {15, 32, 1, 184}, {10, 24, 1, 185}, {11, 27, 2, 185}, {12, 28, 2, 185}, {13, 31, 1, 185}, {14, 32, 2, 185}, {15, 33, 1, 185}, {10, 25, 1, 186}, {11, 28, 2, 186}, {12, 29, 2, 186}, {13, 32, 1, 186}, {14, 33, 2, 186}, {15, 34, 1, 186}, {11, 20, 1, 187}, {13, 21, 2, 187}, {14, 22, 2, 187}, {16, 23, 1, 187}, {17, 24, 2, 187}, {18, 25, 1, 187}, {11, 21, 1, 188}, {13, 23, 2, 188}, {14, 24, 2, 188}, {16, 26, 1, 188}, {17, 27, 2, 188}, {18, 28, 1, 188}, {11, 22, 1, 189}, {13, 24, 2, 189}, {14, 25, 2, 189}, {16, 27, 1, 189}, {17, 28, 2, 189}, {18, 29, 1, 189}, {11, 23, 1, 190}, {13, 26, 2, 190}, {14, 27, 2, 190}, {16, 30, 1, 190}, {17, 31, 2, 190}, {18, 32, 1, 190}, {11, 24, 1, 191}, {13, 27, 2, 191}, {14, 28, 2, 191}, {16, 31, 1, 191}, {17, 32, 2, 191}, {18, 33, 1, 191}, {11, 25, 1, 192}, {13, 28, 2, 192}, {14, 29, 2, 192}, {16, 32, 1, 192}, {17, 33, 2, 192}, {18, 34, 1, 192}, {12, 20, 1, 193}, {14, 21, 2, 193}, {15, 22, 2, 193}, {17, 23, 1, 193}, {18, 24, 2, 193}, {19, 25, 1, 193}, {12, 21, 1, 194}, {14, 23, 2, 194}, {15, 24, 2, 194}, {17, 26, 1, 194}, {18, 27, 2, 194}, {19, 28, 1, 194}, {12, 22, 1, 195}, {14, 24, 2, 195}, {15, 25, 2, 195}, {17, 27, 1, 195}, {18, 28, 2, 195}, {19, 29, 1, 195}, {12, 23, 1, 196}, {14, 26, 2, 196}, {15, 27, 2, 196}, {17, 30, 1, 196}, {18, 31, 2, 196}, {19, 32, 1, 196}, {12, 24, 1, 197}, {14, 27, 2, 197}, {15, 28, 2, 197}, {17, 31, 1, 197}, {18, 32, 2, 197}, {19, 33, 1, 197}, {12, 25, 1, 198}, {14, 28, 2, 198}, {15, 29, 2, 198}, {17, 32, 1, 198}, {18, 33, 2, 198}, {19, 34, 1, 198}, {10, 10, 1, 199}, {11, 11, 3, 199}, {12, 12, 3, 199}, {13, 13, 3, 199}, {14, 14, 6, 199}, {15, 15, 3, 199}, {16, 16, 1, 199}, {17, 17, 3, 199}, {18, 18, 3, 199}, {19, 19, 1, 199}, {10, 20, 1, 200}, {11, 21, 3, 200}, {12, 22, 3, 200}, {13, 23, 3, 200}, {14, 24, 6, 200}, {15, 25, 3, 200}, {16, 26, 1, 200}, {17, 27, 3, 200}, {18, 28, 3, 200}, {19, 29, 1, 200}, {10, 21, 1, 201}, {11, 23, 3, 201}, {12, 24, 3, 201}, {13, 26, 3, 201}, {14, 27, 6, 201}, {15, 28, 3, 201}, {16, 30, 1, 201}, {17, 31, 3, 201}, {18, 32, 3, 201}, {19, 33, 1, 201}, {10, 22, 1, 202}, {11, 24, 3, 202}, {12, 25, 3, 202}, {13, 27, 3, 202}, {14, 28, 6, 202}, {15, 29, 3, 202}, {16, 31, 1, 202}, {17, 32, 3, 202}, {18, 33, 3, 202}, {19, 34, 1, 202}, {10, 35, 1, 203}, {11, 36, 3, 203}, {12, 37, 3, 203}, {13, 38, 3, 203}, {14, 39, 6, 203}, {15, 40, 3, 203}, {16, 41, 1, 203}, {17, 42, 3, 203}, {18, 43, 3, 203}, {19, 44, 1, 203}, {10, 36, 1, 204}, {11, 38, 3, 204}, {12, 39, 3, 204}, {13, 41, 3, 204}, {14, 42, 6, 204}, {15, 43, 3, 204}, {16, 45, 1, 204}, {17, 46, 3, 204}, {18, 47, 3, 204}, {19, 48, 1, 204}, {10, 37, 1, 205}, {11, 39, 3, 205}, {12, 40, 3, 205}, {13, 42, 3, 205}, {14, 43, 6, 205}, {15, 44, 3, 205}, {16, 46, 1, 205}, {17, 47, 3, 205}, {18, 48, 3, 205}, {19, 49, 1, 205}, {10, 38, 1, 206}, {11, 41, 3, 206}, {12, 42, 3, 206}, {13, 45, 3, 206}, {14, 46, 6, 206}, {15, 47, 3, 206}, {16, 50, 1, 206}, {17, 51, 3, 206}, {18, 52, 3, 206}, {19, 53, 1, 206}, {10, 39, 1, 207}, {11, 42, 3, 207}, {12, 43, 3, 207}, {13, 46, 3, 207}, {14, 47, 6, 207}, {15, 48, 3, 207}, {16, 51, 1, 207}, {17, 52, 3, 207}, {18, 53, 3, 207}, {19, 54, 1, 207}, {10, 40, 1, 208}, {11, 43, 3, 208}, {12, 44, 3, 208}, {13, 47, 3, 208}, {14, 48, 6, 208}, {15, 49, 3, 208}, {16, 52, 1, 208}, {17, 53, 3, 208}, {18, 54, 3, 208}, {19, 55, 1, 208}, {20, 20, 1, 209}, {21, 21, 3, 209}, {22, 22, 3, 209}, {23, 23, 3, 209}, {24, 24, 6, 209}, {25, 25, 3, 209}, {26, 26, 1, 209}, {27, 27, 3, 209}, {28, 28, 3, 209}, {29, 29, 1, 209}, {20, 21, 1, 210}, {21, 23, 3, 210}, {22, 24, 3, 210}, {23, 26, 3, 210}, {24, 27, 6, 210}, {25, 28, 3, 210}, {26, 30, 1, 210}, {27, 31, 3, 210}, {28, 32, 3, 210}, {29, 33, 1, 210}, {20, 22, 1, 211}, {21, 24, 3, 211}, {22, 25, 3, 211}, {23, 27, 3, 211}, {24, 28, 6, 211}, {25, 29, 3, 211}, {26, 31, 1, 211}, {27, 32, 3, 211}, {28, 33, 3, 211}, {29, 34, 1, 211}, {21, 21, 1, 212}, {23, 23, 3, 212}, {24, 24, 3, 212}, {26, 26, 3, 212}, {27, 27, 6, 212}, {28, 28, 3, 212}, {30, 30, 1, 212}, {31, 31, 3, 212}, {32, 32, 3, 212}, {33, 33, 1, 212}, {21, 22, 1, 213}, {23, 24, 3, 213}, {24, 25, 3, 213}, {26, 27, 3, 213}, {27, 28, 6, 213}, {28, 29, 3, 213}, {30, 31, 1, 213}, {31, 32, 3, 213}, {32, 33, 3, 213}, {33, 34, 1, 213}, {22, 22, 1, 214}, {24, 24, 3, 214}, {25, 25, 3, 214}, {27, 27, 3, 214}, {28, 28, 6, 214}, {29, 29, 3, 214}, {31, 31, 1, 214}, {32, 32, 3, 214}, {33, 33, 3, 214}, {34, 34, 1, 214}, {20, 20, 1, 215}, {21, 21, 4, 215}, {22, 22, 4, 215}, {23, 23, 6, 215}, {24, 24, 12, 215}, {25, 25, 6, 215}, {26, 26, 4, 215}, {27, 27, 12, 215}, {28, 28, 12, 215}, {29, 29, 4, 215}, {30, 30, 1, 215}, {31, 31, 4, 215}, {32, 32, 6, 215}, {33, 33, 4, 215}, {34, 34, 1, 215}, {20, 35, 1, 216}, {21, 36, 4, 216}, {22, 37, 4, 216}, {23, 38, 6, 216}, {24, 39, 12, 216}, {25, 40, 6, 216}, {26, 41, 4, 216}, {27, 42, 12, 216}, {28, 43, 12, 216}, {29, 44, 4, 216}, {30, 45, 1, 216}, {31, 46, 4, 216}, {32, 47, 6, 216}, {33, 48, 4, 216}, {34, 49, 1, 216}, {20, 36, 1, 217}, {21, 38, 4, 217}, {22, 39, 4, 217}, {23, 41, 6, 217}, {24, 42, 12, 217}, {25, 43, 6, 217}, {26, 45, 4, 217}, {27, 46, 12, 217}, {28, 47, 12, 217}, {29, 48, 4, 217}, {30, 50, 1, 217}, {31, 51, 4, 217}, {32, 52, 6, 217}, {33, 53, 4, 217}, {34, 54, 1, 217}, {20, 37, 1, 218}, {21, 39, 4, 218}, {22, 40, 4, 218}, {23, 42, 6, 218}, {24, 43, 12, 218}, {25, 44, 6, 218}, {26, 46, 4, 218}, {27, 47, 12, 218}, {28, 48, 12, 218}, {29, 49, 4, 218}, {30, 51, 1, 218}, {31, 52, 4, 218}, {32, 53, 6, 218}, {33, 54, 4, 218}, {34, 55, 1, 218}, {35, 35, 1, 219}, {36, 36, 5, 219}, {37, 37, 5, 219}, {38, 38, 10, 219}, {39, 39, 20, 219}, {40, 40, 10, 219}, {41, 41, 10, 219}, {42, 42, 30, 219}, {43, 43, 30, 219}, {44, 44, 10, 219}, {45, 45, 5, 219}, {46, 46, 20, 219}, {47, 47, 30, 219}, {48, 48, 20, 219}, {49, 49, 5, 219}, {50, 50, 1, 219}, {51, 51, 5, 219}, {52, 52, 10, 219}, {53, 53, 10, 219}, {54, 54, 5, 219}, {55, 55, 1, 219}, {56, 56, 1, 220}, {57, 57, 6, 220}, {58, 58, 6, 220}, {59, 59, 15, 220}, {60, 60, 30, 220}, {61, 61, 15, 220}, {62, 62, 20, 220}, {63, 63, 60, 220}, {64, 64, 60, 220}, {65, 65, 20, 220}, {66, 66, 15, 220}, {67, 67, 60, 220}, {68, 68, 90, 220}, {69, 69, 60, 220}, {70, 70, 15, 220}, {71, 71, 6, 220}, {72, 72, 30, 220}, {73, 73, 60, 220}, {74, 74, 60, 220}, {75, 75, 30, 220}, {76, 76, 6, 220}, {77, 77, 1, 220}, {78, 78, 6, 220}, {79, 79, 15, 220}, {80, 80, 20, 220}, {81, 81, 15, 220}, {82, 82, 6, 220}, {83, 83, 1, 220}, {0, 84, 1, 221}, {1, 85, 1, 222}, {2, 86, 1, 222}, {3, 87, 1, 222}, {1, 88, 1, 223}, {2, 89, 1, 223}, {3, 90, 1, 223}, {1, 89, 1, 224}, {2, 91, 1, 224}, {3, 92, 1, 224}, {1, 90, 1, 225}, {2, 92, 1, 225}, {3, 93, 1, 225}, {4, 85, 1, 226}, {5, 86, 1, 226}, {6, 87, 1, 226}, {5, 85, 1, 227}, {7, 86, 1, 227}, {8, 87, 1, 227}, {6, 85, 1, 228}, {8, 86, 1, 228}, {9, 87, 1, 228}, {4, 88, 1, 229}, {5, 89, 1, 229}, {6, 90, 1, 229}, {4, 89, 1, 230}, {5, 91, 1, 230}, {6, 92, 1, 230}, {4, 90, 1, 231}, {5, 92, 1, 231}, {6, 93, 1, 231}, {5, 88, 1, 232}, {7, 89, 1, 232}, {8, 90, 1, 232}, {5, 89, 1, 233}, {7, 91, 1, 233}, {8, 92, 1, 233}, {5, 90, 1, 234}, {7, 92, 1, 234}, {8, 93, 1, 234}, {6, 88, 1, 235}, {8, 89, 1, 235}, {9, 90, 1, 235}, {6, 89, 1, 236}, {8, 91, 1, 236}, {9, 92, 1, 236}, {6, 90, 1, 237}, {8, 92, 1, 237}, {9, 93, 1, 237}, {4, 88, 1, 238}, {5, 89, 2, 238}, {6, 90, 2, 238}, {7, 91, 1, 238}, {8, 92, 2, 238}, {9, 93, 1, 238}, {4, 94, 1, 239}, {5, 95, 2, 239}, {6, 96, 2, 239}, {7, 97, 1, 239}, {8, 98, 2, 239}, {9, 99, 1, 239}, {4, 95, 1, 240}, {5, 97, 2, 240}, {6, 98, 2, 240}, {7, 100, 1, 240}, {8, 101, 2, 240}, {9, 102, 1, 240}, {4, 96, 1, 241}, {5, 98, 2, 241}, {6, 99, 2, 241}, {7, 101, 1, 241}, {8, 102, 2, 241}, {9, 103, 1, 241}, {10, 88, 1, 242}, {11, 89, 2, 242}, {12, 90, 2, 242}, {13, 91, 1, 242}, {14, 92, 2, 242}, {15, 93, 1, 242}, {11, 88, 1, 243}, {13, 89, 2, 243}, {14, 90, 2, 243}, {16, 91, 1, 243}, {17, 92, 2, 243}, {18, 93, 1, 243}, {12, 88, 1, 244}, {14, 89, 2, 244}, {15, 90, 2, 244}, {17, 91, 1, 244}, {18, 92, 2, 244}, {19, 93, 1, 244}, {10, 94, 1, 245}, {11, 95, 3, 245}, {12, 96, 3, 245}, {13, 97, 3, 245}, {14, 98, 6, 245}, {15, 99, 3, 245}, {16, 100, 1, 245}, {17, 101, 3, 245}, {18, 102, 3, 245}, {19, 103, 1, 245}, {20, 104, 1, 246}, {21, 105, 4, 246}, {22, 106, 4, 246}, {23, 107, 6, 246}, {24, 108, 12, 246}, {25, 109, 6, 246}, {26, 110, 4, 246}, {27, 111, 12, 246}, {28, 112, 12, 246}, {29, 113, 4, 246}, {30, 114, 1, 246}, {31, 115, 4, 246}, {32, 116, 6, 246}, {33, 117, 4, 246}, {34, 118, 1, 246}, {0, 119, 1, 247}, {1, 120, 1, 248}, {2, 121, 1, 248}, {3, 122, 1, 248}, {4, 123, 1, 249}, {5, 124, 2, 249}, {6, 125, 2, 249}, {7, 126, 1, 249}, {8, 127, 2, 249}, {9, 128, 1, 249}, {0, 129, 1, 250}, {84, 84, 1, 251}, {85, 85, 1, 252}, {86, 86, 1, 252}, {87, 87, 1, 252}, {88, 88, 1, 253}, {89, 89, 2, 253}, {90, 90, 2, 253}, {91, 91, 1, 253}, {92, 92, 2, 253}, {93, 93, 1, 253}, {84, 119, 1, 254}, {0, 130, 1, 255}, {0, 131, 1, 256}, {0, 165, 1, 257}, {0, 199, 1, 258}, {0, 215, 1, 259}, {0, 219, 1, 260}, {1, 132, 1, 261}, {2, 133, 1, 261}, {3, 134, 1, 261}, {1, 135, 1, 262}, {2, 136, 1, 262}, {3, 137, 1, 262}, {1, 136, 1, 263}, {2, 138, 1, 263}, {3, 139, 1, 263}, {1, 137, 1, 264}, {2, 139, 1, 264}, {3, 140, 1, 264}, {1, 141, 1, 265}, {2, 142, 1, 265}, {3, 143, 1, 265}, {1, 142, 1, 266}, {2, 144, 1, 266}, {3, 145, 1, 266}, {1, 143, 1, 267}, {2, 145, 1, 267}, {3, 146, 1, 267}, {1, 166, 1, 268}, {2, 167, 1, 268}, {3, 168, 1, 268}, {1, 169, 1, 269}, {2, 170, 1, 269}, {3, 171, 1, 269}, {1, 170, 1, 270}, {2, 172, 1, 270}, {3, 173, 1, 270}, {1, 171, 1, 271}, {2, 173, 1, 271}, {3, 174, 1, 271}, {1, 175, 1, 272}, {2, 176, 1, 272}, {3, 177, 1, 272}, {1, 176, 1, 273}, {2, 178, 1, 273}, {3, 179, 1, 273}, {1, 177, 1, 274}, {2, 179, 1, 274}, {3, 180, 1, 274}, {1, 200, 1, 275}, {2, 201, 1, 275}, {3, 202, 1, 275}, {1, 216, 1, 276}, {2, 217, 1, 276}, {3, 218, 1, 276}, {4, 141, 1, 277}, {5, 142, 1, 277}, {6, 143, 1, 277}, {4, 142, 1, 278}, {5, 144, 1, 278}, {6, 145, 1, 278}, {4, 143, 1, 279}, {5, 145, 1, 279}, {6, 146, 1, 279}, {5, 141, 1, 280}, {7, 142, 1, 280}, {8, 143, 1, 280}, {5, 142, 1, 281}, {7, 144, 1, 281}, {8, 145, 1, 281}, {5, 143, 1, 282}, {7, 145, 1, 282}, {8, 146, 1, 282}, {6, 141, 1, 283}, {8, 142, 1, 283}, {9, 143, 1, 283}, {6, 142, 1, 284}, {8, 144, 1, 284}, {9, 145, 1, 284}, {6, 143, 1, 285}, {8, 145, 1, 285}, {9, 146, 1, 285}, {4, 166, 1, 286}, {5, 167, 1, 286}, {6, 168, 1, 286}, {5, 166, 1, 287}, {7, 167, 1, 287}, {8, 168, 1, 287}, {6, 166, 1, 288}, {8, 167, 1, 288}, {9, 168, 1, 288}, {4, 169, 1, 289}, {5, 170, 2, 289}, {6, 171, 2, 289}, {7, 172, 1, 289}, {8, 173, 2, 289}, {9, 174, 1, 289}, {4, 203, 1, 290}, {5, 204, 2, 290}, {6, 205, 2, 290}, {7, 206, 1, 290}, {8, 207, 2, 290}, {9, 208, 1, 290}, {4, 141, 1, 291}, {5, 142, 2, 291}, {6, 143, 2, 291}, {7, 144, 1, 291}, {8, 145, 2, 291}, {9, 146, 1, 291}, {4, 147, 1, 292}, {5, 148, 1, 292}, {5, 153, 1, 292}, {6, 149, 1, 292}, {6, 159, 1, 292}, {7, 154, 1, 292}, {8, 155, 1, 292}, {8, 160, 1, 292}, {9, 161, 1, 292}, {4, 148, 1, 293}, {5, 150, 1, 293}, {5, 154, 1, 293}, {6, 151, 1, 293}, {6, 160, 1, 293}, {7, 156, 1, 293}, {8, 157, 1, 293}, {8, 162, 1, 293}, {9, 163, 1, 293}, {4, 149, 1, 294}, {5, 151, 1, 294}, {5, 155, 1, 294}, {6, 152, 1, 294}, {6, 161, 1, 294}, {7, 157, 1, 294}, {8, 158, 1, 294}, {8, 163, 1, 294}, {9, 164, 1, 294}, {4, 175, 1, 295}, {5, 176, 2, 295}, {6, 177, 2, 295}, {7, 178, 1, 295}, {8, 179, 2, 295}, {9, 180, 1, 295}, {4, 209, 1, 296}, {5, 210, 2, 296}, {6, 211, 2, 296}, {7, 212, 1, 296}, {8, 213, 2, 296}, {9, 214, 1, 296}, {10, 181, 1, 297}, {11, 182, 2, 297}, {11, 187, 1, 297}, {12, 183, 2, 297}, {12, 193, 1, 297}, {13, 184, 1, 297}, {13, 188, 2, 297}, {14, 185, 2, 297}, {14, 189, 2, 297}, {14, 194, 2, 297}, {15, 186, 1, 297}, {15, 195, 2, 297}, {16, 190, 1, 297}, {17, 191, 2, 297}, {17, 196, 1, 297}, {18, 192, 1, 297}, {18, 197, 2, 297}, {19, 198, 1, 297}, {0, 221, 1, 298}, {0, 222, 1, 299}, {0, 238, 1, 300}, {0, 245, 1, 301}, {1, 223, 1, 302}, {2, 224, 1, 302}, {3, 225, 1, 302}, {1, 239, 1, 303}, {2, 240, 1, 303}, {3, 241, 1, 303}, {84, 131, 1, 304}, {1, 226, 1, 305}, {2, 227, 1, 305}, {3, 228, 1, 305}, {1, 242, 1, 306}, {2, 243, 1, 306}, {3, 244, 1, 306}, {4, 229, 1, 307}, {5, 230, 1, 307}, {5, 232, 1, 307}, {6, 231, 1, 307}, {6, 235, 1, 307}, {7, 233, 1, 307}, {8, 234, 1, 307}, {8, 236, 1, 307}, {9, 237, 1, 307}, {84, 165, 1, 308}, {85, 166, 1, 309}, {86, 167, 1, 309}, {87, 168, 1, 309}, {84, 199, 1, 310}, {0, 247, 1, 311}, {0, 248, 1, 312}, {119, 131, 1, 313}, {0, 251, 1, 314}, {0, 252, 1, 315}, {84, 222, 1, 316}, {131, 131, 1, 317}, {131, 165, 1, 318}, {131, 199, 1, 319}, {165, 165, 1, 320}, {131, 222, 1, 321}, {0, 255, 1, 322}, {0, 256, 1, 323}, {0, 257, 1, 324}, {0, 258, 1, 325}, {0, 259, 1, 326}, {0, 261, 1, 327}, {0, 268, 1, 328}, {0, 275, 1, 329}, {0, 289, 1, 330}, {0, 291, 1, 331}, {0, 295, 1, 332}, {1, 262, 1, 333}, {2, 263, 1, 333}, {3, 264, 1, 333}, {1, 269, 1, 334}, {2, 270, 1, 334}, {3, 271, 1, 334}, {1, 265, 1, 335}, {2, 266, 1, 335}, {3, 267, 1, 335}, {1, 272, 1, 336}, {2, 273, 1, 336}, {3, 274, 1, 336}, {1, 292, 1, 337}, {2, 293, 1, 337}, {3, 294, 1, 337}, {1, 286, 1, 338}, {2, 287, 1, 338}, {3, 288, 1, 338}, {4, 277, 1, 339}, {5, 278, 1, 339}, {5, 280, 1, 339}, {6, 279, 1, 339}, {6, 283, 1, 339}, {7, 281, 1, 339}, {8, 282, 1, 339}, {8, 284, 1, 339}, {9, 285, 1, 339}, {0, 298, 1, 340}, {0, 299, 1, 341}, {0, 300, 1, 342}, {0, 302, 1, 343}, {0, 304, 1, 344}, {0, 305, 1, 345}, {0, 308, 1, 346}, {84, 261, 1, 347}, {0, 311, 1, 348}, {0, 314, 1, 349}}
alpha_scalar_moments = 92
alpha_moment_mapping = {0, 84, 119, 129, 130, 131, 165, 199, 215, 219, 220, 221, 222, 238, 245, 246, 247, 248, 249, 250, 251, 252, 253, 254, 255, 256, 257, 258, 259, 260, 261, 268, 275, 276, 289, 290, 291, 295, 296, 297, 298, 299, 300, 301, 302, 303, 304, 305, 306, 307, 308, 309, 310, 311, 312, 313, 314, 315, 316, 322, 323, 324, 325, 326, 327, 328, 329, 330, 331, 332, 333, 334, 317, 335, 336, 337, 318, 338, 319, 320, 339, 340, 341, 342, 343, 344, 345, 346, 321, 347, 348, 349}
species_coeffs = {-4.550466730393530e-01}
moment_coeffs = {-8.756364712987970e+00, -9.586509984855683e-01, 8.644223744102308e-01, -2.422792808754731e+00, -4.143304653726736e+00, 1.350812728255042e+02, 9.472247278904560e+01, 7.276820128587660e+01, 1.230920207197959e+02, 7.802910681769390e+01, 1.702837541340260e+01, -1.637930791432646e+01, 4.880195127233630e+01, 1.120125057793146e+01, -2.493956489145632e+01, 8.334201768908883e+00, -2.812202659377458e+00, 1.807771474663532e+01, 1.333181912999422e+01, 3.404611830215150e+00, -4.923282800727382e+00, 5.804443990707132e+00, 7.748934749691399e+00, 5.037087852663778e-02, -8.643984728024785e+01, -4.399002040421181e+02, -6.021715446584613e+01, -3.244128656684899e+02, -6.141081497688560e+01, -3.116444634692992e+02, -1.209770673183517e+02, -2.285128647797631e+02, -3.033445006253451e+02, -2.613285588110477e+02, -8.368752421983677e+01, -1.153897973894324e+02, 9.907114089253344e+01, -2.237239560233188e+02, 1.154827467768012e+01, -4.134266283852184e+02, 2.987410747218867e+01, 1.717401755764751e+01, 4.678583893743472e+01, -6.969827062870782e+01, 1.438175300580492e+01, -1.405088807587122e+02, -4.153532991624903e+01, 2.220028885152490e+01, -5.388379454087357e+01, 4.709937240761683e+01, 1.913230011133504e+02, 2.679583482366871e+02, 5.758916577035288e+00, -2.091914137329170e+01, -9.279333328333460e+01, -8.312577241263875e+01, 2.859762694476651e+01, -6.394648538260133e+00, 2.617833926594420e+01, 3.247999441049733e+01, -6.096070256899906e+01, 5.033849044593980e+01, -2.222228165798721e+01, 5.514981966194257e+01, -1.351873847338974e+01, -2.696412259340968e+01, -2.415221334633672e+01, 3.764787517241895e+01, 4.168638417303389e+01, -2.098651248972787e+01, -3.957743959641396e+00, -9.749671124090728e+00, -6.923734301733205e+01, 1.426799185556803e+01, -5.753170598734289e+00, -1.940507276334794e+00, -6.211626162402906e+00, -3.949408269239825e-01, -5.444218674693410e+01, 3.762491360171650e+00, 1.253793083410608e+01, -1.100062118691492e+02, -1.439541935902761e+02, -1.481789640951742e+02, 4.206067331219372e+01, 1.491337599656561e+02, -6.698894102817910e+01, -2.707761481597681e+02, 3.333120509762146e+02, -1.223520808823661e+00, 5.484048265296903e+01, -6.432938160601429e+01}
#MVS_v1.1
energy_weight 0.0000000000000000e+00
force_weight 0.0000000000000000e+00
stress_weight 0.0000000000000000e+00
site_en_weight 1.0000000000000000e+00
weight_scaling 2
#L?|9WPҿVAֿk<?/ 2ÿD<mѿPOp?YTհDmoֿߟ2??,?zѿVi?}߳׶?dľſϩƳ?.?^Yxu1ÿVS?hywE壺ŎXҺ?uIy:p8?H:-y?:7Fۿ=?KE?I_g,п_,~L?      ?2u}?ҳֿo`d??6R#?HD	Sj?܍R5*?9-zqd?h&.6?f/b?d5#;I7[lܚm~Bu^',Q%G?|ruf?`e?\A?q`k'?qRVL?O2>ei}:&4?>n>S@J/?	Hw/=?M{m>6^>O,->>?e?H2>˰}?m7">Fv?ʂP>,jrO_ iw|8Sxl8G'[P55ݾl~IIھU,n쾸X;c<bR[80yџ{V76nIV~lz־JM?KHt}0?i6?*Ō?Щn>|M>tാ>Q>l<>-J>RlI~>p>K>'<x>CcP>T}>clVW>jw;w>uP>`#!|>˟>t3y>`XΧ_>PjPĨ>E	>S4OR	ɾL\OkӉ5l	;,վdLP1DBi鋅fgFn5~}6S?'.?SWҿ\;ӡ!=?W4;<п~ˀ̿#f2?
пaTҿpij$?ǵ Ź?W\YRbI?Gy,23?ȿ|?z͠)?uTH8$
ȱ?3^_#,?Q>`H?e\?ܿmz?7ms!?Ip»m&?^c}ԲYF?п"U!?      ??`-'69˿܊DF?^=ku?1XG?/9_?I%MB? 8jU?<`3@?`16R?6OΞH76-ip/:mx]d9q@h"TeL#v?ر7?_(Њ?ʈ?>gH?**9?Cϵި?R~C"?xr?F!?0-?4㯽N>0i
>v >2fOj>F??u$
?Ӊ>2=>?h0>,r+?QK>7&S	_~u-?x<ӔQ-Z(0mޙv`Xؽ$tdW%R);SgD43[,JOևq(Tl?KTs_O?.E?H>.>.^>pg٫>>htJ>_Mϻ>ldذ>0w>0:#>@]>%>HǦP>Ȝfkw>U[Z>/Ң>IU߱O>j-k>d>?=-M3>҆hw>})r>mѨ-I-bNJ;6 3c*]ӾѦ2پ,7T) (¾.2Ҿć1Ti80?2([?߃^׿~ JٿK͐?nK%mԿb}"Ϳ?B~~~ۿ[ANH?VѾ5?EֿU	7?y
,O\?A'ӿ%?a? ?okbʿZD?!:ʢ:	_?/Nƿup꿾]=f?ɭYx?%|O޿]-/??UDڿK3WW?      ?Ji*E?pH:t4qљ?cuIޔ?j>x6|?vխ?m_Cvs?LcӦ0?މSo?L sߋ$!+|eչ~N
8u
I^߰u?T>1pB'?u@t?<W]?`i
?>kR?{#g?\C>QgsP?"60>D+,:F?W?! 㤤>o:/B>UPQЃ>vū>c6?>wWQV7?u>> c/?旲0>P<I*0i_yB`fSamtke	alؾ'}tLt!ӾlR`T7m/aҾ8 k[B]>²Zv*E_ˢ?1?.?E!7;?|*` >."?,,>#c?j}Õw>/9Gx>EA)V>ma	C
?0I
?m;>8c/=	\>2b=}%Z>9X@=x<2\>!*^~>UDgZ>>#Ğ	?B֦rL>0i+Xr9Z8bǾ4!@`*:_|ĢS\@3D"Yj3P/w(vu?夬?:5A0y9׿|Ce?1zpпRpǿkv?05S?y֩࿨&?{i.?+hGؠ@GXY]nI"	?]0wǿq0Ė?C8?94<¼S;H,?@v!N޲?1yM,¿TDf?u&	}?jꌼe\v2?o?fLbf\oʿޔ?1m ̿Lސ?      ?u<]?ﰢڿ64]lVD9e4?~^%2?f`r?V6?쫰h?B^=?Y0c}c?:j$Ck*B`)[RW/ㆿ ,h2"	bjRpv+N'Tx|!?c<k?`y,? A?GPPY?#N ?%ўMA?W\?x$6?0Ƙ
?+>!;>I>f[W>&j''?za>_5'?[v>q:Y?%IGU>Kevfs-^0X.!lzlK1W7TdaE?^)qZM"UPF׾G{g>Sf?aƏ9? K3.?H'?gz;>
*?Fkh>Me7B?7co;>7TR>.ru>9GC> [>W&g>_\%Xa>Ejlzܛ>+6kt>M4>,n8b>ǒ^)>p'>笢>S:>y>!?>p>kXJ2-E^CC߾Fy,lvվ<^mŃ%žDp,y&KQ Ҿq:$F	b?%U0?y$ſhu|?5$zĿP߬P(yL?gvOv@yӿ$'x?.?ݏL X7RX?PoᲿ-fdں?޵k?O	|P/_ŠW:L?\lM?&KT@?F~רZCZE2+>?AE?uAZ?Syȴj-\6ޣM&N$^5ҏ?ޑL?      ?6"w?<fпSa~#4?a{2|?M鑢*?ãJd?aSXC1?K2]\?$u6?9+W?qk=T1Ub~>-^XW]aXug[(yI?4aǵ?d%iTly?GC;?c"~K?\Uߗ?mM`?7QC?ʁ>vG{+?U7>;nR#?( >e&>mZ}>Fp">d>:ș_?R:Xq>c¿?ą>(P?]b'>F|V]n'aD=TQxIU8ͯ||-Eg 4\C.	!D3aͰn՗'5W@-\?	A9du?d63G?S"@5?[o	?WmjH>%oɪ>Bv+>5Zk>{>!M3>)>^>W%>}~.>M)$%>FZ>E>}Vf>1>'B8>
,ta>|ҍs>UU \>ψ>A#Mn>xMW>Y(R>t>$Jt#]Xy~HmWS8iROj;Ҿ	I˾L]ޝZlZtPq÷46=??"ȿ@+S¿;y?r"??Nx̿:?%9v[vп'#!9
?`k?*,YeL?q?*UsbH٧5:#?*oqN@W<&̰?@? ?YbV*p2q?g?5,?ۿ?e(?)|q$cs?~#&?ſky      ?*䘳?97SʿxsSDɰ3(9?J x?7;r?S#Fc?nKV̸%?jلO@Z?xfUgF.?t0U?tJL;=|o
icC$?t6it\B7igZ`m[x?gV?c9x4?*9V˖?g?ݱZf=?>h$kx'?>LMB ?2ʸ,>a6>w>nŪ>\|-7>bkgt)?qG>pW`?e"H>D4?z|>>SS?<վ%Aq3R
cd$ھlF>i!=D橳OQX |о`XkT00!V@fUtǾJA:.9Kn}(7о-<V#k?\_>]Z>+m>?n+i>[R5>WQ[)K>4>?[>ҟvn>UuOyep>Xt+>e.>Zb>(Ĕ>zNMq>J/><zݎs>F{"(>]O7g>6^+<>*=j>`d0YE>7>4Ed>E^p0KϕxٲA/oI̒n{K-1/͚9.u閕0?b>x-?ڰӿ&ǿP4(?NJ],;jȿ?	F?G?uA֊~?n[@h?=?pYӿw?I `ȿ>ʡ|)?J/,'m?t^]?-῿>ɿɨ)? \QDo?N௿'Owc*7?/?
?тRԿs?QIhT_¿z$?_2 ?      ?^=|?glgga=ʎ\㪿v.?.;g?ף?G ?ʚs	p?sP1?'^t?yz??./@n?n+<H8|>d[
RGiw_X1EMGOx"i➠%?t"?yEIh?/<Pz?bVb}5?s!al?{n}>d͵WT?e0?ÖH?^NFMq?h*>t-#>s#>:R>m;?_>::<?g㰒>kȥ1?o=U>&A{jɉSd&xx9C|qī&
rOк
AӨ>Cbh7<E>lvA21xY4weqi>3hv"7	DSa&Zl[۾tXd?fؑ=?P]??~*A?Ў&>ab(?D`>= 7?َ>!ٰ>m>0?,L$g?ͳs>U!,A>&">- {P>atK>"OqE>4s>};>U}&>=S}ga>~j#?׭<\h>Ch_{\kEWjožXFְՊ>-EُC@:&ǾZHJ(H|?1n?Jtu̿䬍&޿W?!\D,?%⿱#??.=4Ὼ8E?vy"?!jտ!5ma?ʠC=<пb˿}%?d&>w2ο^/=?ՏM?<"&1˿>p
?f4?[o=?F??j$uݿ,JߺX@)?(׿Tiӿ      ?M?8jܿLſ,R?QN?_:q?p~z?ug??@p?;BF?,|i?I̹]74<[@]ր2]	뽩mM󤶗tp\6B%ul
?mB;?cfX\U?ܪ5?l$`y? g:d?.@2>@T>L?#l?BB?R	?ǫ>6>eR>q>I3?49N!>^e4?Z>>.X5)?酟4w>48wru	gz^/9R;*6ﾱ0~vUu^|0X޶FPXV1g0'Z.Znl+wWiP\~:#r֏H?6Oi'?$?'(5?΁nS>GK?gV_P[>z6ݳx?􆥏$>(g&>ߩ؀>g??ZTx>rTO6D>3P"ː>uxB_H>jڶgA~>eX>Ck+>XǊ˦> D>ڷfgk>VS=R?ӷL>0QQ۾=Dȋ8]ݹLھ(./9EJdy;@j0;<xm?KctA{¿ߝ`?8}?Cs`4Maݤ?U؇?ɯR2WC?`5ڷe?%2?F&7??AY?/$?~ӿ
/s< Կ@j^? nؿ00ow4˴G?(KؿYhƐw?&M?O/#>W?zlU?T:ܺvJ?      ?}cf*?:LPWt?տ*?%֟?  4T8s"?  b:]8`8jĀ? Ф886Y?iӿ  0H	@!6B6  ȎиhW+*4ϳߠ?  @(i?UqQ?E'?  U#94(?Q@/-"yj?_(8~8?8/r?6W8{3C8 ,Jrâm,2:r>D#kd?Wk0v8c#kd?)x8ȔuX?"z7̓8}Q h穻0n%?۸-8Jvq9Ӹܙ8aqo ׃Tv8&޸n8|a(?{;,_ϸ3Z8aEjF?L^F9{j9	|Օz?k089a?|5G81N+EU?9˜83MȐ`_<yoG?oG?Uu_80ΨӱXd&8J[1xjd&8k%Lu1wgla$˜8('wglՑ"1ެoG?縔,/?OBWDи'䀿ur/׸7Be䀿LY%r}MD2e?Q'?՛
пv++?wk?m&Uÿ?0ü?!Wſq!	E)F?9?~Xaѡ<h?J?v>:/?>5?ACMο6ӿh ?O=пTѝƿB?*Κ;[ǿOnCq'/?c?!0:쿞H!W?!VH?Ea쿆 xG?      ?t2"h?ￚ_Rbd٫K$?Ұ?   ,8_(n?  b8,OR? (A8&{L? Ͽ  j9;  Rt8¢>YdH;&C   r8,)"NK?>$? 99iռY?ɶ} b?lh@?8ݑ恋 w?oOz8㓢4k?i_8ꌋ68 &+<v'x9ʽzn3d^?9zʮvo3d^?zj8jR?L@8eC Tp%>ܸ
hŕ96x8kijȸDnrLM⸌&ø[	ǹ8c5}
hŕRTj<8IX[FK3ہ#f*mx8GUaV|'?0ե908ypq?Ӷi(8(@@W?"ϥ8 TL?%8=0l{IV9;"pⅫ	 s??	 s??x8ȧ ~Qnq8!H1љnq8+`1z0Hb@I%8GbID1o	 s??h[U$?'Sg5uNSv҈pYøP2ySv.V!`pWS=W#ݱ??/d"ȿ}:(<ĿF+?G ÿ(o:ÿ`ÍR?	j]sT@)`?gﲐ?Peܿ+1w?F?Go3ֿU9?i5.?KnYuĖƿZu?Fd|(8=!zM?T~͘l!2:C?KvE?R/޿
?CF"?2տKqVg?      ?Y敾?mHܿ郌y{}?ͬ;?p'?|ݛ:t?ml'?EWi?wa@?^ʗd?C5vժOLXC55/ֺ'S/6lSvdwQ?|A^OŢ*?T
h?ہ)Q?8s?ex?kYx[?"|>+)C?/M>78?\hD*?RJ>`<>3>yF4p@>>汀*?Q|g%>*?F8>n`,!?%>cزCyp''>9aN"%\ \?Rb 7/b@6VS127ZIea;LvGegni[FʸoR ?;QDN⾩㦋?r$^'Y?1r	E?	~Դ*?>Lr_JP?J#>(
?s?9>aC>%1F>YT>2)0ĳ>@E圮>8T>ŞVn>.Ha>hm>X 9kS>+҇b>q>;[LY>0:a>m}>11*]>iH#aR1 aϾh5:L1z.|0AE䧒W$;"y@m^S.8f?{,ǿۄ;ɬŁ$.?8j?α-9[[]D[߁^ӝ?H޿Cc?=d"0?XC?aD׿a ?N٦?~i?T|?pH  ?-4LB?RK1etA$ 馚R_?-iHp?1=?r?4N࿩h?QO?;      ?[?Jiyӿ&k3Lǿ*"9,&?0!^?9Nm?`@&?12+"b?#e+?3 øL^?UF+?2<Gb/ID}.1*`f$/֋z'ቌb]?$o	u?PO;?nF?6SR? >Xե-8?:lX>/\iՌ/?1%B>9Jq>WAk6>6y:j>Q3>1F!?2qS>5!?[>Κ?CY$>dPj {j*Bmd˼R;.^_fDs׀άM~ (뾄:ٝ@RBfQ "
We^`f*SLE<ꮃ?ՙB?K&Y,?#o?I>¨H߮?Bww>3>Zb>uJO>h7>|	S>@$>sEL>QJ>(U>5VrN>:B(Ӄ>CUN>/R>.3g>k?>3u^8U>wV>,{)3>2ϻM6pYN,B 2IWo_,NϾ1ǾP~w*:&B0+RcXP??/j?4L:XͿz1j	J$п> ?CF?37ٿHga$?T[=?bqؿiƏbqx?]8FZq?}m#̿JYcN|@?}c#Ŀ,h۷{+?xXB`̂%peDƿU?'p8ی?t#1Bw?6Ɋ?曈@lC?zlS?d<>ο=E%h%?d@HͿ?>¿      ?n+к?Lx)ӿG~0^g]?7oȐw?'I/)?LΒco?)A5?<~8e?8??
`?;x˰>J 	CQ6W)񡀿/@Rg upx!J?׼J&?kn?J?g@JP?jfNMR?->$
b:?!w?^«@
1?(G]f
?!>l|@>_7>6~
Q>9-#?iqcO>GJ#?M>^ޓGKk?4Ζ>|kUwR>;$TYqs#6 wuyeǧy3ͨ6Ƃ^X. 0}>=eS6JpT.SVR3fؾFNFMbXzZ6<?바Ԛ9?ZNO0?bfK?r5&>3M?EfǞ&>ri>A>W	>!ǡ>T|>%p4>Mƴ>}O;X>>9<d>Ȳp>_>.Z>7|a>Px?>9p>r39>Ӊ>& 7_~Zm⾂ۄv {zN	?ھn ž:C6;OY '*"нĿ	}C?TP??YwAfȿER5q=]?}"SirNIךI?0Puƍ?'R?%吀ɿֈI?q_п9/$?a+%E^h?
(ѽ7rĿ*
m޶?5)I?h?5װ?oԪ\X?hl?k֒Jʿv\!?arXȿ .Ɯ?{oߵ      ?ݳL0~?}8f;޿/8P+Gh?Y	 ?P,?4[擨y?ADܒG!?7oǥo?*E\hS5?e^t~h?֓uܰd>Bm뷖8͖K]chIk-$?(JoQSǋ?xQ|/߻?:<>?Xהk?Pz/qՇ?KBd?Խ>G7'zL?ɾ\X>TYNA?P?<v]$>eO>4:d>0:^>HSN2?kaT>{22?~>AX'?
Aq><\~o.놺QhLuQ?$E=,K X7/7}_꾆PPԹh
%C}Ee')<=>ei\1A?W
j"V?\j)-?&W6?޻[d>ؚ?Ԩ	T>tU{m?V?yܟ>j>'Ld>?\&?\V>Ü0>&	c1>Ccs~=>O>)7>(<>7j.k>9V>[]gG>d,ߒ?:.!> }'TqpJ1|';_Hgj+־@Fƾr
;1Ջ1dk,[h'zQq?TGʣ 9j#8_q.?H✕L?I'*?B8f?%sgQ¿c4tž?udD?Q#f@
7?+??W& ey?TKei?=]ȿ$;,Կj9?>PWԂ-lѿL?N{PbEؠb0=?_P^?Xܻ|L ?[R,?f$鿲-6?      ?2?RڵG?V?/:9xj9?d7e8Cw2H}?a5(O8R[7?/Q2ʿLS^e'6VRXk8
Mꤿ\vLt@8?f+JH{0?46M?:׌\9T?x?-E?3K8sq?O/8E}e?W7f:8P}e8ZMh.q8/q8j7
8F']YW?bZ8@)]YW?.8޺QOL?/W9:8*fZ,,eo3D<tʰȲ8*qx]xjx3DMm Z+1Ӹ삜u8̸6Du:t3D<p4۸ި(sp9^Ք8ïʸEo?ҿ~f8$r@9IDh?͈!8L-fP?$&g#C8@C?JSRצ8Jh$8`k4>ځ8NF=p5?(F=p5?7ׂ8o1쬪t8l$2Hdt8F<Q1"W> s8mdצ8_ Y s8@Y1F=p5?gQ@'?kP͆Ć˸YognFz,Ÿ\[iRN߸_Y@Yogn(؊+#lD,Ÿ:1=oQ0#?p?C5ݹ"&~¿*?r9pf}-ʿFe?$}?j.bXуtU?JT?jGX
EA?\*տ e׿YӠ:?MqOSYԿn,Z?Ozp	?տ#\?8?Cr"A0f^?!C?+8D4n,J?}t"ֿnBؿ      ?żN?>eJdlhʿ51@?M	?Hda%8v'?QC8{?0+8Ȓz?!(sMqD?8BDçJ7O8BHɜݮ֋i=r8:s%`?Q61?[r`86d$R!?.z#?C5?J8yYf?w<e|82*,j[?ӽK;8X&u8Bp;8+8g<%rSN?HMF%rSN?8DYP8ruFB?S|8MC朿,r8pg|DN p8Lgϸ~/N8+yeY2zq8j#R`ti4j|Dbá8FZѸ}!\9DKK8ԄL̸f{?NfDV8Մks6[?c8M$qB?QVzN8O:6?H8d4pRv8ZXYk8oҖ(?ApҖ(?Ö%v8r]y1YfQ	t85_1Z:	t8ڑ_1;y]898Jy]8ɛF1hoҖ(?ݡd?Qow~gA8s>__\~v(9bø$i+8s>_1IHh<1| }v'\D#ړ? hq?`cOV2ʿ3t/?)Q岿93̿w%x@?_-?t[OW$?$%3 P?dla`<ϿH?=Yſ6]^Ϳof#?uVs/oSƿGQ϶?&L?	ɿ`б?s ?%"7&?@3?!blſisԿ n?Jz0h¿?_ο      ?X(Lc?"6Ե޿9?ƿO?Hn+C#?u-1q#?dz+}?њ&?F߱r?:2?XZe k?Y,Uril3$4=EչdaaА;Ay\OR!x?h*VZ?3?z+Y?,Kh?X>TP?`C>1[YD?A]?(Vjrf>#+L>Cq>BoU]>*7!e7?T%0i>~37*7?*'CH>7e-?I>+I>}DSo)BclZ7jS'x|>񾔑G4P8$MHzT=}knnlD
chadmIb<HD?$bx@F.?.iC"?Ft;?uamj>m)E#?0h,L0>)h?f爴>$Xy>׀ת>M
?
oVy?hN>	rEI>Eʼ> 0W>(`>W_<N>l>[!$M>hj̘>k\[>>M
?qi+>k QWMnHپ[P@9$̾q0rS¾@
62@#l'gչЎ7̾pu~1>@Dws?51v?P Aп&ăa?Tʿ :Pb#h?ȿhտCՑ?͝y?_s1	ǿMx4?S=.Cޱ0??=O̭39,~^5Gױ?03Ұ-?_
$'?P3n?<!k?0?Ѝ3F?=	GF a22b?      ?"kA&?Awѿ8
e	R' ?!7GI~?L^ˍ ?(oe?Py6?6`?rblc?*^{j\?4aVBQ.:P1e邿d^LY5W
E}>\c+ 6?I|cUM~?\Z7T7?Y$^?u?!Hxv?luD?y1'0>!.?Gy>E`^&?>ug%M|>De>h>9s>,W8>9;*?l>_ʡ?>?h
v>_l `ۈ`RI%xy>T־<DgB{W2%LP~QX)eQ6FJxGGV6^sV#iϨ54#&žf4x?g(%??Kj"?{Zw5">λ>ƞkœ>==>PX>Qi!>2'>bn8~>?@p>hžHQ>X_&H>A^p>#.#P>\UCj>,jE>DdNu>J>FYno>&2=RJ>	<>}>.%(ʌȾf.̑WwzǾř}RoWb,`Kj_`åALY
*続A?fdTӿn+"WN?Ѐ?QE¿pkRѿn؞M
?w<	ɿ@&EbMmˉ?e|?T&e:B1ſB^?Ѵ8?,a?Zk?ǣ麿o8qDմ?Ȱ?
srf4q9ؿѩg>S?fRGT?̀zɿFZFqտOj?y:M?      ?xYq?fb ¿ŷſ	ag?Ƿn2Dx?hUǼ>"cv`?#Jwh>-OYe2T?Sٴ>#P?9V}^`$;۾4@o i@yTcYZފk Y\r
.ߩ^?kN'w?s|RB?M
}6B~?x^?侂(>?>u>"izY$?v>?s.\>uZ+qAi>8{k>2_>Q&`>Y)8(?wUE{>rT?涽y>"g{?јWi>)MMs`OK3buuЯ*34x	eaωdG吾J XWzf%93xOuCHB^-صPePKhm%~Vq[??r&A>#YLh>~$?x<BF>m8>)`NW>Q>f+3 0>[
R1>?Ff#>Vc>Z=>Y@>@DO=I(?>IF=M/>ϖM=1\6>̴3T].>#vZ4>&\Ԛ=Ʈ)>ا]>@3F61Ϝe`Xs>a<UL ,]l 8js>lƥA).!?L@?i0̿%n,A?@'WI,w&ѿX?Xp,>_1Ǝֿ:A}޻?HBR?'%o	hʿ:@?>a?P.ȿ	 Aؖ?~jsK{?@1fC2~]¿K-ybƿ?LОv2t&GS?v=$N9rMi_߿ո%U'?%2=+?X-<˿˔^?kcy?B7cϿ	4?      ?ʹӏ?Mп|xOzY?	{?6tV?(j)b?ՂM?˳GY?ej7ZI?mO0pU?5Ghnf~K6zvm$}~7Rm>tLv&<Q:Yw]-!W?X,͜?<tT?W4?l͑?jՏ6-B?g?"z,(?t?;@!?ޙ;(?&?Հt|:?oJ	>e_I0>eK*?j:>FWe?cM>ͤ?Y>G-\a>A2"CSl3/8$h`G%5lV7.W'i ˨,dfEC{M7$T7G0).?I}2>hE^_/u?0C^?բUW?O?.U>UFQX>;k>%	a^>u>M>Bh>Yft>s[>o+$L>D>Ǻ>I*nRڵ>)d>Äb8>OZnQ>2=d>'#ʤ>,E,>p-\/>7"+@\>ɝUP>L#bq"}gk64		 6')Pf/XEiV	f~Ddྋng]jk<?k?K<~f ?Aʼ?}?L˿8ο>]?RRC?bY!߿K#T?Vas?+f	ĿX	P}_u?&b̹0׸=?`}?ve<-8ʿbz~?/?#>)??v$5-쾿xF7F?y4&?Vfͻƿ`삱U_?      ? 2/? mtֿQǿVW?t#c?_%3D?FIHt?dzo:?$د=i?߻p;X:?nijDd?C@c᥿0jHhꅞhR##`}Q8fg-Yʗ}#@?
PHb~}/?z?NQS?a?&1[?6Nl]?eW?@yC?'Dm
?ߓ8?͡9	?)gU>Tؘs>ڂn>?0>TYPd*?*>i*?Yݍc>?p ?buCk>r2Su:p7)c\a$u/	C($w6 aPY,(9HQ /?mx*C`mv\>^# `败#"m^f`ѹ#?ۼLڵ?()]?pF:Q?].,?..>|B?m
l>I ~|? ߿>v!>d_>š㱸>Ai>8i>> >>C* >(􁀙>g>^Eu䇃>=OTU}>{1>ƨ>?k
0>`>>b7>EDw㥶P$I+&QFUPr{.0G@>+'F=.㾂<5t,v]?D?E%ҿm¿n^m?ỿf?ɲ*\䗿ֵ#?$ ^_h|?I)H ? Љ(ѿDmx?bӷ?c01?unǑο ?n(e$Gk ȿ?TzӠ?jڢd *哿o? y&i?2ځP?"*տ\dv߹?4u:?e
VLԿ      ?Y$?p|?ݿ
筲lؤs?&sp]?C0?0ky?SP1?=qшKsp?;<T5?	Aеj?7ߔ_ԯܨnLzsUgS@_z%{yfYNFwl\6&?.Fk?X܄r?`??:1fW?N.c?pHm?INoK?su	?Զ
A?A
?E>@,vH:>
>5>yi@3?jg=>Ju3?0> 7ѧ)?'D>>đX$SIɜXgK!$F/TUn&K
2-q6 z*Y` 
~0hQUcg+KALO(uE eHqUڭq)Q&;i?Hpy]C?^$:?nɿv5? >d"B'e?G>8*D?Ԟ䷼>9X>>|<>^?	;?Ut׾>]~i>	RLb>F1pp>Z/S>Bi>DeC>9>}u>SQcpq>cV}?	>2[*DR͉#9f/,k9pھ7|-M)׾W#rx9RAH!:`ؾ tL&:o?Ѕ?PÿV(Muvp?a߰ÿע{5?
z'k(b#}Os?Ej?{UԿRD-X?\԰6SUS(a??>?U*߶tJȿTN?to$?Z|ǅs?XnҪqGCӧ?H?0ӿsnȓFPRN?SӁ?
?      ??.!6HݿsҴ4>-??E?4Xz?aC?Ip? x[EH?oi?mnDad?+qi1}Sg^w"@
O?˓t5T$?ه\?=%|?6sĲ?Ht뱨?RE4yRe?e?j1M?]mܷ?/lSB?ɍp?W[>_\?>~>z5>%3?X>{/հ3?(6@>(ST(?	>T;4*\<'1>shm=1I:oTt+Y(#S
3~!"7y5XYPD#{\hL#[9L`02Se`UH2!?;	nX?\Q?.mHQ/c?`RW?r,g8?:>, ?6#&>VڌeSN?C>.#P>S#>&x9?k`|?<O>xh؁>*9u>5\ܛ>-`k8>?v,>jrV`C>&0Tb>ε>J>խp?R6`k>5w6Ŧ TJ&G;L뾝UGuxHM:ޘ%뾒*2Q0p?Sr
VI۰J.wۥ?YyGB?P
-~ xD?ݖ"t4(?(?D^\׿&-uDZ׀?}s@οB"h\JwO?856갿+#̿߳u?ygUx?vQ:Ŀn4z?\?7y$(PWT?(b=?sdؿUptÿP׵[?=] ɿ{Rx;ſ      ?}?B#ܿƿA{d?6G?DJEP?L$r{?E?Tisp?`G?-(7i?JsFq&N-
fjBމЙbљ>Ff>1S$(v~?nڝ?|P?L裰?e=)?W?fDf?}Kq$"?{JN?ȣo?>MB?Tt~	?7?Fב?>>R!>3"b4?`>lh4?>M>E(?D><#Ձ6D۳g!O9¤")hU*IV<dU)"q"MO<2@gL?*.}2]V1m2ֺ'	ڛ?vf?BH`_?ه9?jιl>)~+!?."Z!(>uɾWs?5t#>>}+i֗>:i?OH?IvwDK>l$>eG5>zô:>J#W>*>p>5lWmI>ٮn>'q->{J,?D*>ièTi6d:KltC	1:OѾB9dj\@E"\o?E?*@b0Qѿ{Uҿޟ+$?{edq{Ͽu|ſQSm?NYֿ*-lvn?ڛ3l?úҿ>X?"{!Va=?IL{AaͿM??܏?˵ŢʿFT+?S3ᅿ\i?8Ŭ?;ʿĞU?l?!Dҿtp?`
CrJUͿvn?      ?2_?bN yۿ=QAǫb?DZ B?̭>s f}w?ɽ"$?to?Ot'P7? pfh?`@W27M>	,FWlfH8<f:0-O}f>uۏۋ?Zh?I*A]?;|i?N(H?a?ORe>.,mMH?f[>i@?P:?La@O>mlJZ6Y>Ԁ1b
w1?<ETm> >1?F<4֛>  Rh'?7li>kis}/ f>Kaޖe	NdW[sakW޶'5>ʹ)K#xن>~>SoN.Owpd8kվTo^c^as<ž*͊eŹ߬5?cX/?."/MؾkK4/2?x6>GN?p9|V>r?9L: >JNrI'/*>ט#?&S?n`vQ>5^_Sm5>.;=q>xe|;Y=8=)+>(CԽk8.*V=O ?>xNtE>,5#-Kp<RilY$:q>jD_K55=<X:HH21M-lsi?h#k스}ɿ% ;?8+?oxlQпڟ@Iؑ;pĪ?):?էڿ#
?8N.;J??[`,Z&:j?wnh5ʹ?H?Sc9?Wױէ9¿DUH?-q]7"?Oަ?d珘P[+r%"?r/q?8脩Ѵ-zү-r~TZ?@d?      ? fTٲ?<пBpʃ?a ?J6fT?^4lg?ĩ|}I?@.]?rĳD?gy#vW?B$٘6Ofupduƛ0"1i@\DdvU8ƀ2@?6zc	|? ߗ?d?2ɻ?J?NI?[u䒹?߫ʺ1?a?GGD&?<ө?TM?[yѰ?YV>Fb>O}x?5F|>; ?pVy>JROT?M?7>Я_egbA#@*?OJ353A{z&?┃'
݈5o,P)  M-!:2"ImXr&%"p*brHt9T	?g{]/)z?'{.`?V_JyV?sz@?|΀>yR=B>9rS'>z[>>lQ>)DQE>J|^>uCuU>INq>} R>(睺>y4G>#j>(#>wđ3>û	>^=n׺|>~\D>x>4w3>YB+JK1rxԯPP86 tV(i=ܾtH{\1nf5chLC?8g^?lVsɿsƿMX=t?W?KJbпh[?(?~g>P;N?c?i-tGu¿[[=?(fyXxWͿ&]??a*!ſ2[?c0=?T2G]¿}?NFA?I..i'&%?] 2?68ɿ~]Pοj%[D?E[6j?(iRӿ      ?giu?۟ܿ>L"	3<?p7Ƒ?H(,?3ƒx?݊1?ao?H:p6?nRH#i?ůub`B"BGB/8jQdQ޵b^kt)|ďqFҝyG]vYpFd?^kG?:c?q?(k%?F#b?	1>+b'J?nPu?f
3@?ͦ?-8>vK]qe>ʦ,>'y>(J02?JE)>	H2?=>y'?^l>>Ηa:J5KTf:JjU"$'(K"̋ۂE&GI2Y$P;fs=ք-؍ld߽`)×ft1mSH<_?Dj~q4?!gU0? M3?CM->3qF?l?yu>?aNr(>Ы>!>/:5,?K?z>yvFe>Iø>B!0h>q#Ԣ>xA5{f>-4BΤ>>%>Z/n>@	?8h>:>Pr^%Gc7qrg[׾]BϾOѯo7o;vCcԾݘ1;K
l?"A?N(<ӿ^8ֿn?)%KLTҿ=Tn?ƿ?1?ϸ^?		!ܿ؀ J?8M?-Iտzн?ՒB?]>֫،h˿@1?R޼KDJ~el?u051
!FA?U?VJA߿+TR? !(?e`HI`Կtؤڹ?      ?+{?L߿۸wmh
?om?jU?d|?<?2q?FW>}QF?Ɏ)6k?б/`T1i)N6k@4b>)ӌYp2"?{F*s^?D`?6ҩi?lF&?)yJ在?lh?
kPv>G'JP?+-?7rD?a֖?$D>֝>.ʒ5>ԑ>G6?á'>SM6?᧦">\d+?.>й	O85	2n}~l'25PaWW5$ ֲ|8=m:񾗯yJQ,S4bvlޜț<񾢧!|,t|w`HX>ĻNFؾȟ(2?w[=?iUf&?k2<?j>×m$U#?<.x>W?˝>KӡȌ>_ޞ>&U3	?	?OR>r	Ivxz9>$~co/>0>pԍB>@2&Ǔ>$e>܃>W\>PC	?I U>/~XI ޾ʾZ@Q. HҾMVyľϜ@q1V\p`UCc3%wu?Mg?ǊUҿ/v+ǿG{?zqпXr0ow*e|?ح;w)п: oE?Kn?ygOп.҄?*[;>h9ǿXr?fu ?3ٵr򶿿y4ĿQ?FA'5%z{?F*> ?'Z5t翫_}?3A?3,y)BҿMO?j.巿xUпm'|?m?      ?5?x-7ڿg~Rs?Z-??]ZDQu?cf?>A$Qm?Qe2?Xg?,=h5KQA/(R4L 3w=7eʄJ?s-VZHё?e?TT#R%?CHz?aX,?ٷ^?גz><
E?R^>@4~<?~O`C?~0MI>& >tѪ> j>*2-?(%>a-?>:#0$?A.->_+z;&!:Hvaي=5B|1Z}߃
vz+u
ɫ&(]O Ha`o3&,!UE4,7>)k?.`jMlž&[A?7V?]/=?Xy `.?ʒ>^/?WQ:>k"?@7Y>3zݣ>y|G>my>?3 >AM;>-";=>7rE>BlO>} >%4h#7>/>s>>eVȌ>KMM>l2f>p6x>j>I"ZR`k򍃐1lھLl	*Ѿ1Xʀ>gƁK=˚W`$e?Q8?DIɿH#s(\?UPɿzbĨ䀼G0R?,	ÿGn@9.?6פ?,ы׿Iί9I%?qm6X?LϿnK?	 ?+݁SxzɿMI?R$gɒX2.םs)?p0¿ANjfV? 2?7ӿ,ߤt?$Oޘ?M7컿i|'=`?      ?ۭ ?YlbܿUgec]:?zH?ܢ*?/?jjz?7Q%26?>*!p?r	??6k+i?Fw믿$jCvW &K^Y/sڋ	@~M?rS!irj?a?ߙR&?E"ϲ??;ƨe?RE$>)U?dM?)jks	?
q]ImB?z4+%y?4>y5Y>F6'%>m>l|u4?r>οc4?ioM>	A5)?)>fpd),uLhZ6V1fq; NױYrK=<g
Z򠚶gQۨg$h:I0(û$eN9`5+QF ?iےi6)?"T?AGD?I<8?`':>us ?AǠ<>vcq?l>x/W>44>aH?t?,Weĕi>3Pj;m>Ri5fJ>;.ނn>>(lp>S$AY>= 8>O\>ifv>^. º?N0c>AoSnHpgC;-۷پkua+k߼U侼R:7p5׾3N 2WVo?.<?;G钿ʰ\j)/{?HJ?L촿N"9\Fąd?
wf׿iq?&У?Qp;TTg}տ!BDD?;<?f>z?@`J?3п Y?($VP?isd0˓/$"̿%I(?ǻj>6i?ۥ q*?F'v0,c[' M?V%W?=@8      ?qD?^sĒӿS{#FQѿI%y?"LpvS?1%?
9,s?]0Ed?Y6h?m?,c?t)ؼ7$0
[fZ=l2l$+M?VD@- f<<JBv?V#?5UF?}PM?TJw]/?)H\?3)@>^00B?2$N>$D-7?$S>u7>*. %>MYy>Ҽe>;g)?{[_>ʕ3)??f>{aގ?,0e(>,7q OEXQ=,OZI Ȳ˒Nĥ$@shU@-	>6@-X~Mc`辒RYꤽoY́[
I"?w??s *?<϶>l?@:lE>Fvv^0?ZmjS>9/Q>0kgp>N1><W7>yă>dC>bRW>RG\C>z4nZ>rs;qC>|
V>ish>lN>Ƌ<C>$b\h>0@S>,AG]̼ξh\;&<'eضgt&;H2vK@$'Y+ZkD#>b>ܜU?Z?5
տB2տ@L?tڶ=tRĿſ-ww!?táM῾%i?F@?,^(cտ:?>k?p>dbt/0?3.J?t4hnyǿA]?پ^Vg{?;zvh
?ZZ@T&~-?pd?S#{ۿp"P?\Y?Oܲ4:?4/(      ?(?ϒlQ=ݿy38ZJ~&?\sK\R?"><X7v?30?"m?:;?M<g?\37md)?(QtZ@8.$$9R$׊:TS̖JvHZ5<2]ZJX?ộ?oE8]?ChyӲ?,s*?ZV(|`?;s	B>+qpF?Cs] ?5m=?J9?tw6ě>-	f@>aJk>GH[wPp>m1.?ݟj>8Ie/?,y	>kɔZL$?t7}E>-}:q>\ldÐOB#9mkKw^r~>WT;Ӿ >9(V yVhnLT@LdVz>xYWj F1ϫs/?1҃-?1z	`0?OCEzx>mͬ/?N>)j"F?y$ KRl>:4RŌ|g>_DW>`	>`9l>B>=\hS>4=:,9fR>^>oԪJ>Fs 9m>nO>ǅyO%>T̂>0#!>q7 N=Z[>zGU4}íоƔl,GR>.4G0,(؅>LۧZ_M,Unzv Ak?&տ@(¿ D,?آz?턅?H$/-ͿI7ο
Ԏ?7 (Bt`fpͥ?n*?ƭx̆?'$"G,LR`.?XK9? ?R13P|m#FÇZ6?yզ?`Zf>c81Ŀ? ;ȱ2镲r?h0N?Y4͟?|INiw?      ?
sZ?Θ*rVmz?_ZR5R?*OR+Q8vpF9?ʆ{[8Ӗ:1? 5~8&i /?'
X϶*MS@DZg8bojo7tw2Tʥ`xY:'a8?rh^? r8/yD?2 1\Y?Ni?!_J8Xa.7>k:8X>Y$08YM18
0[I7m7\t%>l-Rt%>1H!8X` #>8j+58
^8*z%fb86383xu6TK2]ZPIp ߒ8XP-׾bsy%fbh"8X@w_sId6muMLf2ڧ?GU8I?8K60#>V57|>)7Q6D>|u7MPIaO B7Dk>k> k
7J_:=V`1(@l7`NzB1l7R5Y1gAZ]zJy7)WzxgtC[21-k>t)V=j>>=Hr.ۖ!ڢcL#\ٺdE *nѷ# ڢҞ&m1[#\跽8x· *d>O?5{0ÿ/d̓?=M?TzY]孿濱nK8?]ҿ߿ZQ[?CZ?R8qyOQ53 a  ? 6ѿbA'?O1r;˓t^E?j>j.?Jauh?
{Ũkv9?G՜g?Ne,?̲NQͿ=MD?ݧw7̿      ?yg?hXֿuQ]?Ff5?jL3?RѡQq?o+QT#?3]e?5,?1Za?|dliJ4ozN69+H~{[F?7ؙCmANjnk?BEV?M?ٓ??M_?g`V?^o>ӂ2>??h(>#|3?](j>գ2>--H>o0Z>>Un$?lU:>xZf$?1|>\b?>=0(q-,ZXU5[V_oH `[XfZ ot*`	@E3+W/  &;5UJT?1~ᾛTK#?1zN?ُx(2?,4#?D>@>+~m
?#4u>S K?ٞ@>?[ߖ>$S~4>{1>oSJ>UwF>vZV;>^ {>k6=>˰Pj>C@>}~>ڛxH>[H13~>n_uJ>C>CO8>Cp~?a?An9YNB%u_5.\˾̾9@@%Sor-Α"pԇ!9w@"}{X?	Mh?hp×ͿT33_/ֿ'+ ?jH^ֿ~C,V?{-̯*<]?;?jg2a?Hʩt0?1jɭӿ!Mpfw?Իd.пt'?ߟ%?K,Ƅ	п8?}I$u?B %쿶¤?V`?,ydpCq?ʖ|mֿzȿ      ?3}#y?Ne'⿿W.)?nH?0?b?8?D !s?]>A?&g,0o?hЀUp8ɲC沝\(7C6$VEi"?НxS>|^!}?e`a?Nb?&x;'ʻ?(P?Ul?c2)q>ZS?g\3>}+GH?y?gp>h>Cl>QL>j>:?,%e>FrO":?nDvX>j8^0?fA>u㊿;AѶr$nJA36ֻHw,yԍfۜ(%mdTaYpXQ7^c
rueCv}$iB]>fxҟ?gǉ7?8T4,?"!A?zY>'?Dcɫ>Y>"?$9>I2/>3(bf>SJ??<7u_>=! >iH>?q;>>=9aV&>A
! >l"B>x>wa20;>z%?[?|>}i\`2BiqEþ=Cݾ`tɾ;HyEӚR`sþb@ ?Gҁ~?6w5??R@ɿU9Iܺ?ē?k8	Ҍ<s<V0q?K40M7OJ=/#?T(4?/~Ћnڿf4w?-`x?u;3oͿ/\? 8ї-FӿD~?^a?A>.2ǿto<6L?4G?Ut?]F2ſ85~U:m?8͉N?aӿ      ?V19?-VgV'ۿԿ/B?ہ
RĘ?4?%[?4?4tUt?U{2(?  n?OWi䰿k97x^$:0ɖ+gw6"鋿(5e;)F	ߐ*/S?o>
?XR7T?Yٴ0?s?ܬen?ժ>>=\T?B;>I=MI?mr/=>-]wl0>cz}}>;/X	>y7&>'1<?srj>m9<?/I6>;k31?۬b>GriST^-YlXav" >$u	
Y%T򾿂̅?_HOS>o'Nl-fa/#"(e?|ŲEE?<')?y#?u^+C?cb>)?}֣1>z?JV><x>e8q>fs?t ?p>$ɀC>++G>V@aM>B>X\A>V>ah>L>WÖH>4~b?.<_>QH&Z"AlA	~rQž/6qǾu폟ЛA΁}Af_žiԞy^Slq?݊T[w'aM	?>5ƺ?14ƿKyxl"?$vٿrf?mS?c?5q9PzJD?G
,s˿8 8?;?
xbhȺ1cѱȪn3N
"?s@?ϐVSkw"?KЩ㿞u%?K
4?mظx?Ϳ-:ö Jj?P~bʿ      ?P}|?$Ωѿ񊍼~*CA[G?DR_"i?P0.i?~j-6	?a?5؛'?qAK[?8P}35<,?D-]F.(ų1zVۂ}CP3yhO8ѩkj+?.CN?k&(?`?LM4?8L?=eU&>Y)3?yAA8>5l^V*?ZJ?QM>e>9>0Jڟ>IAW>&i O>wS?$AX >v?\>1
[v?	-1>JVdؐ>\dMs^.f T]E	~>B3z:>hkk3N+{j5aA#LJX>z kΔLa5ZYBM"}?2B(?,L?0"d?>>x9=>ْ >HWB>>JF>/g>y&>'"g>r `>\|!>.?(>L}>+Yc?>[h~>yB_T->3!ry>!Ɛ>*O{>FqUD>ev<>&d&>g}/a+i#>	-ri!`¾l\>?2T>ȉm{<y鯉F?                                                                                                                                                                                                                                                                                                        ư>                                                                                                                                                                                                                                                                                                                                                                                                                                                                                                                                                                                                                                                                                                                        j9R?ܙcѿvaǿ-?w`aDGX¿<UEf?M?/?ENܿŒ?Zx3?=@O7!?&*)0?E^xDdPg?-Z6zkYM?
v+?Ȳ1jm|Þ04yJ&zOv0H?<p~A?/T¿v{ݞ? cz,]v?{N̙?      ?v]h?Oj֘:ֿ.(?[=ry?}\>ˆ8o?A]s1@?Ŵ gc?dzJF?w$@_?@(-a	&a%a?7QLQ];*Gcz(UM۱
BtW1"`)tF?yAj??Smh?/}֤?=9/n?ñT?.>ek;? 0; ?_*԰O1?@O;?+yrDp>@Yc>^ё>nxV>Ri;"?J%9qw>O"?{T^>z_3
?	,[>%fzNpba{>GvU+_S0xJ)B˾0mÌ>@/)/ya>}I̾	D/=hZ.AUN>:Li'9iwZA| ?q'jds?1"4?E#Ӻ!a8!?,fE>k\ٶ&?>Wd.'>Uѽ33}>!RXq>6me>߯/;>ί9^>J$>@_L>c>Dw>
Ц%d>	"rc9>}oq>xG|}>ck>C}݇O>jÆ>Dg>}b;'>֯VU"yXXA]EH>d"WH2p!>8/;:UvSV?t:p?y^.ƿU\+пeH	?$?䪿u=Jÿ4`@?]/ƻJL5||#?΂h?G>m?Iq9³?_H˪eѿuY?X?*+JͿ1ߩF?=t{ܠMN?dS	ÿ,*JfU?0?u=	KܿO^iCȳ?]sZH(?      ?3E?_8g8nc$L6?i/ؘ?>?ׯZ?(nhL2?t?V=?q9 (o?^,mr7JT,/hJj[&3 $o9ȒG?Bطxo>,?{u$/?DIT?b?t%Ek?ʆn?դ0UJ>g[%XT?(Pg?lI?`+!?",>@X>#zJ>+.k>;?Zվ>oi8;?L.>	>E$][71?4>sjU -$/r0g-1
K35쾃Ҧ7Bs}b>YyX|J rfӧ˘#Bggjb!1ܙ?|Щ?{ՠ:RX?	&<?r:SJC?@Hǻ>EO)?d]k>_G_M?}1>;J>RM>">O?_Y?8/8qV>%eq$>(+>*TfV 4> |JƑ>xCzI>>bn>t@>*>?&uT>WI?.ZJ:f>r`V?[yŃFI64%1Iؾ#&G=ܾFlFPmI1Aq*=j}}?7u?aĊyɿ7пZp?<-pdσ[ӿDCR?I>?'h2dֿC?#?YпnW*)?!m!7?SSpɿ£x0zr6Z
?1t~yĿAT ?"}m?*W5vfN,?f+ܳ?gE|wN#e?HЭb
?"m!$Կ.᛿2P}? o(˿R1ڹƳ      ?QM?u)Ad'ҿI<y6<L#?#Z)*~?vB?^Ch?ȱ./<?Vk`?e_}8A?!P[?g/S7&혿dTctH,|].8?|ȷґ}Mcu4'3fΈ?<	?d<a?'E?Do?略~D?h)	?F|0?-2?)J4&?`?:7 >QV>J$Z>hЍ?>%}?	>>%N?B#i>2{A??΂T^>cap*ЛmLe,v$'DֹZ@nw%Hyݧ={'ڄ9:?rRK*ؾL!48 /LDRe
v	`)H|?B%N? ЈE?Eo?~@S>߸>@X>S'>^CR>η>P.yp>dKs>$-)>iUr>(|i_>b 6 >"s^>{I>l)@>[bfU>x>X'>X>)q>-VZ>L+'!F80K̓[^hϾPy艰>ؾ[JڶñUо:L=іjC?g&L?Ï՞տ|TH¿0eưΫ?Nп?V턫?=?:Q!z׿jJ?1M?p抱l2?ϫGi3Anmb?~@?(Lsʝ]+?d
K.rR?w2`c?3HXvW?j?v6j¿7P?oJ3{b1\}7?      ?BVe0?60QҿieY_l?f6΀?:>9eÉi?+c)XU` ?=|_c?:z(?R+Y$&{`?rʄ4KX߾fq4PFتVP8ftD,KI;E}?t"+C?\&E`?	?ۙ9 ?Q}\H?,9>Rxb2?fSj>{·,?j5Ľ>\?Bf>yi6=ف>$'8>C!>˓4?l>o?7I=J=>Za?>g	c7ܷ#Pf	|>R:ܵTgy>t#SmBS..:stŸMNfTA]>tn}0!aMMþqo{AS?sN-'?1>ǵ?d*3P>;>	U3>᧵Y>NZM0>I>>2ې>+߀U>>`^=s\>2zow=Ez4>T=^(:>Ȣﴓ9>^b)> Zf=^H-a>^Xv>|9,cvp&E3e8761fDI\kd^B>p7ekJĊ M=G?"?{ο\ֿV?t;Ш5<3n45?[f^"?<@bҿX?.Rh?cnſ	ρ???7pʿԁ\ReM?LĿF-I&)?4ew\,]㻿zf?(#&?'2@$࿦z՝?o?뚱Oп4}?`(I?&cEX<׿xg}      ?U?'pWѿÚ:͔P/Zw|?I?^?ƛ>ep4;j?z!u4>A}=e?:b>[b?*r!E6gھ׬psJbPji&KBx:dll
uYU?MΠǳ?m?Ueb?1'q?}<)SjG?#gi>U22?}>i.|,b.?g'p>h:><vge>b48<`pg>Y?,*e>ժ۔
 ?|($>	?!Մs>vv3b+D%⢾tKN_N0&\^5FK蘉ƐtPHt8*ily:*Mנ9ꟾ1&2͹)+JZM}'T9 kSbK|?AF>8\>C?^#1>m3>vzpg>-3>e56>Ϟ.>D>f9>L>tdjQU/1HFt=$#S=_E=do:0u=%0>{}U>95A8=<Pc`=>1>'O<C">E+wJ	* k׹hBgѩKvSY=9J+K{ړg#MX<D?9f?\-	Cڿ\fϿ

Y?7mܿ_bvbXA?TWٿd,Sv?f?/HPܿ9KB?`09?0ÿqFR?Dv$?+]ȿO?0
϶17"b?gEC4<O-N{?B(<?~~uXnvS0B?Yb?P*ɿrb(R?      ?+g0$?\i?\&)?HK?O)}m$?Òv?HY.??c:s?=N4?\&o?nUĥA@DOx,H<QZ$'1>o(a2?<vF(G?t8Ğu?.an?>ֻ?22[gk?'?p>R?.o?_G?J	?,Fô>$|>gH+y>ΗOQ>wV<9?$\o>U~9?-|j>]W0?s)>2㼌承]8Npsumqm7s$0r:%6ԅYVw zv0Xgq#ىl!G>]ժO>(R4jS>Bӥz?+VZZB?+yC7?d`d@?{f;4>>pcU5&?Tܭ>?˓^>HǠ>إSԢ>:1?4T/W0?]ÌXli>z>lP>*<>%Z>>HvO>k@^>zeUγ>	">*Ic>@ǅ?{0>=>^nUPsH]yDOcѾqX47Ӿ12\NDn_Dzi`|\Ѿ >EI}?                                                                                                                                                                                                                                                                                                                                                                ư>                                                                                                                                                                                                                                                                                                                                                                                                                                                                                                                                                                                                                                                                S'?wdѿl%οW>?I2ſ N@2?苽䤿t24߿Hl?3Aμ:?ERֿ:2?N2^cp?r;10?,?yNſ8Ӝ.?u\zBߵC>?0}ꮲK?iuE'! 5?M?n'	ܿĈ"?
$Kh?OVFӵ      ?$ }?X=ٿBv}?Y^흇?.?mF8p?e">C?
\3Prd?*I?A4`?牋(YTb#u$cNr݃"aujy߲T47?=v[]0??vb?}"?i.;ؗ?TIT?'g#>Ax1Q;?rU?ym_1?1?q枬>w4&b>l~D>C>JD$`#?ψ5>2#?('>a?hpʿO>h]`	s<}{!PMZ0Jq:dEU|w,[|=ؒܞN}[ꛇv!CkM%Z1z04[.HDEhiX?x7DFܑ?o șK?>g@?=?n!?ܶ22>RB?~J
>Ş$.>md >ES>t&>1(I>X>+,>cEZ>1,/>ıCl>C{d>qFvh>;ٲ>ǱX|>WS	>]ށ>kRq>"\VY>R0ʥZ@zh	]b&]o@ž~hfcKQjrѾ".v&/ ^ޯuǾC9Yjv^?vB?&,?ƿ )z]o 9?lh`V	ٿX	qb?k ?61ؿF?Ֆ4k}?&>qCſ~]F?twXƿ'jYfj Ƕh2?yPM;ǿR?)4?뱿;ę?\\z?a+>ῃTgN?h[?,qrEFh%ּ?Z̿
`}ec?      ?/j?Zҿv¿H:bT^?>xlw&?C?@KRn?MO<?[)4c?I:?&
sf`?HxT0؝zuRma1)?nY$A؋~YZlA:!tYσ?* :k?ϖD?1ua?v$-?&1Q?rUO?t8?ײeLf?dWA0?8N?s>@΋>i>C?^>ON"?^YI~>~V"?U>dA?NA>]Chisj,Nh;SRpU)$ '=o\BA3&
s+fw(DC*
wo=<Q_dQZqVmL΂ KIDgXlLU,-s@U?a$tJ?WD?ϣ{U?){Z>+Pt
?>7ûo>1ni	>>NG{>bڹ>/u>Ԡ0>Zɻ>gYr>4>>>Xe=,>Zfx^
>,>G >O>9.	f> |>!!>x>"iѿ3ԹwSp}o_zRWm侯ՀmG ̵h5eྵ)|#W%K?AX?VtYɿg_޺ &?$AW5??%O]	ؿNi]?DW	?*9fPƿQ?²P)hnꟿm?/?-2d]"ÿ6б?hYz?wS??F(ɰ6r?UPo TJm?!b?ÿi0b?ޛƣ%?      ?02G?GjXӿRd5G?zU?)/P.?1jj?caG5?PZ`?GO@?0Z?g%W3#2˅\Tf|w:{{F;W<\9S:Ȃ?󟨸?	:ioV?h-?4c?+)N?,sPd>ng*4?O]4?Y:*?/,	
?@p>CE>ٞb> W>l,sRi?/}0>SJ?kا>^sRM?:>JMEUhhGQP48!"tqҾ} M<QB"I\lcBpL85vZ0|P̱=㾨{IoVSOEp"
3y,OL?Ʌƛ!?~̂L?x\?{ϑ>ʾE ?Wm>Af>R4Ы>Cbc>yJ"i>S,<>R`j>_n>&K>)>/%}"l>>(	>+L]>ևh><3{)>!->0pdt>Vk+d>Gf>3hǾ٥1]ߙ8˾/tݾ`Yͯ(	l#\6rl+{fƾBxǭ).6N?q?F?ԿýMV?>UCY>?`}`пl؊lcT͙<v?7P@?p&߿t?2!2_?߷ׂ}?]K>[!Ó,?Eڲl?q༿J@?mx E?y?*?GV"G-?OmQr?i!s?\^wE=a?ݜ
D</v?7,s$      ?Ls6t?ml-׿=m N} ?0~ޅ?Of-?D4 n?iG0a3?D%)=c?,@?.O*^?LEG^uXƞ<*3aX6S4Dcz4!?<2x;Tqm?a;C?c/ZNtf?ٜ?19Y?n2R?.-́>a538?X ?f /?[?@'>V2*ʅ>ҙeZ>JS_>`%b!?jffS>f`!?rD>Ǐ?ɍ>ńOGp ok=V#&c߾!2t!6QksP&+`ݾ:'@)&iV ?LݙG|/]i'=>pdؾkglQ?m2?zo%?]"?ef>3z0ϓ?s}>K>e#	c]6>7!XuƄ>|> o$>S'*70>d3UM>wNF4>֞;v>Aʮ<>d't>,@G>^km>2YU->3q>StEY>T>#E&A>0:FX֭Ӿ"P=AY}L^pʾ"ܙ08hdr";{c ֙59KPU3(<X?                                                                                                                                                                                                                                                                                                                                                                                                        ư>                                                                                                                                                                                                                                                                                                                                                                                                                                                                                                                                                                                                                        ȒȀ*?7п˗y	],?r@̿/ie7D?-uqÿݿ9P/j??B7J!Ϳ?ES ÿ/?c?'84?𝲿a΋?2j9	?M3CK"4㿙:g?Tr?ZϿr?౑#ȿ4JwY?      ? ge|?w1Cտvs@赼?r?9PO?Z8k?IodF?w,Ab?U xG?r?)]?%נ\BrrMlMF*5߀j"ECz` X?2T:>q?/{N?KkI?N	?m:up|?	=!EN?蘗?>O&35?}?ހ,?׬$PX?n| q>δA>>>I>%#W>g?<y>S?R>MD?>zrSjD<PQB<U+^4@1Apֺ!_=s5Ohk"IJ,WZ9rՙ
CRNi"W/.rx)P["?3LehL? Ya?UX?\ ?nw>y ?\B>Չܦ>q>(>_w>n<PNR>ß=Ĵ>*7N>
K>SG>Lɸ>5dqk>91>`K>,>풖ix>T.զ>>yU>׽]47T[[;侇CT^ ޷/mSD]Ҿkˇt&F,:ɘQ?0V?\9U˿\*򺶍?(,vn?ZYH˿́}xt?ߥ,L?ykɿjĚӿ?mwS?O	<öQ?i!I֖?M?l_?bc|(>?SǺ?ães3?I9wFܿ0n?@U?p'߁:+󯿙)jхऴ?f9~3?      ?X<?K˿ B_c<?u%:x?D]4?Ӿc?右.?*:f
[?jx}_(/?SU?o-{wrS{+ZfrO}0?R+}ud>*kOvj@?!/^Nݽlu?4]?;{?V3G?U$U?˳=?=Iߧ>91_(?XY&Ev>6q3 ?P]`+>F;>>c>	٧>or>>I=?f->fAޟ?eIhzh>3f?F>iŀT2}i 'nBJ/Y10Q́#Q3"qǌkb25"@=RV^d	㗻p;Gu߾?\hC#3l?`փE?jQ6?qLaW?Jy>h|>e>6ͷ>Dy>qA_>M>̹>mWL>ي>6W3>"3q>#>Bj;{>	<y>rk>*ܡ6>?@ש>6a>8Fіޒs>@U">~p |J>#1:-8/1w穭/̾<ռվվ,n͠p>f6rǾƏDC6Y1?                                                                                                                                                                                                                                                                                                                                                                                                                                ư>                                                                                                                                                                                                                                                                                                                                                                                                                                                                                                                                                                                                M=|?\տ$2ǿ8JY?޺пO[Ͽڐ?8V?ͶͅoD?þ?)[3ԿL>?Ħ3ыٔU
w'ߩKl?wwj?a88aſkN?jݕl8Ѝ4d?dscz͒P͈?.)?91A^wؿIvH?b?~?4(ȿ'̗?      ?绻?E߿A"vY$jYD?6@쁓?0:?Zjrz?l+?Cp? 9?vT4j?\i)Bض?za4.sWX䎿??p-r.dvF?e	2(WK|?Ͻ?ky?'?p\?4e?hoemh>֜r3M?0ۂDH>[(IB?* H?(?v h>shI)>INaA7>Ex>J9n3?7^>p"4?4\>tL2)?DZ>\Fcf4V}jLڛ):yQ*Ӣ]vL^3{0`%[q<ϥfR3Hj@oy,BAKD|VJ?ɹVZ bs?L?`C}2?ޖo7?]Swɰ>̃ZP ?e\+>bow?q>䈾>>HL?S<?l">ZU">z|>g'>5|>QcYP.> ^Ne>pv>A$%}>. GG>Ȟ?~d0>"s\hU%Wo?=GU#8ξSjy; := I` EoH/ 1*~Ds?g]J?5ܱ пW\Ϋ<o=?~$DѿI#q?2ߍή?۩̿Sr⿓|U ?[Ā?YտB?m/=ƿl\??oٿ?J6R?O|*u\?\s삦Sˮ?=c<j翳Y?\iZ?!4:4տ	H?aW¿#B`?'[}?      ?'?f0ۿX?O	?%Vԉ?>I1F@?0+r?ES&5?\g?aj{>?fFb? ~m{?$Dc,ʵp2NB}Y=LZ:^d?Rw'?,T?Kj ?/?Ҝ?%ZY?\xCf4K5W?Y>?IO=@?ˀh?Wb4?)}+e?7>@[<_>P:>'$>r%*-+'?JCK}>Rgء'?YyI>x,}O?FW>9uu,O1`r=_ cc& V ^&E_kF+,@l{XzwG3to^,Bw"hM2?Ro8>f^>g{?H`)W?Ai_P?7- $?F>~S.?йk>ټإ?: !q>/N(>,> >";>--ǌ>ù>5rҕ>a>!ɡ>\.]`}>C>U{b>>R|-)>$>8k>To>G7UC h67k+S,"e~	<I>`1PLj5խ+P~͙ ܾq ?/Jcb? p?	c9Կdݜ ٿ
,?ƿvcqʿ+kR?R&ȿܞuv	Q;:?;_N? Z@Ϳ=_^^闦?Kmcm?kz?*ʃg?.fn*˳gf?1Ϳc^1?p90?i䦿̉?ʚT@tAM{?ճA?lҿ{o?!jk?Tf.|?      ?0eW?6E+ۿ9lSÿ]

?cJ?i>;~z??ccq?Ɗі+?YJ/'k?5~~j()7'umx"w!Ԝ<P2RgRRdl+{^R?7|+?GLkT?Pg?a3h?mZNb?|͝c*>YK?rMN>>.@IB?F>>wsIr>+R>jĔ>\f͞>\6pR4?>{4,>4f><5?H'>D_'h,?D@>9	y~:p8@gJf@j ,)4s>hԙᾨ4|#p>9I̾YZQf>ܐ$_e%${jJuɾ~B?:K%?L;>f 3?Fހr,O>D=?IWx>jIS:?֫&Lq>'y>사e>ؖE?e;T?L .L>[=n/,U>u =92b*J>$6Qn=9X+l>D86!>RUyZ>MX"!!>78n"?>?DʘO	c 7#jQTSsѲD`>wp]87:ƽm__spy6Yi?ni?o岿oj+tD_?'0BʇvĿLFG^?NoTҹ?w$俭[G?<D0G?%w?2Lѿyť?HU?oހeF˿Ĩ?Zq,!ʿh"(t?Rp?Lxu;aIF5?G꿅ym?$[PO?^8N;mܿm?`?俄5?AWt̿      ?G@?-=ܿ5!Jʿ'{0?( Ҕ?&E? d{?w?&4%?}Jpq?p^ۏ0?9w1j?hAH9ncogI܊Ox-N8v^0SWok@`?@c?wvZr?0?pj?͍g?X$>G~#O?0>XOzC?f?6>V>v>rE>@Fu~s5?&kЮ5>[5?^>55X
>N*?ء"-X>ًT9hm`]'elR5,Uljh&YpwjPoh`K>/q`76o":S?MgE?P<&'?;?{ɲ>6V/"?>%,8?V#l:>|h0N>&Ȣ>Udx?F?a^>V">>꽀 >jԞO>nG>ԒQ[A>NA7Ĕ>;iǫ>ZdQ>zb_SU>L2wg?>܏F(Uݖ"L4<R&ľG#5()YE!zƾ!e<CivՒB4
ƾ:.C=p?u&^x?wݭǿwUMF?Ӕ?jxƿoXſ?iֿM6ia)`kk?2,`m26ͿsBE?]W?q& p?ɦ5Bp?Tw3Ϳ
 q?I?0ov>b}H^?oYP㿘JL|@?u~[8d>+ؿյ?h`m?Co@1ǿ      ?ҟ ?VG
ҿy/ͿPEj2?|n4C?4e?k 1t?4蕟7"?^u i?Y,?=pSqc?xԡN!7Z?(WΈǅ5I>?NrPQ[蛿-wz33?>YՍX:?fU?|s+T?Kl
?f\O?|[?_I>KOC?k>i48?#j%H>a>T-">G*E!}>g>>bHM	*?-<E>Hܫx+?=`?>|!?ľB>0S2qXZMJWU{/M7b{cZ"tz(>f4CjkCǸ>o@ýFW|)kQ;+;j|JA-b_5D;{%>Ȅ?cj#??$0*?M>j}Qv?c.>?B>63{ZL>׊_>W">>E>$TS>+GB>M3z>wK>tuU>w&K@>1LR[>jyJע>bl>A@P>	g{>g8->xIN@P#վ&PŒ=oо$B){̀&
ecdl9&RYS?                                                                                                                                                                                                                                                                                                                                                                                                                                                                                ư>                                                                                                                                                                                                                                                                                                                                                                                                                                                                                                                                                                                                                                                                                                                                                                                                                                                                                                                                                                                                                                        ư>                                                                                                                                                                                                                                                                                                                                                                                                                                                                                                                                        t+?FǂsA̿S9ѿJ}?ο_޺JB?lMQJ?`&p.?&e?!ɩſ0? ͗˥?daᵿ	S?OK;?X`8ڜ6˿ `?M@?F?s??Z͛mWf"Nh ];?(??Ž2AӐ.Zp?%:݋T*l?      ??Ա׿hvvƿv?)Gsz??hb>?j<x?'7?UGon?T`??f?.۴zLZ/aDXܧ>hlVnyFbܨE~"Dˎ?&r?(,s681?pH?>QR?R<Db?E0a>LTI?Ve?0MD??e?.Z%~>1{>T%>CI>R1?(>02?6wWs>'&?W=>'y8-'վ{b)RG溧6>76uݝaTо>RkFKIj!aC]2Gw9m!%hVt0ZXj47?;?(&c?a\><3?8>	y?MI>X?lH>cP>p.w>:
P?V]?&>'6=|*&g{>P4>AY5>7aWD>Icxo>&w>}aPy>oZZ>U[?<">oJ+wc_GQ3A#Eٲ<GAN}(̾As͜92" 'u{<9mc?٬Kb?,>ҿI(տO\wR?ƿ@iпBk?eJ{{Ŀ"Vq.q_?F1z?M7M^?'*W?bOYѿC?w7?N	.NZ5п@.r?$M;hrWU	S?3Ov$q.?=w?97l㿔Nm'g?6_?&{{Ͽ4-?      ?G\B??PovCM_???a?L?Yf!?JUz?yV?>*?Gt?V7ʻq L\0+{ڢ H:+F*3YtB}?Cp~;L@?i(?Ω>c?D*/|?9?xN?ꢺًu?>x^9]?߂m>^9#juR?Sῌ?WiZ>D>_߇O&>>MzC?4e>)D?>vw9?flbe>O`U81} A,:z?S7K@>\-3m3 }.wbYrX`39zUiy|FՎ|o}>>GCᾢY?eG:?Fm$?.c9RM?p>#)QT4?>[~>ƨ/)?c>]3Z>pUܗ>ܯ/?w^?u֨:>$/+>x<I*8>t2>^-y	>Ljl}->Z=>K>I-GǄ>sԬ3B>$5i?pAB`?"1!,j&)߾Xp%?R`M̿ѫݾ1=>RxjF^Q4J۝NiEN"?ɄZ?ytOLǿߢă*
Sk~?}3X6[Sf|?5 B}YK>xտ\Ԁo??e¿sb5?%ձs+3"䠿{9?1+?eJߩZ_~$¿	^m?>6?D7jrX}?y]Bd>To)?EYCY?5n[ZZ}?N'
0] X?l~jи?      ?[@Pz?m
Qп6pŵ$F?Du܆p~?ed?ʸ|f?C1?k?_n^?S35?paXY?ȂC2^lЬT-r~x~~ud6?NqclaY}?nL?2{Pnu?d?М?~/5?7:D?H70W>ɔ/?s>y(	%?<ԗ>>+k@WВ>Y>@N_;>ޚ<k>xAO?
]H>|?al?>~?$V>Ŭ"[_~Фc~OWkFHSiާzzmaf}1z:xNu"뾰N4R=F mWM6ii'D7]>Zdپ|v?3=?ǨT$?9D-F?O*> Kc>l>1>1">vOJJ>fP-d>R:>6̬M>`}f>LvK?>#Gw>16>{>ɝi{M>co>D9֊> [_}>⽱iT>Ųͮ>MF>"
j%IҾ%32fa޺&b/yiJj:Jxg4[k4ttԫ??vŸ?п />A?Fi;hNſrЦ!
џi̝r?]n4ؿ6g7?uo%xK?P{ѿb&QA?-ſ!ı?v R?mE3?vm=pƻdCCyk?ֲ9|JRԷ?ҴƑT[>%򅨧4q[?`Ya?Ә-^2?%rX̿}ڜ?ҡ?      ?f׶?FubPҿ\]ɜ?3ܬ?;flN?>S ?nU'g?-KZY.<#?]x_?(5)&3?0Y?"EHښJtQ,>=F>YQm0;{b[>U?.eC?\ @6?dKf4t?R?^lL+J~?XBΡ? ~qGG?n >b=F0? s1v>yX&?A-1>m>h*힃> W懨>ruy>;$;?z.?>?.>g>VG	g?gya>AV+c[D6L%k OSоzn_˚:*待z#%=Ko̾v60k_K(1]-㾩n_l2?Xz?29>Y?DE?@v!?`oY?TxY>n8)B>52v>.r,=F>mWYw>dp>Gނq>~:>[aR>D@Dҙ>> 8KӒ`> $TA>\C2ga>p$> lO>$0z>SIT>585>:>!?>e'6_e^+ξR[`b57#7UHf>~çPL+eP[E>x}VF?                                                                                                                                                                                                                                                                                                                                                                                                                                                                                                                                ư>                                                                                                                                                                                                                                                                                                                                                                                                                                                                                                U?CNiҿgӿ*`d?[t¿`_п!? ϑtdݿ[;??`|c}ҿAG3̒??ח3,?p?9HcŊGȿ$+?cE5u{u?{³y6?_S<?Cl~Ge忐+?U'?j o׿Ҿ񓿿:m2?ſc	sw      ?3]?#ؿ^Z[41?YD??-}*?6=s?Hk)7?Lh?%=?p溌d?RHe''lODIH1ܛX7>u"nf!8*22V}lܧ~s?p5?Rvs6i?_?]BZg?n0ĞX?9>} A?wA?T6?|L<~?|#W>rӋ>?>KzK>ԨX)?[>К*?bXK>'@6/!?K	I'><,zTtv/hgx]*⒧&ws(f&cv5!"~>eрGl][W=y!:)\xBSusUR~+??/`7?~:3?jm&?kT>~V4?l߇j>a(W?Y>>I>t>['>:4m>2>tQa>̻x>MɪLf>#꽗>gKQZ`b>2;q>~q>!֡f>Us>A#>A(>!5B+_G徶m+aVL<Z%~<Avþ^2*
oglќ"-&^??9ˣĿKֿg/)?N} ư?3N,5տ2o?TТ?;ݿ +91?*um?hv]Ϳ?[J{Pt?
cEݡ,O^uw)?dᮿx̿	H"-?^:?Y4{á?^¬?0.~念v~?k?>ֿWB8qȿ՟?aIVjumǿ      ?Q?@m3ؿ	ƿ6aYN?dq;?1_ȊK?<0]t?*
ہAB?5ӓ/j?XPRB?e?C4%bPI!ZZctҜ`4c"`E,|\gJ?9!?@9e!z?<K?8?d
e\?fe^w?]9
C?O?9?,r&?.}P>C>Yċ9T>
LvC>zl#D,?64UH>*),?z>k;"?/O.>Kivi1|T;`Cd)o}@$ናS$F65cP5$jG?y_kpUw,z]V`dM0-"lgS=?II?r3L?VaQWI+?Kڋn>(A#?W>NJX?${k\>Ё>.>h+E*>Έ*> n>р8>Jxt>cƿ>?J>1/>9*a> _>x9F>eyl>E>}>D\E!%0ȶ. e@\	ᾛp(bכJZ߾3.:Q>p⾽ד3na?}I?J3Sɿ1n̿D:!?3wu /tWҿd:l?iZMv+>X3㿞`u!'?%[?,mjڿPb?X9WB?Dnпn2ӏ?GSM? .D̿S?{?\J¿!j-?0nYrNV?sma|I]?ҍ?6fOݿhb L~;.'?b̿.hۙ      ?8H?[(9ܿ2ɻ:<?&?3H' B?Tvx?=A?K+I'o?'gE?Yorh?X!ŮUn?0`io\2uJ\aVi]FUqw#-Ў?B8?r8x6~?wlY? nJm?-c?\@?fPJ?l4?J@?aѦwL?c3>?{">tD>E  >@	\O2?ǿk>(sP2?f:Ȏ>47Ad'?Hx>u#W'\218fdq2ҌqK0"w4Pl{(u^LqPnW&olfx:B+ 30cw~ak'ڛ? ɽGP?RNM?n_4?%P>X4V?DzZ> ?TO>I9\>Aޱ>s?Eq?[@W;6>Æ>'3l\>ߡA>B㺷C>n3>Hf4>/Ѯ>)y϶>Tf>Mm-?@,Ƣ}>_7j\Q<>DwP8w5OEp9-Lk79s}7 bMR 5cZ=m?Ɗ­?J:T?V&ƿ0?![$?֎~Ɇҿlc?M,?\aZݿ1̲?0fv?NޜͿ~Oʿ7?Т?ԁ/ɿh2?\^οo?1kO?	ÿ𩢿y?>%߶?mxF?kqrRϿBrD4>ֿ;.?|K?
Ͽ      ?\?`ZֿN
?ʿ٥p?C&Eȼ?Ɉf7?u?76?kѥLk?v$kuB=?rwe?/iiBmZiK$yXǪJ{>fZ6Gٕ m̢Q?W? R,]}?Cn?⧙SZ@?^?="?b_*E?*/p?d:?Ҭ?O.(!>KP_>'^>>?sL.?-}k>AlN/?uz>iYo#?Ɠk>UDa^uޟmt)s8t_#xz'(KPG{\+ t' PGm5G7^&b/N>] f6)'ipHawFg?R3<M?B?47Q-?'E>!6g?*ϥb>Ü8
?L>.>GK>HM4>(z>Zė!>P<t>^MsK>^>;G迯>,3|t>b}>9	8ҿ>Hrl>٣ހ>?\&>UxL>QE;7Ub"/R§޾StB5}FEƟf@./BxآloW۾v&(\9abfe_?)?lA%Ϳ,bznN]?;roWfe?3"?њ~7i>^'7?SFeH@?l~ĿzR4;?
!A(m~oW?k?=		D?|Ǩ$̙ÿx-<?D:dYeʕ?6]nw^?gu{翙q?vy?|ſgوJtAƋy?@(s      ?u·?[ٿݯdl?;(p?~4(?F'xu?T8	!?|
AR!l?f/yy2?$%*HRf? 9>avMCwdOF&AdFD kd8);^E?&^b8:?cw.}?ށ5 r?YM3??5/)_?ouI>HE?(ޣZ>ݍI;?At ?c]. >_	d>Hл>^>m-?P=!~?>ȋ-?0GE3>B-#?ha>pA(yv|I4`Ra$T#kXhwW1([RÜ  ݂2EWC,wIK~e.a̅B"F]/fumNO_ -?IYվSoO?=UB?$s.?#N.?j,Fȴ>>\?PV3>ߢ?c3Ѷ>i+n>M'">#ʕz+>XD>̓o>`H">>v̓>QF;>b	5>,s1>9/f>c>dN1>:&G>FZ>Eq1>,vHe5@jg12c^yPо#
VVʾC͍1Ok(i4Ɍh!d?e	I?)DIֿۡɲ¿?{sѿ+*?X8H+#?
ʊƿW}M|"H?|e6OA?ibпIA?\zWǿL)Qj?_R?W䂸FHJUt?
,z?ui	8?c,̟,!I?X.W?\z̿M? v&п3T9?      ?>?C[׿L̢qbJV$?v9?R-'s?V]r?~%{6?9 h?烕÷q@?
8b?EhwApv@?Ѻk*vkY=,w"]~EQ'\w,=?C;UC?+<?(bL?\ Qr?HEQ?99眸l?auZW?A2-><VA?<rxL?Xn5?*D?_ϭ|>jh>è|M>aþ>G?ig)?H,J>F
*?FߢZ>80 ?Msc>]U>	sF傪ƸH0]U7c'QK[瀹M_G*GA[2L0PGTsKi >˖GLz:
?OG1^wȎ?bELw@?%	(?PɊB%?+iC"Ҫ>"}?^2S><~?OCW~>̳>l[&>W<>"n>Ewh!p>?T$>,z>Z˝0>|<F{>W}$B>S|>8qko> _5|>}W>>S>5=>=0Amھ`Z*#:wq3žu	¾<7C(JZ+`Lϙ签pWd?[?=ho?IϿ鏓Wſ[j? ſ+,l3Sjӻ?\MoPtῃJ?O?drŰҿoA ?Dŵ?RVړ0 h?.1D?1E:&ȿzߚA?,?2xȨtpZ?U՛iKx'?P#d?(dѿqqͽ٧8W?Z&?}&\n?      ?3e?ZiCڿnn'Cx?"u?F72?d<w?^$1?!]n?D~2?+e:h?-E"QUP#N,\I]UN<	a
 TqdqD'#p;\l^?Mؿ?%h?(^C?s3Ո6?\)a?mTq?EH?"=Ð?O_??bMQ~?ls{><٭Z>! ]>Py>;tb1?T2>K1?yI>f&?n&M>e>ꗭa|&"XdT	00l ɯ$^['_6A@ VNc۪_eA#ZHZK^YpXE?89?
8?,{92?89S>9hAS`?0N^K>s_]4?r0>~-s>Ww*3>	pQ?bt?d>?Τq>DJ>>BCJ#v>:>hʈp>lta>܈u">>=#*t>lϷ?:>flmL_!Ny&Y475
jtOо= ϡ>*ѾԿXE)4!ldٹ>֟uѾ"'+Qyg?                                                                                                                                                                                                                                                                                                                                                                                                                                                                                                                                                                                                ư>                                                                                                                                                                                                                                                                                                                                                                                                                                pИ?>DPǿnPSIܥU^?*ܓhɿ6ƿH?eI`e[5+Կ n;=u0?t}k?zShÿ4R0?d#g?;J$?tDm?ES3Uҿy(ÿBly@?LpW]?b2r[ז?Z_J࿓bf?+܂?$$q¿ӡ膡ٷ=re?0Ў8d3?      ?]׶?Jfl#ѿdK<?M?+?}f?yK'7+?CZh5^?ͧω6?X?R͕w.fqH8R|70Q"[hw;~{x* ?W nijY*?Heg[?'$	a?9e;?CC[?mgjFG?HhA>YӃ90?N$Y>!%?\n'n ?"f9>`>)Yre>\]>3Ġ?=eKf>Jx?|X>.F?kl!>*va兤APIԴo!.pھb?a꾢S_v% #%N 2eYHRA/;f'	xx"LWm>Z ޾zn5z?%/qM(? i?)H?&I^6>0c*> >8G>F񆗈>6ɪ<>E~>?mᧀ>>@;>	Ʊ)>	=p>73>tp>?;-;>Qs>e>
q>%GN>uD&>s~e>CE($) ɾәkߢ^I:U_:ߑa*[\sUB?.kʰߕ? -5{&?_!dj?:쾿ѕ?B&C%x?޿#$6lc.8?_f?^*lٿq#?=b?Ϳ̭R?}?pW(W<ο>ufa?'U_O?h:<7P]?#6uw5Q\+p?2⁫?cGA?ؿY¤V3\ in?Q"!᾿L}Eu?      ?p2}?
d-Μ࿯̉!ÿ.0)?<ͫ<?x3YF=?>ѹ?6?!Tvu?iS@?Hn>p?Eed9ӹvde, ^Nk(7i4ڣatZ?YϳSh???L?Ѷ?{Wô?1p?CM?/dV??udJ|K?JZJ=C?-~>U>1>Ye>Xt"_=>?iAS>XU>?:>>˻2?8&Tp>s=ҭ+k:vf9r{|x53oƇuG 7!c V@e. "7qiXO9>Br3vg!{mdt'YLepAf$1?<,K6LE{?=z+&0c?snkU?᫘FE?=B >$,?F>6!?a8>>[M~@>Y1Lt\?iCl?iBm7><qqw>[>rTȊ>JK>HQㄟt>t9z;>)X>;j,M >iՠ<>̂S?dnRI>Ɉ3Lqa35HJW6j0VG-H:3vSK[lqaG:2߲[ѱD	jH|?M|SؿV3qՇ??-ԍIѿ γ?ڔK<U(0a56?1e?&GwAio#*JqPڵ?\VJ?,(8?Wi	du=I[?F?S섃?lf`T-ѿ!FڵԖ"?U7DE?tu:Vʿ%X1^/??      ?p0?+Ԯ}-\AhdV	Ǔ?!W]h? x(wt8QL@>lP?g O8OaE?V8K3B?*]Vt\] Vs8.[άCϾPR&&2rtc8={Bc[`D[Q?J篽ɀ?sZ8@Rbf?l?+j$%?K18$0?>nÄ/h8h?E
c8l`8yjca6B 87>ğ0 87>٤4P8_k6>>dW=8W:mK1mN8PmVFfߟ#SCޏ=sTj48 @38djBREjG4Ms)m2k3!88 U]{=fv=?G88puk{GYޠB>UX7J>ۋ8%8H@bv>07r̷pF7	MDWWܰ>HGWWܰ>zСK8jfp~7P]-07ty^0$/zkF/9;7ECmF#Y$ՠ11@WWܰ>E#{>χ7P
y
8G 7VԾ=WŌkܮ7,VԾKo!R1zW᷽hA;H>J??K.ѿ5O?ֿ9:?D7綾=N"=Ϳ|^?msDP翊>?GKR?A< n?'lh?:p/ѿ딒?R,U?ˮQkHg̿bMC!?%.`֚\(gÔ#?E93tqU1VcD?_rkX?}wMno&ײ?oKI?u{ϿXsŸ?      ?uRɢ?$ÈFi7Yb?.ٜ?Zl$?T?r*7!?Kt?WA=?qӈmo?RBm_?r-vO~B;
	^ 1j/ψ+PVVpE#0?T?0;2?d?iE?畲m?w?Z>S?(.2н>U-H?Rbֿ?)>"]N>`DE>

>
3z:?{ڤU>coV:?uG>YR0?|-C>rvSmI>ŗ6trYHqV7Ӕ;>\0ד-ƌ> GH񾺒6JXQ[0Ahrh>I7<*1s^:v٩#$A޾QI?ԩG?{
J旷%B?ȉ.>E(?򇉛>ic?b˲>3S>M*U>Ei@??unXH?^W/>XϾ;>8(>C`7B>PѸE0> 50sA>[H!>67ZQ>K>>J>r@A;?m>=G`ήݵ>ʭ¥FsFPCǾaph>UTXFzyA>ZmgǾt4L2p?m},?Fѿ!6пe?:,0PÿSl`?W:?mn)өl?V?JR˿lq?:=?ۃaΫ!#wD=?" b/_ǿ6&v?xZ ?û{R=?qJW9?]pJO?Ľ'@?HiNoIҿ~+{N?f蚑ȶ      ?$?LWٿbĶ=x?)?Z?p}7R?۴P4t?vKW!H?xz	k?E?m9Cf?}F_Ռn3j9@}d@DUqN$8΅y;`"[,&lS(!? 4V?%/<?]w7?	4C%?~Z\?^	r!?֞+pD?1w?/O:?cU9?]r>B?jz<>!ԗy>V^n-?c>wU>I.?idx>Sߖ$?>rŒ?wȧ9,o^` $63zσv<
# z 1I+P`*R=2g3h[JT;/.q27g9?;KU?ͷ7U?Τ*?tuf>t>??Х`#z>q^	?Y>9>'κtY>O%0>?O>.Z>sa裱>n?>79w>W$gSݨ>0|m>=`M>c>>T$>3*%G>0\j>^CŒzE>@eDF+jU+m30'ˍQx-;侴)</|pξ'GE$ib?3R?sǢԿbbk.lϿP߬?ǿ(TE0Ѹ]?0\w.bu\ uJȴ?/?C~UֿC艄=S?|,?|TýnD?W(6㽿:;Ͽ2O{?t>i? e[s@fwG?Z)ٖVt?ч!+?IF`ۿo!n?z=i?g
ſ      ?L?[.ji?x?:>GS}?$d:?$lw?@ǣ*?bܻq?^a|	)H/_?)МT	2c,8=kw(7=m@3}tYA:?Yv!?J7D?7?Jf
5P?Sjq?ҴH>?+J$W?a^> Xv[N?zC?r.$>ĩĥB>v +>  $>6iF@??dsua>R@?7>ix5?12'?>7&N|.,>dKty[$( ~jԾ%Ru>;qs龲y>z%~'ѾQ/u]ץ-t̔an>Y| ȲSlL<AGƨOȾaݩ?c?@χQsPF?cq $>/?3!c>MD4#?]>NFrԉ>x>k{N?͐n?m><8XM=<Yos>: >N.pt>C@޹=Wr7r>(V>2*Br>g.>h^?ej>kK/sc%U>_-KVi@.e~uj2>9XJ>>Z]3ϔBC2À?                                                                                                                                                                                                                                                                                                                                                                                                                                                                                                                                                                                                                ư>                                                                                                                                                                                                                                                                                                                                                                                                                J??(ٿwkiٿm[a?_H^eӿYcwRѿ^i:Z?-{ǿwtwl?fƨ+/?7sJ࿝Tt?<(?&N'ԿL?\?u	
Zȿ*O?aWq>9f¿w7{?&Hc 꿱
? ?6a$Y˾?c>'?Oؿfx?      ?C-Ѓ? F22x]P?]!X,?:<6?9<%z?(@=?6$Лq?C#Нo*C?0ok?M>G򘗋GVx[P!*ze^Ř=`0fZO@;?^.N\?kc?[?M?yd?xW?@L?i=?&چWaB?mP?yq6>[>>r/.=>wԪ3?.|t^`>2J3?#X">L )?>*T	8Jrڹk"pTL$.<R+ Sr-^)'*wW#AMS|<k@. >n5d.ƋJR 7]10/-ҭھޝ?HgB5?:Ť8?+66?j˵>>T?ݭ`@>N{L;h?X$:>0T>/>7?O,?O|>c>`fNH>TV|~>\ >POl3m>~-6>"4-+>ƛX>B>?\?BPv >lUkė7eݎ Y>+ox'q?)7[%/bԾ(I!=mZk\.Ǣ)1_.		*Nt?~S?[2^̿i?8g? WпT4O?.?#$y?
3?YԿrJќ-Xnk?'	(ʿ~v[hĿgx>?	ySBQͿr?l|j?Qƿd?<ӽ?B	65?H]5?YʱrۿܡfK?Zп>v{.п      ?ؘl?lA2mܿY1ſ~#2W?
P?Zn`9C?[ZV;z?Duyc1>?z*׮Cp?~J?6\5h?;Lя`<)|V\cMF#0iC5ŋsQ?Wݖ?aɟ@?G{}?'??(T&?9e?˯K?bL?G?.&A?uA?4K>x(D>>mS>r3?&4&>ּ63?Vi>\(?N>Fc(dl2Gg"/_X:o)-]1$n-&%Y9OqLnMgܵ,>* #Kj͕e]b%[ZQ־?5g2P?6mkM?rQ7?15>?E 9>ہ?_M>W>BFXo>៼ܗ?ؖq)?gO@Jj>9Ͻ 8>*W>G.>Uvò>*}gr>l'>A0d>=>"v#>I+Zڀ?dg>}c NR >eX ]9sĶu\vr+kbp9e%#]tùO&Ø< %|n?7Q?{ڿr|ｿ9Q?H	ܒڿaߟS[?QΉcWĿլ{
 ?8]?Y32ҿn2?ppmىSsmv??qHR__U<+VRPv?L$;?+%0?q-йD\L3X?fc#Q?@jyԿij?N¼TɿEl(?      ?1C?	7TgDڿwV?N6?<=q!>?I%V$?Yhq?CU2?TP3oh?|*7?͌ewd?E7ɧ阃#R$y7~8h<[·备~r?n43U?雞^^?j?M!?TD?`r?rDސqja}W?KB">mc66B@?*L ?hbq 6?k?B@Ll>C 7x>%2UV>}>ʭd~&?X+q>
-&?XV=`j>?]g, >[u/8?m OxQ<^A(֛32 g%=oebMGŅU}fE{T>y]P4#@?f$#?5и>e?A%겜iP?A=?`S68%?\$\Tl>r?7IJ>\(
?7@pը>8>,'ma>
3D_>P(>)L>)bAA>Њ:4N>(Y>snOJ>sBF>#Lt>x>&pRP>rf>x-m%>/ge>(tCv\).+i$Iʾn3+ݾd`^PվC~*w©q_ƾ+WsK?a?枕=Qʷv(?@U?yIq(?ǿ/yÿ<l?lVѿa&Qh?MU:?";jix ÿ^Ct),?e5+M?|jXgS큻S?:X80c5ƿ,t?gsOu?\ WLd\kRh{'?<CݿmyQi?xl 8Ͽp5o?<O??[ؤ˿      ?+6˔m?U!-u˿wFĿ1?L-p?:d??$d?KJ4ʹ6?&]%Y?T\:?ETן2T?G)?qQ`^"E5y~ToY>Zk.?6U¨trR
w?:1e?ѳu|?⠯?u&e?["	F?U?qk-?qF>>=j!?)9?
h>~!D>S/L>kĀ>ǆP?,*U>S)$?K!>,S?bM>|1KrZO}%aJB' Ϭi{)RH] {qqX(~^
7Hx@7(XYBJwbb65S=Gf4t0z	V	p?QEAD?^^RP9?3f?N>ړ>iS>MY0>צd>d%Wд>pB>H`>a!>韣 ׄ>;z>a-,>׭:׻>	5V>{v><dx>%l>%Tz>+{b>)>\ⷱr>>|A"XsyǥgA	1(HȾ{L*9qҾ>	?ܢ:O%L`Ⱦq\&7?OBND?ŷSοFD~ÿ2?XR{_?s8mڝϿj8㶿*BfA?{)t+?o?~A[HǜӠιL+50>?{Ao?Gؿ%B?1:߶yſ␋E_?ah?+.%.Vҗk'? 7wqa?S?BNccĿfʿ]	Z?:Vv?T(޿      ?i?'"ڿA8	sj>?%??:%oDt7?a:u?\>?$7y5k?	B?Ŷ7!e?oŬ DȓaJ\shnK摮c$;pǵv?߆fwX?BԖ1x ^?$l=?2k?Mx`_?Ξ׬?E?vQX?Wˉ1;??LP^>nǩ'>Bl2C>Y˟)9>'M-?>bQ>GN.B.?Ϥ*>f'"?{y>8w㞱z=g²C%a%TF,0Ky5}l@R+Y#5	Q[ h1	miyBIEa}gug(	5j[ta̱3}[Ro?:6U?F.?0qf1?/?O/<>C?˱S>)gXd-?Xj[>lUVZ~>a>9>9@F=>fP>дs>64>"t>$qЩ>Ev>"Edl>DK7 >g"z& >Vw;z>>9>%99\>fJӼF^g1z/hV&˾(ɺ1[! y^ܾ%=t~f+(Qe?5z봿&퇖~]鉦?jX4?$Rǔ?6&o@|?xϿ1BDih0?leԇ) Ŀ^4$?Ӷ?{U87?uнr?C12"ĿTAQ?ƁS9n,F?:ۿ>DvϋhVq?{?'Gm'п֊¥?xr9(?O܍컿      ?l?BRɿ±ÿ'Z?db{?̐ ?d<Hb?A@a6?0' V?:kY>?9l`dUQ?&\h@&uVO*Q'|jGk;=ђKqN3s? @j?tM?d$Ð?C)?H2A?qj;=>[
!'?wH>U۰b?L?ñMS?>p@>1L> |9>yk?Cn>\]?6FD§>\?ZLw>jVwU}Í쾪Јľ<'/ufþJ"8Ӿ!J'پtM4Ծ5hM<F#ʟ<$$<kIҾxq	LoǁiPZoپHԾ>KȲi?Nt\?JixVS?-j p?Ґ)Z> 5L>C'>7@)>]s>%7{r>H--PRe>(P0>X,>>h{YuෟcZ>B4&>!P[>2	4>j9X>@'vr>#[ҌY>Aq,G>ǟi,>Nƚ>8јxU벾:w$Q*-ndo? Q6Yx+91%b0?_P0hϿ ڟ|?"Epe?#_7ѿfmUZ嵿`b=̥F)Ϳ$?TrN?Ij6s.	V[#w?ſ`
jfc?yC?+0U
ohw~]](KK3>(B?z7?Ŗ'ƽ_ֿ\/>m?f)Cd?ܸ"x?d"?^ϑпF	I??      ?E`'C?tuGÿ tU2x?&b,Uj?:'?Z?˂S?;$?<M?@Y9(?(I?1zӉPlWnAs-NnFgtn-2n\lJ?p%a:?N'b?dRΘ?ւdz?II?OI?
*'?[B>\.`?S>	/
?C4>((n%>ݵؒ>)Ęs'>o!>rXt>t{>B2>l{&>ޣ~>ߛ>:d@".UszI+pI3⁮Hd; #LW{X	JH62X7K(1:2zL?</瞭d*fќV?فyQ8?V$?J>}q>i3>M}>#\>SBAg^>=$h#>fDv">U5t^>°L3>_uҌ>cX>[N#~>Ҁ"`>std>=KV>|>0<5>(}>K8]>`ʷ>f><Po˾(bL
W.LB8Y	K]C1^l&קVq%ީi?lЙ>? ǨA̿M!\}s?!?9ӿ6?q?챾?'G׿#0d?t4?/Fؼ1~¿c5?z1?e
eagȿF.ɰ?S?W?1!|?(V?{4Y)'3ǫ?yt=_?gÿiͿ+01??Ywϥ3ͯ¿      ?|:ֹ?QҿL .ƿIqR?sU܄?Ipf#[?cFQl?!FQ?}rRa?sAAO?R/VZ?ߺ5!s?烿PMojezWy#r葿X1t[i:/xY]ȵԂ?OxK~L?ks?[ ?;8F?S}vP?rҌV%?6?D:?7,?x[`.?j?`)r8?byha>Lz?dA?eK5?L ?A,?f?fF>شW-gѬ?(BǐPfW5)mΤ؆^$zS>/ (!nXpk#8*K6dXOrd$+%V3%%y\k/Gy4)GO`2tc?#V?EkgV?@2?)>Իu?#6ZF>_%c>-vx)>/3$>}j>ϻ<>r3Jr>[ >\@.>QA͌>I܈>=N6ƴ>>>"Գ>H>@U>#B>K
>jAuon>^ݨ2 	WupO 辤nu,-c~뾌r9`ʻ꾋5+Y'6jGLwJ?                                                                                                                                                                                                                                                                                                                                                                                                                                                                                                                                                                                                                                                                                                                        ư>                                                                                                                                                                                                                                                                                                        	0?qV¿wҿn;Z?l|?7Tؿ?~F?j4!̴d?9b?+zп`Q00?)e..cڲczĿ͗o?$0"׺O˿lu?92f?kjÿ!0?t'ZM?]_ۚ忄?t0?~P}ֿCɿq?k4:ÿbQ˿      ?5Л?VDjYؿ.6,ǿQz?\S烍?U%]?U=t?6YGR?Tөj?hLJ?-~4sWe?b=vrn[w@!/lrf~ᅿJ|VAmgPkx_}ǌ[j?P>?L?ƆU!?䄁?q7A֟X\?K)%N+?mC?VlN!?V9?`2?.]:
?\%'?zI> ?	O+?B^e?X_'lA,?( )?Q!8Vh"?u>.
^fuvRE:*/:l_<%Y;#{`*<N -FF$;V*ڳǣFn8_h2*el;Z O`eq;:4=ǭ257Z;ˑ?f;`?kI/a?29+?Wu>7}0?>?Pލ?KQx>(y>l>\)>.O:Z#>E@Q\>-ZKû>ӽ>ˌ>V\& E->=H>ŎbuV>^vٔ>F9>pj>ʶb]M>~4>]WEWuo.-.%	aL'}Ag-VFk.%ώ4Na?2]?A[& Qο:/οl.܂?,iFZ%><VοZ˸?{-&8?i?= 	6?[)ῥr)?)$0nb?Vt}ݿ_w?2_2D?\lѿk'ǿe\?T(sF,¿{SL?X{Q[Z~@$𝝟?:5l(?K`Dǁ?h,5o?ִU޿<$6V?      ?܄,?yaP/߿Pѣfh $?;t3o?Jq9߱5?}	D/x?OQMZ??}|2n?%RQI?:Y{h?,!i,a:n_d8雌Eu
%+N?[V/V?z˵?r?*gw?6i찓?&Rc?zsyZI?QJ?&w?_oy`@?,?ExPE>j>g>z0"Y><J2?\u>^2?Tq>HnE&?&C>ߎRxP,yE2o^h<5c
ާRu'C%x#3gZ"m¶zPc_4hIg.2 $.LqpF舠 ?Cxi?%.gu]?P>[P?s8<5?"'8>Fu?T>
x)?tMJ>5p>'&F>0)U?]	  r?Rj_>i̲I/m>#vF'>:]j}>"c]>
&s>9HOԤ>[A>$id>D)aL	>"C?%>Si$:ݾ8i"PMz:^p\wYdݾ}	P[n2r?{g0?Kq?տҐĿ,a&9Q?#/1¿oYrVrZ?x,?r+ݿa W?15w?<*e9?Q_2̴!x[?i=(4F?V(Ŀ&˜䄵?9y/?`c&C6?dUP;]~v?}&	?ȿږw	?!Ӡ?~Tgǿ      ?&T?Iu2nؿZ"ꙻ˵?gc??	r?ě(?(i?̜7?Pd?sd} ?)YR9^MT"˅$[r_fF|ځAkfe	?/meǦ?YTďI?:dg?eNO7?X?4	k$	>&?BA?p>3#V7?B%X?YC>ōi ߶>^~>O >ݍ(?F>%zee)?DC4m>_t ?[S>U]t?>{{]x?ޯپX@>OG^=E<>ZWЖϾQAE&C\F`>z&4KPy6s kȾtW%1?Ym?i	Pu&?ur> ,Iy?>{&?ɝK>	k=>v4s>-">9E>H>c*+=]Ds>Е>F4,s>0P$>10k>vs&s>}q_o>P.@>߸j*>$"E#>M3BB_B>F14*k!(	KJa>Z*TF5>KH祾 yYevU_?                                                                                                                                                                                                                                                                                                                                                                                                                                                                                                                                                                                                                                                                                                                                                                ư>                                                                                                                                                                                                                                                                                                                                                                                                                                                                                                                                                                                                                                                                                                                                                                                                                                                                                                                                                                                                                                        ư>                                                                                                                                                                                                                                                                                                                                                                                                                                                                                                                                                                                                                                                                                                                                                                                                                                                                                                                                                                                                                                        ư>                                                                                                                                                                                                                                                                                                                                                                                                                                                                                                                                                                                                                                                                                                                                                                                                                                                                                                                                                                                                                                        ư>                                                                                                                                                                                                                                                                                                                                                                                                                                                                                                                                                                                                                                                                                                                                                                                                                                                                                                                                                                                                                                        ư>                                                                                                                                                                                                                                                                                                                                                                                                                                                                                                                                                                                                                                                                                                                                                                                                                                                                                                                                                                                                                                        ư>                                                                                                                                                                                                                                                                                                                                                                                                                                                                                                                                                                                                                                                                                                                                                                                                                                                                                                                                                                                                                                        ư>                                                                                                                                                                                                                                                                                                                                                                                                                                                                                                                                                                                                                                                                                                                                                                                                                                                                                                                                                                                                                                        ư>                                                                                                                                                                                                                                                                                                                                                                                                                                                                                                                                                                                                                                                                                                                                                                                                                                                                                                                                                                                                                                        ư>                                                                                                                                                                                                                                                                                                                                                                                                                                                                                                                                                                                                                                                                                                                                                                                                                                                                                                                                                                                                                                        ư>                                                                                                                                                                                                                                                                                                                                                                                                                                                                                                                                                                                                                                                                                                                                                                                                                                                                                                                                                                                                                                        ư>                                                                                                                                                                                                                                                                                                                                                                                                                                                                                                                                                                                                                                                                                                                                                                                                                                                                                                                                                                                                                                        ư>                                                                                                                                                                                                                                                                                                                                                                                                                                                                                                                                                                                                                                                                                                                                                                                                                                                                                                                                                                                                                                        ư>                                                                                                                                                                                                                                                                                                                                                                                                                                                                                                                                                                                                                                                                                                                                                                                                                                                                                                                                                                                                                                        ư>                                                                                                                                                                                                                                                                                                                                                                                                                                                                                                                                                                                                                                                                                                                                                                                                                                                                                                                                                                                                                                        ư>                                                                                                                                                                                                                                                                                                                                                                                                                                                                                                                                                                                                                                                                                                                                                                                                                                                                                                                                                                                                                                        ư>                                                                                                                                                                                                                                                                                                                                                                                                                                                                                                                                                                                                                                                                                                                                                                                                                                                                                                                                                                                                                                        ư>                                                                                                                                                                                                                                                                                                                                                                                                                                                                                                                                                                                                                                                                                                                                                                                                                                                                                                                                                                                                                                        ư>                                                                                                                                                                                                                                                                                                                                                                                                                                                                                                                                                                                                                                                                                                                                                                                                                                                                                                                                                                                                                                        ư>                                                                                                                                                                                                                                                                                                                                                                                                                                                                                                                                                                                                                                                                                                                                                                                                                                                                                                                                                                                                                                        ư>                                                                                                                                                                                                                                                                                                                                                                                                                                                                                                                                                                                                                                                                                                                                                                                                                                                                                                                                                                                                                                        ư>                                                                                                                                                                                                                                                                                                                                                                                                                                                                                                                                                                                                                                                                                                                                                                                                                                                                                                                                                                                                                                        ư>                                                                                        .C,?e]J_"̿SX ҿ[kN ?G&տG?BBc- l%'S=?)]ĩ?MѼ޿O H*(}LwX? gUz`ѿyik	o?섖dc?E-i|kѿ.3?x=?Z;EſhWGR4?ˌŊX,~쿔K?u:?Ύ
C/mcA?Rdҿy)J?      ?lBC?>U3=rǿ	҄?ާa2͛?˕]#D?V?ٸ?l2"?v60w?d :x2?"cm5r?<|D+>۝'zN
oIB-瞿K3\ȄR??5IfO?'{?S$ ޺?Rr?\a~>tT֭X?$XS8>vtN?YݘX?pZ	^>ª>Aj>+>.@a@?^pǦ>$_뢏@?7Y>I_4??>[2ۏڱru6va~EA徊[>ٳcG㾄*.cN]Ytu/)b^tIZPT"BsF?`$?,d?>h'H?5@GU>M'D0?o`>O$??le>.h>xc>ػ,?JF"?I݌>zξ\4Ӎ>`aČ;'>|<>LV\%><4Z>uѪ>\>CI@>B?^7G{n> |d#hԾ:UL#&QܠԾ@i;pGLMS^D{4150kqJJګ A?
?c]^$w`ʿ<=?'-R?&EbM2Ͽ>@M>?	!?`HS࿦Xf?>yi?պ3ǿl`׿?Vv?*PпW?|XfЂ%ҿ (5ҽ?/h?//bĿǜkr'kp$%?B+MX@5?ęO	_?*!ѿͮ?!Aa?s!k@ٿ      ?Ε?)^#ۿd<ҿ~?.Oܕ?-
>48jx(}?Y4>UOq?>Q͎)m?$9Lw/ӼNA@yo±ܡl^VvW4aZ:RD>3XVn57?aц"?R=m>Iv?1R9?߼d.i?PaU>;ƭ
Q?,>NyD?U]>s<>[:>Q!:>lq?(0>[<6?3@z>!j6?	cz>6|i+?&e>d#Gɂ"(ِ5i]T
3TAv[ oصFvlSNN4PCRiًDu`i#ґ7y(܈>eIes?Wb>~Ũ>,@/=?JH(>C#?;Gg>]B9?p>	iΆ>&޿>
7
?A
?DZ\`O>7lYC=pW=svo=5L}A=p"f'$=?np>IQ@D=kp6fS=o
