MTP
version = 1.1.0
potential_name = MTP1m
scaling = 5.469256621168350e-03
species_count = 1
potential_tag = 
radial_basis_type = RBChebyshev
	min_dist = 2.603983444279806e+00
	max_dist = 7.000000000000000e+00
	radial_basis_size = 8
	radial_funcs_count = 4
	radial_coeffs
		0-0
			{6.919090111646059e-01, 6.479095353837350e-01, 2.126944740253547e-01, 2.042297398731519e-01, 1.135223754566727e-01, 3.719868846391452e-02, 1.473138549986784e-02, 6.192061608684168e-03}
			{-7.144194046004771e-01, 6.287619572343335e-01, 2.732813484009624e-01, 8.190859868377338e-02, 7.679268722960012e-02, 7.757142013473443e-02, 2.415098185830303e-02, 1.933620398578117e-02}
			{1.142830521470268e-02, -4.219984136297262e-01, 8.166154630684290e-01, 3.260741702185579e-01, 1.792426870780632e-01, 9.323519039814199e-02, 8.106618233395002e-02, 3.477190546956856e-02}
			{9.170033544299053e-02, 5.917916345434775e-02, 4.115534121393087e-01, -8.937286991366838e-01, -1.732093046162264e-02, -8.073879359326470e-02, -1.073804528553718e-01, -4.015403479170152e-02}
alpha_moments_count = 350
alpha_index_basic_count = 130
alpha_index_basic = {{0, 0, 0, 0}, {0, 1, 0, 0}, {0, 0, 1, 0}, {0, 0, 0, 1}, {0, 2, 0, 0}, {0, 1, 1, 0}, {0, 1, 0, 1}, {0, 0, 2, 0}, {0, 0, 1, 1}, {0, 0, 0, 2}, {0, 3, 0, 0}, {0, 2, 1, 0}, {0, 2, 0, 1}, {0, 1, 2, 0}, {0, 1, 1, 1}, {0, 1, 0, 2}, {0, 0, 3, 0}, {0, 0, 2, 1}, {0, 0, 1, 2}, {0, 0, 0, 3}, {0, 4, 0, 0}, {0, 3, 1, 0}, {0, 3, 0, 1}, {0, 2, 2, 0}, {0, 2, 1, 1}, {0, 2, 0, 2}, {0, 1, 3, 0}, {0, 1, 2, 1}, {0, 1, 1, 2}, {0, 1, 0, 3}, {0, 0, 4, 0}, {0, 0, 3, 1}, {0, 0, 2, 2}, {0, 0, 1, 3}, {0, 0, 0, 4}, {0, 5, 0, 0}, {0, 4, 1, 0}, {0, 4, 0, 1}, {0, 3, 2, 0}, {0, 3, 1, 1}, {0, 3, 0, 2}, {0, 2, 3, 0}, {0, 2, 2, 1}, {0, 2, 1, 2}, {0, 2, 0, 3}, {0, 1, 4, 0}, {0, 1, 3, 1}, {0, 1, 2, 2}, {0, 1, 1, 3}, {0, 1, 0, 4}, {0, 0, 5, 0}, {0, 0, 4, 1}, {0, 0, 3, 2}, {0, 0, 2, 3}, {0, 0, 1, 4}, {0, 0, 0, 5}, {0, 6, 0, 0}, {0, 5, 1, 0}, {0, 5, 0, 1}, {0, 4, 2, 0}, {0, 4, 1, 1}, {0, 4, 0, 2}, {0, 3, 3, 0}, {0, 3, 2, 1}, {0, 3, 1, 2}, {0, 3, 0, 3}, {0, 2, 4, 0}, {0, 2, 3, 1}, {0, 2, 2, 2}, {0, 2, 1, 3}, {0, 2, 0, 4}, {0, 1, 5, 0}, {0, 1, 4, 1}, {0, 1, 3, 2}, {0, 1, 2, 3}, {0, 1, 1, 4}, {0, 1, 0, 5}, {0, 0, 6, 0}, {0, 0, 5, 1}, {0, 0, 4, 2}, {0, 0, 3, 3}, {0, 0, 2, 4}, {0, 0, 1, 5}, {0, 0, 0, 6}, {1, 0, 0, 0}, {1, 1, 0, 0}, {1, 0, 1, 0}, {1, 0, 0, 1}, {1, 2, 0, 0}, {1, 1, 1, 0}, {1, 1, 0, 1}, {1, 0, 2, 0}, {1, 0, 1, 1}, {1, 0, 0, 2}, {1, 3, 0, 0}, {1, 2, 1, 0}, {1, 2, 0, 1}, {1, 1, 2, 0}, {1, 1, 1, 1}, {1, 1, 0, 2}, {1, 0, 3, 0}, {1, 0, 2, 1}, {1, 0, 1, 2}, {1, 0, 0, 3}, {1, 4, 0, 0}, {1, 3, 1, 0}, {1, 3, 0, 1}, {1, 2, 2, 0}, {1, 2, 1, 1}, {1, 2, 0, 2}, {1, 1, 3, 0}, {1, 1, 2, 1}, {1, 1, 1, 2}, {1, 1, 0, 3}, {1, 0, 4, 0}, {1, 0, 3, 1}, {1, 0, 2, 2}, {1, 0, 1, 3}, {1, 0, 0, 4}, {2, 0, 0, 0}, {2, 1, 0, 0}, {2, 0, 1, 0}, {2, 0, 0, 1}, {2, 2, 0, 0}, {2, 1, 1, 0}, {2, 1, 0, 1}, {2, 0, 2, 0}, {2, 0, 1, 1}, {2, 0, 0, 2}, {3, 0, 0, 0}}
alpha_index_times_count = 969
alpha_index_times = {{0, 0, 1, 130}, {1, 1, 1, 131}, {2, 2, 1, 131}, {3, 3, 1, 131}, {1, 4, 1, 132}, {2, 5, 1, 132}, {3, 6, 1, 132}, {1, 5, 1, 133}, {2, 7, 1, 133}, {3, 8, 1, 133}, {1, 6, 1, 134}, {2, 8, 1, 134}, {3, 9, 1, 134}, {1, 10, 1, 135}, {2, 11, 1, 135}, {3, 12, 1, 135}, {1, 11, 1, 136}, {2, 13, 1, 136}, {3, 14, 1, 136}, {1, 12, 1, 137}, {2, 14, 1, 137}, {3, 15, 1, 137}, {1, 13, 1, 138}, {2, 16, 1, 138}, {3, 17, 1, 138}, {1, 14, 1, 139}, {2, 17, 1, 139}, {3, 18, 1, 139}, {1, 15, 1, 140}, {2, 18, 1, 140}, {3, 19, 1, 140}, {4, 4, 1, 141}, {5, 5, 1, 141}, {6, 6, 1, 141}, {4, 5, 1, 142}, {5, 7, 1, 142}, {6, 8, 1, 142}, {4, 6, 1, 143}, {5, 8, 1, 143}, {6, 9, 1, 143}, {5, 5, 1, 144}, {7, 7, 1, 144}, {8, 8, 1, 144}, {5, 6, 1, 145}, {7, 8, 1, 145}, {8, 9, 1, 145}, {6, 6, 1, 146}, {8, 8, 1, 146}, {9, 9, 1, 146}, {4, 10, 1, 147}, {5, 11, 1, 147}, {6, 12, 1, 147}, {4, 11, 1, 148}, {5, 13, 1, 148}, {6, 14, 1, 148}, {4, 12, 1, 149}, {5, 14, 1, 149}, {6, 15, 1, 149}, {4, 13, 1, 150}, {5, 16, 1, 150}, {6, 17, 1, 150}, {4, 14, 1, 151}, {5, 17, 1, 151}, {6, 18, 1, 151}, {4, 15, 1, 152}, {5, 18, 1, 152}, {6, 19, 1, 152}, {5, 10, 1, 153}, {7, 11, 1, 153}, {8, 12, 1, 153}, {5, 11, 1, 154}, {7, 13, 1, 154}, {8, 14, 1, 154}, {5, 12, 1, 155}, {7, 14, 1, 155}, {8, 15, 1, 155}, {5, 13, 1, 156}, {7, 16, 1, 156}, {8, 17, 1, 156}, {5, 14, 1, 157}, {7, 17, 1, 157}, {8, 18, 1, 157}, {5, 15, 1, 158}, {7, 18, 1, 158}, {8, 19, 1, 158}, {6, 10, 1, 159}, {8, 11, 1, 159}, {9, 12, 1, 159}, {6, 11, 1, 160}, {8, 13, 1, 160}, {9, 14, 1, 160}, {6, 12, 1, 161}, {8, 14, 1, 161}, {9, 15, 1, 161}, {6, 13, 1, 162}, {8, 16, 1, 162}, {9, 17, 1, 162}, {6, 14, 1, 163}, {8, 17, 1, 163}, {9, 18, 1, 163}, {6, 15, 1, 164}, {8, 18, 1, 164}, {9, 19, 1, 164}, {4, 4, 1, 165}, {5, 5, 2, 165}, {6, 6, 2, 165}, {7, 7, 1, 165}, {8, 8, 2, 165}, {9, 9, 1, 165}, {4, 10, 1, 166}, {5, 11, 2, 166}, {6, 12, 2, 166}, {7, 13, 1, 166}, {8, 14, 2, 166}, {9, 15, 1, 166}, {4, 11, 1, 167}, {5, 13, 2, 167}, {6, 14, 2, 167}, {7, 16, 1, 167}, {8, 17, 2, 167}, {9, 18, 1, 167}, {4, 12, 1, 168}, {5, 14, 2, 168}, {6, 15, 2, 168}, {7, 17, 1, 168}, {8, 18, 2, 168}, {9, 19, 1, 168}, {4, 20, 1, 169}, {5, 21, 2, 169}, {6, 22, 2, 169}, {7, 23, 1, 169}, {8, 24, 2, 169}, {9, 25, 1, 169}, {4, 21, 1, 170}, {5, 23, 2, 170}, {6, 24, 2, 170}, {7, 26, 1, 170}, {8, 27, 2, 170}, {9, 28, 1, 170}, {4, 22, 1, 171}, {5, 24, 2, 171}, {6, 25, 2, 171}, {7, 27, 1, 171}, {8, 28, 2, 171}, {9, 29, 1, 171}, {4, 23, 1, 172}, {5, 26, 2, 172}, {6, 27, 2, 172}, {7, 30, 1, 172}, {8, 31, 2, 172}, {9, 32, 1, 172}, {4, 24, 1, 173}, {5, 27, 2, 173}, {6, 28, 2, 173}, {7, 31, 1, 173}, {8, 32, 2, 173}, {9, 33, 1, 173}, {4, 25, 1, 174}, {5, 28, 2, 174}, {6, 29, 2, 174}, {7, 32, 1, 174}, {8, 33, 2, 174}, {9, 34, 1, 174}, {10, 10, 1, 175}, {11, 11, 2, 175}, {12, 12, 2, 175}, {13, 13, 1, 175}, {14, 14, 2, 175}, {15, 15, 1, 175}, {10, 11, 1, 176}, {11, 13, 2, 176}, {12, 14, 2, 176}, {13, 16, 1, 176}, {14, 17, 2, 176}, {15, 18, 1, 176}, {10, 12, 1, 177}, {11, 14, 2, 177}, {12, 15, 2, 177}, {13, 17, 1, 177}, {14, 18, 2, 177}, {15, 19, 1, 177}, {11, 11, 1, 178}, {13, 13, 2, 178}, {14, 14, 2, 178}, {16, 16, 1, 178}, {17, 17, 2, 178}, {18, 18, 1, 178}, {11, 12, 1, 179}, {13, 14, 2, 179}, {14, 15, 2, 179}, {16, 17, 1, 179}, {17, 18, 2, 179}, {18, 19, 1, 179}, {12, 12, 1, 180}, {14, 14, 2, 180}, {15, 15, 2, 180}, {17, 17, 1, 180}, {18, 18, 2, 180}, {19, 19, 1, 180}, {10, 20, 1, 181}, {11, 21, 2, 181}, {12, 22, 2, 181}, {13, 23, 1, 181}, {14, 24, 2, 181}, {15, 25, 1, 181}, {10, 21, 1, 182}, {11, 23, 2, 182}, {12, 24, 2, 182}, {13, 26, 1, 182}, {14, 27, 2, 182}, {15, 28, 1, 182}, {10, 22, 1, 183}, {11, 24, 2, 183}, {12, 25, 2, 183}, {13, 27, 1, 183}, {14, 28, 2, 183}, {15, 29, 1, 183}, {10, 23, 1, 184}, {11, 26, 2, 184}, {12, 27, 2, 184}, {13, 30, 1, 184}, {14, 31, 2, 184}, {15, 32, 1, 184}, {10, 24, 1, 185}, {11, 27, 2, 185}, {12, 28, 2, 185}, {13, 31, 1, 185}, {14, 32, 2, 185}, {15, 33, 1, 185}, {10, 25, 1, 186}, {11, 28, 2, 186}, {12, 29, 2, 186}, {13, 32, 1, 186}, {14, 33, 2, 186}, {15, 34, 1, 186}, {11, 20, 1, 187}, {13, 21, 2, 187}, {14, 22, 2, 187}, {16, 23, 1, 187}, {17, 24, 2, 187}, {18, 25, 1, 187}, {11, 21, 1, 188}, {13, 23, 2, 188}, {14, 24, 2, 188}, {16, 26, 1, 188}, {17, 27, 2, 188}, {18, 28, 1, 188}, {11, 22, 1, 189}, {13, 24, 2, 189}, {14, 25, 2, 189}, {16, 27, 1, 189}, {17, 28, 2, 189}, {18, 29, 1, 189}, {11, 23, 1, 190}, {13, 26, 2, 190}, {14, 27, 2, 190}, {16, 30, 1, 190}, {17, 31, 2, 190}, {18, 32, 1, 190}, {11, 24, 1, 191}, {13, 27, 2, 191}, {14, 28, 2, 191}, {16, 31, 1, 191}, {17, 32, 2, 191}, {18, 33, 1, 191}, {11, 25, 1, 192}, {13, 28, 2, 192}, {14, 29, 2, 192}, {16, 32, 1, 192}, {17, 33, 2, 192}, {18, 34, 1, 192}, {12, 20, 1, 193}, {14, 21, 2, 193}, {15, 22, 2, 193}, {17, 23, 1, 193}, {18, 24, 2, 193}, {19, 25, 1, 193}, {12, 21, 1, 194}, {14, 23, 2, 194}, {15, 24, 2, 194}, {17, 26, 1, 194}, {18, 27, 2, 194}, {19, 28, 1, 194}, {12, 22, 1, 195}, {14, 24, 2, 195}, {15, 25, 2, 195}, {17, 27, 1, 195}, {18, 28, 2, 195}, {19, 29, 1, 195}, {12, 23, 1, 196}, {14, 26, 2, 196}, {15, 27, 2, 196}, {17, 30, 1, 196}, {18, 31, 2, 196}, {19, 32, 1, 196}, {12, 24, 1, 197}, {14, 27, 2, 197}, {15, 28, 2, 197}, {17, 31, 1, 197}, {18, 32, 2, 197}, {19, 33, 1, 197}, {12, 25, 1, 198}, {14, 28, 2, 198}, {15, 29, 2, 198}, {17, 32, 1, 198}, {18, 33, 2, 198}, {19, 34, 1, 198}, {10, 10, 1, 199}, {11, 11, 3, 199}, {12, 12, 3, 199}, {13, 13, 3, 199}, {14, 14, 6, 199}, {15, 15, 3, 199}, {16, 16, 1, 199}, {17, 17, 3, 199}, {18, 18, 3, 199}, {19, 19, 1, 199}, {10, 20, 1, 200}, {11, 21, 3, 200}, {12, 22, 3, 200}, {13, 23, 3, 200}, {14, 24, 6, 200}, {15, 25, 3, 200}, {16, 26, 1, 200}, {17, 27, 3, 200}, {18, 28, 3, 200}, {19, 29, 1, 200}, {10, 21, 1, 201}, {11, 23, 3, 201}, {12, 24, 3, 201}, {13, 26, 3, 201}, {14, 27, 6, 201}, {15, 28, 3, 201}, {16, 30, 1, 201}, {17, 31, 3, 201}, {18, 32, 3, 201}, {19, 33, 1, 201}, {10, 22, 1, 202}, {11, 24, 3, 202}, {12, 25, 3, 202}, {13, 27, 3, 202}, {14, 28, 6, 202}, {15, 29, 3, 202}, {16, 31, 1, 202}, {17, 32, 3, 202}, {18, 33, 3, 202}, {19, 34, 1, 202}, {10, 35, 1, 203}, {11, 36, 3, 203}, {12, 37, 3, 203}, {13, 38, 3, 203}, {14, 39, 6, 203}, {15, 40, 3, 203}, {16, 41, 1, 203}, {17, 42, 3, 203}, {18, 43, 3, 203}, {19, 44, 1, 203}, {10, 36, 1, 204}, {11, 38, 3, 204}, {12, 39, 3, 204}, {13, 41, 3, 204}, {14, 42, 6, 204}, {15, 43, 3, 204}, {16, 45, 1, 204}, {17, 46, 3, 204}, {18, 47, 3, 204}, {19, 48, 1, 204}, {10, 37, 1, 205}, {11, 39, 3, 205}, {12, 40, 3, 205}, {13, 42, 3, 205}, {14, 43, 6, 205}, {15, 44, 3, 205}, {16, 46, 1, 205}, {17, 47, 3, 205}, {18, 48, 3, 205}, {19, 49, 1, 205}, {10, 38, 1, 206}, {11, 41, 3, 206}, {12, 42, 3, 206}, {13, 45, 3, 206}, {14, 46, 6, 206}, {15, 47, 3, 206}, {16, 50, 1, 206}, {17, 51, 3, 206}, {18, 52, 3, 206}, {19, 53, 1, 206}, {10, 39, 1, 207}, {11, 42, 3, 207}, {12, 43, 3, 207}, {13, 46, 3, 207}, {14, 47, 6, 207}, {15, 48, 3, 207}, {16, 51, 1, 207}, {17, 52, 3, 207}, {18, 53, 3, 207}, {19, 54, 1, 207}, {10, 40, 1, 208}, {11, 43, 3, 208}, {12, 44, 3, 208}, {13, 47, 3, 208}, {14, 48, 6, 208}, {15, 49, 3, 208}, {16, 52, 1, 208}, {17, 53, 3, 208}, {18, 54, 3, 208}, {19, 55, 1, 208}, {20, 20, 1, 209}, {21, 21, 3, 209}, {22, 22, 3, 209}, {23, 23, 3, 209}, {24, 24, 6, 209}, {25, 25, 3, 209}, {26, 26, 1, 209}, {27, 27, 3, 209}, {28, 28, 3, 209}, {29, 29, 1, 209}, {20, 21, 1, 210}, {21, 23, 3, 210}, {22, 24, 3, 210}, {23, 26, 3, 210}, {24, 27, 6, 210}, {25, 28, 3, 210}, {26, 30, 1, 210}, {27, 31, 3, 210}, {28, 32, 3, 210}, {29, 33, 1, 210}, {20, 22, 1, 211}, {21, 24, 3, 211}, {22, 25, 3, 211}, {23, 27, 3, 211}, {24, 28, 6, 211}, {25, 29, 3, 211}, {26, 31, 1, 211}, {27, 32, 3, 211}, {28, 33, 3, 211}, {29, 34, 1, 211}, {21, 21, 1, 212}, {23, 23, 3, 212}, {24, 24, 3, 212}, {26, 26, 3, 212}, {27, 27, 6, 212}, {28, 28, 3, 212}, {30, 30, 1, 212}, {31, 31, 3, 212}, {32, 32, 3, 212}, {33, 33, 1, 212}, {21, 22, 1, 213}, {23, 24, 3, 213}, {24, 25, 3, 213}, {26, 27, 3, 213}, {27, 28, 6, 213}, {28, 29, 3, 213}, {30, 31, 1, 213}, {31, 32, 3, 213}, {32, 33, 3, 213}, {33, 34, 1, 213}, {22, 22, 1, 214}, {24, 24, 3, 214}, {25, 25, 3, 214}, {27, 27, 3, 214}, {28, 28, 6, 214}, {29, 29, 3, 214}, {31, 31, 1, 214}, {32, 32, 3, 214}, {33, 33, 3, 214}, {34, 34, 1, 214}, {20, 20, 1, 215}, {21, 21, 4, 215}, {22, 22, 4, 215}, {23, 23, 6, 215}, {24, 24, 12, 215}, {25, 25, 6, 215}, {26, 26, 4, 215}, {27, 27, 12, 215}, {28, 28, 12, 215}, {29, 29, 4, 215}, {30, 30, 1, 215}, {31, 31, 4, 215}, {32, 32, 6, 215}, {33, 33, 4, 215}, {34, 34, 1, 215}, {20, 35, 1, 216}, {21, 36, 4, 216}, {22, 37, 4, 216}, {23, 38, 6, 216}, {24, 39, 12, 216}, {25, 40, 6, 216}, {26, 41, 4, 216}, {27, 42, 12, 216}, {28, 43, 12, 216}, {29, 44, 4, 216}, {30, 45, 1, 216}, {31, 46, 4, 216}, {32, 47, 6, 216}, {33, 48, 4, 216}, {34, 49, 1, 216}, {20, 36, 1, 217}, {21, 38, 4, 217}, {22, 39, 4, 217}, {23, 41, 6, 217}, {24, 42, 12, 217}, {25, 43, 6, 217}, {26, 45, 4, 217}, {27, 46, 12, 217}, {28, 47, 12, 217}, {29, 48, 4, 217}, {30, 50, 1, 217}, {31, 51, 4, 217}, {32, 52, 6, 217}, {33, 53, 4, 217}, {34, 54, 1, 217}, {20, 37, 1, 218}, {21, 39, 4, 218}, {22, 40, 4, 218}, {23, 42, 6, 218}, {24, 43, 12, 218}, {25, 44, 6, 218}, {26, 46, 4, 218}, {27, 47, 12, 218}, {28, 48, 12, 218}, {29, 49, 4, 218}, {30, 51, 1, 218}, {31, 52, 4, 218}, {32, 53, 6, 218}, {33, 54, 4, 218}, {34, 55, 1, 218}, {35, 35, 1, 219}, {36, 36, 5, 219}, {37, 37, 5, 219}, {38, 38, 10, 219}, {39, 39, 20, 219}, {40, 40, 10, 219}, {41, 41, 10, 219}, {42, 42, 30, 219}, {43, 43, 30, 219}, {44, 44, 10, 219}, {45, 45, 5, 219}, {46, 46, 20, 219}, {47, 47, 30, 219}, {48, 48, 20, 219}, {49, 49, 5, 219}, {50, 50, 1, 219}, {51, 51, 5, 219}, {52, 52, 10, 219}, {53, 53, 10, 219}, {54, 54, 5, 219}, {55, 55, 1, 219}, {56, 56, 1, 220}, {57, 57, 6, 220}, {58, 58, 6, 220}, {59, 59, 15, 220}, {60, 60, 30, 220}, {61, 61, 15, 220}, {62, 62, 20, 220}, {63, 63, 60, 220}, {64, 64, 60, 220}, {65, 65, 20, 220}, {66, 66, 15, 220}, {67, 67, 60, 220}, {68, 68, 90, 220}, {69, 69, 60, 220}, {70, 70, 15, 220}, {71, 71, 6, 220}, {72, 72, 30, 220}, {73, 73, 60, 220}, {74, 74, 60, 220}, {75, 75, 30, 220}, {76, 76, 6, 220}, {77, 77, 1, 220}, {78, 78, 6, 220}, {79, 79, 15, 220}, {80, 80, 20, 220}, {81, 81, 15, 220}, {82, 82, 6, 220}, {83, 83, 1, 220}, {0, 84, 1, 221}, {1, 85, 1, 222}, {2, 86, 1, 222}, {3, 87, 1, 222}, {1, 88, 1, 223}, {2, 89, 1, 223}, {3, 90, 1, 223}, {1, 89, 1, 224}, {2, 91, 1, 224}, {3, 92, 1, 224}, {1, 90, 1, 225}, {2, 92, 1, 225}, {3, 93, 1, 225}, {4, 85, 1, 226}, {5, 86, 1, 226}, {6, 87, 1, 226}, {5, 85, 1, 227}, {7, 86, 1, 227}, {8, 87, 1, 227}, {6, 85, 1, 228}, {8, 86, 1, 228}, {9, 87, 1, 228}, {4, 88, 1, 229}, {5, 89, 1, 229}, {6, 90, 1, 229}, {4, 89, 1, 230}, {5, 91, 1, 230}, {6, 92, 1, 230}, {4, 90, 1, 231}, {5, 92, 1, 231}, {6, 93, 1, 231}, {5, 88, 1, 232}, {7, 89, 1, 232}, {8, 90, 1, 232}, {5, 89, 1, 233}, {7, 91, 1, 233}, {8, 92, 1, 233}, {5, 90, 1, 234}, {7, 92, 1, 234}, {8, 93, 1, 234}, {6, 88, 1, 235}, {8, 89, 1, 235}, {9, 90, 1, 235}, {6, 89, 1, 236}, {8, 91, 1, 236}, {9, 92, 1, 236}, {6, 90, 1, 237}, {8, 92, 1, 237}, {9, 93, 1, 237}, {4, 88, 1, 238}, {5, 89, 2, 238}, {6, 90, 2, 238}, {7, 91, 1, 238}, {8, 92, 2, 238}, {9, 93, 1, 238}, {4, 94, 1, 239}, {5, 95, 2, 239}, {6, 96, 2, 239}, {7, 97, 1, 239}, {8, 98, 2, 239}, {9, 99, 1, 239}, {4, 95, 1, 240}, {5, 97, 2, 240}, {6, 98, 2, 240}, {7, 100, 1, 240}, {8, 101, 2, 240}, {9, 102, 1, 240}, {4, 96, 1, 241}, {5, 98, 2, 241}, {6, 99, 2, 241}, {7, 101, 1, 241}, {8, 102, 2, 241}, {9, 103, 1, 241}, {10, 88, 1, 242}, {11, 89, 2, 242}, {12, 90, 2, 242}, {13, 91, 1, 242}, {14, 92, 2, 242}, {15, 93, 1, 242}, {11, 88, 1, 243}, {13, 89, 2, 243}, {14, 90, 2, 243}, {16, 91, 1, 243}, {17, 92, 2, 243}, {18, 93, 1, 243}, {12, 88, 1, 244}, {14, 89, 2, 244}, {15, 90, 2, 244}, {17, 91, 1, 244}, {18, 92, 2, 244}, {19, 93, 1, 244}, {10, 94, 1, 245}, {11, 95, 3, 245}, {12, 96, 3, 245}, {13, 97, 3, 245}, {14, 98, 6, 245}, {15, 99, 3, 245}, {16, 100, 1, 245}, {17, 101, 3, 245}, {18, 102, 3, 245}, {19, 103, 1, 245}, {20, 104, 1, 246}, {21, 105, 4, 246}, {22, 106, 4, 246}, {23, 107, 6, 246}, {24, 108, 12, 246}, {25, 109, 6, 246}, {26, 110, 4, 246}, {27, 111, 12, 246}, {28, 112, 12, 246}, {29, 113, 4, 246}, {30, 114, 1, 246}, {31, 115, 4, 246}, {32, 116, 6, 246}, {33, 117, 4, 246}, {34, 118, 1, 246}, {0, 119, 1, 247}, {1, 120, 1, 248}, {2, 121, 1, 248}, {3, 122, 1, 248}, {4, 123, 1, 249}, {5, 124, 2, 249}, {6, 125, 2, 249}, {7, 126, 1, 249}, {8, 127, 2, 249}, {9, 128, 1, 249}, {0, 129, 1, 250}, {84, 84, 1, 251}, {85, 85, 1, 252}, {86, 86, 1, 252}, {87, 87, 1, 252}, {88, 88, 1, 253}, {89, 89, 2, 253}, {90, 90, 2, 253}, {91, 91, 1, 253}, {92, 92, 2, 253}, {93, 93, 1, 253}, {84, 119, 1, 254}, {0, 130, 1, 255}, {0, 131, 1, 256}, {0, 165, 1, 257}, {0, 199, 1, 258}, {0, 215, 1, 259}, {0, 219, 1, 260}, {1, 132, 1, 261}, {2, 133, 1, 261}, {3, 134, 1, 261}, {1, 135, 1, 262}, {2, 136, 1, 262}, {3, 137, 1, 262}, {1, 136, 1, 263}, {2, 138, 1, 263}, {3, 139, 1, 263}, {1, 137, 1, 264}, {2, 139, 1, 264}, {3, 140, 1, 264}, {1, 141, 1, 265}, {2, 142, 1, 265}, {3, 143, 1, 265}, {1, 142, 1, 266}, {2, 144, 1, 266}, {3, 145, 1, 266}, {1, 143, 1, 267}, {2, 145, 1, 267}, {3, 146, 1, 267}, {1, 166, 1, 268}, {2, 167, 1, 268}, {3, 168, 1, 268}, {1, 169, 1, 269}, {2, 170, 1, 269}, {3, 171, 1, 269}, {1, 170, 1, 270}, {2, 172, 1, 270}, {3, 173, 1, 270}, {1, 171, 1, 271}, {2, 173, 1, 271}, {3, 174, 1, 271}, {1, 175, 1, 272}, {2, 176, 1, 272}, {3, 177, 1, 272}, {1, 176, 1, 273}, {2, 178, 1, 273}, {3, 179, 1, 273}, {1, 177, 1, 274}, {2, 179, 1, 274}, {3, 180, 1, 274}, {1, 200, 1, 275}, {2, 201, 1, 275}, {3, 202, 1, 275}, {1, 216, 1, 276}, {2, 217, 1, 276}, {3, 218, 1, 276}, {4, 141, 1, 277}, {5, 142, 1, 277}, {6, 143, 1, 277}, {4, 142, 1, 278}, {5, 144, 1, 278}, {6, 145, 1, 278}, {4, 143, 1, 279}, {5, 145, 1, 279}, {6, 146, 1, 279}, {5, 141, 1, 280}, {7, 142, 1, 280}, {8, 143, 1, 280}, {5, 142, 1, 281}, {7, 144, 1, 281}, {8, 145, 1, 281}, {5, 143, 1, 282}, {7, 145, 1, 282}, {8, 146, 1, 282}, {6, 141, 1, 283}, {8, 142, 1, 283}, {9, 143, 1, 283}, {6, 142, 1, 284}, {8, 144, 1, 284}, {9, 145, 1, 284}, {6, 143, 1, 285}, {8, 145, 1, 285}, {9, 146, 1, 285}, {4, 166, 1, 286}, {5, 167, 1, 286}, {6, 168, 1, 286}, {5, 166, 1, 287}, {7, 167, 1, 287}, {8, 168, 1, 287}, {6, 166, 1, 288}, {8, 167, 1, 288}, {9, 168, 1, 288}, {4, 169, 1, 289}, {5, 170, 2, 289}, {6, 171, 2, 289}, {7, 172, 1, 289}, {8, 173, 2, 289}, {9, 174, 1, 289}, {4, 203, 1, 290}, {5, 204, 2, 290}, {6, 205, 2, 290}, {7, 206, 1, 290}, {8, 207, 2, 290}, {9, 208, 1, 290}, {4, 141, 1, 291}, {5, 142, 2, 291}, {6, 143, 2, 291}, {7, 144, 1, 291}, {8, 145, 2, 291}, {9, 146, 1, 291}, {4, 147, 1, 292}, {5, 148, 1, 292}, {5, 153, 1, 292}, {6, 149, 1, 292}, {6, 159, 1, 292}, {7, 154, 1, 292}, {8, 155, 1, 292}, {8, 160, 1, 292}, {9, 161, 1, 292}, {4, 148, 1, 293}, {5, 150, 1, 293}, {5, 154, 1, 293}, {6, 151, 1, 293}, {6, 160, 1, 293}, {7, 156, 1, 293}, {8, 157, 1, 293}, {8, 162, 1, 293}, {9, 163, 1, 293}, {4, 149, 1, 294}, {5, 151, 1, 294}, {5, 155, 1, 294}, {6, 152, 1, 294}, {6, 161, 1, 294}, {7, 157, 1, 294}, {8, 158, 1, 294}, {8, 163, 1, 294}, {9, 164, 1, 294}, {4, 175, 1, 295}, {5, 176, 2, 295}, {6, 177, 2, 295}, {7, 178, 1, 295}, {8, 179, 2, 295}, {9, 180, 1, 295}, {4, 209, 1, 296}, {5, 210, 2, 296}, {6, 211, 2, 296}, {7, 212, 1, 296}, {8, 213, 2, 296}, {9, 214, 1, 296}, {10, 181, 1, 297}, {11, 182, 2, 297}, {11, 187, 1, 297}, {12, 183, 2, 297}, {12, 193, 1, 297}, {13, 184, 1, 297}, {13, 188, 2, 297}, {14, 185, 2, 297}, {14, 189, 2, 297}, {14, 194, 2, 297}, {15, 186, 1, 297}, {15, 195, 2, 297}, {16, 190, 1, 297}, {17, 191, 2, 297}, {17, 196, 1, 297}, {18, 192, 1, 297}, {18, 197, 2, 297}, {19, 198, 1, 297}, {0, 221, 1, 298}, {0, 222, 1, 299}, {0, 238, 1, 300}, {0, 245, 1, 301}, {1, 223, 1, 302}, {2, 224, 1, 302}, {3, 225, 1, 302}, {1, 239, 1, 303}, {2, 240, 1, 303}, {3, 241, 1, 303}, {84, 131, 1, 304}, {1, 226, 1, 305}, {2, 227, 1, 305}, {3, 228, 1, 305}, {1, 242, 1, 306}, {2, 243, 1, 306}, {3, 244, 1, 306}, {4, 229, 1, 307}, {5, 230, 1, 307}, {5, 232, 1, 307}, {6, 231, 1, 307}, {6, 235, 1, 307}, {7, 233, 1, 307}, {8, 234, 1, 307}, {8, 236, 1, 307}, {9, 237, 1, 307}, {84, 165, 1, 308}, {85, 166, 1, 309}, {86, 167, 1, 309}, {87, 168, 1, 309}, {84, 199, 1, 310}, {0, 247, 1, 311}, {0, 248, 1, 312}, {119, 131, 1, 313}, {0, 251, 1, 314}, {0, 252, 1, 315}, {84, 222, 1, 316}, {131, 131, 1, 317}, {131, 165, 1, 318}, {131, 199, 1, 319}, {165, 165, 1, 320}, {131, 222, 1, 321}, {0, 255, 1, 322}, {0, 256, 1, 323}, {0, 257, 1, 324}, {0, 258, 1, 325}, {0, 259, 1, 326}, {0, 261, 1, 327}, {0, 268, 1, 328}, {0, 275, 1, 329}, {0, 289, 1, 330}, {0, 291, 1, 331}, {0, 295, 1, 332}, {1, 262, 1, 333}, {2, 263, 1, 333}, {3, 264, 1, 333}, {1, 269, 1, 334}, {2, 270, 1, 334}, {3, 271, 1, 334}, {1, 265, 1, 335}, {2, 266, 1, 335}, {3, 267, 1, 335}, {1, 272, 1, 336}, {2, 273, 1, 336}, {3, 274, 1, 336}, {1, 292, 1, 337}, {2, 293, 1, 337}, {3, 294, 1, 337}, {1, 286, 1, 338}, {2, 287, 1, 338}, {3, 288, 1, 338}, {4, 277, 1, 339}, {5, 278, 1, 339}, {5, 280, 1, 339}, {6, 279, 1, 339}, {6, 283, 1, 339}, {7, 281, 1, 339}, {8, 282, 1, 339}, {8, 284, 1, 339}, {9, 285, 1, 339}, {0, 298, 1, 340}, {0, 299, 1, 341}, {0, 300, 1, 342}, {0, 302, 1, 343}, {0, 304, 1, 344}, {0, 305, 1, 345}, {0, 308, 1, 346}, {84, 261, 1, 347}, {0, 311, 1, 348}, {0, 314, 1, 349}}
alpha_scalar_moments = 92
alpha_moment_mapping = {0, 84, 119, 129, 130, 131, 165, 199, 215, 219, 220, 221, 222, 238, 245, 246, 247, 248, 249, 250, 251, 252, 253, 254, 255, 256, 257, 258, 259, 260, 261, 268, 275, 276, 289, 290, 291, 295, 296, 297, 298, 299, 300, 301, 302, 303, 304, 305, 306, 307, 308, 309, 310, 311, 312, 313, 314, 315, 316, 322, 323, 324, 325, 326, 327, 328, 329, 330, 331, 332, 333, 334, 317, 335, 336, 337, 318, 338, 319, 320, 339, 340, 341, 342, 343, 344, 345, 346, 321, 347, 348, 349}
species_coeffs = {-4.304973440265770e-01}
moment_coeffs = {-9.543809322020852e+00, -2.189169451504538e+00, 1.478523591330152e-03, 1.179230854118170e+00, 2.540503214998157e+01, 1.100515464595564e+02, 5.153270961125284e+01, 6.444633372322413e+01, 7.993038517994471e+01, 2.133928867104611e+01, -4.063049464934613e+00, 1.303329354170626e+00, 4.893971525619979e+01, 8.046331575600792e+00, -1.624415356834613e+01, 3.831231941417185e+00, 1.453493761247519e+01, 3.264366094949199e+01, 1.132620002270543e+01, -1.287104025019537e+00, -3.042743301586426e+00, 3.847599804137438e+00, 5.794257508855901e+00, 8.294523201490537e-01, -3.921495635307864e+01, -4.278365025239345e+02, 1.120631555249167e+01, -9.940091344269092e+00, -8.986519484757558e+01, -9.212231157700526e+01, 1.871365123957776e+02, -3.372488411943233e+02, -1.691860217093635e+02, -2.466330031494357e+02, -1.227930803897080e+02, -1.837939110075176e+02, -1.200139950165209e+02, -4.089463819146968e+02, -3.139889264222267e+02, -4.640006108828609e+02, 4.478582128279970e+01, -1.802769879206657e+02, -4.769666480195992e+01, -2.449005008736830e+01, 8.650787389187151e+01, -1.259450270620424e+02, -2.927229773811507e+01, 5.888461405607089e+01, -1.130634527085321e+02, -1.516345000919996e+01, 6.952084393847319e+01, 1.099124339765422e+02, 5.393396115873250e+01, -6.652370500724776e+01, -1.231724658773704e+02, 1.160998693379993e+01, 2.301981097911978e+01, -2.662509189303758e+00, -4.495582330072809e+00, -6.863559766676893e+01, 1.193075714799233e+02, 1.567656883630492e+02, 2.357890187238729e+02, 9.044082438324573e+01, 2.168888681490943e+02, 1.431929275385976e+02, 2.339739709499703e+02, 1.693279179527739e+02, 2.366195469721517e+02, 2.140173948486992e+02, 1.008363331197031e+02, 9.489115312221131e+01, 8.319101413644955e+01, 2.005330253619374e+02, 1.280754138085190e+02, 1.132290654806841e+02, 1.514131565591604e+02, 1.792964674955665e+02, 1.495915873736367e+02, 2.198087352946440e+02, 2.571919312497294e+02, -1.454883246853487e+02, 1.209121450655836e+02, 2.215850550745199e+02, -6.255069230935814e+01, 8.375169656150989e+01, -4.424696698178717e+01, -4.651730865925060e+01, 1.421570354248841e+02, -2.106319330662947e+02, 9.668200867890087e+01, -3.773223836080440e+01}
#MVS_v1.1
energy_weight 0.0000000000000000e+00
force_weight 0.0000000000000000e+00
stress_weight 0.0000000000000000e+00
site_en_weight 1.0000000000000000e+00
weight_scaling 2
#$=ϿȨD3핿4>??`o2??ȿ"QNG$h7?Pd?ßċL?[?|BPؿK?#oRqb	I?%XU?;~ȿu!yֿ9 ?a1*?%.+^?+7wѿW?`u4xAr̿:ߢ?)U,?"nn]ƿ      ?W[B?Xomܿ6=ls˿ib*O?'e9?;?=PX88?"v?zK;~F?adEi,}?a%fynX"x=bZ㔕ߔ.'G^8 @?2/u2y{^6\O?Lo?8d>v4?512?w3d?=#<i?u4!g??)?(D"^?hͬ!["?/: >>ѱ>g]h>UO=>xfprP?+_>#|ҾP?LS >tPSD?W]I>l/f,3OѴ`zx56Z]}z$h}"q&Y8062ZbHώ:zE!l+&Nvon0ôQ?lŸvשgX??"Z?P1zDE?P Ρb\?n^*>1wC?OXlt>̗8?<qD>L5>_tT5>5z*?JZT+?=0>apy>:>򌌃>>u>_9>à3>(f>ׄO>g95i*?y}?Qϱ5o>,gU {Xb㾒XqPnk4sͽgU᪳ڢf5/ߨ\I˪L(?-{ǿw8Pv?&-Ǒ?mj}g̗S Jm5_>u{ؿpFt?kJ??C";Q6=5V`!z_?Pզ=A	Z(? rݕiYοdl[?<?":(򇿆{?Ew?Ew?œ ƿ|`?S^?l|.<K61?K1e?      ?V±?Jcl~ʿ4!rF oF?{bB?Z҉Riu?-+?R?Fwl?ߒǲS?J,g?ECGS@ϠBU;/Pa zeK	6[P8DWqy˳/_?;H?o*?q|{?mBoZ?,?"C D?"W]d ?p6ob:?jbG"?y?Z><|?>PS>@>̴/?EDZ?/$W0?/|.xr?f[k%?hT.>9ovgT
fRh$#{03a\RE7&E}!Zyn{C?~?Q|OW/LYH4- W֊Sn"-[t?IKn??)B(?3/>4Po?\.K>"PB?:>W6>Q)>׷:>Gm>##>9$>تM>rdȕ>4>
Z/>O/i[>&>:>WC	>E3->hy>1Ы!6L+u٨L!8A
wѾеk*a	ľqAj .er)FҾFӈ&GzwC?±Ŀs5|Q18??s礿*F0q?X*^"HC7T}?hթcfQ?yɿ L	?ӁͿ$T?#Y?_Uǿ ~?ݛ˰?Xmج
Ax?sHШ--P??s(<ÿ︫i)Qd{#@?wO3tԬ*L#?b      ?yg-?n~\ؿE\]π?H5b?ql? **B?;?KWSS?ٜ!Is?CU?Y}o?X3Aǎco(?^m?BfZWh0J?.zmn?g)?#ox?(X1?
,kd>k?Eh4?.<<S?xj|*'?SG?waK*?N5i>M>>naN>p:?O%E?*fN9~;?hN?1?n!;d>JOb<V6fN5hxA"B<(l6(^5,A$6_H<Q&Q!HhԫI\Cʲm=]|\A?+IR^>^H;?*! IM?:*? Zԃ@?H>J&?8C/>@?]>t X>/Xo>=?#:z?ޥ>iM~>Tb>qY0s>k':]b>9tߐ>O|@>@w>P>4gPOa>a1?
 `	p>s{\xTlkm龭GI<g4bcc ̾km>=+}3V8"\?X6j?Coӳ?A?%D2b9	?Kɨ?|qyῥ"?{:/+p?ń?!,jHB:?hc?ol&
9?Y8>?վo|DGR%h"?f4¼濐_m0ῲMb=?b#6࿓Ֆ|F?RlS̿4k"V~ӿ?U$οHbƿ=~?.cN}ſ      ?TJR?q@j|aXlx_ЍX	?  8 ? @~;W8߅d?.8堈I?qdؿ   ݸ֯gLC  Q8%ult   ߨǸJ]yϛ|#b~ҿ	xw?   Yj9PZ??O?	BjVk84bo$?##V882_?2V8 98hBplgc*Kd0|?HRG80|?!}$8ϴep?-8LMÿڌǸ˃
}b8x88xyݳGظbxfTs8K2(4˃
z(En8qD츀Bx/p\Pݕ6P?wS9u8TY}?
'W(8I;?b_8IKt?J\8QԐ_/+!&ONf?UONf?8^(y7hñ*qѹ|8d1tLѹ|8ݣY1^|_t>u\88NtB%)a1NONf?V¿5M?iXǢE^A<1[W:ø\Y
٘-H^("Ǳݞ#X:%2ja\?¿a9z|¿*M?b	D	?zʿ~O7b?X7|!?{ۿ5P?LQЌN?zOy'ֶ?J.ɿ&?Ķ&&f?_?p{@Z¿8x?P'ʲ4?3ط2񴿮%?vhOp꼿Βs?tgE2?9j_      ?5?r1vοhɃpciB݈?3~Y? q?LR?eۀ84f?Cp
S?6u%b?ئ^ښ<#:t}{K7lm^22[yq@dt%AQ?WD{]^5{@&X3 ? v?{^<??qU?dy&?wf2>?~WU] ?>$3?&ah!?6?I?/],?sJ?$V%?|?/7[%??WK?<h( ?Q1g#]BbPPk9V&<)},E89m5+l"gG7qNP12)
i1gBVLC??AKy?f;]^?؝~&S?Q#?/>^[
?.rQ>Eu7UE?-{ߞ>$Ge^>FZ)>;1>xj@>=gJ^$>}>>O>⦱g>:n>*$1\v><jK>^tِ>y,ɔ>!H_V>ۗn*>;{r4$m&/vm=X~y?	WdFcI)z1RR_h,k9:ʫF?9(|ǿ ?A=!? x;?O` ?I2G?}(fy x"o/? /ly?+Qؿntӿ.od6?k'?ҙ~[ѿ>?N5v#¿x^B G?&s?"+ڿ4W??.*o?PڊBտ1P?ݠ"F\?[&eͿj?<?      ?`E?Bj߿JGƿ}cտ+a9q?.!>ewE0d?ta>=+:e'?c[6O?>bf΄?qEW?A(lB"w
:tuGF)p>vH:mC}} ?x,?⮯&?3G?!ۍ?tՋ/> Us?Q>yh?Lq>ϻt)J>V.UK3>0>0n|>;"Z?Z<>JZ?7>)/kP?F9U>a0U?#Hپ]̃lvj>WNm?0'm¾8_INyxjɃ@qp)؀#ҹ텿ۭ<>Z)uKcjp?o?~>x-m?ЀD>(xS?N1>l#H?xJIw>_=*w>PM0ih>9?38:?ɵ8>R$=REJB_>Kl=,K^>?ҕ(Ke=Aա^>s:bx>z7ز^>5Z=ru9?wd!?L_|(XLx;vXc"=φe+0#J:UcL	"޽NnymeAbČ?ܚ\ѿL<?j?M﻿;x?Srt?(w?jqYHꗨ?9N$I;?~_?~݁俘/?YgW!q?O6'ӿъ?}?9~пsտ:CSm?f*aÿ2 K˹?ےChɿĭ@{j?=+ĿS*!p˿#{?[*b4(MDҚWuJ?4g      ?]E?o~.'O߿-xȣGHտiloR?y?,j:&?z	NE?zsHX?YR?k<=q?[EbBhhǡlpbn)T|+(wI|4?*Dh,Z'.rf?
?9~?^C?O61nB?X01?Lk>F_:g?>P!?5r{2^?qC1-?F?K>REn>/SD>E>TE3Q?R@+?RQ? Q?ߑaG?>2`⓿ߗNN1/V|;qd=_uA?r˿2	FFJMuI$geK$캅|^i[DB5;#gV0]S?>Ρ)0d̾ȧxj?a/9X?m2?TIY?rgޭZ>їB?d+=>Α8?Pjug>hfܵ>>EΩ">ӛj+?|qw,?9T>
*>yjXں>
b_D>s5>LͶR>xu/>4Au>m>ً|q>0w*?ۓn3?
lco=JܔVo)aOѾ&ZHazDϺVD"m*pѾi+1mu?I$ѿ)R29i^ E?J?tqʿJa%'ƏjF?Br*½?&−!ؿtVtl?B
_?ߘ{pԿG("G7ݔ-_? UN^a??Տ?t_8z7ؿՠ:#2?/+\
?ԴпIhLfm??@b2п}WH?=Z
?@K=ƿ>?H*      ?(.?<boο5X˿=, ++c?OAJ ?<T+P?EJX?Gv?e934?9Wjq?֤ȁ,C!Kk|⊿Nk!~o\1f湡ȶʼ&2tY5xv?;VԄ@?}z|Ի?<\!?<-q?+>R|4W?}r>#&M?#|N
?@}>TO>٣>3[0	%>$4[
@?zU>W@?
T>v3?s>BNz-ޕ=a~0dnz~ɾTIlݾ>E6~9F
ݾFRJɾw]PG~saD_us(ݾq}|뾬E\1wW{*ks͑C1P?|Hg?yH ?DmqG?σ">RPZ/?J>:2#?U>aS>LK@>˾/?ԷV.?s,^>h_؋>;~>K>.f~>J>:.}>dޚ>Nq}>Iu*">aJz?H>j l5Q2A;H37䠾ިH#%h5N 7b5ƒn̠ԟhXNDY?5K$j7#ݮwv?bs?1h9?'hRb{%[[mۿ_aٔ??I|пf ?F[bƿ-!gJ̿#X
?_}K@qTC;ҿ/??8*tӿ΃?E?\N?	
tȿ[y,?T4J?t~koɿMo~?qF?      ?Pw?j(?ѿk_/sGtɿ_W
?Ǌ"=J?1pzw|?8" @?Pu?ȯfJ?ϋˤr?ل1;Wa=*u1/,Uez4oćɕ)/	LCoP]W՜4
?/!w?Qy 2?wR.?ZJ@g?a?j3P?Kp\N?"^_H?kn1?M,>:ɾ?yP[>t4>;u6?r<>0e֎7?n{]i>	1?rl-<>fGvΈg=33_3SV'=N
h)oQ ,ҧ#ٝksuG7Zr_< qm<Y"CUYZ&e4m^\1?}p3J?V!'C? V:?!> B"?5XO>=u?7>S >Ρ>PR	?g~e 
?Xp@>}[Ǧ>w>˸̓>HACf>1d4u> CD>z|vW>?;UZ>߮Q-+=>NCRVR	?d">ɴH I *f?! 2lw޾8a@j emձ1"pqٿrY3~.% UY?p&TͿBW%bnڈF?N:?u
!+ÿ4 sA{?¾ݿ)r?3M?X}?NǿxVᕱ? )f!򆊿k'3Ŀ?-?
=F@?k °}f0Pο6?>o+?{W]r?ʮy=r?䴶
կNGſRjJ|?7mcu?[w?H?ul'?*ַ      ?hVd??*އ[Ͽ߶J-gQ+ː?Y+f=?vqy?:J9?F9
q?*d=?qLn?P>YC;`ff)EE%"Fr;KL7iwk]7HIGk gKr]?SmT?2?m-?Id?FH5a?Ґ?-JsJ?аt
?;0B?C?޷N>QX>C&X>Xy31>RK05?6a>W5ͼ6?XMBS>%M/?$D>_-up[/48[dk.Ut#><#_e$7P 40tJI5mY7B &MnpAXd~GxXPeg{?ɡ'F%?`$?nH1?LwP>!ºt<?+ɥ<
>˛آ?݄=>ltG>湆>qe<?da[?\?J`>="f>y3jǒ>HXЋ>&">i;ۀ>3I4F>aտ0>onβC>ݖ >	C	?R%e>0$@mS澰Mdn,3_JӾœ&˾WF*-Ʌԓ<t!;վ`&(,i; P?ĕt῿^>@h?>2#N?@BGF8򾟽J&u?5/?FΓ)?_?ZO?#R{cw`b([?SQ	~?KYeɿCy?HZ֡ OaK(c?P?~eĿKv߿zA?o% ?Ym~@yMֿߞ<a?xN?;'ɋZҿe)"4?      ?!e?	x4ؿRơmrпmÿ_V1y?#_>p<?)Ϊ^q ?)RhP?Јc?y.B?sސ3t"mFV9j#e}0~ɟ硿Bs[? 2 ?^թ?ީ?]S>?Fu>+p?y>;iebc?->̃
>cj>)5&>׈b>:oU?Q{>ĦqU?[(9>̮I?=Egl>:?aܖO#p֤ux{[򾿌C7ožWނ$;*0Z-;*:WC\žjVb3Mcx{,̾|]꾶ygS[˾/"ԾRfM?bt>=k>9#*e?aH!8>Iu8M?ھ>`flA?ZK-@>6>#L&l>"3?r3?5ˢ>dqn=*>ۭ=c:e>0ѭl=[((
>/V>mڋt)7>ۚ>A~3?Z?%r-GUþ[kX+rZ~
]r [,p\XȘ43᣾,h!iU?3+ؿR>T,?U?|do'Ě
?5b$?t٦Ө6*0O?E(?Gs(ѿ"	?ܞ%--P?t4ƿD`?4S!9п?	#xӿ>|ځA?2I`,t}N4
C?\?ĿF6ƿVKEWR?~lJiy`r@B:ak?      ?FC??lQDcZ#:ſO?n%DP?tgqL?:H?#?ݭJvH?FK?Uk/YGX<uweMm1QnwbiJa ~E&|f/6Ndr;z¢w? ѫyj?3???޵&?,?Ȑ@Kl?KͳO%?3Yb?A4j%?+?M?)Mw?*T?1S?,x?!cS?v?A*I?v%98?H혿پ$(8m〿V꫔@)l;z+N@>Au)R
3`(].gJ(tـ{Oa9B?&Z{1C6emƯ?Gj#G?X38?-}+b?ÆHL#	?B<PH?^?.??t^`>Êp)>b^t>k)0?媗0?ޢ>Hiգ>=>:c>1V>CN^>`~>vp>ї
/>轲u>P0?DƑ^?}F6};u+F̒rR]Kv> 1q,އﾢ׈@]Vq !Ũ~4J<<G63FDĉ?iW`KſKo{?1Z?AQ .bDc?-piC	>? Gyc8?éQ ޿1	?Go#?ڐT?HJcOĿD1izi'?C>y\OɿDMu?-h/?}QZ$?|s؍gm[>J,\6OG?DpL?Q?      ?99#n?r}"fLտzwQ&2Rդ?#f:?a[GtD?+,%l}?n:K?@ys?VQ?o_o?|;`'U#ߑdd3kOf9GA Fp8(w?'ZY?_%?Yﯧ?gz?@th?oG]?s Q?7rz]?%QInF?jD$?` ?Ll~>Ze>O]>Lu8?,yf?^)9?
w,ݔ?\=8qN0?KC>āB|9(ZJdfR8?e`~~:9+vՃhugѐONc.02%l9
yeDt]h~0T?x;zV?T;?Y+<??pv#>LDg#?#>z?>R`/i><\>X?,?=;I?Qm>)!Sh>.>/r%>=1ú>M> 67,>_Ϳ>_^>9sg>x^<?+$k>FP@%|7|k`+?ͩ\VLϙ#|H_6⪾Y}j/Ob?X{ ܿR̺5?(ɟ?tC¿^h2+!-C?Rdk?"|yj)?zCv?dܿe۷?S&JS?#¿xUɷ?nWSοQ&ܿ/ ?j#XDC?rXl-Q	؋?H@lWL?S,W¿U]Sп?v6?TRLXe6Q%Aֹ?      ?A.l?nῥ:ġѿj?ޭ?#pI&4?Cł#?& &A?׈?V#P?/ׂ?47]ENc߅ڊ7f[F~9̗>5?L_#\(r?JRY){?Scp2?Uժ?M**ی?*x?
'us? L_ ?ծ h?CD0?{b>E/{>Vѕ>Q|>bQP=aZ?ӜFA?zZ?Ity?`P?+6Y>UvDش-<^[ㅿ
}y:u`]yPo%K#IcJGH?JmmvESg|2Ov'>PA5f}(X?+-\"-Z?r@?Zk?$ȑH>_R?UU ?"Ϫ/G?
>͌>uT>hi|9?v9?$nR.>j@ g>߾(̈́>&ay>WW1>r.4k>Q5؛>n]>n:>촀n>?xY9?3wڵ!?A=aol^4R&eɶ,'h5w)SU2e'Aئߏp$?6V#?_P]3ȿ/$U5=?oo7,?>U~sJC?bT8?QU?Gxp0E;?e}I9?|e`Z[п#\	S%ݟ2?
1޿@bT?2CĿZZDٿ!蜩?$mP*?л-M1ЀEԿN?kzZ?zDg3A
οoug?Nu5?%[ǿwf"?      ?J
c--??㣪ܿ,؆;=v"?T=P& ?"?}8?Gw?NSE?RT?j	nG9 Æ419'84YU?Ֆ(flpH ƾL:ɃPZ#זo:B?u;rbt?1Ԏ3	?8I8?`%=A?>OBs>op?>c?!d?[@<Uq#?S>Fd/>*-gc>V5u>##жfV?Y>j`V?'A9>6`6L?@j4>/_x	ջ͐nk7N:#$h2 0z:B2"Z')g18*YT
a0y&l:|,4#~$dV?[sR?	Vc{'?̠t}^f?ݢi>{jM?[>.B?#Q>Z6ܞ>Y)U<>l4?4?6ƣ> c`0>߬{k>:LP>߽̒>e$H>h^r,>jhK1>d*ຨ>Sz
i>gBO4?U9 ?EPg(ub\ z@^pJ̾PSJb@پ%l]&f-*j:{9оZJԅ?alZۿw>?؈?q JVkҿ-2U\tx?w 2OYgHE+ 	ђ{?Me?+M_|<L?XI?֑lԳ࿠CE??u'ѿe߿l0P?s_si\@[\ۿP3?لS~'?ѶĿyҿS?ᯓ
HeγϿ12b?m>      ?C$Vb?c:"¶3QY|ݿ8ܲ\?'[^C?`|I? UB?`Е%?V蛞O?%:_b!?
ےak&_ԍpPIhY&'IL/Pe
.6?%Jvwr4lm]6?	?T'7y?tbU)?5u?Pz3?ߐ
t"?~s?ޤVe>"?A65i?n~{.?v!m?+G1R?2N>O>O\?M.m?=W\?HZ{E?8	?Q?d>+E<w=|Zī?yfuL8 <#0"݅wT6!Kr#$q<aRV"^D56v-ɰp9;Rb?y[H8?51 OX?w@5\Q?Uw<k?Uf~ ?>9;e=S?X >n?Q!MH?a>l#>riqbE>t;?!-r;?Gwx>vN>^ q>sRs>m	>6>$>E9>A>8u>.:?Rk$?|T9B_*B|tfuD"^(F"U47fORŲ.PECPL?`=?Jȼ*I;#?)ɩ:WA1@N? OnO>m<ܟ),	?S?bc3վ?_H?ot?|d~@o@~rnT?x-o̸7ÿ#!?S͇׺A{W?P^DmϿ^пܵ1?0L!6ԿNG+ٻ?ֆv-Կ      ??([$;CP1?  Xߗ8Z? @O9&=? Įq8i4?ߊݿ  T!ÿ  3r5FǷ2>֭5  ?QиH=~eZX+ԿU[N^?  zP9r$}?Dp?
@ٴ?/~84V$͛?XC{8]kI?.]Ć88bѱH8(r^8Tz@8#BÈ?u o8#BÈ?]8G|9=v?7q8\\ɿĎ=	.M:-۸UD׸pLebָ薿 >	.)ٟcpF$k7_
K!0niŖ~[L?:̒<940 #9jV?ts8Uu/?RU8	9W8|?#8󍁔8(8tp?tp?ZF8j11.8wS1D.8#1օc"8_8&?c"8)D	2tp?KlU?hKWJŘ63ɝdNDȸ=;3{ę63ɝ/sU%p3ODȸh;XG'sy?74Ϳ+WA?7?!f+ÿpG?O?Ŝʍgd>翉E2"? ҡ,?Ͽ hTAoZ ?x$O?u#ݿS#? ` Ŀ:@9se׿X`?v? n	:ĿWz˿=z?mU?^,P_]!|$Ϳj?ѝ՛?WndS^¿bs-?      ?
5.:?j>Y	%ڿQ!}#FvIǿlQ?r	1?l?X1?=C;@?fWGF?.2|?Vo`_UU~-<P6]}@]H?q})xyG?IbԽ?p9S?U,D?[?"3'
?Ce?-	?6[?|Fh!?F3^>G~>^|a'>{>DjWM?a >⋊VM?X8҉>Ŗ/C?Hxc>>q	l0qvoF*DUB~a,d}SMPG"N	^تv2:z˪,Ifo'v#?s-3&|Z?:XZ?u/A?/JX?ip48>ٛ@?#d>Vr5?,>nx("A>ޛ/ǿ>\_,&?7!'?C`y>E-'vl>U>擠7r>lj*>/"~ROm> z:><Bjb>;ФUM>ˌr>7J&?09?	)jo
ȏVpQ.(cę^޾Vu͓C8Q Ė(<޾>Hfٰ{?D{?ɿ.C䤀ڄ?|j3UC?b@ȿNbB?-e8?2Nlg+nx?:A?ezy?ԅjʿ
pU9vI?(`ڿn?<ȲB=п&g?s4UAW?S椿ߡ3aӿ	K?s?:(E?0+o2wƿkܡ ?bW?iǃҕZz˿ h!?      ?fF?TdֿCAH.*F^l`̝?k3 ?V)?D
6?W*z?b{OI?Iu/t?y1䭴4S	?-TB#Q%Q_@닿z猿agqBe
$tmCb?i@,T?=i?IzWj?5B?PTt?DOc>Ӄ[?X?Q?qto!?}yt> ?9>n>Z>T:EmB?k> B?>:h8?A>S>IH>V*l$o(Itf7ﾌb\>$#B>S
龢CqrS禍)lؘ}	>5e}. cX\kyF;澿զH?6cEU~A?eұ򾁆 K? 2ɃF>Wb@2?~V>湏](?&6Ǵ>e"Wg>.6©>OЎ?z?pahM>FCO>ixT2>WozQ>	U>\ʕY>wun>UU)>tA>ûL"g>?Oh?5?$]+_dq>;BCڥLž.Z _8dͬ>hN Cȱj:>rfLž/AD:+\Dhn?p>ؿoi?kq ?NGA¿(*t9?[)$ƿPá Upǁs{Eq?a?hGxտr?7vV?cS}	<οODʂο ?0}Uѿ?oaӿHT`?m15F	ٯyiSȿo/?,7?ovS?]Mſӣȿ[w(n/?vgc"E5A?Ѿ7㈷?      ?6%?l5?BVJͿfKg?Fy<?Qx'?x<7?QQ?c:6S?n4Ӂ?14ڙ} ?JL_x8.Q-ી?SPQziG){=b'PM3a	/?[bI?\5?rVkɠ?S?TJ3>\q?[D?wͺOe?3|-2?`N>Ajd>B
>LIB2>gSW?DMީ> W?Rg?>1mXM?>~[۳>ą,1!Q0 %#PKE>C1;Pz>6xxCFBlVtb03>Eǆ)Sކ7Y.r%Eꙏ1̾c1hֲ?oy'?f]/%6i??N>tP?s>UղD?aڂĤ>f(r>̓x> v6?vvy6?LO>luZ4>
,Ǩ>n[O>!>PUE>_6)>,XZ>Lxb4N>:U7u'g>\6ps6?؎?peg}u\y6>(vfcN1۾_d9Yb@>]ÎychjP>^־)7=+?JcK_ҿf|0.?E&F
]?ṣ"}נr֫??||w,B4,{a#c?J$)?J&j"bFd? 1oٿˍd?Ol`,ƿ笠?ꝴd?)ݏ!zrl#[ɿH?n)d?~NF4O#{俿t$_y?*?L?sĿyX ?      ?ݍԗ?zҿ{6"|dCKͰdDX?c$_!$?z*om{?0?'s?)90LA?dIBp?z7ߤ~<]V;?
~菿RC?Dԍǋ{B-qQ0WQ `yl#?pV?c¤?{y_u?rsפZEe?ll{">[+z(N?`tn?xE?d(9p?K5>JŸ>9yE>ӆ;>*z5?]>-6?1Jp#>Ŕ0?@8>ވv(&Ms?HIiaiY$>v,M>L5gFS>;HJrLUE`KF>.$<N]
O# Ew߾` CĈ?tϬ(?y 7 oۛ`c7?̪V>sb̔ ?ID>LD9?~ qĴ>H>6T>(11"?׻?ee3o>N>>QwSY>Tņ>m?<U>g$CП>o,A>YO>Re>hK?Ǐ>O<IӊU>hvJ3y(TfϾ3Cھ7;d>\+fV1f2q>Ghƾa4՟ G$ᄌ;[? m5x޷&nwo(&h?m?"3m=No?r㪔uݿ1?z#x?8(MKտd邑X??h/?E˛Jο>e*Ե@?/=z]ܿ*ד?=?'&Ŀп,?qȀ?xCtGy5ѿ^!S?sA ?rmHg ſݯ9&?      ?<?9{ӿ'Jɿ0C ѡ?{60\0?ۃ?r*-A4?=?3U>?'xy?	|ojzڡBcl<汓˻REqkޢ;##xwmUi??@ZtR4hV?8?\V#ʮ?'z?s<j?r+*a?@4:?(BW?(~f?B#>6ͫm>3`>>EXH?n1Sy>r=H?7>>-/jX@?!t>>VXZH~Edm&|C8 cAEpyִfBOsLpP7$Hĺ)TFmU@&0M)|
<p<<X	̿?1150?CX&?U	S?u 7>G0:?,|!>%0D1?/H9'R%>f->lΈ>*"?J|K"?ad">-h>=, >4ptp>fW5>=]i>oȬ>u+>M>ɑlDt>Qt"?ݥ9Q	?+o/`zJIejE8(9־n}!?ܾDi5cE9 6RyԾgeUctij?34ƿ=P'2[%R? ?k Jͷbo:<9{>ㅿǌUSd
-*?-R'??&aɿ?;c'ΐ6
69s?֖?)OvoSҿ[a'?{z?h8?fO:,?h~*^ Iȿ-D?LT.o**?p:?o<E      ?W|֢!?DQ;տ_ZhJGDвƾƷݝ?Dz?"d?8TD3?:z?QeiH?$ t?+`JD瘞U S~;?xOPy%{g,?xa0Ku?1Х?|V?Cft?kZ>2'o[2\?;Ž&S
?Ӑ8\R?h!?uD>N+(4S>B3h>u&8R>޷D?`w>{E?eǑ9t>';?O(>i&Ѓnng}	9P	l"*xW
j㠶1D&D )ՔC CnUt'4kϏڧN~ZuihI?wߗV侍:}M??yͿL?aѫ+?OK?"V>3?t¨>C"=K)?1>ء>Z%>H!e`N?qJg?z(&>jI6,>zv>2OB>1>niC>=>u(>B`V> ǐ]>  9I%?ah?TFº[<GGvw$/C8H(z=9־7׾Lx!lCog亾dAKj?s5Պ޿~-C}E?f;yWh?tSտK&/-1ǏJ?<¿y*Kȿp*>op?r
?5꿛m}rĿw
Z?(pL\}ؿӅ1ݿ'c~?Bдӿ
A\P|wlY?[4ͽZ?d-jΪ/?3?s?ʳYǺs)׿%Կ?,/ݴ/I?7Crؿ&,?X?      ?R?9 _濛Jÿ=D/%K?u8æ2?8:m?d|8ưt7?ͿHVSE	gL388eKl[ék[189-ZǿI?!9h?ʂ?tKP?pŒu8qԚdy?3b?8o;|?OpK8;qnG8?84Y889s8# Mo?%+r# Mo?VAsU8_b?48f fnȸG'Z<3$8hQSKX?8Eո:1jk^0DӀi.Z<%-8=۱Ȓ)l|+8lxMdqY?9$y8ƮM?{Μ88n? 
8Υ\b?
߽8" B_r8nwj8KLC{[T?MC{[T?F@Y8:gyԧw8af*1LK ԧw8=14<Z2X8_9޽8-~X8G]F15KC{[T?oZ$;?Y(*+MYXjھB(bw>ZXj߁V-ұe}cnu?7x?bXXVĿ:հ&p$?wN!?VT0qȎP݆?wŵ}?+B!⿡aq?lŗ3c?pcM7C<uhI
E?𶁂FN;j_?rAU2@=ӿLȸ?6z?A?7¿++B{?bC2?lBDN7Yɿg+[<?| ?EQ_?Mi<\`?      ?{?利Կ,.9Ѻ#GV7?<wg=?4UB?9*N?ry?/[9Q?s?yӽ{)z'IL~gL5|bby/ЉPXyP=|6./y]*ɏ۱?޷m?H(yL<?
\?fp?#9?<X?]#?xrJP?5h&?=cI>`1>>,>XG`B?/i?`HC?.@
?{@&$9?؂id>bl\w?"\:hM>m7:eg-
iM"s9s:)1T苼""hqrot$
ӡT3"01|g?Wi"N>
Ygl?M0͘B?Oq1?fșLzE?}#q>g:/?LrF>	Ӂ$?ő7?>@H>fYd>\KT?~UE?ъ0>PqEc>fm4>Y?Ћ>@>i>oG%I>'">~C>euÜ>1?/?sN,?bUr([HڄI?G+i\Ծ$dE׾%>1J]nھ+/F>V 3d?tſ==2U?t?B<hu	SAn??&ݿVK&?0 tK?N 5xļ[ɿHQ?4U?M򗬿"}w?/Zu\+տ$?N[?PbqڵБe8f.?8W?ؿ)ctpsͿ}s?%;\?;ƪAua0װ?      ??Qzп;Se¿Z>9AJ/J?bg/T?Ȝ9+n?o,Q?{u?xU?cq?r'夿ZI583
Pnr:cEoyE[he;"Ĭ?_XMزuiҫ?u1Y?nC?P?>Lm?>ga+VT?~By(%?RplmJ?)?0e<S>&F
2>eĄM>y>w<;?l ?t$l.<?"G?=)<x2?`]>!yy`a6@7]'޾gKƸ1PrQ%gDDb|!HP~av%$%ꭽ32a |Пl߾->侫쾀%?
/?2Ѳ?X-oB?$|qw>)?G%> 	v ?@*c>ΈE#>s6W\>Ǩ>U-'?@
	\?d>跶l=>?-^Ѝ>/#B>>
pB2>#w&Xa>g#>XjE>?X&~ӓ>qz>]Y?4h>asO֨_Sd5,_E9.Ͼƾ~>/5[Igbml$wPAxI[?3¿-OBǡ`{S?ϻ8?xK!Mҙq?qR?Lx%prػ?+\s?xOsCп!_¿gH_L?bQt;|S7㜸(i4+L?읐 x!yֿ57?'h?:e[̿8gC}WjB?.?2XZ﫿+ nn̿z?dr:?moCU~S?      ?J?;y8ҿh6šl{)nǿͨoJȭ?z,o^?QV\?|ȥ]?Qm3t?ŌX_?>{o?Gc9G|Rr	':AfpaFScH8ADvMq$U?6?|paWI?ZXXDP	?̶aB k?,B2?k	S?E1?bMaH?ݐ.2?۰H?G|ނ?I=
?7C%B?Pt.c;?``?VVԧF<?ddTS?Mot1?5>C?%ʅz-آ-FS[c=C@5"`q .R{@A^NR(T#)S&L{b?b.,
[BA.ocz<0*{B?Ɗ[?6nU?(@?3:D_?>Ɠ~&?t?vt?3>SU˨>>*$)>>⋛M??f6>>^ s>X[>`wnV>ӯ6>z'n>AJNj>>N"Z>ZX?HUQ >5OIsgBU6Ƒe!/c+=	C6/ݽƷ!LKW#7~_?7
ϿϷ鰿Cwp?49	ZCʿ{Hڴ?f׵z?߸#l!+?;?; ?8X'Ͽq1S?sa)?3N[׿iP?WĿ/ǿvÜ?QnP?|$g_TпXm0?"ç"7?-/
r]¿4?h޽
?LtޞMƿ`L ?      ?OlA?zb-տHfMΡf 3З?esOW@?nӡO?9Eh>C?Bgt?V8T?־X|o?
 CadRreXsa:JaSc[[4^[?jy9HuP 0?aYY?`F?X"TԒ?Qm?E?|S?2Џaz?@!`"I?-(?"өB>$``\>iY}_F>։4Q>*Jg;?q1P>aRO;?3n>(C1?n&3>2V%PƢq9 Heo!%55

" ǜ˅4%}?m,H
iXtMeY4I
˛)3T,0?Bm<=]?T`?@DL?O=o^A?aS>NzF(?_&ݤ>se'?nՎ(>mc>C]־>i0?0Ax?ѕ='>+>i+ڱ>YO>~

> 1>&>gkz>
j>ST觓>T?(o[>7SbjC
a }L:_澌d)(YN&s:[&M	Iݾ%j)fqoe?cXdi?U"?,-K?od?Tr"㿸ksU?T2Kq?5"Zz?k}l?q<??154?6Ts?eyK7"jzz?v.׿aя$?^m-~=?;"=Avɿ(4Sտ?,X=ҿj2?:      ?;?]g煗el+Kɍ
Q?5,8>g?Q"P8T?vTO8
M )?|p+tԿ@@E+K
9k4|gWplcdu@y8/0GrTNпb(?m>]9~3?	?Q1xz?4\8)&P?ŀT[8zd?_h8;8M?8#Ecw<80j mv?'*=cj mv?08^0k?x6)O8vl~า׬*a8<RøZaH8-Sdݸ\hŸ	-4'⼿AXGwѴyЄ/HwA28(?W8[o@8p3ѽ? fN8J@x?i8 @Zr n?zh8)!jz8mAP'l80l`?@o`?rv80P8E8e\1a~E8B1ۄ%Ha8˄h8)Ea8"1j`?tqFM6F?h#8ZǸ2W
EԬjFSmŸ;T;?W
2BaԬPߟ(rs%?V0pп<kO?/ߢB?iM"?"՜0 ?ʘ*?بҿry%<tEl8*?Jq7xmw?قVȿ~o0&{?CC??xػ?;ϿWwJI?q9&$|?g/	<+kt>,?"?.YurHYƿ@ כ_9?x%$Nķ?.8D	F      ?? Ŀ҂ÿ8Ri?;(6?N?'RZ(t?,A(F? j?jˤ7C?
;Ld??v.Ȓ[T:{I))Nq5[󈒿^+Vszte?9ys"?ԆîP[?r'D~?N/?j3.}Z?k{Ud?Ȕ EB?t?\8?"l?;>ӔBr?~g>6i3>oZ_+?	>(>v,?Q/i0>r"?R[.>a{#o<IɕfFT f15$7Y#\5`r3D
3IoAJG\';galΊ$ie#l˓:{g?iH*?	l!)?$!(?wjI>Psl?75S>ஓc?F0}>-a>t>	>Vȹ>̫>s~>iF>Qn>Ϫ7>ym>
AA>)l>B>z@;o>'mHe>Ή>m06"K_oOAFо1|*N0Ѿo̘.hѾf`D3W016?QqpK0g&?ϛTI?A@߶t1qTJ᝭By??J̖r	?]|?Hƿc wZǿu,o1?죿L8B3F?$W6ݿ^Ǆr?
W#?ÿ:Rax?ش3b?:&pb?Mwh0"(ѿv˰?rgL?i߲-l'R}l}ѧ?      ?)_?uuտ<u+ǿ#]\¿W?nI8?A?VCD?
s'N?<N^Q?ʦ+{?ۈOAMAH]>BUt|SwrHyVչ=D S׺/9i R:?)wL?=r?DRPٯ?YI8?qs+?T]ď8g?,' ?jPJ\?W3oG+?&R>#>EBU>>4*>M뭐		Q?ϗ&!	? Q?b@}?BrE?N?>7Ε~ATFtT1gGҠ(xd +
+	8{Yn`wt(k)+Rwu}7t$69BiR	?o/&?e^'?TUgY?h>ziB?׭`>6?]T?>5!>b t<>WH*+?L+B C,?p.>>׊s>N:A:o>|eY>S2y >l>|__>LG>0>{s>4*?ʱx9?uPMKf3u4;dPCBw辑_YapKxORQ aQ_}Wae7s?؂&bݿj*ya?*T?9ކǸƿWÿLl? N?*Pƿ2T:E[m?|?xUۿ*J6//KK?Cx@F_?Vlݿ4H֣s?zt#sѿvۿm_gv?=R?K,ѿn]G`괒?u-f?yЦOFĿZϿ=Y?Vͳ?iÿR\3e?      ?sI?6Ȱ2v6첿F~:ѿ8??"6iB?E1?<C?6F?Oj]O?ڶEo?E ,ÿLK?^>ڄ8/*tb#1TnD2siۀeZyX!sygc?2/8c?!F#O?&?}Z?4>V"?(ڗv?@m#?-0Es")l?[ّE0?;c3	?<q?Fjx*>N'>lfG^?
? mQEX^?hXwo

?AR?h'ɓ>b$ _,-fA+?`@
fsk&!+ҋ?t5(?NTo*uqIz쉿:?\C66$~s<fV/J8\3)&O:?'VcC?@g?8g/q? y>?*H W?4KlP?ML?6ߧ>9>ẖ>U(>[>?[zz>?^5΂>6M	>B4>pfh0>&;Teo?>Ťׇ>j_B>I^4>$R9>j>2Pg>?[$?Q(
?lojVg.uL0[C_>sRvdjL<Q.->S"?p*h(SCa?ƅٿZQRǿE̋D?>Hȗ?-vz?\ҿuJҿ/_?@}9¿/>qy;?@߫?bJ?mڹbh=iế1c<?:Lm?kRT6?c
)qep&謹y)- ?l!	?u$O;n2õ?t!c?Mqcؕ볿e佮boF6?t-?3	       ?'*ê?$88PW}B9ﰿZQ??:ճaf?/88M?I|8D?nNUKN8=0:B?-/=cdKw:nSJARʑUd&ICj%MSl`ٸ8]n3RG!b?ݮͰ4b?4IO58\j	H?o ki?*"?x=Ar85NH?igIMq8p00Z?ء f8{tLY8e%#I6c@7%H8BƊc>%Jm2c>-+xW8lm">/F8U ڳ fz7mی#EfSbEM\-V2.1;(qPgzS,748 d#Ef!yH8?! p׋o't8'lJx'?ͳWv8$8j8W"CO>.RL4/8E>o/'.8V#7>4(8~7+i!sԫ>sԫ>T	8;f^[z57v%P1 w57v_`1-Eٷ$hH#(8eMٷT
{Fw~1u|sԫ>ȍ>UHܾZxdo(ڴ¾Xn_U{,>[3@?J6mڴ¾D
jx9r]!%8>&tdȿNl얿ܩES?>xW0̗?bx5Ļ6ܢ'I#?V?jZU/z"Uxm?<)?C޲p>Կr|R?EܥZ,3$?Vs¿O?ٿ.#;?h3oݼ?7kȿ@TszY_?cVkI#?U5Qh?jڲpg-Ͽg?$0
?SqG8[g#3)"Xְ?      ?g)?{3ֿig&yqE˿Id1Ɵ?!mX?݇K#|?`QxQ?[V|?~Q]W?bSv?G!!9so'CC|#Toyi3yjz.-&#;?ͼ\e;|j+
"oa?RMH܎?j.?m99	?e]Rcv?RT61?4*^_?م_m(?696	.T?J#Iv0?v*)?s':?#9?/Vr?ϼ:VhF?e͙?bXaG?|9C?+Jh=?#G-?ekK=>ĵMp@^8B	)3$P2DzA*э2&rRn(DXe}MqTpX{2I52802m]?:r&<7k?Gwe?>%s굁[?gM O?[$0oA?׽guS6?'ῶX?xeN,?uEQ>AB>綅{.>:Z4?hiy ?~^f>ZK>̷>-G>\_>Uy>#>soR"*><=!>U.>73$?~?} `ETG#eFpaIv/^,<7{%
єFyKYݾV    DtCp?#ѿ[Q?Fx?0~ה lؚNǣX?@֐?[u??B|?x࿸ky?3tl٠?bZ2ɿvw4;?1[?H5
yͿKտǩ?X(^H=;ǫ!?]7HR¿mFD?mn5˿/\6>P?C;o\'X2'^?͛      ?AZ5?Y7߿+{E_c!ѿcw!?2N(C?FORN6T?8%zG?LL?@k3dS?ruIV~?/fsR6oCdיn롿mbfn ׾u^3U[JQ?Rs*ǈs?F⹟?Hj?Âl5?g쪃?Rp? ?nVj?l1$?.`?k"|0??[7?˂f?Q4>BD0>9rq!R?:t	?4(GRR?aMyJO	?RZF?֭>dѐoAky~9BOImC%U2j&RDWKdXBŏ~;|0$z+7O#p g-?CY?ZA{F<c? T?<rvҸ`?I>j஥F?N{+?kh<?~js	>!Q~>*l!> k.?fUY'/?U܄>
! IGʌ>mk>/GӖ>~$>NCOސ>pޫ>JSc>RW)W>^^>6.?@4?,G/sK8hjY 0x$zYo}u@S)aC=+S?v&ο7-jn2gִx?=-V1	ÿᇓɅu?ȶx*?J=5F(\ͷ)d?ߌ?뿈ؿfȣ̿e?~WTݱN½nW0?\39Cj\[?8u5?phӿ+6?f:<G?S}b?Dh7E{&cӿRGS?X|H?tſ^ucl?s6C{?      ?eI?PRDMݿK~wſ}`&ҿI?g׌j`?n?Y&!AZ?3s?}Y?oV5?ޕ\o&̫uLJl[BK]Q{:\Es-jaYg??Ӹ?z	?ɰy?Q?)d>?H-Ҩq?	h8?
Fƌe?h:8?I/#?#f$#?(Nlv?Rck?_5X?Z3?z1DRX?\;%?+N?s?IVi=sMaEoXjJQe2SL1U&fN0D	2Ru2e/h5R5QncF2p+Bk
HdX?S*l:}6Z;R?꽘^\?)\?p:Th?S_j?+q}P?Ǔ5n?prD?S?'4)?s⬖>g4[o6?6?~>ԯw>>[p9>>rtQ>YZ>s>P6^g?t.֭^><>YG4Z6?G"?nwפEْ+ԆG`ãC{Sf#,؉qqgg+`*9$7Aza~v+e?cV6ſ5TYo	A$?X;i]?3V^eL?si?Gؿdx?We ?k=Ŀ4i!4J?x_˿դ?+$?42A4?*ʿK?4Ks?^|q8? Я E?Ն5ÿCg/?ȳu?s03Qy?ųRx      ??A˿P ó[>7rP	%?/$GI?=G*}t?&z%J?xLtm?	||M? T|h?Ue.:._|iDT_`X~Ձ<`yOxdN%k܀fޫզ?
xv?Iqǔ?iDVP?:
?
W?/n?ǔB?"yo?f:?	G!n?z>v&EZ ?ςr>JJ~u"> 0?*_> ?l"ME1?}3 ?]}t+(?2:>?qXe|')T,
svRi+9f[\>%lMpJ/YXGwAw:QTGfO&npiOĳV%ݷiWwt?n| D?s:&:?= I$?4[[>-CK?*	\>V?ET<>y3YP>ݹt>%ۯ>w;ت>@C>p >G)>pzW>]H>HfyϢ>E9>@{k`>Fڴ>=ؤ>>>u@j>Jv3P&du jJx]ݾ
vQ[|	P5Ho3[3呷wھfivyG1XB?                                                                                                                                                                                                                                                                                                        ư>                                                                                                                                                                                                                                                                                                                                                                                                                                                                                                                                                                                                                                                                                                                        :m^:ˎtwz?SW?/!* 8:y7&wԦ?O
XډKd7(?ln?6:̿=ZQ.x??;ÿTvDp;ں$?'}8ٿL<?1e|?JUƿ4"|?9ے!"?(Cma?_
hͿ',?cjx?smu?>?      ?SE?ub]+ֿB2UP'[ſl i	?9zJP?UN.?/ԉ?_wO?/h?n6xZQ?@zKVz?Kޤ}~dKIޗϾ'eq됏FWV%]08MrH6+>EmWW?I|?ٸi?p?u91{?Ib&(?] %3dc?CǫN
'?6kPY?Od*?0]?&!d?kI;?Nƭ!1?	@L?Q9$?P4>M?J!6?۞0C?*8?P.@L\o>|q+@6'J~g`]O"PRp6!\V~yxv[" [qϩ"\Z+5|5ۉs/)K!Q.7=?-U?޿dL?x3UT?{|s?=?Jpp?9
2?WLij>)06V>Z>+hHm%?ZM&?Wh	S>sa>0_+>I>SM>Ɲn>NVjb>^fR>>!HR>B$?J?0.[Eb^3.N]J,T#D)_ VHgUJ~ ž%rrVMJ_Pq?)ſǾD>Akԫ#?Vz3?WJR﷖t?	J9i?32ę̘ᩯ濾Yd?Sk?/ԯNʿ	1%T)h~?*x$0y?X廿eg#?j\zVܿN?YB:?XpYm7g^ſ(@?̗_L?~İпYC?ϒP?Id#;<<&??      ??ֹP6ڿ`W#Ŀ3ſ
{?)j82?.J'o?dG)7?G?yճG?1y?e9xe4t)bjܤϩD=sm
Nvrv?CYGsL*Bq<+Sn?Fd?ly?P2ý?X݄?t|?5rel?WU?Ça?A8$?K>J*9>0!> ߁>ڵf㫟S?I4:6>,rhS?O>͍H?`=[Q>m)D ;-kH㥂{6r>!bB>Y龾2\IKXF#c 
ע ilhJMcLR{tAi(4(A#yI~IM? ^uIMy!\-? A?Vh~?Lb?Ǌf>("H?Sj>8o>?~.>C>Dh'o>E1?ػ<C1?f|>OB&d>Vl"->ȵt>:)W>qr+e>׵x򕋶>:
>6M^>[Q`z>ؗ/@0??󆙚XqtqSWGGxT޾GuDR6ŭѾ]t(嬱Wt]qmʁZnᾢb
9CZn\&?UixX]Ƚ)wh?ᾩ?L'1m~~闿ȧ?=?;oJ忶?HZD?JU]ѿoRYҿX!?[1v?ӿs?djyܾVUZg]?v?>)GԿ D[Y=wW?d?*?^ǈJӯ9Կ۰\??_}Oƿcb~~+v6?      ?Hr$(?T='ڿZWljaȿKnοXR?G֘9?)v!4?WL?d|?}S?EZkg?3u\Aͥj8Ds頿ѹ`Nx6yg] 9oh
/RY5?w%%V?F7?+?M04?Ure?lp?F*?I:d?FCT)2?gGS ?L*Y ?)7]>o!>wLV?u?m:VTW?cL? {DM?$X?o%^@70#l"H~S|u>>Q>[\,xU]  %Syʯe~~Dq
G8%2=!p>ÃLRt?Su4?	1?WMf?>:x9N?Z?t6
B?>>B>w's#4?V5B5?|>Qq>>X$}>
Ļ>jn>p@s>VQ>5>9{o>q#4?/Jv?^atXfT ~J\B`Og쾍C^;0辘[*ƭZt"hI6qb(4Qւ?DY_ W+6?9\%?}߫w/V\JO? miyqFS鑢?ݳi?s
yѿ^ݜ>16?:rPMLq`f?A~VmRտ`l~?ٻ?Xa[Ϳ SĻ?Q?FL?]p*\s1i̿4%?ݗ?u0¿i_U?}[a?      ?J?l4Pӿg>HgɿQx*T2?v"1?ử?ىpA?Q>y?nL?>\Րt?Ң J]]JP?1*X8iQ/r@꾾:IySŞ	Q?̆n7[d?~7˺G?Kzq??{m?au?k*zW?Z!3?J fO?N
F!?!A>|ك>tMV>v½>DB?J >*GC?A;Y>T;`:?o>Ы5}30<6 c~g\Թ.@琝e-[ʶӆs: \fWvUټTcwsgO}2.E%7edTI) 3,y2Km?t9?z5 /?*gKB?dݼ>,?h,>=N#?RAh>CdgR>4	-ӵ>)J?.3o?ޓU>Bc>H9wu>nYr><]5>Vkps>"nu>Ϡ3r>5?r>W+>O\?pDuHr?H?!QBs<)ʡnľ ip_<ЪҾʹX<G9<R{BǾBOT9zra?\ϿY\{?dE?z?moRP}E? 'L?@LƘ?ir}!?h7?mYݿ0fX˦?L!V?b6y͢οS?=?Oxw&,ſjڿnW?]Dj?S,ɿ/Z4Q	#?#9!&r|1޽?qg?C.y COпk,))?9,?"k8+-Y?50      ? V;i?p{5ۿwc1hWE9Gҿi{Z̥?R@o>?KF?^::?+/8:?/U?Z!|?=$"dU'50^kS͜@͌i)$$?d}siޭNcOw?X|? E5)ǰ?R,5c?x?ܒ:W? )h?URy?t3H^?{%1?E9` ?>do5> ?0>J>>3DP?j^&^>7tXP?HU>V;-SD?1>Ϻ61gy]92/	1X!G,H*u2Qm(KSἂau6y_ 3fR'r!C?<
*1?) $W?9B?fA]?f~>'PadC?L6+>%8?D>P>9v;P>^k*?>*?|!>B8>*ɝ>z-'Kv>>т>35C;>~RPi>E(R>
ɨ>i4*?t.b?IvoDX9O>Ur!(zX] U XB$ǤYI|U۱pNk?rѢ>¿:s?yRC?8D׹{"E?g#ܫ?n񧒿ޭ濻?Y%1H?,sӿAwMԿ!?<ŧ?V~}ο	u?9v"ӻ\nz?EF?LNֿu4kBY_?rΖjS?-[qe]-,Nտw?mw`P?ɿ!)? 'e$?      ?.f@?=Zrݿ9-3ɿO˹ѿ	H?yQ?*#f?gوml&?K:܈?ֺ]M?2(k?
¼! iS>2&01%a=󑗿˭U#H6/B*]?,s62?ph#?TP1?.?΍?Kd>8 s?x}?+?`Gh?m?7-?tY>BZa>J4TY>>qlZ?->ʣEZ?BZu?>ΏlCP?g\>֢J
4Փ>fUFe5%ű綠1վS3ܱ>Ic𾅡n:}>zFyԾZn筘i_ułki^z>sKe/ם	*7$ ;Qeܾv?s?9Ҿ9Tm?fȾ>*tS?Hc>dY;G?F!Nӥ>~|p>ddǗ>5\:?H:?`B7>cEC>FCӌ>M舅>hMw>^4f >2>f>I)'>\8>0.:?T!? m{iŹZb>Nb'{gҨо@Kp)>UXUbHC=oWrMyg+؉?                                                                                                                                                                                                                                                                                                                                                                ư>                                                                                                                                                                                                                                                                                                                                                                                                                                                                                                                                                                                                                                                                Y1ѿ4spt.vã?b[=Y\ خ`{Q?Oڱ5tQ=x?II<I3?'lj?WVC-Կ1Ʋ?dD?Mcz&пB:U?ыđdο0%ҿޔ?腪h\~Ŀ| ^?f',?'˛C?4=)?Ŀ}ſ,7"?9'IvdSpoS'KW?L:$D?      ?a,5?6@߿1·UlRvɿov?~cl!RI?灨?Y](Q?e~'?dy&MZ?,{?"CGp.\Q΁2q!Z'gtCPeks️]hXvv.yWnrڤ{m7?`ݳe?T7?4{Ɇ?v3H'?S!v$?v7g?ቿ,?a\?8x5?^
?a6K#?WKd ?iRS?]KO?Snû?<۶
O?`DB}?M;tC?y-Yn?4C#,4}o,_s+|3CrBDhR!fLu'8kP|GmQ7#bk\|C	{ȰE@tQMOr@3[~~pw̵?%A?2!#@?jx+\?4f ?
kGC?&MR?u7?p">45d9>Et>	)?2P|Q)?+,J>:2ڻ>deiM>Bj
>* >J9ݛ>kw&B>I>cح)>l'>7)?Hq?ׄ*qtI>W}_ċ>K
(A( 8)"V#\zRݘ>As5m%)x[*j|x?\hgE(ѿW}?y;?}`y컿%rG81@?w B:۹."sW}㴦?oGU?uhYV٦ɿ-n?̀>_rϿ~V%Mѿᔡ?nCƿ`l,?[?AbVݿg?Wq?ڻh?)긿8/Ҥտ$d=s?)$ˌ?N]Ͽs-|һ?2=?      ?h`?-eF,GT%ſ*͝)ؿNY,?^Aq)?p*?R*6?ε?ⱀI?Ucd?]BN¿`;mDɇrP+SԞ!=@]}6?P8&ގ'ެDC	ͦ?t`?)?",?7?0%,?iaEqy?A½	jV?o?zN+?.-& >Rњ>ȵPl>APL>qa?;)5>a?S@>f;@U?9n>KfvO&wL艿/JY1tk#\lb">1w0v~ucwUqѿ뉿o'pVArh >tXܷp
#W=$ĳ?!gA?ͮPo6?g.t?4q>7Z?'wp>ARP?9>yH>U>6B?ZBQB?7`&f>T>"c><\d>$Y>Q6,a>	>X<> 6	"8>Kq>B?c>5(?协3I0VRBtkR@WuV	QYEKxkb!D9,no㾥2Qiׇّ?Ґǿ	
$?'?w).?MX.l-CH?7⿜W~?x/Y?|FԿW3\?LϞ-8i,̿J|?
,?AJ
Td'ɿNt#?%H1*n*ee?Xw(?`HY¿?UD[Ch.]Dÿѯ8?AjHŶw%?I²),?O5i      ?zǘ?>cԿuEΈ#ſa7ZZ?WO?C@z?n7A? _|+s?1bK?.p?Ӏ .C_1:wW|F^[w/rxmyNQ?FLė^מWЗtz?%?Kpn?j(r8t?GQ?RHe?)i]G">QQvL?VM>e?$
E?Z-M?VV;>>>e^s>YH>n{:3?Dc.>Ud3?uϳ> cJ-?LW}>E2x%NΐI>T`~P
0]p"(⾈{Hs;Kzr 뾒57lG0%Li`(Yj&{[&L*zd>훕ԾϲZ?m@?`+_ ?ϙ`h7?S>Δ ?HBT>Px`Wo0?]<@>$XJ:>	&">";<?ʂ?ztyD>*,5>l|c>3I>F
2.>RӛR>Vx>Uhz9>`z(:>j3o>w\㴉?h>I?؜Jp_߾j&Y2 p<xU5vӾ#8þ|2b^{+gKnxJbA^?(пJLp?_#?:H >ʲ3A1mɮ?B*Uwx=D?eI6?a5?[w{fS˻/?s?sncݿ&1?,eE?LDͿ*j.HܿEK?ʇVڽX\п_å?*] u߾?B(п<ɂ!?n0c&s=ÿ+_M?_Cc      ? :W|T?wHQmq9쵿VL׿
?_'?[P?[6&A?M)9?1-LM?x?(6@nh<98uP@i8];ޝ.1/˟^JO|<| SҶgϿ?̆U?2\;改?')ݻ?H݌?Ӵ.?_aZs?5 ?uoVi?Sع,?j>#|b><> wX>DEY?sQEE?.)2Z?O]?gJQ?CpJ>+E5(u&ao<2bԭ agJ]Ct項RkImc
@Ņ+s2pbxto^C~:'?S84?H9.?\W!k?j(7>R?	 ?8.j^{H?Kuow>$p2>F팰>/9?ZN69?i!U>'vE}>>ȰȓGa>vD-ɳ>KS-Fa>3>qPp>Ҵ>=Mub4y>[\Z9?r`!?ێ:jo?E{mOqd8-zྼn1}q߲+dh!ta-ہ)逛SFz?                                                                                                                                                                                                                                                                                                                                                                                                        ư>                                                                                                                                                                                                                                                                                                                                                                                                                                                                                                                                                                                                                        eпK
NWLbW?Jdf/n
Ŀ_ν&QV3c%?m2:?;ԹVTYJ?!1z	D?@R?rnJֿcTJH?ϐD?nKǿN?֪njMƿE~Cտ0*Պa!c?DST|~̿?Lr[?)_lxeʿy?`cprs׆?"RCl^\V?      ?Ee@?贓ݿEb_cDsLT{?9	Rl>J֘'?I[Z9?Dj?V/I?6-?N?+[id`j!L١sٓV_y7{TqwT"?bE.L&$_
aV?L.?6.*z?8ɐ<?.ȼ? dA>xPzn?;%?Ս
Ab?-P&?h=->b$eױ>}5>̹wg>xT?ieꍆ>!!T?B	U>+wfI?78>_GF!ZE-XQD3clþ$.峦liH1۾o:Ҽо&Xe2nf5޾Wewo'-+pvNwF[ ?LBd?kU\?ĴY?	Jd?#ym>η2K?Ęt0>ip@?}>xhW׏>$bbUq>H`EC2?8:
T2?W	> =03u>5Z=Flh3u>Y#U> $>7 C^nu>Ba'h>{Tݓu>\,BP7>u':2?ԀR?4;	u2۾2B1m\r׏d	tDD,\}: 0E3$O@y+TX4ą?![g}PC1d"\.#?J7?*Ei0}uC_N1?
?3xxS?8d?\,οhpտwMѩ?0ea?R
nLԿDf?{1^F	߿)1?y5Y?K4ӿT.ſ <q6?ry?h=8/Hnҿ\?A?pƿOݹ!f_?      ??Bfֿ[&ſ5(\gɿC5H8?D^1?^Ǟ+?eAC?F!?
nP?rF|?kzh
*s:+o[T%1p_j΃ݠ%Rl?6ֶnD>/gʿ?a(G?d]	{?ϵǬ?GSeh}?	-u?%6e?s$b?\?q$X)?Axw>
!>UAbZ>Hp>0YP?*'e?pAN-P?
7?~NE?UO>086<>WGtv~y-/Vp;Ay		 z f6[`:=%_slҡBWB%+UK$zm9GZ5(Dx<?Q֛<!?{~?"? <yqW?fݯH>@?jÒ>rJ5?-S%>?>>Y>mo*W)?/ 0*?㧈>0ot>J1!:}>3ݝs>ȀN>rLy>k,>r1>_` >v^l3>A(?$?Wdov "wC	@oO{]v־ElZ|=Ҿ=
%%qNH~I}wE*ؾwg_BTЍ4s?                                                                                                                                                                                                                                                                                                                                                                                                                                ư>                                                                                                                                                                                                                                                                                                                                                                                                                                                                                                                                                                                                {mHÿtOMNcFn?ƞ?K+]?lxOH$
?ֹզ)vٿoE̠?v!?M.A4ǿ^ևv?قL?ſ`?6'{(׿H?ף'IS?<ȵʿYݴ=c'?v\Pn?J[-%s1˿O?Qnb
"?#KP\rSOF%@k`h?      ?C{Sx?qޛCϿllqVýRS?~e?e|z|?/F+\?IGYq?**Z?Gx*l?O8,p!OexػgӹC~YPpe6~v*ɠI\H.zxv7.=?@|?Ε?n Z?wh?Q39?U#kcpP?ӭ0?/D?jt
.?-fҧ ? ??icʥ?S+5?^NS?[J5?7n?AnZ*? #'?;Iu/Z0Lcy\YBV{c#0j_]3WEp3C˵'.&hC( nn\;IR3<έAfC"T07xN)7"h?V.`?ΪwX?+Vjl<?l?B̔"?ٖ">?	=p,F?Al|>A-*a>#5de	>lJ8\	?BFb	?Й>}>Ĕ].Z>)q4>$8z>+7>c<,D>
}m>V[>:ኳ>.X	?ir3l >XHtP 	+>ęo0Tp(/q5MM/i09]U!] {Y:IC~@U?CZ+e+9?jc0?p!ֿ$ۜt%?
OEʤې}j5?TL?aZlp迮p?>?6G$Ͽ&?Y?*]ѿBqῷHCm?/9?^Ԇ[Cп7J?bW׆ ?Dÿ:Bӿwj@0?(J|?(#%¿Ÿ1?he&ʙ      ?*
??boEڿ11I?uZ2?Eϝ?WTc4?uch???zQ?s?e*{Ŀ%NN019wo\QX#If7Ƥ$?zN}%H#gȯ?&yt?.x?jl?<o?H)Y?O;z?o?2o?2?UV$>Km>)σ>MGWT >+a?6/e0>a?y)>Y\U?
@>lJ9gqj0E|V$l
3gJ-hnw^qI}&4>Q~Q+{_ft0)r}/."(R+?<?d=uO Sղq?EXNU?l/+B?Jt?<>\?:>VM>D_lP?U>=YI	A>߈>!B?UB?ޕ{>~V>xAZ>+Oru>kLP>ƣ0a>.07F!>AX\%>ZA*>cw>wGB?֥:)?t-P$*pWƕ
;`ƛ6ptۙM̖R@_a:jt?CX0пC*v%??D?ȩm  Q}ÿ|)k4?NI1w?p>nAlx?z? ܌.ܿdQb5ٿ)K?$0?,C!ܿJ~o[?-j5 Ŀ.v$?qT,|?3:J&eRHչm1?0?7zA3x4O׿,?0aDj?ڴejXѿ*c?      ?cm?ff#4Ῑ4ʿ7Eֿ$_Z"(?\~W>zޙ?X4?Id(b?A??j!Ɉ?c¿ b.EƾCaH1
UÑpm;8*rgؓd*n'j!u?S;?to?%㶼?_(?H˥>yN|?gT\M?E~q?UW~P!?b>Rkt>`,xl>6><(<5c?1>p'J\c?e#ҩ>aW?Ȯ>7 RjE^n53ŋVlRAkϾ@=Lu*'M7=>L>ų=Ͼ4&5r\Ћh1%>i&L ^Ecm(\zӾW=?`iyI?..>Bv?L[>0Z^?#>U,$S?b>35>J>3QE?35;/E?(>=A폇>%_i>*j>l8>`bQ	]>v.:ޢ>g>y='>D?0T\X-?wBى+	N{cnQfl0!Fv˾DTs6>MH{onaG'?нE\&K~q5es%?EֿU$?oZ?p?jǹx?
.s? 
#|?swA5{?rt(*%?6Aݿ	?Gu)>?RӖ"qѿ8^?}X?pF=%ſݿx5%?\s>?X#¿4٢$?K8WVZ?p7wѿؗ?C镶1?(౩uL,	?2wZ'      ?a:?U=@)0ݿbD@#п-Jة?PdW?>ur?=ovO?G
J?z6T?Vr?ck1;vv2䡿:lF^loX0G*5A)>U?J,KG֋ܭVe@?rk?Zr?"#h?{:?̱Z>5?$2\o?m	"mF,?h"c?.2?M=??y?sE?l,?صCU?lb? jU?	[m?N} J?}h
?I蒗S. G"2IN,S/fR:GE0{\:~?k.yԆ,f Xt5Zv:7E<G}^8?3?v*o[c?5r?$d?AGd?k?Ѯ.L? oi	?k^2A?3#;a>@w>_}V>7W3?.K-3?3?'>$U}>w>.S,"v>/$>	t>K~Ǵb>K>9>`k >>{_3?6d!?ס/uC1ɾ},-\6ǳsnFI{`#~ \޺ePLrb[	ӔZg8
͝?|KLտ@hrNش&s?<'3h? 	¿aBaƿN?lN?fϿQܥK?LS׳4?ǁĿiaֻ?	z
;?b?`f<?rkȿ4CP_?/T/8?QDd7xjq=&?rX?jGY¿˨DƧ["UZ4?+?s9xBt!"n      ?>6?}[r`#![j*Z?n-R?W$RyH?!?^j?d xPC?G?a?{wE?u' \?mK>(.ǞV7rlOZPOyhAƎ[~,{vLd8hpBg1,#?KɸƑ?.e?Wz?]sS?M K?ĸ%4?B3?!9?FK*?goMM?J>h>C>N+y>Us	M*?:gw>/@Α8?{N>cee5?cY9A>VMޫOSo!CQ<:Ë~/
g=t)%UU;	øQ[_TaQ~`x8jZ?Z)/?D'?8?em>lgv1>>O>xӶ\z>A<>c=>봒>Mp>Q>a*>Cp*0>Ǯ$>eɸ>f*-ケ>C~>1F>.]3+>scQ>d>G[=>a{,]>V9AsxgSmKvоAtRktԾ_f+kOMξyS}Ma7BZ$?                                                                                                                                                                                                                                                                                                                                                                                                                                                                                ư>                                                                                                                                                                                                                                                                                                                                                                                                                                                                                                                                                c}Lc1!Ѥ/Oם?ڞ5R?z㩵'օ9='O?pSc?DGCY"8,?|g?|zӿFO?^óL?ο:J?iZ?Siտ4pe?ቝ?1|dqHmrS]?j-` ? Br{̿|T ?˗(f?U'|?z/      ?6Et?C~տ.
Pɿp/?i9
;?F;?7cK?ڢA{?3fW?pPǋu?tF9MPFbhe#bisO͌䯒:?i7{xvbIf?oc?2Хc?k?F]ڛs?
i޵?fx=\?u՝"?6{)	`R?p@昌/?Wָs>2z> 'ܶ>rh?>lSE?`g'?##"gF?|:	?HO<??Y>]X$󃿠#}g`m5&9qY#Q;%)	#'EZ;듨,ooWoگ m$s+

2`hY @tBK?5 :?r4?jEpJ?UP	0:>M3?JB>9v(?@]>R6>BNSV1>`X?4?\sO>ך/v˄>yj>O>tٻ>*Q+>Ȟ>"j>~;/ɸ>Wb> .?QV;D?yhvmZ񖱐X[DWC]<zA} "|;CY3 ⾠pF@'m0]k?hķǿoa&VuC?$˹xz,B?BT L@x濅		?s@0'?|"n?J~RοW~='H?o2r?Sۿ,sZ"}x?SĿ>ͼ߆Ͽ?ħ?F?ص|*X!N=?/?O\ʥTѴjĿap}?i?iG4ƐD?      ?,`?J'ؿ#|qN찿V	b?xx,?l
H?4&VD? H@@	}?BUݖO?
w?Ѱ{ñвYM4Q|xθ9]m"To}zv;?'r
QR8hC?5_#<$O?
/Ȑz?TFzJ?Dbzqw?RTd?F׳_?i?mT?:kN&?CB>xa>^,<A>}+>^E?0T<?m.F?15?B\<?CgG>Jl1 %FpǲP4xy?3qVZlߐ1EA\űn+nV{$Iq+/݇Cj^3?T꾜#}?bVW?#6?ulP?د~.>ߑ6??#4/>{*-?"98>>cͮ>s]>k.;?2R]?ಂ|>M?g>`3a;>9Xai>6o`r>;zs>(>5>]S?>Vԁ>b?gX??{0byxpLLHNԾ{rEGa"lHH#@%Wվ574Źs?4|P&ɿ?Nɥks?D`J?PǍAӨws?%$~?^	O?'vFR8?_Ē?pM,ۿ"Kr?{V8@?&#9ĿE2h?5?`v&S:ſ{z׿9E_S	?<^{?)eʿ^?;3}?b0?A;&'οDQ[W?|$p?"		r3?'}>      ?B;<+:?S)ٿ٦][F[ޛ^ѿ9ܠ?tabB?C]?^MR?KwI}?V1茎^?S/v?'1.kQ&W`8~z0e&*\Hs<@˽tҝ/%7Z_S?t]Hc?OJ?v
]?Iyx?W#I?ir`?TJ&*?	.ZB+BU?~
 .6?%*?jY ?R{>0ά>Z+G?LI?ʯ=MH?:. ?j$V>?e3?_,P$)sY/yS?:+x捲k-	TWJ5[iȆrdlYU?
=""毴fktP_ytN,?V'=?!T<?h/{Q?'.^>&8?iQXI?~g.?2%F>V >He!>FDBwA!?zn3!?>#>tH;>\Ő>P>/>7>̢*>.3>n>/$x>!?y~#	?!
c)x[UkrK.,ﾢj4mYcVKe1^nu@B${@vu?<޿ 4<ÿl??2iraW?Wn*q仿/ֿn	q8\?@ي̿Cl!}?=?^뮿5.ƿms8H :?_O?4G֧?Ao
L-C:*D?u߼?Hy?ⴁ̸ϯ|?B?/tN'?Ub?a?_!      ?N??[-aoBG4<?2&?3`ZT8%Nod?Ln*8eM[?|
iiU8wrxGW?r,h8f\kfYq霸^^н17bY8z&rJlgЮs?iHLz?|:8EHi?Bn?BE?a)862Y,?c8l/"? W8hp8G{f]F%QWL:8x$
w2̐E?]6̐E?H	$zr8k[@,	?GЅ=f8-Gth8+đ
/c*8'drgq-\zP8igۮIEf8꧈}'8P*EHF
/~WNZeCWMCUu8L&|@'pJ?iq87BXrǘZ)9:?.6(P8?F&>/S8	;cC>s純u68v^u߿:8zk>"k>hB":8wGwp+I!8VŒ1&Q(8ky1h^iӷuu68ӷ 0Sؕ1wk>RW1">
r@L5JG8V@Y:(8wXҙRv/8{U@$<1"8>i@ߥun?6gĿ4uW4ǫ|]?Ծ?jl"sHG?HM?u6޿"N!ڢ?뱕	?HQeȿS1?jL="bR(W?iƑؿ%B?>J?g\d)As?Aۿ?9'ѕ?M
i$οIH?xO]Ͼ?][kP>γ ?i"x?      ?d=D߮?xҿ;IqĿEE}\Xb?-3? *OӅ?买2?/8|?[C?J8?u?cViOS')C-\K(CoeDAunW#UMp%0:;6₃tvH?į-S??.O2?[Ć9s?
?IJ]?K	?S?Դ*x?{~(>#>zF>zXʬ>7F?bl$>Ry"/H?ܥu>zn^B??q	Y><lnb=!im~f4Upʫ zyNgt1 g?M(fUlO#\hytM$742sz>"Ld 
H2+,}?3()?A*%?YoJ?&E>,
4?yC$>N|)?Λֈ>=v><c>~{%?c ?LBM>vR`>+f>dx>>c(Ia>Ε>aI%>>(,7w>=6h?Fw(?\
F6kV'2Gڇ@sA~ؾQ0]bZݾݻ14@XԇiT؉ؾ}T#_Jl,h]b?9!?f,5Ʌ`T?
5np4?k.pO^G?hyb,?M=@aU-K?6?r>
G(,ʿNJT(ZE?4|g5?Su.E>?ėB=W?qYݿ~vӦ?P{?RB?'Vv¿u1thަ?o'(靴cѿ\v?>eQ?t?A2%˧       ?b>U?(Fտߋ/=ɿI_ 9ߤ?$RRF?.[A8?[u$F+O?Sq?W*R?jSFTz?#0P[>lbU85ЍOdpȠ!+ܤtK4?MJQ57G?'mW:}?/N?֙X?utJۀ?}tu"?{Vrf?u7,)?ʩs,\?r%.?Iq?L"$?Rs>+>R?N?]?\2O?sԜy? bIC?r"?SAkB2 = Ls^V̿@УaU̓!Ov>/8 $mEjYmIsye"IM5fJ؀0k?07s"xP%?ZvdW?.u/I?+.8:[?qMD>hB?E<xT?DI6?,>D%>['>&:1	)?Ѕ1)? ?{k>l̋>hKF>Ir,S>̓>Vŕ>#W>)	>(>y-EJff>DC>9(?eVm?W
gy#	4vNX[0ukGK;	ܻLrZcz'Ol{@`Rb*'m쾘=6[e%s?JƼdƿ9 и0,1?w{?
!N<5lſxmZKt?:a"ӿZmը? JqcT?+;H,<̴'Tk?6+3NQ  q<?XzY%`Fο&|e? xd?ؔ>ÿ< %?\dm`?^Iq?L<GٌO?ÿO!?aٙ?6H?1?u)Hk?      ?Q"?>r4ǿ˯LMⱖh+/~?r[?.p?o!S?'Ene?<'%S?j}rb?|*Vd~zpFƏB|}`I.f8e> s[&\jF]Ur$kWV ˻.Ӡ?\Wy߃?ԕX?9/?^@Wp S?+Yrw'?(p;?xyPG9 ?ߘ~2?< ?%J?IxX?uQ)?mK??HOxx#?$`Bt?+i*$??g%ݽ?+[N?׋1` <`װGM W2&$4#m<$s[34)ex'9Jtpi '11'!NwG9$-Lo+kP]g֋4$pl?f\	P?,cH?$w@ ?⠋C>*D?lFf>3j]>[i>;B#j>ry}>a4<Z> >/x>>ܾ>>6E>^>0@>T9>B>(G)>s\>2>EL,.	$Rѱ
ThoTQ/4kpwޤ;ܾzwcie$38?vp˷CͿhʝ 4+#ԟ?Eq5B<iII?o\yjB?N^쿚ӥ?ĂL2?tI"ZĿ{PuwW{ұ?ȿnY?ټMɿLqEbҿj^V?8?,>u+$ڑVb?2,r?YHYW/ǿD|RᲳ?~?y0;~2fȶڳӱ?      ?k7相?M
+ܿG+	N6?c=*??"f6?gϣ?Y*`Qd E?Ұu}?Wca`ZF.9Ѡ$aU$|?KxO,7>ڎSoq[zb  ?3p?7 {6ȳ?o?;U?L(~(?)i?6?`샆_?hT"0؋!?`I?`>%qT>Nѐ
a>i4>"z*-Q?:S$?>څhQ?xlf>NE?&fҏ>T{哿:"6B{9{1"FV,F6߼ﺗ_C$WimWcJp%{ek_1$CJ#j6A>:&J[?B<uL?}&4?	#s^?~Kg>iD?(>.:?>>z35>r>V+,?r\
,?[JEC>f>6uw>83>f>]K>bn>Wu>E>¬qț&>&v+~r>W,?SQx?(hMpp=&gHZ3W茒־x&;wZ&侢9Vc~:FؾLEY4?Rx흿eJ?M顡t?:pgkN<'%)?:'耿bQ࿷u ?iU? Ϳ<qlȿw8?;JxG?rz~ZΨu?o[ڿ>5?+<?m^1˿eR\n?/t?V0O])п?N?H^ehIR?      ?ܥ?GԿZ[RݜiXǿE?BQQ_?Z?`lRV?1\dLz?8@ V?`{Ru?Z;o4<pl5ד:eli;т$T0WX:KyӪS$,??'H,?J(˜?%kqt?Fxh5?C/N\?.?f(Q?Z.?.?j)?fz?WS!	?|2`j?ӟYD?`ܟ}?xa[D?=?r:
;:?dc<?c=Li3F~[
!k܏QaaAQF{g#G*C5D5  N&O (̈́S#=jV	)vš}=z4ups{m0ta<1EGx8?'W?ƭ@T?vcK?f>D?My|3?0?eMY_ӓ(?W.>	>ʭ->ޤ?f+J\?xl$>,*v>KM,YVZ>=gپ\>ha>" .>>Mpظ>0pYp>~ X>L>oNcB?D%F?ĭbZϷ3YK{BTªEw/lmBg߾%93OI:Fql+h?*K
ɿ(xʞ#Ēw?s?I(\U??Yzq?㌍GP2ڿ+wD)?D{F?͸EԇVϿx?>u?IXMʿ@8Ρ?JJ
djC!տ9
RH[?
zB?1R?Ŀ.龭K?)@?k's i9̿#Iq?}i?p՜ ~}f08r?      ?r$>B<?4qϿN}E_ΙBjyȔ?!?D!?fs=+?jv?@?Or?C
꡿D{{"{ʀ7Mp'̓l4#bHV~FI/ԁ?u
Z-?|ؒU?+s4?"Yϯg?.5a>ES?4ۺ>&RI?/~@? BF>yy>fЪ>B	~+tf>ӎ??
>xMA?v9d#>$	<6?~>bJyktI!`M,aX
QoHp>&@ z~HuӾBؾrq]P !x`w8վ5B
fKfWiuv>G+̚?7e ?f7c>ͨ:?Є>HD%?>qo?X>jQU>.>pG2 ?VT":?\Ŭ>JE8E>fp:>y8PR>f>CJ>&ݕ>Ψб>
,>8s\>D?!g?lFG7:PY3o_5uKY=ӾfPÐfv-24YaJ6yimz!"W׷9sT?ĊaVҼąk8n?A ?7o߸j#]?cYwBj?A?}C忋?F"@?1rMѿmNy?.tCaӆ?ԧJԯ??wZ.M ԿdwDP?+?$0z|o◿dJOa?,?%UʿKfE?Jt\?T0Zi}̵xMC4      ?<W?@[N׿t7T Hƿ_C׵?sZb;?G?zɛGkR?|?e&Y?.$6v?]k{FVn9z˖BaݍvPlD`|?e哐ͤ(?5w'Y#0~v _?n:^7{??r?0%Z?eHbS$Rv?e件?mXh^?pl>[))?VJ&T?>5^1?TF$U>>!oD>n,k>ˋ{E?%?DIa\F?t1o?[P<?nS_)c?Y]zwr\/ <pC/C2PR<6IxJ#~o֍saV,Ǒ*%p"gSuB$;y8pVgRPm?3PR`zt?(pwR(S?B-i@?aV[lO?fŰ>l;5?dl@?ĠD^,?ׅ">ghގ>ݵ>F9"[?` ?ܸ!_>e	>>G>t4fm>IF
>
.ུ>ëq>8<>c4>"0?fz?K(Dr`MdxP7YFfQ2c쾞fԩFt. ޢThi侹zm@~[6q?>~"ɿ,ܔƹ$"??2?Y泿OTgVÚ?̰	zl?Z ڿU+?$a~wZ?mBG˿~a?LZ?zhL´ǭy?oB	hJ׿|:KŮ?lR?^|+dC&{?P$7?(iXe\}'ͿQvO?+|{?H,Ɓ@ў0m(tԉ?      ?Msi?ZϿ`ǀxĿK~쳿G!nw*?,O"W?Rk`?^P?TfH>u?xX<N?53×q?R4uj53V2|b%[Q}՘gExDHBK7]U&,71B?} P?SPg?[:&?)Aےl?̪,?;HS?o˞$?E(=I?H?xW"?apj?)XE]?h
?-M6	
?(a;?{ó`?['"J<??)I?F˲	+b2?P҅?^ /w=l@ʘ1dW`n7Qdms$u7xT'FY6"Z*i!2G2h`OP	'M00W2!nU>@qqIT0-Q*pς?]S?[J?%#[UA?S.?T(?Xy>zIE?U3h[>>L>b?G_?a>bi>Q>K ?>q>5&>ZJ6۟>
l_>x:4>]>t ?#}1>WM L{Jypz3DBGä$ ۵3&0b!Ӿ{M	. GBDNV?n1w)$¿L(̪ۚI?ַ+?,gj2LzB?&e?ʣ~AF(ԖA?	~`?ѿ#ſE%?v`J5BuS ҿD[T?97TPeXڿX F?`o?':տu=ǲ?dtQ?(I'Q~?}ٷ< Rп:5J_?qU?ىIɿ--j??      ?U(?9iտ3  ҥҁ̿K? CP?qd?'U<UG? }?%=`R?ox?B^/8[avIHi[ξ1KX	NAzI<gW߻)?µs?=gzڤ?}}?ߐlAw?sW5'?2~G_?pG@!?{
$U?8:*?uք?;a|?<s?oX9D?ʩiBF?bu?4YrF?`#`?V-v=?je*>LZ[z.ҁz8ʼn]c034^:G4g"6A['s0W9UJ/mznP$i hبO0YSpEؐB}lR WԸ'?d:y'L?XFG? #<֘P?!! ?JɣA6?%h>i3,.?Eu~>LF/>Aڒ>Xv?a! ?hM>|>
+wn:>W> H`>@ztמ>B܏>D>i<*s>Gcx[>?mU?obt?lw_![gFD~EJɆgDÇzs0OwE,@sUk|HOt1n?'|Zi;_2fVW?oVD?y#?3b42`ͦdȼox?סؿ2?YuZ?8^ȿn?婓~^yr,?CoVѿ9\??i4{ƿn ?)??*5 P?L@Ѓ~ƿ]~/?R5?Ĩ_ ("?2?      ?#%&?(TͿo	E16o(¿Y/*ԍ?5j/_?F~?t?D6[?l%k?`|QZ?]*h?u`ؾ
ΰp1	m'{!oCӾH{>{[V[l*pui,z?YɮF<?k2N?8Bp ?y&\?X{Fo.?x#^C?F*?Ӕo:?QjcV*?OR?lՆu?~Y?$/xM?tU*?[j:;/?Hm,+?&lq+?\l0"?SUa
?k<@`J~R>(2g0"P{&&z<8@' ("G9 Rb-%)49l?TH	%v!+%	%z?4S?ֶN?++?[8̞>_?Rf>|:
?{\Q>U>bž>uҲ>I>(&>HO̽> M>>!ܖd>`>9j4>
d>BI2>$$a>4>>8U>(F
ʰ:WM+"o&-I}sdg@"CD,NxXE"#Z"I?l>\HFXFL?X^?Vw썊8/sدa"?h?dE俋A
Ơ?Ni~D?סޏƿ"֌mп??E8k?]g)?xuDJ'ۭ,Ὸq{ ?e&C%?ڇ0ĿLStkJ?|%u?s&Nŝ]7^Vӿ?M(6?+|(Aڬ?      ?{\??ٿ!ʿ_Fſ|#?:5fgL?đ?iKPK?f LSV?';ӜJ??5Ѷ2ˮ\5;p,\ eK@&@@IDq
 ̏x&ۣ?+~|3o?pޞ?+?oD?4<X{)?QO1Op?B(?߬A0d??_G](?Ip<J?XF??Vuѳ?M~jV?58?p1AV?tj?l@L?L1?z^X9')|>v9*0A__ B}bi6wm 88F!3u~"dxޭZ
|v6H[5rꅿ \'38b'bX*?8&3L?#F?
AYe?D\3?TuM?%mO?GuVY??B?q>>$Td$;><-X3?_d4?ad>P$>҃&\>:6>Ej>O> h,>\PdƋ>9PCD>?>4W3?Qd?zr\Z}mzYm>4r)~dAO=PWYrZu@<m}!c0XE?                                                                                                                                                                                                                                                                                                                                                                                                                                                                                                                                                                                                                ư>                                                                                                                                                                                                                                                                                                                                                                                                                FO49˿"n4]'2$?[7D?
0˿TlQ\u"?2l-̼?+:J%k??$?M*$ſ᳟JѿV>$?%;k?޳sW'ӿZB *s3W?Ls?c׿J0?z1?Y3Joqɿ<u^יB?1c?z hvͿw9V?      ?zŊ?9ipտWcEҁ3Ӵ=?4J.??֤{?=>?I{?).C?~/Bu?G0Z5Sa'3rވ[6)h6	1ʻQ?)!nGoOx͹?6;'\?vꨥ>?z?ܦ?;^v?3?r^?!?Dy5S?~x?y)  ?g5>Kl>1x>	eD?"5a>!&hE?7R[>e\;?>+{<Ga 9FU&lT34Wx: @:U$hx!IIE>TgAl44 ̷x$eȇepx(?)>Gڛ(iu=?N'^? !AdG?ުӃO?f}l>
r5?]i>u_Ѥ+?`xܓ>J	7)>9>
)j?tb?C?Y>rZ5s>-iﱿ>*\T@>_>^蟹w>:bߌٺ>N_>h0ʓ>:9̍>;@1?X:?Tw~1]3<##jD6; Y֢^P@R1D8fDB|
0A	%qȊfG:&Ãl?4˿AM?@?td#SLp奿l[{?0y?+<ۿ,i>M"?!K?еRzɿ0KhA?-_7J)? $?q]1r˿ȳ"ʽ?F'ؿ?z`t^P?Ɩ;԰@?+mL+Ȥlչ1ƿVho?2?լv4i&<֑?5i-(      ?[\r? ` ͿKϷ޿('?s-t2!?Rt?e.R?k"Mj?HЯW?ﲜ,3f?/ayJ=/{tpfF-Pz=dGE>1ma֎w~?՞0`?Xp?'z?ƬZ ]?]^*>t!eID? 8!?|~C9?)&?uu`>B?>}fM>u.X>,?ԻL~	?	 -?R?哺S"?~R>HfZkzȻXmI-xS\d5\'Qkﾘ~W"v tQPw;TTÈ%=
tS}nIU-0j>YT }>86z?j[0?ms/.?eq,??R>5Uԡ?ذ[>߸"	?3<h>/[8F>t&>>Kp8>[>Qs>UPM>) >#oȪS>6҅>]6pp>ct>=>A>uH(>8w># 3ܑ>|:)pyn۾_gm'#𲾹̬SϾ׺޿g\"j8<pg{{3z4$0LI?ӿײg1?31-oFʿƩ&hͰ?(f?"چ`{bX[[?Et?!p}߳ҿ
tu?$?ns&Cؿc;?ɿ_
׿
V?a!?e9rſ0JVÿnZ"#?ѮJ?k7薿6w̿"۴?	z?Ah+ɝw^*tn?      ?e/?oV,u޿,Vb[M?ƃ-H?LsT4?2BB?ڄ?tu C?i$$ܡ?I[
& qaWSUۡPJ.])KX(ɓ7ni	$?Ċy}R&Y:?i	?8ͳ?,i? .?@]%?
l?Y?4m,b?|}!?PA
?$V?^ ?R<>4ٝS?V1&e?}kT?A]K?ZvUI?Ʀ>4_OC"ᾣ2>i? ˼N:_vlfoB#싰7$D敇#qEiTwZQfleA|7O/."#ja1`N2>q3\1v?>ah'ؠ_D?EF\u]e?5P?V?ub?/A\?w%I?|>4|??? K>6^]>Y">LP1?c/D2Â1?*(\>1 0>5c>ޖD>'aʡX>K?>+San>~Nlr>ǡg>w1C>>mX!1?ْۨ?%)ttHj [#!8z6ow[Puqy3bNMAA?=tÿCչ?P"}B?W߬
SG&6ǹxrW?c(?a1p@r⿃k`6!?ڭ?4Z.@пcM	ӿ^~K?NW,w?1ӿG s?\+Z޿8S?Ц:?oԿϺ4?H#:?R2uWaҿ|I?tM?(ƿhsDU{?      ?,1И?@7uֿ6OĿ=F7˿{t	?ymC?2ô?	ݷtZG?;1D?i	ГO?:'6|?PXO;-"_pǀ0ۙa|^ M]퐿YɈ_ƟRXˇU:?GR:cXMl뤿!dP?Qy?Ra*?Q?iG}?>jC,?;,:GKe?U}$]!?Q[?nY=(?'gI8	?/D6I?4Î>텞> O?*9?
4P?
	?F-׌E?.,c>6 NCK|8o@οsMZn7?H"o*,L"5$s5!Rz*_.oCs@R"ts0IlxW>?B[ء
G?t4S?Z޾F?ϵNWV?kk1>^@? ?}>ϷeMK5?mb>4rU!>.A>'#N(?h?)?m>>RGΰ>>zg>^	>k#m" >pj=J>HBY>C}>xϙn:.>G%wE>^a~'?	?KS4dJ;NKHLR\͋;"@f$iNVƉ/mRjGs?{;̿v84ʥdS?ԙ?=jk/Jk?`X?N?FHy6k*	]k?a:?y]@TxH|M¿,F8?0EY?{}ؿˉB?YzQĿ()ֿG[??IgO&`B?/ĿnU?	0?nAtSɿ$멇?6b?CQ	أF15Wl?      ??UڿFPQ귿L$ݻ?ۤYS?	Pm)%?~t:S?Z?v9}T?Z$z?
t6"}T4NeiH]ےqM:?idp(~w鏋߼l
q;?K k?ǰ/?"P?o-7?e".?GRdf?K).?:8g\?F"|0?f?ZC/?0im?)}?-N?2=?<@ұ>O?j	?+$C?C?"$ bMH
0
W5x'8'x @VOQ}K&L`xw@lP7% @P!nzIm@*f׃?;ABMF?jTaA?L$RZ?@!Z?;:B??^$q6?c,>V"ՠ1?>1Mй>P(?7DT%)??-`$ >B=>ng}>,|rͶ>=Z>;n>3Ko>>>>O3(??H^r3kLy]m
QChS|0WjRS&R(9u2 (RHu!*}?aמ~տ-t?&7滿
] ?-?v%:lп}@(3?Bl%Yҿcos4?8%qq?kP9>ڿP#As`;o?RwW?7_R?[ߥ?Z zʿCޒ
iHŉ?^"N*?L7+Y"4bl!v?qh?"-Ŀp%:e??m?(g~*)'{      ?ī0?EX¿:ְ<՜¿&ȇ?q-?EMq9?_VwEr?=x=?z+g?ڹv??O }b?넩YII'Bw=-K8,5|o'Xp|A84ȀweBi?ٕ?2;ZZ?-,2?g}E?6SIX?`5?n X"@?K<?nJή_5?11.a?z!>e-'>DW>v?oY><,'?Jl'd>e2~'?i>W{?>u_N[:r)EƢ5ng5aDX.{l>:b[.>ZE\α\x|r9J^^*NXۘjj+c?yH^	(?҆	?{'&?Ou+>y~h?%d>*´?࣑ @>,1>A>pU#>zhn>)9>O{>$~*Ŧ>yFǚ:>z7G>ʾ@z>ZO>W7>Tӧ>iN>h)nt>D,du>kb,s2.cjG!W4Bƾ'z4۾4g,ϾGzHIo6ކľUHA,.2?l$bǿ<Gk_$PH?|ry?17!pAG?L3?;߿0:?hu+*[?y#нϒ	H!Կ#8a@?dߍn?+L4?!4d⤿:Nݿ@۳B?<?f<9`ÿ@aſ#u?B~?:sL\zѿ4k?iS\~?v?G#ճG%mpXbS?      ?w""?t1|ӿ/Gǿ*_Li5?6H#T?eц?i2TN?l|}?z<T?}&6/w?209Se1ejF7ޓy`L\wv퉿Z͠1IҤ?9<ø?3/W9w?C*|or?eBޱ?m۽x?Q&-?j6x`?F8i%?HU?l.?lтN?۲r?#KL?7	?s1˷F?Qu[	?+j}] G?ft?C˰=?M1?gY;U(&?qlG%7ܸ^iL  J܎%e9Et$ւ|!:PTWֈclE2Q`%ݦ2UwBx"jL-X??׉tP?WkJ?O_Q?9L?a8K7?lqH>!PqW.?ex>RE>1
>D| ?+ᬱ ?F%P>]lt>?>ߛ#W>
e>Y7P #>ǋzl>f,>h>r[8>Z2E ?s9?3m]wTr|cekD )v'1N;+,g+}D^(˾mb 5ԂQJ?i?tg¿ct?b#K?^A>V|0ҷ?Z).?4u࿊FN`D?u9?ty^.Ͽ$,u?Cѫ?Y#Ϳ QU?#v?;3©IӿqG?Au[?-	_c'mjEP?ͿLRmN?i.Alssɿn=?]3:P8w?hWn5G?ddÿ      ?c$c?qw=0ӿgb+}AlVz.TĿos8}?[V?n|?YR?"t?PU?p?81x#j?vQiᩢԩJ͎:x2GoEKuepb.LNqP?^E`?ceY?YC?)怪vl?$"P6+?!"S?Vsow&?*t5pI?dYJ&)?m?*?G$?_N9\?
!;?y?q!;?#hJ@]?
081?fՁ?>]1̾|(zR#@(Kscq[>
IX)$Ɯ<*1"g"KQ:`Dc7ѣE$(^6޼-blɏzLH2;"*?ﺟ!zS?-7LP?Շ.>A?[ ?"&'?~,8>pt?b{>5L>%>7_d?k?8)>U>4^y>9t>qh>Z!BRȬ>b>P@q > l/>)Zї>@?*rw>zEjQ?+܍Jo7t/J𾔇4u7"ӾBV9Ƈ6Ϧ)ga?qZΛӿ82&|s?=]P?t>Gl%W¿BJ݂?Ͱ?)$i?`]?xk?Co?X@ۿbu+o?0ɿx:cO3?{/?xSq2?ο2ֿCՑ?,8fEȧн?;KnHȿVM<? FZÿQJ˿2:?DAk^}!?B&#tP      ?X'}?*/<ԙ V~Ϳme,?If?}g~q.?a7?Qi )?1+I?L?L5K4?_4$夿
/mRe/Y`搿?Ln9szv. 
.Aevq?֣TL?%Ѕ'?]Yi?_C	
?z>h%p?L?RdWe?E4'?W>7"y>1>pɾ>znsV?z^nPn>:V?@Q>.^PL?&4>j휳DCH>NޥSAJ0VN2Y?{>aJ"1j>
	**4	iK>a'>3@Z)%o.#Eo=ӾgS?d_]*?E=}g?aԩ>sGN?<î>C5C?]ܴ>-Tݲ>SK>l[4?qwH;Ȼ4?~d>M>uJ>,d2>?t|>*܅QE>6>xEfNų>x>YѱY>5%,4?.{?ﾓ
zaV>"ua&p˾`{X5^h> 	aS8ٯ@>w5OǾ,iܳL"UIp?|iпQEgI? ɾl?;rPr⢵=h]e@?Kc?8q<nH
z?̍CM?pDԿLXRҿ[5?eĈDc!mƿ?7&9?cq=㿱̜EH?(.G?+J,Կm#HZ7)?9	h?`Bo	wտNtC?Iķj?A(Q1ƿw"MUcPo/۷?      ?<J?R[߿ĺ9jɿ	{[>ҿB"?#ttUC?G-ylD?D?(H8?Ԭ?T? Y.?gb^NSl@LX2TSxTgIIrV	UBsO-{!X
??ğfd?.?J?o?#?Rڳ9v?c$?;D@,k?O"QV5?%iL?vp
?M ? t5>^?mJ
?P2lâ^?0#?;R?`)dG ?Y#Ć qh3	̻)=d4U߯I>_2?z TzmABndx3R:Ê1" 28 
̮?No	#!E?LC?2Z2q?x Y?9W?T?rF_8L?fH>>pX>\N=.??h/n1??Ϟ݂>
B H>v>v\>S##>x
e	>͟h>^a.>ME>#^2>S"N>?hT5%?sfkU!f8$;dqe#$_du@֡
fd NT"X FUۗ@kfȌ[?}<ÿR?<A`v}"D?	@O?xl?1A8XV黜Hbs?HwȞr4n?}ƹ?`{+`?M`?1h¿IE"K??=ÿ<e? B;ȿ-~VȾu?5P۰?3%V	%<?ˈ?RGOÿYWYz?,0]?br?d؃/?      ?wv|?sdؿسF?s}(ӗ?v!T<?j?Q	P?;t?&d}=T?۽𥂢p?k f5Aj#Ӕ+6l(~mR VFʌc?#m[NZwb@?j@u_r?St?^T?tXZxhm?QzWI?{d5PT?Wu$?aĜI?c< %(?$e0>_}>)s>u>c`<?le~j?@b=?\.p?#2?C>S!K_BiiWAd]U;Q Wo%m)3MW2W
h8iR^smiMYy91  J7?BP݅"װϰ>q?<I?:l*?جvA?[Pd>#2x(?X;z>,f/?~zU#l>{ı>מv>3Ҕ?#?O'Y>6{9r>kf>G>Jͣ>Dp۬>讠>y>'>J_Kϝ>@SQ?k/%>qSVU+-j5?Vn4{پB؋Z˾Вjb2?8t
xۂuپk?Hl?OعԿe b?Z?wYiP(b̌)	8?IgTRs-%?m\?5rѿ̄YD`?MݯJ?!w@Q 2п?I%ѮοǂFDҿV? "bk?ҋwj빿9n0?=D4??5\?&&L¿~ugǿ2}@?]\r? <k٘?c?      ?Y1?NѳF߿`j.?U%0ǿ0O0?)? G?HC?y?qY@M?ي{	?to"T$CS(*)S˫e\d
㉃L?sĚ/jD7 ֍xi?錘9?Fе?)y?i?T?εj?oN:* ? {ba?LZ]<(?Îm>`= c>x>LvPU>QlNR?;"$?H:R?њ)?R*G?5L>Rh-^0l	})~t`!8)ҙ" 8f~d "0FсZe~Y8	*3=V`	;.(?az˜Ū⾲?=ñ`?5rB?U,`?32>XG@F?QR>8N<?o-t>(D >B ٥0>=ga.?`.?{ +><DX>
q~iN>0SG>e>Ybg&>r%hb>FTW>d>mz&>Abߺ>> W#l.?q@}N}?{g'0sTr-FLZ *l۾,ko@br8tNNѫY1FGN6ؾKk7<|?                                                                                                                                                                                                                                                                                                                                                                                                                                                                                                                                                                                                                                                                                                                        ư>                                                                                                                                                                                                                                                                                                        OC^ĿWiޛR봿X[%*?pu͏?=ֶ?'5ebI1Eh󞿍ǻ6Dտ _K?W +q?I_ſ2?C9~F?<a|?ԪS?/-ӿwEkˠ? Je ;.|g𭶗\?e]>N?	i#?ۑ)ȿzf 7WP*?O=B}?      ?C}W?yqCɿX\M¿m
˒?P	V?3RXy?p]qS?L*p?pR?371j?a}?OeiȌ)bw>xgoXuI|joE2t;?`!s?`9ҽA?O.ĝ?ܭYL_d?Ac(?^zL?/Ei%?+S)A?sN"$?{>q?@ʺ?+?rc?5R?3?}?A~}3??V)y)?O9g1?;mj{7lz;ST]N4CyOlHb78$2Fepdh׵'w=%sT5^\.oN%fW~*DK9+?NLu?٠{E?4+@?L0ͦ6?>n?7
+>{?cß&>cLf!>lT1z>b9?Wa8?k؋>ϕR>.y41>!^lzހ>Wp>ek>|I5>sWu>Z6>Z1">s?<@">J c@V	5RTKP&c%26o]1dO*&+WOξrPĺ*8A(4nG?gĿ#	ofл?kX?RQAXQ]t-o?i]b?T0XMfn?0t.%z?ѿu"?+MC?iɿZ>t?3e?\þqӿ!?s𡿀\::#
31?hAl^Ŀt;m?;1峿+(1ʿn?YH'뺝ŴCt	$2?O>M      ?ѹa?HdG!aֿdzoJ$)ǿhk?]!{>c?xܴ4:?Q}{?@@nxL?~EAv?</cG]i%(:Da#R`R7E3oQfai?̿M6t/-tjM?_z=W?%*[Ah?Ӝ?=ns?W֋>V_[??RIR?<F3#?>Xp$>pI>փ9>^B?_N>2:BC?
NE>jAw:?ϰZ>Y\xlꆧ(rjJ;m6v德f忄0{оoNT;ةl𬻸4F4S"ba<fAz>4ݮ#Ǿqf#?A#1Y/?r? M|J?ꯊtD>jF2?QC>,J8)?H+=>'&>1l>QM?K-?q@>l=9{>1&#+> -]{>rx	@>Ѯd>^>U>1}2rI>g8?@,D?3]Ov[̯zӾaJbQsCԣK㝣ASOϰ`]B`p4N󣾜@=S)9zl?G
ҪXӿM[r+P8?u@/Ũ)LSߌ>?\$|.'tM?a	`O$KD?Rv?C˿jĂXO? 4ȿR""?Q?P¿scq?#Jοu\1ͿÁy#?W|}䕿&	/@?Bper_-?Y(Ru?V6ĿfS(¿\xɹ?-߼ts??̧Q˴j@?      ?]7Ea?ɡT]ݿƍ蔿,mq\<]I?< lk7?ɽ|?`W@?8<`BR?!TN?Vrz?+._[H64KJ,YLTxؑ
 ]o2|#(Q}|흽G
9?uؔf?[ݴ?
m/?#N|?'?BF^c?(_?1 kY?\ +&??!>Ί|s>2W>>>+u>j4K?9,)q?CvL?^&?/.B?84zD>ۗڹ#(xy/.bn
?}%5U&Н_aSw]b^!=-</FH:ZG޾Z⇤?xT@?Sa6?ݴvU?p 1>T\vQ(>?%>3?BIM>fjH>PWX>	}S%?qs@C%?zئ>6 ,CЀ>O|Veq>#WR$>W>	b>J$zӿ>`>٧>\|;>~^^>l%?	fo?;yi	G6׍Fz[R 0:+-/ޖ_ {1޾z)RodDO1,1"+
I?9"wʿty!񤠿7.\(;?D<?-zrEgȑ?n?0\0>YܿmD?I"OD?w?!sѿB4Mk-\?d|P,?Ͽ?Coy0.ֿ:W?ܛzfn?mf~¿鿿5\%?o5%.?	VG	)FϿ&7B$Ш?l@0ݖ?xظ4"O$f?      ?R簄u?| ;ѿĿT -)? ,>)>t`g? LfC?pu?Q,Q?\Qq? r	"Ώ྘~48bTT"]l3/?C|uY}fŲ$?@Iƣ	?h ?_?}Ϲp?&}>V?Ĭ]?v L?]ى%?	DrJ>KAљ>Q$>F!QO>?v ?@C='??Q/I ?Ѽ@S3?vm>(u-|ZeTRcw.*lR-"|n
>ER١վmF'e1*NY>^/J5Vc-(JxN$)p{شn;Pɾ4ӆ?AN>M/>cE?_ζ{>6,?|MVb(>_!?9Ԅ>N0p>/`ge>#? J?j
> +>pck>赔Th=-LC+j>nCi)8>x*HK_U>kR>ym+DrH>̀`?"<>X[ZRdc_[r )8.sYūe=^S#ei8χ;.f7uEjE6Z^?                                                                                                                                                                                                                                                                                                                                                                                                                                                                                                                                                                                                                                                                                                                                                                ư>                                                                                                                                                                                                                                                                ﵑ^ȿt*p␿c?\? v''B`?
w? Wj俳p-~?y ?oWֿKg?6-?D5-u0?Gt?ÿGeѿqяn?og0N^`lk$Z?6nHo?O?7|;nf*4ȿnh?6'={a;O?"Y$      ?Ȅ?Zkֿ? iۦpȿBP?T/?c1?CF8??^jiy?p+
oQ?tvmt?aG mg
HCKȇinǎ_Ux[AnE'k"?[{7lxץN響Fk?61z?r1?IȘ?|Xp?0d?ID~ǝX?=t.;?<TKP?)_z[&?Il]>2:>Q3>8u%>v4_B?WF5>{'C?+>tlQ99?$Nm>To-{!i%kA&^i+5*yr1tHA
ac|
V2Dj{&xֆ&g^]c>ؽj񾭀3%?aQ?93?#4E?k&>AVM/? >b$?ǍW>>LF4>,z2?ȏ?F&[>oE."p>i
J>BYܛo>*h>Jut>Ώhٓ>&T>eh>v/[>ކ?Bs?oW kxAPg˾ŝ쾣0f?A67~ξZy!H23,Qi?                                                                                                                                                                                                                                                                                                                                                                                                                                                                                                                                                                                                                                                                                                                                                                                ư>                                                                                                                                                                                                                                                e's̿Ďlԑ?Tvve?or_x$)ML?euq$1P_nQc I?6?:LWS}K3w?7[ܿ	GqXPc?toȿVfA?9ܘ+?(ؿ$ժ?
J??u1?jBbz0ӿ1MSn?F
?LaI9̿E^/=?mcƢ?      ?(?ӐCiB|n¿s׿IF~4?8N2?hcLٓ?:%ڣBP?RI@?U+IW?nOx?I2Rؤ#5AE:?ϫgx!T,Ann.fW7<"p.˶ls?tďaQ?j?m4#?T'?PmG|?~UPSr?70?wb*g?m?6?6>xi+?>U*D>@W>Y?.9vp?">Z?,(F?yn/P?旁r?*nGI(p `pRN+ FS:v=y#"
e}J`GZTl:h+vw@-AxYd~p|wg**,Yd葯?Ou0?:z}1?0kzj?|c|.>V-}R?S?I
"F?WbD>f7|><:;>8
8?F9?:*>j>w8>Y/t>v>Xx><> E>w/>]K<>
YD8?Cћl!?'bUZ|},CiRϭ5jcDv⾢YLN<AᾭEc%BJVMA[[]<(?S9ԉ}xn?`p?\I34qÿ@i?+p8?4Pؿ=j?NjΖ?c1D ?g]?zRآڴl@sٶa?cͪV\`ҿSz?^XwP?V$˂}?D?x_?3Gzcƿ%G?2?FO??꺆?      ?1?vͿwuk
ҏ?kB^?|$x?o_luX?u'*o?0QSX? 炾i?ִD"6qj'J@x08l}
#V|`LQ]t.HxÀsbFE@YN?F-O??t13?o2m?Ccb?o5ѫH/?/-[I?ܘQ%z)?lG@?8)?Z1*?ǻ?4p?c?<.1?#B<?rV+1?-~?v\ݤA'??PX,E	?swI7Np=CٜB}RVmp>|c"FW(R;v&a>P"~*4?ﻭ>LV=z(m6D]M:M])mPY|?"oW?2@׿^P?JЋx3?ְ ? ݝ?ua>Y{o?Ayv!>>}P.`>_Uj?nYR?VןR>M)>@f>dj=>'eE8>&ǛW>x?0>%v>z>#} >S=6?-B7>\	 AqyB2шq'bP󾭹\
eC̭.l'1%櫧hHnJ/ZN?                                                                                                                                                                                                                                                                                                                                                                                                                                                                                                                                                                                                                                                                                                                                                                                                        ư>                                                                                                                                                                                                                                                                                                                                                                                                                                                                                                                                                                                                                                                                                                                                                                                                                                                                                                                                                                                                                                        ư>                                                                                                                                                                                                                                                                                                                                                                                                                                                                                                                                                                                                                                                                                                                                                                                                                                                                                                                                                                                                                                        ư>                                                                                                                                                                                                                                                                                                                                                                                                                                                                                                                                                                                                                                                                                                                                                                                                                                                                                                                                                                                                                                        ư>                                                                                                                                                                                                                                                                                                                                                                                                                                                                                                                                                                                                                                                                                                                                                                                                                                                                                                                                                                                                                                        ư>                                                                                                                                                                                                                                                                                                                                                                                                                                                                                                                                                                                                                                                                                                                                                                                                                                                                                                                                                                                                                                        ư>                                                                                                                                                                                Nn@ͿU#k?J)?V(z|.ǿ7?Vhf?D#ӿ1Up
p?awV9?'Vʿ։h9O?Tk։?Òa?A[m|?su64ӿH";;\w?ri	*~7дTBÿ<v1?,[vX?rk\?hȿ]}1>?{t?'ݪB#]p      ?5M^?Z0ǿ綠¿[Ale/~˿?\#C_?)ZFu?jS?]6-k?"b9R?InO$e?=%6l&Z\e6}a?!u^C>b^j*y4el?zdez?7x$!?de"?\ś?j$^?_p.?h8D?:vt#?󓮂:?(#Í!? ٿ?Oe~?!1
d?*Yw
?x W-?d·
?z-?ѿ?NW#?:J{?VǾbfK*<YPgB1
$sG$"YH*7X⸖&&?hae!";u7ЌHOc#e@Ei-bQ<0-
~O2~[8q?5U{I?cãIE?>-?_W> ;q?ƅi>7{!
?]nL>ċ:>=K>pʦ>,iP>&}>u䐙>_H#>s#)> >:/ۃ̽>S`f>F>Rr&o>\j_\d>
$9<I> b>LSCU6RZuK*qC92SÛtǱXܾi<D::z1BW@?                                                                                                                                                                                                                                                                                                                                                                                                                                                                                                                                                                                                                                                                                                                                                                                                                                                                ư>                                                                                                                                                                                                                                                                                                                                                                                                                                                                                                                                                                                                                                                                                                                                                                                                                                                                                                                                                                                                                                        ư>                                                                                                                                                                                                                                                                                                                                                                                                                                                                                                                                                                                                                                                                                                                                                                                                                                                                                                                                                                                                                                        ư>                                                                                                                                                                                                                                                                                                                                                                                                                                                                                                                                                                                                                                                                                                                                                                                                                                                                                                                                                                                                                                        ư>                                                                                                                                                                                                                                                                                                                                                                                                                                                                                                                                                                                                                                                                                                                                                                                                                                                                                                                                                                                                                                        ư>                                                                                                                                                                                                                                                                                                                                                                                                                                                                                                                                                                                                                                                                                                                                                                                                                                                                                                                                                                                                                                        ư>                                                                                                                                                                                                                                                                                                                                                                                                                                                                                                                                                                                                                                                                                                                                                                                                                                                                                                                                                                                                                                        ư>                                                                                                                6'տt9\?J`?S:$ÿlт?óC?zN¿Σ?DQbR/n:?ҩ?	h6L%?Hz?#P߿|Fr?KE?
aȿL6!޿X	?zG¾gο@'?!V5?̦ٯofpѿf?mO孄=u!["?ܥ      ?K?Q?gSJkD򦿿}"տS??5?-,?։|8?>ͣ)?>FV?KG?Tz#aG=Xc3rhWJ~C2O2|..'=F?{;ek{B[AFo?A ҁ? ?QH?疌?8w?Ɣ>s?(?8g?qDt5?Lo>h>
|&>š>Q<zY?rsq>]_i#Z?8Rl><P?1>$R38e:7TkJD6n{%f̂S|%EPp=AܐkLkk~qWPifYaVң(K
{w\}ak%?"#af? b)a?FH?mk?>XR?n'>`4l1F?&">#$>7= >`Y+9?;-9?sϊz>(dAp>r*C;>S\h8|>0MvϽ>~bi>Me@k>;SFO>&~>#*B>jz8?|:/=!?{WT}O_\_WUczHI`1?G
&cSiQ!Iݗ}WG\[Ŏ?                                                                                                                                                                                                                                                                                                                                                                                                                                                                                                                                                                                                                                                                                                                                                                                                                                                                                                                                ư>                                                                                                                                                                                                                                                                                                                                                                                                                                                                                                                                                                                                                                                                                                                                                                                                                                                                                                                                                                                                                                        ư>                                                                                        !п8jV٤q?HU*?`rl?V4wS4ɰ? *"?`1Q?P&ֿe%tg?+ǿ7˷0ÿb?|I8|?6ѿG	3οD5l?Qȉ}ɿqU,?. ?(5Cʿ=:}1?_,ȿ@묲¿K?򜩳J̟"i?kn|X=?2xJ:      ?R?XU; ΰ$r?\~Vɿ"/ks?4?sQ?ka>HE?ի9?"-L?"t?3{#
|=?򷎜ObVLጙ?ޙO?O!Sgy%3
 wStȜ?,wbW?nM?lhd(}\΂?}??^Vei?4Yl!?{Oь`?
Hk(?.>u>40>7Z,>x<BQ?ϔ?t_Q?$R"g?%B辰F?wtڬ>$,ֲۗ0av9~7Ƭ>^L&:TP89&$@,*NcؾzŀǅeU@)վĝ6R&S&x*?7HSc0fߧ>kIzD?"<QE3?m8.5R?;*o_?X>uEE?>O&;?#Ti>گ>Hf>汃,?]-?G7/;>č}U>x>AaAeU{>Qt&L>iKr>˻ݫ>#0x>@U9\>Eы>I&,?|B,?&s0$ξbV)Z&LWj'IXdsmZGZ\3-~\/xr+?_Z??NcٿQ?<ed?3൒ذ2b>^N?"{	smOE]/2b?b?]!Ϯ?+/~B޿M0?b B׿ۉW6?nI?H%l̿$Hؿw?'ʿQ1 {?>9?%'տs/?$ղU@Ϳ1G@ ?qȽ%/?QXDХ?Lɿ      ?kY<?/rLيxL Eпs>_Ե?iH#݁P?,Y=?p9M?O|@?;>V?VN?{iRo;?>IzOi+&tHq_n4T?2۰{)dxEɄ	1?^"ď?2q?{?qa(g?*=7{.?#Etp?YQR*?sƷd?ʶbS4?&=AL?oGG?<2?n:g˻?*kOnIV?g?(uV?]gW?`0?L?Ǉ W?_ޚ|wLܽJOТGR"
x3$K@5H2E8
%xN_5iFs3Af=Z>_s9u2?ҝxc}|?1"m?;bem_?6Kf?`".&?TN?Kd?B?>V>">Z]><>A\4?g4?1"c>Fy>;4{>Zsd>+pS>1q>e8>WoȲ>NT>_Zx>JG4?CoV?Xíqx{Gh*жr;`h Yɩ$8Iy`]o0~оc¶KQ|!Qeױ?sLU¿2dt??)"Fh`6ʻ	??;%:?;FVcaRt)gr?iC%?a"<*ʿWz01Tݿi1?o?bϩͿHS*?7Kx~-忠5L?$V?W|z~oϿ&%ӿ0MΑ?ACE?">viࢿK׿3}_?]?0.DUſ,We?      ?[(Gc?ƒ)ݿ?ڨ(п ˿[EȰ?s%?a }|?3?*AK?JEv`=?T??GWsѽIZ6#H`z
_2QFgMv4.`@
1vUʌ]O|??Q?h$?-4e? O1?+\3?2w?;dHJ?vVKk?%W?K,>TG;>[Ao>W^W>Ra>^?2Lo>`f^?<@ >R?D>><pyY9ZՆYk'j%V @=FB,}M MqviFknu3]j ؀`!z󐿤5ܑKbM ?>d2?:$?^=̛q?1a:>KW?,ŋ$
>>+ƢL?->V@>^<JQ>??@ ??M/ >rWHV>Ń>du\>=p=>#_>$߸>]A>J;i>($%i>("??רls%?z5G`ҧx$13e:fݾB*KHв྆4  d.C.|an&6Ms۾<\q^Xȋ?ٱ:9˿Hؗ? s?y3Wfo$z?06{V?<~.fxF}7_@GB?⬧=[?X'd~/տ2 ҿ)~i:?&v9ֿ~.s?/pჺyjzΰmA?tǕ?O
rJ׿,,5dp\M?Br?M*},lԿ^Xɇ?O?oeɿ7cEYKL?      ?䒷?M-	~ۿ*ȿg=eпdtdDY{?	E#D?`,ǩ?.=?DM>z?dPO?1K"?dV(۷O}`sВ)zSԚEWi>?uzeNR_[>?zz荿-;EĮ?5/ư{?灰?O?ڵw?"?ALt3q?t&?[d?,?
n?v	?P>ݜ}ڏ>d,WW?ez?vwهW?Jff?BEyL?^T>dח5>bJ2PN/5(<o"N<$_Px1ٶg#`9:-$Gf{V1E$Л2)7iRяa"?ؔk0BfQ?LY?u8L?Mg?-vK?VxO?O)o(>Z2%MC?鎻[>2=>k7*>fn5?;i5?aeږ>#RI>oռ+>_<Z>F/>Ku݅>jEH>=]>n'Q>%H>7o G5?1E1?.v~ܸS쑔^"0XdHbv]Kb´yN1_"-;cae e?؃LECȿR!Dٕs-,?p	?pq.9C?i{?*'C?hp&?d)m#˿hw^l TNK;?mEU?Atջ]Էտa3??&1=ü'$?bC?GEpU`ʿI?S?gd͆رh Ohv?      ?r:9G?1տ?gWR6cQI¿Mh@?q07\ U?~<?Vl/O?=`z?&^h-Q?Ct?mUA^Xz4M>IXHXnˑMAc0[uܛ^b,?\-Bi?3F:&x?M?`s?e,?{[?Ժ$?D)Q? @59'?PjH?!m.?)xf?NM?6B?DFy?JiB?|J:]?z8?gE ?>^oy0U.ϥml0En%{bT0y~r<LG0,'"oT:_qk uF2@OR523h޷n	:Mz
G!qe?qSA?n#@??J?32?D2?/ ~\c>_('?hI>hYɂ>o3%>=6H5?OT?Lo|>/h9>:>z>%9ԑ>j>uPV>m	m>w.;>۴#]$>x8a>3?D~
D?T!([F[7C3WR
42N'׍B%-&
H1;{`eD@rK1k?9ϿP>Oy??	:m5dqհQt?Jf29?;;ӲPy?o-'K?qӿDaS?oZBA ^ }6HI?vO6⽿?!ݿ?,6z?U)^#
 e?Ѓo?<V?U{gMѿ_Z?4r?9	ujB?8+>s?      ?KR?hUcٿscĿɿ8R9?[B?seV?nFQL?IZԃ?9Q?·~?S;#(Rka_ܞ3	dxG*iL
H?S [錄ޑnB%?3ށ?"?)n-?ZBW?P?d1¶j?)%D (?Be'`?/-?aX	? Up?B4i?)m ?஢R?F`?TfcS? >K?a&}H?`v>?0mQqwNo=moמy6Բ@p'cIj&ϝ.~UȚ((Q7#@Oc>Kx^*'CD6!Q|$?CV`d6vɠ?H]?uϒ+L?^?;MfG>:lǿE?`0?	N;?s>=	[>ƃ
]>y)24>Z/?/4;#h(0?Ήh)>py><m4>Xu_>Gb>#+>Rٿ<>)>;'>#>1L.?X?J
HKdmȇ='? oUXQn\;	)mIH]ԷTUᴾUɮW{?RȿDcטK?4m?J?+xS@
&"{?M?]ٿBc?(^M
?A'{4!PUhɿӷ?}'?fY6Ȑ	s?H>s67Tҿqyeӛ-?SS??Èÿ=UL]+?l/&?e!LFɿcQ$ޯ?NM~?yD-6eANRQxp]?      ?X|?ǻ̿K(7z;a]?04B?#Q|?bOM	A?-[s?wJ? Xcn?
7GܝdzQV"w="nU!7TR4?`Ȇk`+fʴ_5y.o#_8[猬? 6tcEk?.oD?%?b?kŕ?LMM? y?$%C?M %?gk?Lб>	]P>f;k>?3G9?NXx>%^L;?~x>1?+"̘>;o<+@'7P@Z*Qu%V'Rh(W" ([mӫ#+͎Iz;N`Y^:Z')}9B]`C!im'? z?Ji<?¬3?k62?)Z@:g>p1?8P}>~GH?]#U;>4? >q`?>XV
?p?>;-ه>s.>A#>ն>Ȥ	J>{bsǘ<>6>":}>9o>e1?	?P3>+*)4@ÕX^8G+˴9Zb_TwԚ<*v6794庮0eFw1ϊg-K?ȿkQ??˴v?e?5Pb򧚛:'ƾ?#*W?7$Iӿxpÿo\ o?),s/2DȿW[f?mB.滿 1#ݿ/[d@?Ce=}?{xI9Կ T]?~q_?u;?l}$>п {?6X?s*lĿ_V^? = ?      ?ɪ?T߱g׿7rwi¿b+ٴ˿ٌdv?(Fpve?bцe
?u \?a?,C1[?K_y?L@E>h{z(KGԕqIGMd򜿅{bvMY
f5(?^ /11?Tr?1&?'F[~?
A?ј-_d??#Y$5?mvJY?PC445? J$&?G&?f7͑?rvN?"]c"vjL?VM?C/L?#?LB?갷r?iȣx7\V.`U9nsFDMJW44J9)<?OVB`L<U Na5YZ[r)fsx!ė<?Y^D1mv-<Z'h_9X?3sG
